SVM-light Version V6.02
2 # kernel type
3 # kernel parameter -d 
0.25 # kernel parameter -g 
1 # kernel parameter -s 
1 # kernel parameter -r 
empty# kernel parameter -u 
34 # highest feature index 
250 # number of training documents 
138 # number of support vectors plus 1 
0.77115201 # threshold b, each following line is a SV (starting with alpha*y)
-0.46400075428808523758661408464832 1:1 2:0 3:1 4:-0.18829 5:0.93035001 6:-0.36155999 7:-0.10868 8:-0.93597001 9:1 10:-0.04549 11:0.50874001 12:-0.67742997 13:0.34432 14:-0.69707 15:-0.51684999 16:-0.97514999 17:0.054990001 18:-0.62237 19:0.33109 20:-1 21:-0.13151 22:-0.45300001 23:-0.18055999 24:-0.35734001 25:-0.20332 26:-0.26569 27:-0.20468 28:-0.18401 29:-0.1904 30:-0.11593 31:-0.16626 32:-0.062880002 33:-0.13738 34:-0.02447 #
-0.28393242926251932578551873120887 1:1 2:0 3:1 4:-0.45161 5:1 6:1 7:0.71215999 8:-1 9:0 10:0 11:0 12:0 13:0 14:0 15:-1 16:0.14516 17:0.54093999 18:-0.3933 19:-1 20:-0.54466999 21:-0.69975001 22:1 23:0 24:0 25:1 26:0.90695 27:0.51612997 28:1 29:1 30:-0.20099001 31:0.25681999 32:1 33:-0.32381999 34:1 #
0.49134245763896072789478353115555 1:1 2:0 3:1 4:0.035289999 5:1 6:0.18280999 7:1 8:0.26967999 9:1 10:0.25068 11:1 12:0.28777999 13:1 14:0.38643 15:1 16:0.31674001 17:1 18:0.65701002 19:1 20:0.53846002 21:1 22:0.61267 23:1 24:0.59456998 25:0.89592999 26:0.68326002 27:0.89502001 28:0.71373999 29:0.85610998 30:0.67149001 31:0.74388999 32:0.85610998 33:0.71493 34:0.75836998 #
-0.21903684033261688890448226629815 1:-1 2:0 3:0 4:0 5:0 6:0 7:1 8:-1 9:0 10:0 11:-1 12:-1 13:0 14:0 15:0 16:0 17:1 18:1 19:-1 20:-1 21:0 22:0 23:0 24:0 25:1 26:1 27:1 28:1 29:0 30:0 31:1 32:1 33:0 34:0 #
-0.21448793218247705349988052603294 1:1 2:0 3:0.50932002 4:-0.93996 5:1 6:0.26708001 7:-0.0352 8:-1 9:1 10:-1 11:0.43685001 12:-1 13:0 14:0 15:-1 16:-0.34265 17:-0.37681001 18:0.036230002 19:1 20:-1 21:0 22:0 23:0 24:0 25:-0.16253 26:0.92236 27:0.39752001 28:0.26501 29:0 30:0 31:1 32:0.23187999 33:0 34:0 #
0.39835399156137046849934790770931 1:1 2:0 3:0.94489998 4:-0.49311 5:1 6:-0.03692 7:0.98898 8:-0.87052 9:0.90082997 10:0.66942 11:1 12:-0.10104 13:1 14:-0.12493 15:1 16:-0.15017 17:1 18:-0.17681 19:1 20:-0.20491 21:1 22:-0.23452 23:1 24:-0.26571 25:1 26:-0.29852 27:1 28:-0.33304 29:1 30:-0.36930999 31:1 32:-0.40740001 33:1 34:-0.44738999 #
0.57294804034096225020533665883704 1:1 2:0 3:0.97588003 4:-0.10602 5:0.94600999 6:-0.208 7:0.92806 8:-0.28349999 9:0.85996002 10:-0.27342001 11:0.79765999 12:-0.47929001 13:0.78224999 14:-0.50764 15:0.74628001 16:-0.61435997 17:0.57945001 18:-0.68085998 19:0.37852001 20:-0.73641002 21:0.36324 22:-0.76561999 23:0.31898001 24:-0.79753 25:0.22792 26:-0.81634003 27:0.13659 28:-0.8251 29:0.04606 30:-0.82394999 31:-0.042619999 32:-0.81318003 33:-0.13832 34:-0.80975002 #
0.57294804034096225020533665883704 1:1 2:0 3:0.33333001 4:-0.25 5:0.44444001 6:0.22222 7:0.38889 8:0.16666999 9:0.41666999 10:0.13889 11:0.5 12:-0.11111 13:0.54911 14:-0.084430002 15:0.58332998 16:0.33333001 17:0.55555999 18:0.02778 19:0.25 20:-0.19444001 21:0.47222 22:-0.05556 23:0.52778 24:-0.02778 25:0.38889 26:0.083329998 27:0.41543001 28:-0.14256001 29:0.19444001 30:-0.13889 31:0.36923999 32:-0.14809 33:0.083329998 34:-0.5 #
0.34887879135249366679971672056126 1:1 2:0 3:0.47938001 4:-0.12371 5:0.42783999 6:-0.12371 7:0.70103002 8:-0.39175001 9:0.73196 10:0.072159998 11:0.26289001 12:-0.21649 13:0.49485001 14:0.15978999 15:0.45361 16:-0.11856 17:0.42267999 18:0.061859999 19:0.5 20:-0.27320001 21:0.54639 22:0.18557 23:0.42267999 24:0.08247 25:0.70618999 26:0.19588 27:0.53395998 28:-0.12447 29:0.15464 30:-0.26289001 31:0.47422999 32:0.041239999 33:0.45361 34:-0.51546001 #
0.18358625138873965743080418633326 1:1 2:0 3:0.91767001 4:0.18198 5:0.86089998 6:0.35543001 7:0.72873002 8:0.45747 9:0.60425001 10:0.69865 11:0.50375998 12:0.74922001 13:0.361 14:0.81795001 15:0.15663999 16:0.83557999 17:0.0039599999 18:0.85210001 19:-0.1639 20:0.77853 21:-0.35995999 22:0.76192999 23:-0.43087 24:0.65385002 25:-0.53140002 26:0.53886002 27:-0.60328001 28:0.40972 29:-0.64511001 30:0.27338001 31:-0.65710002 32:0.13666999 33:-0.64055997 34:0.053939998 #
-0.57294804034096225020533665883704 1:1 2:0 3:0.62744999 4:-0.078429997 5:0.72548997 6:0 7:0.60784 8:-0.078429997 9:0.62744999 10:-0.11765 11:0.68627 12:-0.11765 13:0.66667002 14:-0.13725001 15:0.64705998 16:-0.09804 17:0.54901999 18:-0.11765 19:0.54901999 20:-0.21569 21:0.58824003 22:-0.19608 23:0.66667002 24:-0.23529001 25:0.45098001 26:-0.25490001 27:0.52408999 28:-0.24668001 29:0.56862998 30:-0.31373 31:0.43136999 32:-0.21569 33:0.47059 34:-0.27451 #
0.57294804034096225020533665883704 1:1 2:0 3:0.31033999 4:-0.10345 5:0.24138001 6:-0.10345 7:0.2069 8:-0.068970002 9:0.074050002 10:-0.054310001 11:0.036490001 12:-0.03689 13:0.017069999 14:-0.02383 15:0.0074100001 16:-0.01482 17:0.00281 18:-0.0089299995 19:0.00078 20:-0.0052299998 21:-2.9999999e-05 22:-0.0029899999 23:-0.00028000001 24:-0.00166 25:-0.00031 26:-0.00089999998 27:-0.00025000001 28:-0.00047999999 29:-0.00018 30:-0.00023999999 31:-0.00012 32:-0.00012 33:-7.9999998e-05 34:-5.9999998e-05 #
-0.57294804034096225020533665883704 1:1 2:0 3:1 4:-0.055289999 5:1 6:-1 7:0.5 8:-0.11111 9:0.36111 10:-0.22222 11:1 12:-0.25712001 13:0.16666999 14:-0.11111 15:1 16:-0.3466 17:1 18:-0.38852999 19:1 20:-0.42862001 21:0 22:-0.25 23:1 24:-0.50332999 25:1 26:-0.27778 27:1 28:-0.57091999 29:1 30:-0.27778 31:1 32:-0.63156003 33:1 34:-0.65934998 #
-0.57294804034096225020533665883704 1:1 2:0 3:0.84783 4:0.10598 5:1 6:0.39129999 7:1 8:-1 9:0.66938001 10:0.084239997 11:1 12:0.27037999 13:1 14:0.60597998 15:1 16:0.35506999 17:1 18:0.02672 19:0.58424002 20:-0.43024999 21:1 22:0.63496 23:0.89130002 24:0.26585001 25:0.91033 26:-0.33333001 27:1 28:0.15942 29:0.37681001 30:-0.019470001 31:1 32:0.22464 33:1 34:0.37408999 #
0.57294804034096225020533665883704 1:1 2:0 3:0.29073 4:0.10025 5:0.23308 6:0.17293 7:0.037590001 8:0.34336001 9:0.1203 10:0.26315999 11:0.062660001 12:0.21303 13:-0.047249999 14:0.12767 15:-0.063330002 16:0.079070002 17:-0.063280001 18:0.040970001 19:-0.054310001 20:0.01408 21:-0.04166 22:-0.0027999999 23:-0.028759999 24:-0.01176 25:-0.017550001 26:-0.01505 27:-0.0088600004 28:-0.01475 29:-0.0027999999 30:-0.0125 31:0.00095999998 32:-0.0094799995 33:0.0029 34:-0.0064699999 #
0.57294804034096225020533665883704 1:1 2:0 3:0.25 4:0.16666999 5:0.46667001 6:0.26666999 7:0.19035999 8:0.23965999 9:0.077660002 10:0.19938999 11:0.0107 12:0.14922 13:-0.023669999 14:0.10188 15:-0.036850002 16:0.063170001 17:-0.037659999 18:0.03458 19:-0.032299999 20:0.01532 21:-0.024739999 22:0.0035699999 23:-0.01726 24:-0.0027300001 25:-0.01097 26:-0.0053900001 27:-0.0062099998 28:-0.0058599999 29:-0.00294 30:-0.0052 31:-0.00089000002 32:-0.0040799999 33:0.00025000001 34:-0.00291 #
-0.57294804034096225020533665883704 1:1 2:0 3:1 4:0.57819998 5:1 6:-1 7:1 8:-1 9:1 10:-1 11:1 12:-1 13:1 14:-1 15:1 16:-1 17:1 18:-1 19:1 20:-1 21:1 22:-0.62796003 23:1 24:-1 25:1 26:-1 27:1 28:-1 29:1 30:-1 31:1 32:-1 33:1 34:-1 #
-0.57294804034096225020533665883704 1:1 2:0 3:1 4:0.02461 5:0.99672002 6:0.048610002 7:0.97544998 8:0.071429998 9:0.61745 10:-1 11:0.91035998 12:0.11147 13:0.88462001 14:0.53640002 15:0.82077003 16:0.14137 17:0.76928997 18:0.15188999 19:1 20:0.41003001 21:0.65850002 22:0.16371 23:0.60137999 24:0.16516 25:0.54446 26:0.1639 27:0.48866999 28:0.16019 29:0.43481001 30:0.15436 31:0.38352001 32:0.14677 33:1 34:1 #
-0.57294804034096225020533665883704 1:1 2:0 3:0.71253002 4:-0.02595 5:0.41286999 6:-0.23067001 7:0.98018998 8:-0.094729997 9:0.99708998 10:-0.10236 11:1 12:-0.10951 13:0.58964998 14:1 15:0.83726001 16:-1 17:0.82270002 18:-0.17862999 19:0.80760002 20:-0.28257 21:-0.25914001 22:0.92729998 23:0.51933002 24:0.054559998 25:0.65493 26:-0.20392001 27:0.93124002 28:-0.41306999 29:0.63810998 30:-0.21901 31:0.86136001 32:-0.87353998 33:-0.23186 34:-1 #
0.57294804034096225020533665883704 1:1 2:0 3:0.19465999 4:0.057250001 5:0.041979998 6:0.25191 7:-0.10557 8:0.48866001 9:-0.18321 10:-0.18321 11:-0.41984999 12:0.061069999 13:-0.4542 14:0.091600001 15:-0.16412 16:-0.30533999 17:-0.10305 18:-0.39695001 19:0.18702 20:-0.17557 21:0.34011999 22:-0.11953 23:0.28626001 24:-0.16031 25:0.21645001 26:0.24692 27:0.039129999 28:0.31092 29:-0.038169999 30:0.26335999 31:-0.16794001 32:0.16794001 33:-0.30153 34:-0.33588001 #
0.57294804034096225020533665883704 1:1 2:0 3:0.32789001 4:0.11042 5:0.15970001 6:0.29308 7:0.1402 8:0.74484998 9:-0.25130999 10:0.91992998 11:-0.16503 12:0.26664001 13:-0.63713998 14:0.24865 15:-0.97649997 16:-0.00337 17:-0.23227 18:-0.19909 19:-0.30522001 20:-0.48886001 21:-0.14426 22:-0.89990997 23:0.093450002 24:-0.28916001 25:0.28307 26:-0.1856 27:0.39599001 28:-0.11498 29:0.31005001 30:0.056139998 31:0.21443 32:0.2054 33:0.13376001 34:0.26422 #
0.30496156248156502943658097137813 1:1 2:0 3:0.65845001 4:0.43617001 5:0.44681001 6:0.74804002 7:0.05319 8:0.85105997 9:-0.32027 10:0.82138997 11:-0.68252999 12:0.52407998 13:-0.84210998 14:0.071110003 15:-0.82810998 16:-0.28723001 17:-0.47031999 18:-0.71724999 19:-0.047589999 20:-0.86001998 21:0.23292001 22:-0.76315999 23:0.56663001 24:-0.52127999 25:0.74299997 26:-0.18645 27:0.74757999 28:0.23713 29:0.45185 30:0.59070998 31:0.20548999 32:0.76763999 33:-0.18533 34:0.74356002 #
-0.013745505978932988366825185266862 1:1 2:0 3:0.39286 4:0.52381003 5:-0.78824002 6:0.11342 7:-0.16628 8:-0.76378 9:0.66667002 10:0.0119 11:0.82143003 12:0.40476 13:-0.67229998 14:0.30728999 15:-0.34797001 16:-0.63668001 17:0.46428999 18:0.15476 19:0.54762 20:0.059519999 21:-0.5183 22:0.44960999 23:-0.47650999 24:-0.47593999 25:0.32143 26:0.70238 27:0.51971 28:0.38848001 29:0.57143003 30:0.39286 31:-0.54891002 32:-0.29914999 33:0.25441 34:-0.55836999 #
0.57294804034096225020533665883704 1:1 2:0 3:0.84134001 4:-0.18362001 5:0.43643999 6:0.02919 7:0.93421 8:-0.0026700001 9:0.87946999 10:0.13795 11:0.81120998 12:-0.017890001 13:0.88559002 14:0.54991001 15:0.91714001 16:-0.57485998 17:0.75 18:-0.29519999 19:0.86676002 20:-0.20104 21:1 22:1 23:0.46610001 24:-0.1629 25:0.90065998 26:-0.02778 27:0.93357998 28:-0.01158 29:0.61581999 30:-0.32297999 31:0.84463 32:-0.25705999 33:0.93322998 34:-0.01425 #
-0.57294804034096225020533665883704 1:1 2:0 3:0.019750001 4:0.0070500001 5:0.040899999 6:-0.0084600002 7:0.021159999 8:0.01128 9:0.01128 10:0.043719999 11:0.0028200001 12:0.00141 13:0.019750001 14:-0.031029999 15:-0.019750001 16:0.060649998 17:-0.040899999 18:0.026799999 19:-0.023979999 20:-0.0042300001 21:0.043719999 22:-0.025389999 23:0.018340001 24:0 25:0 26:-0.01269 27:0.018340001 28:-0.01128 29:0.0056400001 30:-0.01551 31:-0.016930001 32:-0.023979999 33:0.0070500001 34:0 #
0.57294804034096225020533665883704 1:1 2:0 3:0.5 4:0 5:0.38696 6:0.10435 7:0.49129999 8:0.065219998 9:0.46957001 10:-0.039129999 11:0.35652 12:-0.12609001 13:0.45651999 14:0.047830001 15:0.50435001 16:0.02609 17:0.35652 18:0.19565 19:0.42174 20:0.14782999 21:0.42174 22:-0.02609 23:0.32174 24:-0.11304 25:0.47391 26:-0.0087000001 27:0.41789001 28:0.069080003 29:0.38696 30:0.039129999 31:0.35216999 32:0.14782999 33:0.44782999 34:0.17391001 #
0.22843320719942686314318791573896 1:1 2:0 3:1 4:-0.02259 5:1 6:-0.044939999 7:1 8:-0.066820003 9:1 10:-0.087990001 11:1 12:0.56173003 13:1 14:-0.12738 15:1 16:-0.14522 17:1 18:0.32407001 19:1 20:-0.17639001 21:0.99484003 22:-0.18949001 23:0.95600998 24:-0.20081 25:1 26:-0.92284 27:0.87279999 28:-0.21793 29:0.82920003 30:-0.2237 31:0.78478998 32:-0.22765 33:0.73992002 34:-0.22981 #
0.49481836992973188271704998442146 1:1 2:0 3:0.76296002 4:-0.077780001 5:1 6:-0.29629999 7:1 8:-0.85741001 9:0.80000001 10:0.061110001 11:0.45556 12:-0.42778 13:1 14:-0.12581 15:1 16:-0.83519 17:0.49259001 18:0.018519999 19:0.82222003 20:-0.05926 21:0.98215002 22:-0.19938 23:1 24:0.22036999 25:0.69630003 26:-0.26481 27:0.92148 28:-0.24549 29:0.78889 30:0.020369999 31:0.87492001 32:-0.27105001 33:1 34:-0.57037002 #
-0.52068864792811109243331202378613 1:1 2:0 3:0.064039998 4:-0.15271001 5:-0.044330001 6:0.059110001 7:0.083740003 8:-0.024630001 9:-0.01478 10:0.18719 11:0.064039998 12:0 13:0.12315 14:-0.098520003 15:0.059110001 16:0 17:0.0197 18:-0.02956 19:-0.12808 20:-0.2069 21:0.068970002 22:0.01478 23:0.068970002 24:0.02956 25:0.078819998 26:0.16256 27:0.28079 28:-0.049260002 29:-0.059110001 30:-0.093599997 31:0.044330001 32:0.054189999 33:0.073890001 34:-0.10837 #
-0.57294804034096225020533665883704 1:1 2:0 3:0.1859 4:-0.16666999 5:0 6:0 7:0 8:0 9:0 10:0 11:0 12:0 13:0.11538 14:-0.19070999 15:0 16:0 17:0 18:0 19:0 20:0 21:0 22:0 23:-0.051279999 24:-0.065710001 25:0.078529999 26:0.089740001 27:0.17308 28:-0.10897 29:0.125 30:0.096150003 31:0.02564 32:-0.048080001 33:0.16827001 34:0.19551 #
-0.57294804034096225020533665883704 1:1 2:0 3:0.38521001 4:0.15564001 5:0.41244999 6:0.073930003 7:0.26459 8:0.24124999 9:0.23345999 10:0.1323 11:0.19454999 12:0.25292 13:0.24514 14:0.36965001 15:0.089489996 16:0.22957 17:-0.038910002 18:0.36965001 19:0.050579999 20:0.24902999 21:0.24902999 22:0.097280003 23:0.077820003 24:0.29960999 25:-0.024940001 26:0.28481999 27:-0.06024 28:0.26256001 29:-0.14786001 30:0.14786001 31:-0.093390003 32:0.31128001 33:-0.19066 34:0.28794 #
0.57294804034096225020533665883704 1:1 2:0 3:1 4:0.24168 5:1 6:0.48590001 7:1 8:0.72973001 9:1 10:1 11:1 12:1 13:1 14:1 15:1 16:0.77127999 17:1 18:1 19:1 20:1 21:0.74467999 22:1 23:0.89647001 24:1 25:0.64627999 26:1 27:0.38255 28:1 29:0.10819 30:1 31:-0.1737 32:1 33:-0.81383002 34:1 #
0.013267124188842493656692589354407 1:1 2:0 3:0.90547001 4:0.41113001 5:0.65354002 6:0.74760997 7:0.29921001 8:0.95905 9:-0.13342001 10:0.97820002 11:-0.52236003 12:0.83262998 13:-0.79657 14:0.55085999 15:-0.96631002 16:0.15192001 17:-0.93001002 18:-0.25554001 19:-0.71863002 20:-0.59378999 21:-0.41545999 22:-0.85205001 23:-0.022500001 24:-0.93787998 25:0.36318001 26:-0.85368001 27:0.67537999 28:-0.61958998 29:0.85977 30:-0.28123 31:0.88654 32:0.097999997 33:0.75494999 34:0.46301001 #
-0.090291658320175341434499216575205 1:1 2:0 3:0.01667 4:-0.35624999 5:0 6:0 7:0 8:0 9:0 10:0 11:0 12:0 13:0 14:0 15:0.12292 16:-0.55000001 17:0.22813 18:0.82813001 19:1 20:-0.42291999 21:0 22:0 23:0.083329998 24:-1 25:-0.10625 26:-0.16666999 27:1 28:-0.76666999 29:-1 30:0.18854 31:0 32:0 33:1 34:-0.27292001 #
-0.57294804034096225020533665883704 1:1 2:0 3:0.39179 4:-0.063429996 5:0.97464001 6:0.043280002 7:1 8:1 9:0.35821 10:0.15299 11:0.54478002 12:0.13060001 13:0.61567003 14:-0.82090002 15:0.57836002 16:0.67909998 17:0.66790998 18:-0.10448 19:0.46641999 20:-0.11567 21:0.65574002 22:0.14792 23:0.83209002 24:0.45522001 25:0.47014999 26:0.16418 27:0.49309 28:0.1463 29:0.32462999 30:-0.02612 31:0.39118001 32:0.13521001 33:0.34411001 34:0.12755001 #
-0.57294804034096225020533665883704 1:1 2:0 3:0.85271001 4:0.054260001 5:1 6:0.080689996 7:1 8:1 9:0.91473001 10:-0.0077499999 11:0.83721 12:0.038759999 13:1 14:0.27153 15:1 16:1 17:0.81395 18:0.04651 19:0.90697998 20:0.11628 21:1 22:0.50669998 23:1 24:-1 25:0.80620003 26:0.038759999 27:1 28:0.71613002 29:0.84495997 30:0.069770001 31:1 32:0.87317002 33:1 34:1 #
0.57294804034096225020533665883704 1:1 2:0 3:0.21428999 4:-0.095239997 5:0.33333001 6:0.071429998 7:0.19047999 8:0.19047999 9:0.23810001 10:0.095239997 11:0.40476 12:0.023809999 13:0.30952001 14:-0.047619998 15:0.30952001 16:-0.047619998 17:0.28571001 18:-0.11905 19:0.33333001 20:0.047619998 21:0.30952001 22:0 23:0.21428999 24:-0.11905 25:0.35714 26:-0.047619998 27:0.22109 28:-0.0229 29:0.19047999 30:0 31:0.16997001 32:-0.020339999 33:0.14693999 34:-0.01877 #
0.57294804034096225020533665883704 1:1 2:0 3:0.80627 4:0.13068999 5:0.73061001 6:0.24323 7:0.64614999 8:0.19038001 9:0.36923 10:0.45576999 11:0.44793001 12:0.46439001 13:0.25 14:0.57308 15:0.25192001 16:0.37114999 17:0.15215001 18:0.51876998 19:-0.098080002 20:0.57499999 21:-0.034619998 22:0.42885 23:-0.08856 24:0.44424 25:-0.14943001 26:0.40006 27:-0.19939999 28:0.34976 29:-0.23831999 30:0.29541001 31:-0.26633999 32:0.23896 33:-0.23846 34:0.31154001 #
-0.57294804034096225020533665883704 1:1 2:0 3:0.72727001 4:-0.050000001 5:0.89240998 6:0.034619998 7:1 8:0.72727001 9:0.66364002 10:-0.05909 11:0.48181999 12:-0.16818 13:0.81809002 14:0.095590003 15:0.56818002 16:1 17:0.50454998 18:0.21818 19:0.66817999 20:0.1 21:1 22:-0.30000001 23:0.98636001 24:-1 25:0.57273 26:0.32727 27:0.56981999 28:0.14673001 29:0.42273 30:0.081820004 31:0.48927 32:0.14643 33:1 34:1 #
-0.57294804034096225020533665883704 1:1 2:0 3:0.5984 4:0.40332001 5:0.82809001 6:0.80520999 7:0.76001 8:0.70709002 9:0.84009999 10:-0.10984 11:0.97311002 12:0.079810001 13:0.95823997 14:-0.85727 15:0.91961998 16:0.88444 17:0.95451999 18:-0.052060001 19:0.88673002 20:0.18134999 21:0.98483998 22:-0.69594002 23:0.86669999 24:-0.85755002 25:0.28604001 26:-0.30063 27:1 28:0.17076001 29:0.62958002 30:0.42677 31:0.87756997 32:0.81006998 33:0.81979001 34:0.68822002 #
0.57294804034096225020533665883704 1:1 2:0 3:0.49515 4:0.097089998 5:0.29611999 6:0.058249999 7:0.34951001 8:0 9:0.57282001 10:-0.02427 11:0.58252001 12:0.02427 13:0.33495 14:0.04854 15:0.52427 16:0.0048500001 17:0.47086999 18:-0.1068 19:0.43204001 20:0.0048500001 21:0.34951001 22:0.058249999 23:0.18932 24:0.25727999 25:0.31068 26:-0.15049 27:0.36546999 28:0.038150001 29:0.39320001 30:0.17476 31:0.26214001 32:0 33:0.37379 34:-0.01942 #
0.53165850924881252748122051343671 1:1 2:0 3:0.94331002 4:0.19959 5:0.96131998 6:0.40803 7:0.80514002 8:0.56568998 9:0.56686997 10:0.70829999 11:0.41835999 12:0.83230001 13:0.14939 14:0.89489001 15:0.05167 16:0.93681997 17:-0.24742 18:0.83938998 19:-0.42811 20:0.75554001 21:-0.50251001 22:0.62563002 23:-0.65515 24:0.50427997 25:-0.68851 26:0.30912 27:-0.77096999 28:0.15618999 29:-0.75405997 30:-0.043990001 31:-0.75199002 32:-0.17921001 33:-0.66931999 34:-0.34367001 #
-0.02266100532062059400018050325798 1:1 2:0 3:0 4:0 5:0 6:0 7:0 8:0 9:0 10:0 11:1 12:-0.33333001 13:0.16666999 14:0.26041999 15:0 16:0 17:0 18:0 19:0 20:0 21:-0.19791999 22:-0.21875 23:-0.16666999 24:0.90625 25:-1 26:0.5 27:0.041669998 28:0.75 29:-0.22916999 30:-1 31:-0.125 32:-0.27083001 33:-0.19791999 34:-0.9375 #
-0.57294804034096225020533665883704 1:1 2:0 3:0.68198001 4:-0.17314 5:0.82331997 6:0.21908 7:0.46643001 8:0.32861999 9:0.25795001 10:0.58304 11:1 12:-0.15194 13:0.0106 14:0.44523001 15:0.0106 16:0.38868999 17:0.18681 18:0.41168001 19:0.10567 20:0.36353001 21:0.043249998 22:0.30745 23:-0.00082999998 24:0.24936 25:-0.028620001 26:0.19405 27:-0.043140002 28:0.14481001 29:-0.047789998 30:0.10349 31:-0.045850001 32:0.070639998 33:-0.040130001 34:0.04586 #
-0.57294804034096225020533665883704 1:1 2:0 3:0.79157001 4:0.16851 5:0 6:0 7:0.56541002 8:0.068740003 9:0.39467999 10:1 11:0.38359001 12:0.99557 13:-0.024390001 14:0.53214997 15:0.23725 16:0.1286 17:-0.02661 18:0.95121998 19:-0.50998002 20:0.84921998 21:-0.102 22:0.38802999 23:-0.42572001 24:0.23725 25:-0.91574001 26:0.8071 27:-0.34145999 28:0.88248003 29:-1 30:0.69401002 31:-1 32:0.1286 33:0 34:0 #
-0.57294804034096225020533665883704 1:1 2:0 3:0.69444001 4:0.38889 5:0 6:0 7:-0.32936999 8:0.69840997 9:0 10:0 11:0 12:0 13:0 14:0 15:0.20635 16:-0.24206001 17:0.21032 18:0.19444001 19:0.46428999 20:0.78175002 21:0 22:0 23:0 24:0 25:0.73413002 26:0.27381 27:0.76190001 28:0.63492 29:0 30:0 31:0 32:0 33:0 34:0 #
0.57294804034096225020533665883704 1:1 2:0 3:0.66667002 4:-0.01366 5:0.97403997 6:0.06831 7:0.49590001 8:0.50137001 9:0.75682998 10:-0.0027300001 11:0.65164 12:-0.14071 13:0.40164 14:-0.48907 15:0.39208001 16:0.58743 17:0.76775998 18:0.31830999 19:0.78552002 20:0.11339 21:0.47541001 22:-0.44944999 23:1 24:0.0068299999 25:0.60655999 26:0.069669999 27:0.68655998 28:0.17088 29:0.87568003 30:0.077869996 31:0.55328 32:0.24590001 33:0.13934 34:0.48087001 #
0.57294804034096225020533665883704 1:1 2:0 3:1 4:1 5:1 6:1 7:0.91009998 8:1 9:-0.26969999 10:1 11:-0.83152002 12:1 13:-1 14:1 15:-1 16:0.72526002 17:-1 18:-0.57779002 19:-1 20:-0.42052001 21:-1 22:-1 23:-0.52837998 24:-1 25:0.90013999 26:-1 27:1 28:-1 29:1 30:-1 31:1 32:-0.34685999 33:1 34:0.34845001 #
0.57294804034096225020533665883704 1:1 2:0 3:1 4:0.14286 5:1 6:0.71429002 7:1 8:0.71429002 9:1 10:-0.14286 11:0.85714 12:-0.14286 13:1 14:0.02534 15:1 16:0 17:0.42857 18:-0.14286 19:1 20:0.036169998 21:1 22:-0.28571001 23:1 24:0 25:0.28571001 26:-0.28571001 27:1 28:0.048909999 29:1 30:0.051819999 31:1 32:0.57143003 33:1 34:0 #
-0.39975349589251452098181971450686 1:1 2:0 3:0.65908998 4:-0.62879002 5:0 6:0 7:0 8:0 9:0.77272999 10:1 11:1 12:-0.28029999 13:0 14:0 15:0 16:0 17:0.62120998 18:-0.22727001 19:0.84091002 20:-1 21:1 22:-1 23:0 24:0 25:0 26:0 27:1 28:-0.93939 29:-0.12879001 30:-0.93181998 31:0 32:0 33:0 34:0 #
-0.27881989884288832515224498820317 1:1 2:0 3:0.10135 4:0.10811 5:0 6:0 7:0 8:0 9:0.54729998 10:0.82432002 11:0.31081 12:1 13:0 14:0 15:0 16:0 17:0.37162 18:-1 19:0.33107999 20:-1 21:0 22:0 23:0 24:0 25:-0.42568001 26:-1 27:1 28:-1 29:0.55405003 30:-0.23649 31:0 32:0 33:0 34:0 #
-0.29331978334654801310321659002511 1:1 2:0 3:0.41999999 4:-0.61000001 5:0 6:0 7:1 8:-1 9:0.89999998 10:1 11:0.43000001 12:0.63999999 13:0 14:0 15:0 16:0 17:0.67000002 18:-0.28999999 19:0.83999997 20:-1 21:0 22:0 23:0 24:0 25:0.20999999 26:0.68000001 27:1 28:0.22 29:0 30:0 31:0 32:0 33:0 34:0 #
0.57294804034096225020533665883704 1:1 2:0 3:0.88240999 4:0.30634001 5:0.73232001 6:0.57815999 7:0.34108999 8:0.58526999 9:0.05717 10:1 11:-0.092380002 12:0.92118001 13:-0.62402999 14:0.71995997 15:-0.69766998 16:0.32558 17:-0.81422001 18:0.41194999 19:-1 20:-0.0077499999 21:-0.78973001 22:-0.41084999 23:-0.76901001 24:-0.45478001 25:-0.57242 26:-0.67605001 27:-0.3161 28:-0.81875998 29:-0.029789999 30:-0.86840999 31:0.25391999 32:-0.82126999 33:0.00194 34:-0.81686002 #
0.38190760823173541815833686996484 1:1 2:0 3:0.93658 4:0.35106999 5:0.75253999 6:0.65640002 7:0.45570999 8:0.88576001 9:0.15323 10:0.95775998 11:-0.21775 12:0.96301001 13:-0.56535 14:0.83397001 15:-0.78750998 16:0.58045 17:-0.93103999 18:0.26019999 19:-0.93641001 20:-0.064180002 21:-0.87028003 22:-0.40948999 23:-0.65078998 24:-0.67464 25:-0.36798999 26:-0.84951001 27:-0.045779999 28:-0.91220999 29:0.27329999 30:-0.85762 31:0.54826999 32:-0.69612998 33:0.74827999 34:-0.44172999 #
0.57294804034096225020533665883704 1:1 2:0 3:0.93146998 4:0.29282001 5:0.79917002 6:0.55756003 7:0.59952003 8:0.71596003 9:0.26203001 10:0.92650998 11:0.046360001 12:0.96748 13:-0.23237 14:0.95130002 15:-0.55926001 16:0.81018001 17:-0.73329002 18:0.62384999 19:-0.90995002 20:0.36199999 21:-0.92254001 22:0.060400002 23:-0.93618 24:-0.19837999 25:-0.83192003 26:-0.46906 27:-0.65165001 28:-0.69555998 29:-0.41223001 30:-0.85724998 31:-0.13590001 32:-0.93953001 33:0.10007 34:-0.94823003 #
-0.4071299871033106643203325347713 1:1 2:0 3:0.66161001 4:-1 5:1 6:1 7:1 8:-0.67321002 9:0.80892998 10:-0.40446001 11:1 12:-1 13:1 14:-0.89375001 15:1 16:0.73392999 17:0.17589 18:0.70981997 19:1 20:0.78035998 21:1 22:0.85268003 23:1 24:-1 25:1 26:0.85356998 27:1 28:-0.085709997 29:0.95981997 30:-0.36250001 31:1 32:0.65267998 33:1 34:0.34731999 #
-0.27481863175877180305306524132902 1:1 2:0 3:1 4:-1 5:1 6:1 7:1 8:-1 9:1 10:-1 11:1 12:-1 13:1 14:-0.0184 15:1 16:-1 17:1 18:1 19:1 20:-0.85583001 21:1 22:1 23:1 24:-1 25:0 26:0 27:1 28:1 29:1 30:-0.79141003 31:1 32:1 33:1 34:1 #
-0.25966954885760668014782481805014 1:1 2:0 3:-1 4:0.28105 5:0.22222 6:0.15033001 7:-0.75692999 8:-0.70984 9:-0.30719 10:0.71241999 11:-1 12:1 13:-0.81699002 14:0.33987001 15:-0.79084998 16:-0.026140001 17:-0.98039001 18:-0.83007002 19:-0.60131001 20:-0.54247999 21:-0.04575 22:-0.83007002 23:0.94117999 24:-0.94117999 25:-1 26:-0.43136999 27:0.74384999 28:0.091760002 29:-1 30:0.05229 31:0.18301 32:0.026140001 33:-0.40200999 34:-0.48241001 #
0.57294804034096225020533665883704 1:1 2:0 3:1 4:0.068429999 5:1 6:0.14211001 7:1 8:0.22108001 9:1 10:-0.125 11:1 12:0.39495 13:1 14:0.48980999 15:1 16:0.58986002 17:-0.375 18:1 19:1 20:0 21:1 22:0.92000997 23:1 24:1 25:1 26:1 27:1 28:1 29:1 30:0.25 31:1 32:1 33:1 34:1 #
-0.57294804034096225020533665883704 1:1 2:0 3:0.086960003 4:0.0068600001 5:0.13959 6:-0.041189998 7:0.10526 8:-0.082379997 9:0.12586001 10:-0.061779998 11:0.23341 12:-0.01144 13:0.12357 14:0.077799998 15:0.14645 16:-0.13501 17:0.29062 18:-0.048050001 19:0.18993001 20:0.073229998 21:0.1167 22:0 23:0.11213 24:-0.00229 25:0.15103 26:-0.10297 27:0.08467 28:0.01373 29:0.11213 30:-0.066359997 31:0.096110001 32:-0.073229998 33:0.1167 34:-0.06865 #
-0.57294804034096225020533665883704 1:1 2:0 3:0.41931999 4:0.12482 5:0.34999999 6:0.125 7:0.23182 8:0.27954999 9:-0.036359999 10:0.44317999 11:0.045170002 12:0.36194 13:-0.19091 14:0.33636001 15:-0.13349999 16:0.27322 17:0.02727 18:0.40454999 19:-0.34773001 20:0.12727 21:-0.20028 22:0.050779998 23:-0.18636 24:0.36364001 25:-0.14003 26:-0.048020002 27:-0.099710003 28:-0.071139999 29:-1 30:-1 31:-0.02916 32:-0.074639998 33:-0.00526 34:-0.063139997 #
-0.57294804034096225020533665883704 1:1 2:0 3:0.62120998 4:-0.63635999 5:0 6:0 7:0 8:0 9:0.34470001 10:0.28788 11:0.42803001 12:0.39394 13:-0.075759999 14:0.51893997 15:0.36364001 16:0.31439 17:-0.53788 18:0.32955 19:0.12121 20:-0.14772999 21:0.01894 22:-0.53408998 23:-0.57576001 24:0.17803 25:0.29166999 26:-0.27272999 27:0.25758001 28:-0.57576001 29:0.43182001 30:0.24242 31:0.18182001 32:-0.02273 33:0.17045 34:-0.41666999 #
0.57294804034096225020533665883704 1:1 2:0 3:1 4:-0.57224 5:0.99150002 6:-0.73370999 7:0.89517999 8:-0.9745 9:1 10:-0.35817999 11:1 12:-0.23229 13:0.62889999 14:-0.86401999 15:1 16:-0.57534999 17:1 18:-0.79602998 19:0.76770997 20:-0.88951999 21:0.96600997 22:-1 23:0.70120001 24:-0.74896002 25:0.61945999 26:-0.76903999 27:0.53776997 28:-0.77986002 29:0.81019998 30:-1 31:1 32:-1 33:0.30445001 34:-0.76112002 #
0.57294804034096225020533665883704 1:1 2:0 3:0.94630998 4:0.17498 5:0.90946001 6:0.33142999 7:0.85096002 8:0.49959999 9:0.73677999 10:0.63841999 11:0.59214997 12:0.73838001 13:0.48697999 14:0.83613998 15:0.30458999 16:0.90665001 17:0.17959 18:0.93428999 19:-0.0070099998 20:0.93109 21:-0.18880001 22:0.89383 23:-0.33023 24:0.82492 25:-0.46533999 26:0.76481998 27:-0.58563 28:0.66334999 29:-0.67929 30:0.52564001 31:-0.75321001 32:0.42488 33:-0.81209999 34:0.26091999 #
0.57294804034096225020533665883704 1:1 2:0 3:1 4:-0.066040002 5:1 6:0.62936997 7:1 8:0.095569998 9:1 10:0.20280001 11:1 12:-1 13:1 14:-0.40559 15:1 16:-0.15851 17:1 18:0.048950002 19:1 20:-0.61537999 21:1 22:-0.26572999 23:1 24:-1 25:1 26:-0.58042002 27:1 28:-0.81371999 29:1 30:-1 31:1 32:-0.78555 33:1 34:-0.48252001 #
-0.3343002217546951482241013309249 1:1 2:0 3:0 4:0 5:1 6:-1 7:0 8:0 9:0 10:0 11:1 12:1 13:1 14:-0.25342 15:1 16:0.23288 17:1 18:-1 19:0 20:0 21:0 22:0 23:1 24:1 25:0 26:0 27:1 28:-1 29:0 30:0 31:1 32:-1 33:0 34:0 #
-0.25845078014305639113601387180097 1:1 2:0 3:1 4:1 5:1 6:-1 7:0 8:0 9:0 10:0 11:1 12:1 13:1 14:-1 15:1 16:1 17:1 18:-1 19:0 20:0 21:0 22:0 23:1 24:-0.27778 25:0 26:0 27:1 28:-1 29:1 30:1 31:1 32:-1 33:0 34:0 #
-0.2641252573653654067697971186135 1:-1 2:0 3:0 4:0 5:0 6:0 7:0 8:0 9:0 10:0 11:0 12:0 13:1 14:1 15:1 16:1 17:1 18:-1 19:0 20:0 21:1 22:1 23:1 24:-1 25:1 26:1 27:1 28:0 29:1 30:1 31:1 32:-1 33:0 34:0 #
0.57294804034096225020533665883704 1:1 2:0 3:1 4:0.5 5:1 6:0.25 7:0.25 8:1 9:0.16851 10:0.91180003 11:-0.13336 12:0.80453998 13:-0.34107 14:0.60793 15:-0.4382 16:0.37856001 17:-0.43663001 18:0.16709 19:-0.36675999 20:0.0067799999 21:-0.26477 22:-0.09025 23:-0.16178 24:-0.12964 25:-0.077820003 26:-0.12744001 27:-0.020889999 28:-0.10242 29:0.01033 30:-0.070359997 31:0.02224 32:-0.041420002 33:0.02249 34:-0.020169999 #
0.57294804034096225020533665883704 1:1 2:0 3:0.90147001 4:0.41786 5:0.64130998 6:0.75725001 7:0.3044 8:0.95147997 9:-0.20449001 10:0.96534002 11:-0.55483001 12:0.81190997 13:-0.81857002 14:0.50949001 15:-0.96986002 16:0.10345 17:-0.91456002 18:-0.31411999 19:-0.70163 20:-0.65460998 21:-0.32354 22:-0.88998997 23:0.058649998 24:-0.94172001 25:0.44483 26:-0.82154 27:0.74105 28:-0.55230999 29:0.89415002 30:-0.18725 31:0.87892997 32:0.20359001 33:0.70555001 34:0.54852003 #
0.57294804034096225020533665883704 1:1 2:0 3:1 4:-0.92453003 5:1 6:0.75471997 7:0.49057001 8:-0.056600001 9:0.62264001 10:0 11:1 12:-0.00053999998 13:0.45282999 14:0.075470001 15:0.62264001 16:-0.056600001 17:0.98878002 18:-0.00085000001 19:0.52829999 20:0 21:0.52829999 22:0.075470001 23:0.95190001 24:-0.00112 25:1 26:0.79245001 27:0.92192 28:-0.00128 29:0.94340003 30:-1 31:1 32:0.43395999 33:0.43395999 34:-0.11321 #
0.28410435499537056713847960054409 1:1 2:0 3:1 4:0.066550002 5:1 6:-0.18388 7:1 8:-0.27320001 9:1 10:-0.43107 11:1 12:-0.41349 13:0.96232003 14:-0.51874 15:0.90710998 16:-0.59017003 17:0.89230001 18:-0.66474003 19:0.69875997 20:-0.70997 21:0.70644999 22:-0.76319999 23:0.63081002 24:-0.80544001 25:0.55866998 26:-0.89128 27:0.47211 28:-0.86500001 29:0.40303001 30:-0.83674997 31:0.30996001 32:-0.89093 33:0.22995 34:-0.89157999 #
-0.27877056973825492525165259394271 1:1 2:0 3:0.63815999 4:1 5:0.20833001 6:-1 7:1 8:1 9:0.87718999 10:0.30921 11:-0.66886002 12:1 13:-0.059209999 14:0.58771998 15:0.01754 16:0.050439999 17:-0.51534998 18:-1 19:0.14253999 20:-0.032889999 21:0.32675001 22:-0.4386 23:-1 24:1 25:0.80921 26:-1 27:1 28:-0.0614 29:1 30:1 31:0.20614 32:-1 33:1 34:1 #
-0.29781857920439758213859704483184 1:1 2:0 3:1 4:-1 5:0 6:0 7:0.77941 8:-0.99264997 9:0.80882001 10:0.55146998 11:-0.41912001 12:-0.94853002 13:0 14:0 15:0 16:0 17:0.72059 18:-0.77205998 19:0.73528999 20:-0.60294002 21:0 22:0 23:0.18381999 24:-1 25:-1 26:-1 27:-1 28:-1 29:1 30:-1 31:1 32:-1 33:0 34:0 #
-0.24928582537936236351860941340419 1:-1 2:0 3:0 4:0 5:1 6:1 7:1 8:1 9:0 10:0 11:0 12:0 13:-1 14:-1 15:0 16:0 17:-1 18:-1 19:0 20:0 21:0 22:0 23:1 24:1 25:0 26:0 27:1 28:1 29:0 30:0 31:-1 32:1 33:0 34:0 #
0.57294804034096225020533665883704 1:1 2:0 3:0.51207 4:1 5:1 6:0.5381 7:0.71178001 8:0.80833 9:0.45622 10:0.46427 11:0.33081001 12:1 13:0.21249001 14:1 15:-0.17416 16:1 17:-0.33081001 18:0.98721999 19:-0.61382002 20:1 21:-0.52674001 22:0.71698999 23:-0.88499999 24:0.47894001 25:-1 26:0.35174999 27:-1 28:0.095689997 29:-1 30:-0.16712999 31:-1 32:-0.42225999 33:-0.91903001 34:-0.65556997 #
0.57294804034096225020533665883704 1:1 2:0 3:1 4:-0.087140001 5:1 6:-0.17263 7:0.86635 8:-0.81778997 9:0.94817001 10:0.61053002 11:0.95472997 12:-0.41382 13:0.88485998 14:-0.31736001 15:0.87936997 16:-0.23433 17:0.81050998 18:-0.62180001 19:0.12245 20:-1 21:0.90284002 22:0.11053 23:0.62357002 24:-0.78547001 25:0.55388999 26:-0.82867998 27:0.48135999 28:-0.86583 29:0.40650001 30:-0.89674002 31:0.32984 32:-0.92128003 33:-0.13341001 34:-1 #
0.57294804034096225020533665883704 1:1 2:0 3:1 4:0.083800003 5:1 6:0.17387 7:1 8:-0.13308001 9:0.98171997 10:0.64520001 11:1 12:0.47904 13:1 14:0.59113002 15:1 16:0.70757997 17:1 18:0.82776999 19:1 20:0.95099002 21:1 22:1 23:0.98041999 24:1 25:0.91623998 26:1 27:0.83898997 28:1 29:0.74822003 30:1 31:0.64358002 32:1 33:0.52478999 34:1 #
-0.24986092056984751663684107825247 1:-1 2:0 3:1 4:-1 5:1 6:1 7:1 8:1 9:1 10:1 11:1 12:1 13:1 14:-1 15:1 16:-1 17:1 18:1 19:1 20:-1 21:1 22:1 23:1 24:1 25:1 26:-1 27:1 28:1 29:1 30:-1 31:1 32:1 33:1 34:-1 #
-0.24066985170927232551285612771608 1:-1 2:0 3:1 4:-1 5:1 6:-1 7:1 8:-1 9:1 10:-1 11:1 12:1 13:1 14:1 15:1 16:-1 17:1 18:1 19:1 20:1 21:1 22:1 23:1 24:-1 25:1 26:-1 27:1 28:-1 29:1 30:0.65625 31:0 32:0 33:1 34:-1 #
-0.24600870635548927056746038033452 1:1 2:0 3:1 4:1 5:0 6:0 7:0 8:0 9:0 10:0 11:0.47744 12:-0.89098001 13:-0.51503998 14:0.45489001 15:-0.95489001 16:0.28571001 17:0.64661998 18:1 19:0 20:0 21:0 22:0 23:0.62029999 24:0.20300999 25:-1 26:-1 27:1 28:-1 29:1 30:1 31:0 32:0 33:0 34:0 #
0.57294804034096225020533665883704 1:1 2:0 3:1 4:0.54901999 5:0.62744999 6:1 7:0.019610001 8:1 9:-0.49020001 10:0.92157 11:-0.82353002 12:0.58824003 13:-1 14:0.11765 15:-0.96078002 16:-0.33333001 17:-0.64705998 18:-0.68627 19:-0.23529001 20:-0.86274999 21:0.35293999 22:-1 23:0.74510002 24:-0.72548997 25:0.92157 26:-0.21569 27:0.92874002 28:0.21876 29:0.72548997 30:0.56862998 31:0.23529001 32:0.90196002 33:-0.11765 34:0.90196002 #
0.57294804034096225020533665883704 1:1 2:0 3:0.4375 4:0.041669998 5:0.58332998 6:-0.10417 7:0.39583001 8:0 9:0.33333001 10:-0.0625 11:0.47916999 12:0 13:0.29166999 14:0.10417 15:0.54167002 16:0.02083 17:0.4375 18:-0.22916999 19:0.35416999 20:-0.22916999 21:0.33333001 22:0.083329998 23:0.25 24:0.1875 25:0.39583001 26:-0.1875 27:0.44012001 28:-0.10064 29:0.41666999 30:-0.083329998 31:0.58332998 32:-0.3125 33:0.33333001 34:-0.0625 #
0.44194179296894187114475016642245 1:1 2:0 3:1 4:0.45455 5:1 6:-0.45455 7:1 8:0.090910003 9:1 10:-0.090910003 11:1 12:0 13:1 14:-0.27272999 15:1 16:-0.18182001 17:1 18:0.090910003 19:1 20:0 21:1 22:-0.36364001 23:1 24:0.090910003 25:1 26:-0.090910003 27:1 28:-0.049139999 29:1 30:0.45455 31:1 32:-0.27272999 33:1 34:-0.18182001 #
-0.34588769212703579514212037793186 1:1 2:0 3:-0.54180002 4:0.14861 5:-0.33746001 6:0.73374999 7:0.52012002 8:-0.13932 9:0.31889001 10:-0.068109997 11:0.20743001 12:-0.1517 13:0.47367999 14:0.089780003 15:0.56347001 16:-0.1548 17:0.16408999 18:0.45201001 19:0.33746001 20:0.034060001 21:0.50463998 22:0.071209997 23:-0.63777 24:-0.61610001 25:1 26:0.65635002 27:0.41348001 28:-0.40116 29:-0.1517 30:0.11146 31:0.02399 32:0.5582 33:0.52631998 34:-0.089780003 #
-0.24567816822988491898271945501619 1:-1 2:0 3:1 4:1 5:1 6:-1 7:1 8:1 9:1 10:1 11:1 12:1 13:1 14:-1 15:1 16:1 17:1 18:-1 19:1 20:-1 21:1 22:1 23:1 24:1 25:1 26:-1 27:1 28:1 29:1 30:1 31:1 32:1 33:1 34:1 #
-0.23295067165930788410932450460678 1:-1 2:0 3:0 4:0 5:-1 6:1 7:1 8:1 9:-1 10:-1 11:0 12:0 13:-1 14:-1 15:-1 16:-0.3125 17:-1 18:-1 19:1 20:-1 21:1 22:-1 23:0 24:0 25:1 26:-1 27:-1 28:-1 29:0 30:0 31:1 32:-1 33:0 34:0 #
0.57294804034096225020533665883704 1:1 2:0 3:0.92246997 4:-0.19448 5:0.96419001 6:-0.17674001 7:0.87023997 8:-0.22601999 9:0.81702 10:-0.27070001 11:0.79271001 12:-0.28909001 13:0.70301998 14:-0.49639001 15:0.63338 16:-0.49967 17:0.37254 18:-0.70728999 19:0.27070001 20:-0.72109002 21:0.40505999 22:-0.54171997 23:0.33509001 24:-0.59691 25:0.14749999 26:-0.63600999 27:0.093120001 28:-0.59588999 29:-0.071620002 30:-0.54927999 31:-0.0184 32:-0.54074001 33:-0.07457 34:-0.47898 #
0.57294804034096225020533665883704 1:1 2:0 3:1 4:0.67783999 5:0.81309003 6:0.82020998 7:0.43019 8:1 9:0.20619 10:0.80541003 11:-0.43871999 12:1 13:-0.79135001 14:0.77091998 15:-1 16:0.40268001 17:-0.39046001 18:-0.58634001 19:-0.97907001 20:-0.42822 21:-0.73083001 22:-0.76339 23:-0.37671 24:-0.97491002 25:0.41365999 26:-1 27:0.41778001 28:-0.93295997 29:0.25773001 30:-1 31:0.9357 32:-0.35222 33:0.98816001 34:0.034460001 #
-0.24148639003253802304271857792628 1:-1 2:0 3:1 4:-1 5:1 6:1 7:1 8:-1 9:1 10:1 11:1 12:-1 13:1 14:-1 15:1 16:-1 17:1 18:1 19:1 20:1 21:1 22:1 23:1 24:-1 25:1 26:1 27:1 28:1 29:1 30:1 31:1 32:1 33:1 34:-1 #
-0.23046612078444261850762586618657 1:-1 2:0 3:1 4:1 5:1 6:-1 7:0 8:0 9:0 10:0 11:1 12:1 13:1 14:1 15:-1 16:-1 17:1 18:-1 19:-1 20:1 21:0 22:0 23:1 24:-1 25:1 26:-1 27:1 28:1 29:-1 30:-1 31:0 32:0 33:0 34:0 #
-0.2307531202648409052180511480401 1:-1 2:0 3:1 4:-1 5:0 6:0 7:0 8:0 9:1 10:1 11:1 12:-1 13:-0.71875 14:1 15:0 16:0 17:-1 18:1 19:1 20:1 21:-1 22:1 23:1 24:0.5625 25:-1 26:1 27:1 28:1 29:1 30:-1 31:1 32:1 33:1 34:1 #
0.57294804034096225020533665883704 1:1 2:0 3:0.90932 4:0.087909997 5:0.86527997 6:0.16888 7:1 8:0.16598 9:0.55186999 10:0.68154001 11:0.70207 12:0.36719 13:0.16286001 14:0.42739001 15:0.57620001 16:0.46086001 17:0.51067001 18:0.49618 19:0.31639001 20:0.12966999 21:0.37823999 22:0.54461998 23:0.31274 24:0.55826002 25:0.24856 26:0.56527001 27:0.18626 28:0.56604999 29:0.12635 30:0.56101 31:0.06927 32:0.55061001 33:0.12137 34:0.67738998 #
0.07520343850669898577709915343803 1:1 2:0 3:0.79830003 4:0.094169997 5:0.78128999 6:0.20656 7:0.71627998 8:0.28068 9:0.69319999 10:0.41251999 11:0.65916997 12:0.50121999 13:0.57898003 14:0.60813999 15:0.4921 16:0.58445001 17:0.33353999 18:0.67861003 19:0.29587001 20:0.63547999 21:0.095990002 22:0.68103999 23:0.02066 24:0.72236001 25:-0.087480001 26:0.63182998 27:-0.11925 28:0.60696 29:-0.18226001 30:0.56015003 31:-0.25516 32:0.51700997 33:-0.27339 34:0.42467001 #
0.11057874453568455885843491159903 1:1 2:0 3:0.89835 4:0.35157001 5:0.67333001 6:0.62233001 7:0.43898001 8:0.94353002 9:-0.036430001 10:0.80510002 11:-0.22837999 12:0.75334001 13:-0.25137001 14:0.48816001 15:-0.57376999 16:0.28415 17:-0.66750002 18:0.10591 19:-0.47358999 20:-0.061930001 21:-0.81055999 22:-0.060109999 23:-0.33197001 24:-0.47591999 25:-0.12897 26:-0.53619999 27:0.07158 28:-0.51924998 29:0.24321 30:-0.43478 31:0.36585999 32:-0.30057001 33:0.42805001 34:0.13297001 #
-0.25334796077977683737003644637298 1:1 2:0 3:1 4:-1 5:1 6:1 7:1 8:1 9:1 10:-0.5 11:1 12:1 13:1 14:1 15:1 16:1 17:0 18:0 19:1 20:1 21:1 22:1 23:1 24:-1 25:1 26:1 27:1 28:0.625 29:1 30:-0.75 31:-0.75 32:1 33:1 34:1 #
-0.22929380714517225148263435130502 1:-1 2:0 3:0 4:0 5:1 6:1 7:0 8:0 9:1 10:1 11:0 12:0 13:1 14:-1 15:0 16:0 17:0 18:0 19:0 20:0 21:0 22:0 23:0 24:0 25:0 26:0 27:1 28:-1 29:0 30:0 31:-1 32:1 33:0 34:0 #
-0.22743003798476868482225654588547 1:1 2:0 3:1 4:1 5:0 6:0 7:1 8:-1 9:-1 10:-1 11:1 12:1 13:1 14:-1 15:0 16:0 17:1 18:-1 19:1 20:1 21:0 22:0 23:1 24:-1 25:-1 26:-1 27:1 28:1 29:-1 30:1 31:-1 32:1 33:0 34:0 #
-0.24381685709089523372838925752148 1:1 2:0 3:0 4:0 5:0 6:0 7:0 8:0 9:0 10:0 11:0 12:0 13:-1 14:1 15:1 16:0.55172002 17:0 18:0 19:0 20:0 21:0 22:0 23:0 24:0 25:0 26:0 27:1 28:1 29:0 30:0 31:0 32:0 33:0 34:0 #
-0.2290047909415506011132634966998 1:1 2:0 3:1 4:-1 5:1 6:1 7:-1 8:1 9:1 10:-1 11:1 12:-1 13:-1 14:-1 15:-1 16:1 17:1 18:1 19:1 20:1 21:-1 22:1 23:1 24:-1 25:1 26:-1 27:1 28:1 29:1 30:1 31:-1 32:1 33:-1 34:1 #
0.57294804034096225020533665883704 1:1 2:0 3:0.94332999 4:0.38574001 5:0.48263001 6:0.64534003 7:0.21572 8:0.77513999 9:-0.55940998 10:0.64898998 11:-0.73675001 12:0.42048001 13:-0.76051003 14:0 15:-0.62706 16:-0.31079 17:-0.38391 18:-0.62156999 19:-0.12797 20:-0.69287002 21:0.49908999 22:-0.63620001 23:0.71481001 24:-0.3766 25:0.73856997 26:-0.054839998 27:0.60097998 28:0.30384001 29:0.45521 30:0.60512 31:0.027419999 32:0.54479003 33:-0.21572 34:0.50457001 #
0.48960335880823152576724055506929 1:1 2:0 3:0.93537003 4:0.13644999 5:0.93716002 6:0.25358999 7:0.85705 8:0.38778999 9:0.79039001 10:0.47126999 11:0.72351998 12:0.59942001 13:0.65259999 14:0.75 15:0.50830001 16:0.73585999 17:0.41628999 18:0.82742 19:0.25538999 20:0.85952002 21:0.13711999 22:0.85614997 23:0.0049399999 24:0.88868999 25:-0.07361 26:0.7978 27:-0.20995 28:0.78004003 29:-0.33169001 30:0.71454 31:-0.38532001 32:0.64363003 33:-0.47419 34:0.55835003 #
-0.22854964357989049350550203598686 1:1 2:0 3:-1 4:1 5:-1 6:0.15244 7:0.28354001 8:1 9:-1 10:1 11:-1 12:-1 13:1 14:1 15:-1 16:-0.23476 17:0.28301001 18:-1 19:1 20:1 21:-0.31402001 22:-1 23:-1 24:-1 25:1 26:-1 27:-1 28:-0.035780001 29:1 30:-1 31:-1 32:-0.32317001 33:0.14939 34:1 #
-0.22818390235073091054651683862176 1:-1 2:0 3:-1 4:1 5:1 6:-1 7:-1 8:1 9:0 10:0 11:1 12:1 13:-1 14:-0.1875 15:1 16:1 17:-1 18:-1 19:1 20:-1 21:-1 22:-1 23:1 24:1 25:1 26:-1 27:1 28:1 29:1 30:1 31:0 32:0 33:-1 34:-1 #
-0.22848180114800470397184994908457 1:-1 2:0 3:-1 4:-1 5:1 6:1 7:1 8:-1 9:-1 10:1 11:1 12:-1 13:-1 14:-1 15:0 16:0 17:1 18:1 19:-1 20:-1 21:1 22:-1 23:1 24:-1 25:1 26:1 27:1 28:-1 29:1 30:-1 31:-1 32:1 33:1 34:-1 #
0.25406023957692175363476394522877 1:1 2:0 3:1 4:0 5:1 6:0 7:0.5 8:0.5 9:0.75 10:0 11:0.91201001 12:0.12094 13:0.89067 14:0.14210001 15:0.86922002 16:0.16227999 17:0.75 18:0.25 19:0.75 20:0.5 21:0.75 22:0 23:1 24:-0.25 25:0.5 26:0.5 27:0.73944002 28:0.26388001 29:0.75 30:0.25 31:0.69634998 32:0.29074001 33:0.67492998 34:0.30293 #
0.48853428731176901100852205672709 1:1 2:0 3:1 4:0.11765 5:1 6:0.23529001 7:1 8:0.41176 9:1 10:0.058820002 11:1 12:0.23529001 13:1 14:0.11765 15:1 16:0.47059 17:1 18:-0.058820002 19:1 20:-0.11765 21:1 22:0.35293999 23:1 24:0.41176 25:1 26:-0.11765 27:1 28:0.20225 29:1 30:0.058820002 31:1 32:0.35293999 33:1 34:0.23529001 #
0.10347768104988480653005922249577 1:1 2:0 3:1 4:-0.41457 5:1 6:0.76130998 7:0.87059999 8:0.18593 9:1 10:-0.099250004 11:0.93844002 12:0.4799 13:0.65451998 14:-0.1608 15:1 16:0.0087900003 17:0.97613001 18:-0.50125998 19:0.80024999 20:-0.24496999 21:0.88064998 22:-0.19095001 23:1 24:-0.12312 25:0.93593001 26:0.10678 27:0.9289 28:-0.072489999 29:1 30:-0.27386999 31:0.43970001 32:0.19848999 33:0.51381999 34:-0.054019999 #
-0.22751535159109351202921800449985 1:-1 2:0 3:-1 4:-1 5:0 6:0 7:-1 8:1 9:1 10:-0.375 11:0 12:0 13:0 14:0 15:0 16:0 17:1 18:-1 19:-1 20:-1 21:1 22:-1 23:0 24:0 25:1 26:-1 27:-1 28:1 29:-1 30:-1 31:0 32:0 33:-1 34:1 #
-0.22701339426289418588211788119224 1:1 2:0 3:-1 4:-1 5:1 6:1 7:1 8:-0.14375 9:0 10:0 11:-1 12:1 13:1 14:1 15:0.17917 16:-1 17:-1 18:-1 19:0.087499999 20:-1 21:1 22:-1 23:-1 24:1 25:-1 26:-1 27:1 28:-1 29:-1 30:-1 31:1 32:1 33:0 34:0 #
-0.23004201635956902927127032398857 1:1 2:0 3:0 4:0 5:0 6:0 7:0 8:0 9:-0.85000002 10:-1 11:0 12:0 13:1 14:-1 15:0 16:0 17:-1 18:-1 19:-1 20:-1 21:1 22:-1 23:-0.60000002 24:-1 25:1 26:1 27:-1 28:-0.2 29:1 30:-1 31:0 32:1 33:0 34:0 #
0.44564243493542410323726699061808 1:1 2:0 3:0.75563997 4:0.49638 5:0.8355 6:0.54301 7:0.54916 8:0.72062999 9:0.35225001 10:0.70792001 11:0.13469 12:0.94748998 13:-0.098180003 14:0.93778002 15:-0.37604001 16:0.82222998 17:-0.52741998 18:0.71161002 19:-0.68357998 20:0.67988998 21:-0.70163 22:0.24956 23:-0.79146999 24:0.02995 25:-0.98988003 26:-0.29099 27:-0.70352 28:-0.32791999 29:-0.63312 30:-0.19185001 31:-0.34130999 32:-0.60453999 33:-0.19609 34:-0.62955999 #
-0.36221553906107956111171120028303 1:1 2:0 3:0.058660001 4:-0.0083799995 5:0.067039996 6:0.0083799995 7:0 8:-0.01117 9:0.0055900002 10:-0.039110001 11:0.016759999 12:-0.07542 13:-0.0055900002 14:0.053070001 15:0.06425 16:-0.033519998 17:0 18:0.094970003 19:-0.06425 20:0.07542 21:-0.047490001 22:0.025140001 23:0.027930001 24:-0.0055900002 25:0.0083799995 26:0.0055900002 27:0.10335 28:-0.0083799995 29:0.03073 30:-0.0027900001 31:0.044690002 32:0 33:0.047490001 34:-0.033519998 #
-0.22939970761670791521424916936667 1:-1 2:0 3:0 4:0 5:0 6:0 7:0 8:0 9:1 10:1 11:1 12:1 13:0 14:0 15:0 16:0 17:-0.375 18:-1 19:-1 20:-1 21:0 22:0 23:0 24:0 25:-1 26:-1 27:-1 28:-1 29:-1 30:1 31:1 32:0 33:0 34:0 #
-0.21146235652402584070941315985692 1:1 2:0 3:0.84557003 4:-0.0858 5:-0.31744999 6:-0.80553001 7:-0.089610003 8:-0.56435001 9:0.80647999 10:0.045759998 11:0.89513999 12:-0.0076299999 13:-0.18494 14:0.63966 15:-0.20018999 16:-0.68065 17:0.85701001 18:-0.11344 19:0.77978998 20:-0.15729 21:-0.069590002 22:0.50809997 23:-0.34128001 24:0.80934 25:0.78931999 26:-0.037179999 27:0.70881999 28:-0.25288001 29:0.77884001 30:-0.14109001 31:-0.21354 32:-0.78170002 33:-0.18494 34:-0.59867001 #
-0.22367767068675753483475432403793 1:1 2:0 3:0.083329998 4:-0.20685001 5:-1 6:1 7:-1 8:1 9:0.71875 10:0.47172999 11:-0.82143003 12:-0.62722999 13:-1 14:-1 15:-1 16:1 17:-0.02753 18:0.59152001 19:-0.42113 20:-0.42113 21:-0.74628001 22:-1 23:-1 24:-0.46801001 25:-1 26:0.23810001 27:1 28:-1 29:-1 30:-0.38914001 31:-1 32:-1 33:-1 34:0.61457998 #
-0.23021449754144568400349157855089 1:-1 2:0 3:1 4:1 5:0 6:0 7:1 8:-1 9:1 10:-1 11:1 12:1 13:1 14:1 15:1 16:-1 17:1 18:1 19:1 20:1 21:1 22:-1 23:-1 24:-1 25:1 26:-1 27:1 28:-1 29:1 30:1 31:0 32:0 33:1 34:-1 #
-0.22220299531326820341448069484613 1:-1 2:0 3:-1 4:1 5:1 6:-1 7:0 8:0 9:0 10:0 11:1 12:-1 13:1 14:1 15:0 16:0 17:1 18:-1 19:0 20:0 21:0 22:0 23:1 24:1 25:-1 26:1 27:1 28:-1 29:-1 30:1 31:-1 32:-1 33:0 34:0 #
-0.22383626981179768899998805409268 1:-1 2:0 3:-1 4:1 5:0 6:0 7:0 8:0 9:-1 10:1 11:1 12:1 13:0 14:0 15:0 16:0 17:1 18:-1 19:-1 20:1 21:1 22:1 23:0 24:0 25:-1 26:-1 27:1 28:-1 29:1 30:1 31:-1 32:1 33:0 34:0 #
-0.25287500523103101368604939125362 1:1 2:0 3:0.73809999 4:0.83332998 5:-0.76190001 6:-0.23810001 7:0.33333001 8:-0.14286 9:0.45238 10:-0.14286 11:-0.67285001 12:0.12808 13:0.33333001 14:0 15:0.28571001 16:-0.071429998 17:-0.38214001 18:0.51163 19:0.23810001 20:0.023809999 21:0.45238 22:0.047619998 23:0.16666999 24:-0.26190001 25:-0.57255 26:-0.10234 27:0.24889 28:-0.51078999 29:1 30:0 31:-0.66667002 32:-0.047619998 33:0.26190001 34:0.023809999 #
-0.22673052640798663226462394959526 1:1 2:0 3:-0.0064099999 4:-0.5 5:0 6:0 7:-0.019230001 8:1 9:0 10:0 11:0 12:0 13:0 14:0 15:0 16:0 17:0 18:0 19:0.3141 20:0.92948997 21:-0.35256001 22:0.74359 23:-0.34615001 24:-0.80769002 25:0 26:0 27:-0.61537999 28:-0.51282001 29:0 30:0 31:0 32:0 33:0 34:0 #
-0.20141971089448340581640195523505 1:1 2:0 3:0 4:0 5:1 6:0.51723999 7:0 8:0 9:0.10991 10:-1 11:0 12:0 13:0 14:0 15:-1 16:-0.22414 17:-0.55711001 18:-0.83297002 19:0.7694 20:0.63147002 21:0 22:0 23:0.53447998 24:0.35668001 25:-0.90302002 26:0.44828001 27:1 28:-1 29:-1 30:0.81572998 31:0 32:0 33:0 34:0 #
-0.22412270710375120641444368629891 1:-1 2:0 3:1 4:-1 5:1 6:1 7:1 8:1 9:1 10:1 11:1 12:1 13:1 14:-1 15:1 16:1 17:1 18:1 19:1 20:-1 21:1 22:-1 23:1 24:-1 25:1 26:-1 27:1 28:1 29:1 30:-1 31:1 32:1 33:1 34:1 #
-0.21604101172936440722338602427044 1:1 2:0 3:0 4:0 5:-1 6:-1 7:-1 8:1 9:0 10:0 11:-1 12:1 13:1 14:1 15:1 16:-1 17:0 18:0 19:0 20:0 21:-1 22:-1 23:-1 24:1 25:1 26:0.4375 27:1 28:-1 29:0 30:0 31:-1 32:-1 33:-1 34:1 #
-0.33233946623245602669527443140396 1:1 2:0 3:0.28409001 4:-0.31817999 5:0 6:0 7:0.68181998 8:-1 9:0.30682001 10:0.95832998 11:0.64393997 12:0.064390004 13:0.34847999 14:-0.84847999 15:0 16:0 17:0.59091002 18:-0.35984999 19:0.45076001 20:-0.80681998 21:0 22:0 23:0 24:0 25:0.24242 26:0.17803 27:1 28:-0.23864 29:0.06061 30:-0.48484999 31:0.16288 32:-0.70076001 33:0 34:0 #
-0.21138579137635121751870315165434 1:1 2:0 3:0 4:0 5:0 6:0 7:1 8:1 9:-1 10:-1 11:0 12:0 13:1 14:-0.11111 15:0 16:0 17:0 18:0 19:-1 20:1 21:1 22:1 23:1 24:-1 25:0 26:0 27:1 28:-1 29:0 30:0 31:0 32:0 33:1 34:1 #
-0.19806894489716064811091200681403 1:1 2:0 3:0 4:0 5:-1 6:-0.62765998 7:1 8:0.51064003 9:0.079790004 10:-0.23404001 11:-1 12:-0.3617 13:0.12766001 14:-0.59043002 15:1 16:-1 17:0 18:0 19:0.82979 20:-0.079790004 21:-0.25 22:1 23:0.17021 24:-0.70744997 25:0 26:0 27:-0.19148999 28:-0.46809 29:-0.2234 30:-0.48936 31:0.74467999 32:0.90425998 33:-0.67553002 34:0.45745 #
-0.18037153723829763007913129513327 1:-1 2:0 3:0 4:0 5:0 6:0 7:0 8:0 9:0 10:0 11:0 12:0 13:-1 14:-1 15:0 16:0 17:1 18:0.75 19:0 20:0 21:0 22:0 23:-1 24:1 25:0 26:0 27:1 28:-1 29:-1 30:-1 31:1 32:1 33:0 34:0 #
-0.265123999835031654015438107308 1:1 2:0 3:0 4:0 5:0 6:0 7:0 8:0 9:0 10:0 11:0.62194997 12:1 13:0 14:0 15:0 16:0 17:0.36585 18:-0.71951002 19:0.56098002 20:-1 21:0 22:0 23:0 24:0 25:0 26:0 27:1 28:0.10976 29:0 30:0 31:0 32:0 33:0 34:0 #
-0.16140947101658570383975188633485 1:1 2:0 3:0 4:0 5:-0.33671999 6:0.85387999 7:0 8:0 9:0.68869001 10:-1 11:0.97078001 12:0.31384999 13:-0.26047999 14:-0.59211999 15:-0.30241001 16:0.65565002 17:0.94155002 18:0.16391 19:0 20:0 21:0 22:0 23:-0.18043 24:-1 25:0 26:0 27:1 28:-1 29:0 30:0 31:0.044470001 32:0.61881 33:0 34:0 #
-0.14510993249430617635375995178038 1:1 2:0 3:0.94531 4:-0.035160001 5:-1 6:-0.33203 7:-1 8:-0.015629999 9:0.97266001 10:0.01172 11:0.93358999 12:-0.01953 13:-1 14:0.16406 15:-1 16:-0.00391 17:0.95313001 18:-0.035160001 19:0.92188001 20:-0.02734 21:-0.99219 22:0.11719 23:-0.93358999 24:0.34766001 25:0.95703 26:-0.00391 27:0.82041001 28:0.13758001 29:0.90233999 30:-0.066409998 31:-1 32:-0.1875 33:-1 34:-0.34375 #
-0.20761251271997729905827156926534 1:1 2:0 3:-0.205 4:0.28749999 5:0.23 6:0.1 7:0.2825 8:0.3175 9:0.32249999 10:0.34999999 11:0.36285001 12:-0.34617001 13:0.092500001 14:0.27500001 15:-0.094999999 16:0.20999999 17:-0.087499999 18:0.235 19:-0.34187001 20:0.31408 21:-0.47999999 22:-0.079999998 23:0.29908001 24:0.33175999 25:-0.57999998 26:-0.23999999 27:0.32190001 28:-0.28475001 29:-0.47 30:0.185 31:-0.27103999 32:-0.31228 33:0.40445 34:0.0305 #
-0.13152134908913742927794032766542 1:1 2:0 3:0.36875999 4:-1 5:-1 6:-1 7:-0.076609999 8:1 9:1 10:0.95041001 11:0.74597001 12:-0.38710001 13:-1 14:-0.79312998 15:-0.096770003 16:1 17:0.48684001 18:0.46502 19:0.31755 20:-0.27461001 21:-0.14342999 22:-0.20187999 23:-0.11976 24:0.068949997 25:0.03021 26:0.06639 27:0.034430001 28:-0.01186 29:-0.00403 30:-0.016720001 31:-0.0076100002 32:0.00108 33:0.00015000001 34:0.0032500001 #
-0.11395821720781525165921976849859 1:1 2:0 3:-1 4:-0.59676999 5:0 6:0 7:-1 8:0.64516002 9:-0.87097001 10:1 11:0 12:0 13:0 14:0 15:0 16:0 17:0 18:0 19:0 20:0 21:-1 22:-1 23:0 24:0 25:0.29839 26:0.23387 27:1 28:0.51612997 29:0 30:0 31:0 32:0 33:0 34:0 #
0.28200290584481135791605765916756 1:1 2:0 3:0.47336999 4:0.19527 5:0.06213 6:-0.18343 7:0.62316 8:0.01006 9:0.45561999 10:-0.044380002 11:0.56509 12:0.017750001 13:0.44674999 14:0.27515 15:0.71597999 16:-0.038460001 17:0.55620998 18:0.12426 19:0.41420001 20:0.11538 21:0.52767003 22:0.028419999 23:0.51182997 24:-0.10651 25:0.47929001 26:-0.023669999 27:0.46514001 28:0.032590002 29:0.53549999 30:0.25148001 31:0.31953001 32:-0.14497 33:0.34615001 34:-0.00296 #
0.16509532210204330704428343779 1:1 2:0 3:0.7087 4:-0.24783 5:0.64348 6:0.043480001 7:0.45217001 8:0.38260999 9:0.65217 10:0.18261001 11:0.5 12:0.26956999 13:0.57826 14:-0.23043001 15:0.50435001 16:0.37825999 17:0.38696 18:-0.42609 19:0.36087 20:-0.26087001 21:0.26956999 22:0.11739 23:0.53245997 24:-0.038449999 25:0.31303999 26:-0.12174 27:0.4993 28:-0.042640001 29:0.48348001 30:-0.04448 31:0.64348 32:-0.25217 33:0.50435001 34:0.14782999 #
-0.099025260975759338277768506486609 1:-1 2:0 3:0 4:0 5:0 6:0 7:0 8:0 9:0 10:0 11:0 12:0 13:0 14:0 15:0 16:0 17:0 18:0 19:0 20:0 21:0 22:0 23:0 24:0 25:0 26:0 27:1 28:1 29:0 30:0 31:0 32:0 33:0 34:0 #
