SVM-light Version V6.02
2 # kernel type
3 # kernel parameter -d 
0.01 # kernel parameter -g 
1 # kernel parameter -s 
1 # kernel parameter -r 
empty# kernel parameter -u 
617 # highest feature index 
120 # number of training documents 
63 # number of support vectors plus 1 
-0.041327263 # threshold b, each following line is a SV (starting with alpha*y)
-0.32639353614056565433543255494442 1:-0.3928 2:0.042399999 3:0.2166 4:0.2124 5:-0.45640001 6:-0.62 7:-0.7112 8:-0.6602 9:-0.69419998 10:-0.792 11:-0.80260003 12:-0.66659999 13:-0.61140001 14:-0.72619998 15:-0.73040003 16:-0.76440001 17:-0.79619998 18:-0.69859999 19:-0.73879999 20:-0.65820003 21:-0.38640001 22:-0.2676 23:-0.1804 24:0.45860001 25:0.81739998 26:0.88319999 27:0.69639999 28:0.60500002 29:0.5988 30:0.57319999 31:1 32:0.99159998 33:-0.19760001 34:0.20559999 35:0.28479999 36:0.33340001 37:-0.4366 38:-0.60079998 39:-0.7608 40:-0.69599998 41:-0.78320003 42:-0.72240001 43:-0.74260002 44:-0.71219999 45:-0.64139998 46:-0.69199997 47:-0.72640002 48:-0.65140003 49:-0.56239998 50:-0.60680002 51:-0.49340001 52:-0.46700001 53:-0.41639999 54:-0.0274 55:0.1936 56:0.55019999 57:0.85000002 58:1 59:0.75480002 60:0.546 61:0.69 62:0.76899999 63:0.84200001 64:0.91079998 65:-0.1522 66:0.2202 67:0.472 68:0.46340001 69:-0.47639999 70:-0.78759998 71:-0.69340003 72:-0.63419998 73:-0.8642 74:-0.85979998 75:-0.83139998 76:-0.597 77:-0.54220003 78:-0.71079999 79:-0.67580003 80:-0.79839998 81:-0.58819997 82:-0.63859999 83:-0.64960003 84:-0.54220003 85:-0.32319999 86:-0.1698 87:0.35820001 88:0.61440003 89:0.83139998 90:0.91680002 91:0.92119998 92:0.68900001 93:0.76340002 94:0.79839998 95:0.96939999 96:1 97:-0.2278 98:0.1196 99:0.33199999 100:0.33019999 101:-0.56379998 102:-0.83020002 103:-0.79540002 104:-0.7414 105:-0.87840003 106:-0.92860001 107:-0.7626 108:-0.61379999 109:-0.57920003 110:-0.74519998 111:-0.71820003 112:-0.73159999 113:-0.722 114:-0.73559999 115:-0.67559999 116:-0.50959998 117:-0.32440001 118:-0.1024 119:0.28580001 120:0.5 121:0.80119997 122:0.71420002 123:0.76639998 124:0.71820003 125:0.73940003 126:0.82440001 127:1 128:0.88800001 129:-0.1724 130:0.2744 131:0.45100001 132:0.51059997 133:-0.35100001 134:-0.63819999 135:-0.67019999 136:-0.65539998 137:-0.7766 138:-0.88520002 139:-0.96600002 140:-0.82980001 141:-0.77240002 142:-0.88520002 143:-0.78939998 144:-0.76179999 145:-0.73199999 146:-0.73400003 147:-0.68720001 148:-0.57660002 149:-0.24680001 150:0.019200001 151:0.25740001 152:0.53200001 153:0.95740002 154:0.98079997 155:0.69139999 156:0.69779998 157:0.77020001 158:0.9702 159:0.95319998 160:1 161:-0.062799998 162:0.68760002 163:0.5474 164:0.57200003 165:0.17839999 166:-0.63599998 167:-0.59899998 168:-0.65560001 169:-0.73439997 170:-0.85479999 171:-0.82539999 172:-0.61619997 173:-0.68760002 174:-0.79079998 175:-0.71960002 176:-0.72439998 177:-0.74419999 178:-0.70480001 179:-0.76880002 180:-0.51539999 181:-0.23980001 182:0.16859999 183:0.3678 184:0.69499999 185:0.8524 186:1 187:0.9508 188:0.89660001 189:0.86220002 190:0.82279998 191:0.6286 192:0.61140001 193:-0.22059999 194:1 195:0.80119997 196:0.081600003 197:-0.31220001 198:-0.39559999 199:-0.36379999 200:-0.2246 201:-0.78140002 202:-0.7852 203:-0.5388 204:-0.2922 205:-0.26440001 206:-0.25240001 207:-0.28040001 208:-0.30419999 209:-0.31619999 210:-0.2326 211:-0.1172 212:0.2246 213:0.37979999 214:0.3678 215:0.1292 216:0.57059997 217:0.833 218:0.86879998 219:0.57459998 220:0.1928 221:0.0178 222:-0.18099999 223:-0.2286 224:0.0854 225:-0.12 226:0.2 227:0.47999999 228:0.28 229:0 230:-0.2 231:-0.28 232:-0.31999999 233:-0.16 234:-0.31999999 235:-0.12 236:-0.12 237:-0.12 238:-0.12 239:-0.23999999 240:-0.23999999 241:-0.28 242:-0.44 243:0 244:-0.12 245:0.12 246:0.2 247:0.23999999 248:0.72000003 249:0.83999997 250:0.88 251:0.83999997 252:0.80000001 253:0.80000001 254:0.68000001 255:1 256:0.88 257:-0.4894 258:-0.021199999 259:0.149 260:-0.021199999 261:-0.2766 262:-0.31920001 263:-0.57440001 264:-0.4894 265:-0.4894 266:-0.53200001 267:-0.7446 268:-0.61699998 269:-0.61699998 270:-0.53200001 271:-0.44679999 272:-0.91479999 273:-0.65960002 274:-0.61699998 275:-0.65960002 276:-0.7022 277:-0.57440001 278:-0.4894 279:-0.149 280:0.4894 281:0.61699998 282:0.4894 283:0.44679999 284:0.40419999 285:0.53200001 286:0.53200001 287:0.78719997 288:1 289:0.057399999 290:0.35640001 291:0.5862 292:0.5862 293:-0.1494 294:-0.40220001 295:-0.2184 296:-0.2414 297:-0.70120001 298:-0.5632 299:-0.28740001 300:-0.31040001 301:-0.28740001 302:-0.33340001 303:-0.31040001 304:-0.26440001 305:-0.1724 306:-0.12639999 307:-0.33340001 308:-0.35640001 309:-0.1494 310:0.1494 311:0.44819999 312:0.51719999 313:0.954 314:0.86199999 315:0.83899999 316:0.81599998 317:0.74720001 318:0.88499999 319:0.977 320:1 321:-1 322:-1 323:-1 324:-1 325:-1 326:-1 327:-1 328:-0.926 329:-0.90740001 330:-0.49540001 331:-0.1666 332:0.088 333:0.375 334:0.62959999 335:0.85180002 336:0.875 337:0.87040001 338:0.93059999 339:0.89819998 340:0.79159999 341:0.56019998 342:-0.45379999 343:-0.93980002 344:-0.91659999 345:-0.89819998 346:-1 347:-1 348:-1 349:-1 350:-1 351:-1 352:-1 353:-1 354:-1 355:-1 356:-1 357:-1 358:-1 359:-1 360:-1 361:-0.89579999 362:-0.86839998 363:0.064400002 364:0.078199998 365:0.45680001 366:0.49239999 367:0.66799998 368:0.61040002 369:0.8272 370:0.8272 371:0.8326 372:0.6214 373:0.4294 374:0.2538 375:-0.5528 376:-0.84920001 377:-0.84640002 378:-0.83819997 379:-1 380:-1 381:-1 382:-1 383:-1 384:-1 385:-1 386:-1 387:-1 388:-1 389:-1 390:-1 391:-1 392:-1 393:-1 394:-0.96679997 395:-0.92680001 396:-0.55339998 397:-0.43340001 398:-0.0176 399:-0.1788 400:-0.32879999 401:-0.38139999 402:-0.26879999 403:-0.35640001 404:-0.40380001 405:-0.4702 406:-0.63419998 407:-0.77420002 408:-0.72479999 409:-0.81999999 410:-0.72000003 411:-0.69679999 412:-1 413:-1 414:-1 415:-1 416:-1 417:-1 418:-1 419:-1 420:-1 421:-1 422:-1 423:-1 424:-1 425:-1 426:-1 427:-0.91420001 428:1 429:1 430:-0.40000001 431:-0.28580001 432:-0.82859999 433:-1 434:-0.91420001 435:-1 436:-1 437:-1 438:-1 439:-0.77139997 440:0.40000001 441:-0.60000002 442:-0.71420002 443:-0.94279999 444:-0.4858 445:-1 446:-1 447:-1 448:-1 449:-1 450:-1 451:-1 452:-1 453:-0.2212 454:-0.2344 455:-0.2314 456:-0.2552 457:-0.30419999 458:-0.31920001 459:-0.36759999 460:-0.40779999 461:-0.4788 462:-0.41819999 463:0.9824 464:1 465:1 466:1 467:1 468:1 469:1 470:1 471:1 472:0.9892 473:-0.56 474:0.98820001 475:-0.0014 476:0.1468 477:0.27020001 478:0.39919999 479:0.58579999 480:-0.4666 481:-0.1556 482:0.0074 483:-0.126 484:-0.30379999 485:-0.48140001 486:-0.70380002 487:-0.36300001 488:-0.58520001 489:-0.58520001 490:-0.51120001 491:-0.30379999 492:0.2148 493:0.80739999 494:0.77780002 495:0.40740001 496:0.73339999 497:0.95560002 498:1 499:0.80739999 500:0.8962 501:0.88139999 502:0.2296 503:0.0222 504:0.0074 505:-0.0222 506:0.2 507:0.43700001 508:0.37779999 509:0.1556 510:0.3186 511:0.37779999 512:0.126 513:0.077 514:0.30759999 515:-0.123 516:0.0308 517:-0.1076 518:0.0154 519:0.1384 520:-0.1538 521:-0.123 522:-0.077 523:-0.123 524:0.26159999 525:0.95380002 526:0.76920003 527:0.38460001 528:0.95380002 529:1 530:0.8308 531:0.60000002 532:0.72299999 533:0.7076 534:0.123 535:0 536:0.0616 537:0.077 538:0.1384 539:0.30759999 540:0.36919999 541:0.1384 542:0.27700001 543:0.53839999 544:0.30759999 545:0.2728 546:0.55239999 547:-0.090999998 548:-0.18880001 549:-0.021 550:-0.1328 551:0.090999998 552:-0.37059999 553:-0.048999999 554:0.035 555:-0.021 556:0.30059999 557:0.87419999 558:0.91600001 559:0.53839999 560:0.7902 561:1 562:0.91600001 563:0.7762 564:0.7202 565:0.62239999 566:0.1608 567:0.090999998 568:0.1468 569:0.20280001 570:0.32859999 571:0.39860001 572:0.4686 573:0.4826 574:0.5244 575:0.32859999 576:0.17479999 577:1 578:-1 579:-1 580:1 581:-0.80000001 582:-1 583:-1 584:-0.69999999 585:-1 586:-0.2076 587:-0.075400002 588:-0.54720002 589:0.2264 590:0.132 591:0.1886 592:0.30180001 593:0.54720002 594:0.15099999 595:-0.32080001 596:0.43399999 597:0.1132 598:0.35839999 599:0.075400002 600:0.43399999 601:0.37740001 602:0.4716 603:0.6038 604:0.58499998 605:0.41499999 606:0.3962 607:0.69819999 608:0.88679999 609:0.88679999 610:0.88679999 611:0.67919999 612:0.6038 613:0.2264 614:0.7924 615:1 616:0.92460001 617:0.5284 #
-0.21041557677131869641407035942393 1:-0.54939997 2:-0.093999997 3:0.2868 4:0.29640001 5:-0.53259999 6:-0.72039998 7:-0.7518 8:-0.73979998 9:-0.84820002 10:-0.83859998 11:-0.89880002 12:-0.77340001 13:-0.63380003 14:-0.68199998 15:-0.61680001 16:-0.62900001 17:-0.66259998 18:-0.60000002 19:-0.64579999 20:-0.54220003 21:-0.45300001 22:-0.1566 23:0.1638 24:0.70840001 25:0.88679999 26:0.75419998 27:0.61199999 28:0.57599998 29:0.7374 30:0.99519998 31:1 32:0.94459999 33:-0.56620002 34:-0.2712 35:0.1146 36:0.12540001 37:-0.67820001 38:-0.8168 39:-0.7974 40:-0.76880002 41:-0.75459999 42:-0.72259998 43:-0.8258 44:-0.77060002 45:-0.75999999 46:-0.80800003 47:-0.66579998 48:-0.60000002 49:-0.60180002 50:-0.6498 51:-0.60000002 52:-0.4826 53:-0.35820001 54:-0.077399999 55:0.31920001 56:0.53060001 57:0.89679998 58:0.77060002 59:0.4684 60:0.4738 61:0.74940002 62:0.88800001 63:1 64:0.96439999 65:-0.54860002 66:-0.2454 67:0.095399998 68:0.1098 69:-0.59680003 70:-0.75559998 71:-0.83579999 72:-0.78420001 73:-0.81980002 74:-0.83060002 75:-0.81980002 76:-0.77340001 77:-0.75199997 78:-0.76440001 79:-0.7288 80:-0.74659997 81:-0.62900001 82:-0.66280001 83:-0.60399997 84:-0.40580001 85:-0.3096 86:-0.0152 87:0.39160001 88:0.53259999 89:0.93220001 90:0.83060002 91:0.4594 92:0.68239999 93:0.79119998 94:0.93760002 95:1 96:0.96780002 97:-0.53259999 98:-0.23459999 99:0.075800002 100:0.077600002 101:-0.53259999 102:-0.70179999 103:-0.73839998 104:-0.86059999 105:-0.76980001 106:-0.74199998 107:-0.75580001 108:-0.75239998 109:-0.71399999 110:-0.667 111:-0.67400002 112:-0.70179999 113:-0.56239998 114:-0.57279998 115:-0.68099999 116:-0.2764 117:-0.252 118:0.027000001 119:0.4786 120:0.55879998 121:0.96160001 122:0.86580002 123:0.59719998 124:0.76120001 125:0.8308 126:1 127:0.99119997 128:0.99479997 129:-0.4244 130:0.0102 131:0.331 132:0.38119999 133:-0.26280001 134:-0.44260001 135:-0.78380001 136:-0.72460002 137:-0.81339997 138:-0.90439999 139:-0.75660002 140:-0.82700002 141:-0.72460002 142:-0.65179998 143:-0.64060003 144:-0.62220001 145:-0.7748 146:-0.69279999 147:-0.74980003 148:-0.43579999 149:-0.32659999 150:-0.062600002 151:0.34020001 152:0.70200002 153:1 154:0.97259998 155:0.69279999 156:0.77920002 157:0.8452 158:0.98180002 159:0.92500001 160:0.85219997 161:-0.417 162:0.2712 163:0.1778 164:0.37599999 165:-0.26820001 166:-0.34119999 167:-0.69379997 168:-0.57440001 169:-0.68519998 170:-0.79000002 171:-0.70840001 172:-0.653 173:-0.54220003 174:-0.52759999 175:-0.55400002 176:-0.51899999 177:-0.63260001 178:-0.73460001 179:-0.54820001 180:-0.12819999 181:0.12540001 182:0.551 183:0.583 184:0.78719997 185:0.91839999 186:1 187:0.74339998 188:0.81040001 189:0.61799997 190:0.4928 191:0.36739999 192:0.2158 193:-0.54439998 194:0.45820001 195:0.15440001 196:-0.4734 197:-0.66079998 198:-0.75700003 199:-0.433 200:-0.40759999 201:-0.37220001 202:-0.25060001 203:-0.29620001 204:-0.037999999 205:0.0836 206:0.1392 207:0.1594 208:0.2406 209:0.124 210:0.058200002 211:0.2406 212:0.50379997 213:0.4632 214:0.3468 215:0.44819999 216:0.65060002 217:1 218:0.94940001 219:0.7974 220:-0.043000001 221:-0.088600002 222:0.027799999 223:-0.0178 224:0.45320001 225:-0.26820001 226:0.60979998 227:0.56099999 228:0.317 229:0.21960001 230:-0.26820001 231:0.073200002 232:0.1708 233:0.073200002 234:-0.1708 235:-0.1708 236:-0.36579999 237:-0.26820001 238:-0.5122 239:-0.26820001 240:-0.26820001 241:-0.0244 242:-0.073200002 243:-0.122 244:0.0244 245:0.073200002 246:0.0244 247:0.1708 248:0.56099999 249:0.70740002 250:0.70740002 251:0.60979998 252:0.75599998 253:0.75599998 254:0.95120001 255:0.95120001 256:1 257:-0.071400002 258:0.28580001 259:0.53579998 260:0.53579998 261:0.071400002 262:0.071400002 263:0.1786 264:0.1786 265:-0.28580001 266:-0.071400002 267:-0.035799999 268:-0.57139999 269:0 270:-0.035799999 271:0.071400002 272:0.071400002 273:0.035799999 274:0.071400002 275:0 276:0.1786 277:0.32139999 278:0.5 279:0.5 280:0.82139999 281:0.92860001 282:1 283:0.67860001 284:0.71420002 285:0.85720003 286:0.85720003 287:0.85720003 288:0.67860001 289:-0.054000001 290:0.35139999 291:0.64859998 292:0.70279998 293:0.081 294:-0.027000001 295:-0.62159997 296:-0.29719999 297:-0.5406 298:-0.70279998 299:-0.35139999 300:-0.51359999 301:-0.62159997 302:-0.43239999 303:-0.40540001 304:-0.51359999 305:-0.64859998 306:-0.64859998 307:-0.67559999 308:-0.48640001 309:-0.1082 310:0.1082 311:0.51359999 312:0.94599998 313:1 314:0.94599998 315:0.94599998 316:1 317:0.89179999 318:0.91900003 319:0.97299999 320:0.83780003 321:-1 322:-1 323:-1 324:-1 325:-1 326:-1 327:-1 328:-0.85180002 329:-0.87879997 330:-0.8452 331:-0.60939997 332:0.19859999 333:0.71039999 334:0.79799998 335:0.82499999 336:0.83160001 337:0.89219999 338:0.8114 339:0.70380002 340:0.39399999 341:-0.3064 342:-0.72399998 343:-0.89219999 344:-1 345:-1 346:-1 347:-1 348:-1 349:-1 350:-1 351:-1 352:-1 353:-1 354:-1 355:-1 356:-1 357:-1 358:-1 359:-1 360:-1 361:-0.93260002 362:-0.94199997 363:-0.9192 364:-0.88139999 365:-0.4612 366:-0.2472 367:0.1462 368:0.25119999 369:0.41280001 370:0.79519999 371:0.1232 372:-0.4154 373:-0.53399998 374:-0.73460001 375:-0.903 376:-0.94620001 377:-1 378:-1 379:-1 380:-1 381:-1 382:-1 383:-1 384:-1 385:-1 386:-1 387:-1 388:-1 389:-1 390:-1 391:-1 392:-1 393:-1 394:-0.93339998 395:-0.93339998 396:-0.84680003 397:-0.80000001 398:-0.2254 399:-0.066799998 400:0.042599998 401:0.0080000004 402:-0.064000003 403:0.079999998 404:-0.0308 405:-0.40799999 406:-0.39879999 407:-0.65140003 408:-0.75760001 409:-0.98000002 410:-1 411:-1 412:-1 413:-1 414:-1 415:-1 416:-1 417:-1 418:-1 419:-1 420:-1 421:-1 422:-1 423:-1 424:-1 425:-1 426:-1 427:-0.54280001 428:-0.91420001 429:-0.91420001 430:0.54280001 431:1 432:-0.65719998 433:-0.8858 434:-0.94279999 435:-0.71420002 436:-0.8858 437:-0.7428 438:-0.65719998 439:-0.57139999 440:1 441:-0.8858 442:-0.97140002 443:-1 444:-1 445:-1 446:-1 447:-1 448:-1 449:-1 450:-1 451:-1 452:-1 453:-0.17120001 454:-0.1832 455:-0.22660001 456:-0.24680001 457:-0.26300001 458:-0.25819999 459:-0.28380001 460:-0.27759999 461:-0.3152 462:-0.234 463:0.91799998 464:0.92900002 465:0.93040001 466:0.96399999 467:1 468:1 469:1 470:1 471:1 472:0.97780001 473:-0.57340002 474:0.85879999 475:-0.88559997 476:-0.71179998 477:-0.49900001 478:-0.50300002 479:-0.31580001 480:-0.38339999 481:-0.1096 482:0 483:0.30140001 484:0.84939998 485:0.76719999 486:0.57539999 487:0.76719999 488:0.64380002 489:0.41100001 490:0.60280001 491:0.685 492:0.3698 493:0.45199999 494:0.75340003 495:0.67119998 496:1 497:0.57539999 498:0.41100001 499:0.42460001 500:0.30140001 501:0.57539999 502:0.65759999 503:0.65759999 504:0.41100001 505:0.35620001 506:0.1918 507:0.26019999 508:0.5068 509:0.095799997 510:0.26019999 511:0.34240001 512:-0.26019999 513:-0.1568 514:-0.1892 515:0.373 516:0.6864 517:0.3946 518:0.49180001 519:0.41620001 520:0.65399998 521:-0.037799999 522:0.3838 523:0.43779999 524:0.44859999 525:0.83780003 526:0.89179999 527:0.61080003 528:0.78380001 529:0.88099998 530:0.56760001 531:-0.0162 532:0.7622 533:0.75139999 534:0.43779999 535:0.2432 536:0.26480001 537:0.1568 538:0.64319998 539:1 540:0.65399998 541:0.42699999 542:0.96759999 543:0.80540001 544:0.4594 545:0.033599999 546:0.4118 547:0.39500001 548:0.4034 549:0.4454 550:0.4034 551:0.63020003 552:0.71420002 553:0.49579999 554:0.4454 555:0.37819999 556:0.71420002 557:0.98320001 558:0.71420002 559:0.77319998 560:1 561:0.98320001 562:0.62180001 563:0.3698 564:0.71420002 565:0.63859999 566:0.49579999 567:0.47060001 568:0.092399999 569:0.2436 570:0.62180001 571:0.91600001 572:0.94959998 573:0.8908 574:0.88239998 575:0.98320001 576:0.60500002 577:-0.9892 578:1 579:-1 580:-1 581:-1 582:-1 583:-1 584:-1 585:-1 586:0.22579999 587:0.32260001 588:0.2904 589:0.54839998 590:0.35479999 591:0.54839998 592:0.51620001 593:0.64520001 594:0.93540001 595:0.70959997 596:1 597:0.77420002 598:0.77420002 599:0.8064 600:0.25799999 601:0.58060002 602:0.22579999 603:0.38699999 604:0.54839998 605:0.41940001 606:0.58060002 607:0.41940001 608:0.22579999 609:0.61299998 610:0.61299998 611:0.61299998 612:0.32260001 613:0.61299998 614:0.2904 615:0.54839998 616:0.51620001 617:0.35479999 #
0.29800849030487247537379857931228 1:-0.045000002 2:0.70420003 3:0.6516 4:0.70039999 5:0.57300001 6:-0.045000002 7:-0.16859999 8:-0.2098 9:-0.2022 10:-0.3184 11:-0.31079999 12:-0.2022 13:-0.146 14:-0.0188 15:-0.059999999 16:0.0188 17:0.18359999 18:0.72280002 19:0.90259999 20:0.73400003 21:0.86900002 22:0.64420003 23:1 24:0.98500001 25:0.9738 26:0.69660002 27:0.63679999 28:0.53179997 29:0.648 30:0.71160001 31:0.80900002 32:0.97759998 33:-0.49759999 34:0.0122 35:-0.0294 36:0.2378 37:0.1618 38:-0.1226 39:-0.2304 40:-0.26480001 41:-0.38980001 42:-0.27700001 43:-0.28439999 44:-0.19599999 45:-0.2746 46:-0.2254 47:-0.093199998 48:0.046599999 49:0.20100001 50:0.4878 51:0.69599998 52:0.75980002 53:0.70099998 54:0.6372 55:0.7622 56:0.80140001 57:0.755 58:0.63 59:0.60039997 60:0.53179997 61:0.74760002 62:0.88480002 63:0.89459997 64:1 65:-0.44119999 66:-0.074600004 67:0.094800003 68:0.2086 69:-0.11 70:-0.1934 71:-0.46399999 72:-0.4614 73:-0.36039999 74:-0.4842 75:-0.426 76:-0.4084 77:-0.39579999 78:-0.34 79:-0.1934 80:-0.1428 81:-0.054400001 82:0.20100001 83:0.46900001 84:0.70420003 85:0.6688 86:0.62080002 87:0.81040001 88:0.82800001 89:0.71939999 90:0.57020003 91:0.64600003 92:0.53219998 93:0.78259999 94:0.90399998 95:0.89880002 96:1 97:-0.40599999 98:-0.1354 99:0.31580001 100:0.29699999 101:-0.1788 102:-0.45879999 103:-0.62360001 104:-0.45879999 105:-0.50239998 106:-0.58639997 107:-0.6796 108:-0.62059999 109:-0.60180002 110:-0.52420002 111:-0.39340001 112:-0.4402 113:-0.27219999 114:-0.0264 115:0.3872 116:0.72619998 117:0.86320001 118:0.81959999 119:0.86000001 120:0.89420003 121:0.84759998 122:0.68580002 123:0.61739999 124:0.59560001 125:0.75419998 126:0.88800001 127:0.9066 128:1 129:-0.45199999 130:0.22920001 131:0.4984 132:0.2694 133:0.021600001 134:-0.52640003 135:-0.71820003 136:-0.486 137:-0.50160003 138:-0.6006 139:-0.6656 140:-0.68419999 141:-0.55419999 142:-0.47060001 143:-0.4086 144:-0.49540001 145:-0.30039999 146:0.1424 147:0.39320001 148:0.77700001 149:0.97219998 150:0.90719998 151:0.99379998 152:1 153:0.87 154:0.56339997 155:0.56040001 156:0.48300001 157:0.65319997 158:0.81739998 159:0.8854 160:0.94739997 161:-0.58960003 162:0.44 163:0.5826 164:0.085199997 165:-0.4086 166:-0.76700002 167:-0.75660002 168:-0.76700002 169:-0.85399997 170:-0.73220003 171:-0.61739999 172:-0.77039999 173:-0.74599999 174:-0.5478 175:-0.33559999 176:-0.33219999 177:-0.23819999 178:0.0504 179:0.454 180:0.77399999 181:1 182:0.94080001 183:0.95480001 184:0.86080003 185:0.60699999 186:0.454 187:0.49559999 188:0.39480001 189:0.61040002 190:0.82599998 191:0.82959998 192:0.86080003 193:-0.35120001 194:0.1804 195:0.2976 196:-0.053599998 197:-0.78039998 198:-0.80479997 199:-0.81959999 200:-0.71700001 201:-0.76099998 202:-0.73180002 203:-0.53659999 204:-0.58039999 205:-0.4878 206:-0.53179997 207:-0.2342 208:-0.278 209:-0.39019999 210:0.039000001 211:0.5122 212:0.75599998 213:0.87800002 214:0.81459999 215:0.99519998 216:1 217:0.47799999 218:0.3414 219:0.33660001 220:-0.087800004 221:0.3854 222:0.45860001 223:0.45359999 224:0.59020001 225:-0.31420001 226:0.31420001 227:0.1428 228:0.2 229:-0.0286 230:-0.3714 231:-0.60000002 232:-0.77139997 233:-0.4858 234:-0.60000002 235:-0.2 236:-0.31420001 237:-0.42860001 238:-0.31420001 239:-0.3714 240:0.1428 241:0.2572 242:0.71420002 243:0.8858 244:0.71420002 245:0.4858 246:0.4858 247:0.82859999 248:1 249:0.3714 250:0.1428 251:0.54280001 252:0.3714 253:0.1428 254:0.42860001 255:0.42860001 256:0.82859999 257:0.2 258:0.85000002 259:0.80000001 260:0.75 261:0.60000002 262:-0.2 263:-0.1 264:-0.1 265:-0.30000001 266:-0.55000001 267:-0.80000001 268:-0.44999999 269:-0.050000001 270:-0.1 271:-0.2 272:-0.44999999 273:-0.1 274:0.44999999 275:0.69999999 276:0.94999999 277:0.89999998 278:0.5 279:0.85000002 280:1 281:1 282:0.69999999 283:0.80000001 284:0.34999999 285:0.5 286:0.60000002 287:0.64999998 288:0.75 289:-0.287 290:0.026000001 291:0.25220001 292:0.3044 293:-0.095600002 294:-0.2 295:-0.426 296:-0.3044 297:-0.287 298:-0.37400001 299:-0.5826 300:-0.47819999 301:-0.2348 302:-0.287 303:-0.1304 304:-0.1304 305:-0.1304 306:0.18260001 307:0.4434 308:0.66960001 309:0.61739999 310:0.72180003 311:0.77399999 312:0.77399999 313:0.7044 314:0.65219998 315:0.65219998 316:0.61739999 317:0.7392 318:1 319:0.96520001 320:0.96520001 321:-1 322:-1 323:-1 324:-1 325:-0.96460003 326:-0.96280003 327:-0.94499999 328:-0.81940001 329:-0.82539999 330:-0.87440002 331:-0.75660002 332:0.54079998 333:0.68199998 334:0.24240001 335:0.213 336:0.16 337:0.1364 338:0.1462 339:0.26980001 340:0.1972 341:-0.24439999 342:-0.6918 343:-0.69980001 344:-0.85680002 345:-0.92140001 346:-0.92739999 347:-0.96079999 348:-0.94499999 349:-1 350:-1 351:-1 352:-1 353:-1 354:-1 355:-1 356:-1 357:-1 358:-0.97839999 359:-0.97920001 360:-0.8114 361:-0.479 362:-0.4808 363:-0.70719999 364:-0.76620001 365:-0.4946 366:0.42519999 367:0.9364 368:0.77179998 369:0.28220001 370:-0.094999999 371:-0.1956 372:-0.257 373:-0.35699999 374:-0.685 375:-0.8962 376:-0.90259999 377:-0.94400001 378:-0.95480001 379:-0.9526 380:-0.94319999 381:-0.9526 382:-1 383:-1 384:-1 385:-1 386:-1 387:-1 388:-1 389:-1 390:-1 391:-0.94679999 392:-0.98000002 393:-0.58340001 394:0.94 395:0.93660003 396:0.61000001 397:0.1732 398:-0.65560001 399:-0.035599999 400:0.26440001 401:0.2976 402:0.22 403:-0.048999999 404:-0.27779999 405:-0.55339998 406:-0.7978 407:-0.76239997 408:-0.84240001 409:-0.69999999 410:-0.70679998 411:-0.72680002 412:-0.76679999 413:-0.49340001 414:-0.74000001 415:-1 416:-1 417:-1 418:-1 419:-1 420:-1 421:-1 422:-1 423:-1 424:-0.51419997 425:1 426:1 427:1 428:0.0286 429:0.65719998 430:0.6286 431:1 432:1 433:-0.42860001 434:-0.71420002 435:-0.3714 436:-0.77139997 437:-0.8858 438:-0.94279999 439:-0.4858 440:0.40000001 441:0.1714 442:-0.85720003 443:-0.8858 444:-0.91420001 445:-0.91420001 446:-1 447:-0.3714 448:-1 449:-1 450:-1 451:-1 452:-1 453:-0.1202 454:-0.043200001 455:-0.0022 456:0.058600001 457:0.1194 458:0.191 459:0.27200001 460:0.32820001 461:0.24339999 462:-0.071000002 463:0.63 464:0.61619997 465:0.62819999 466:0.65359998 467:0.66720003 468:0.66540003 469:0.6972 470:0.75340003 471:0.8452 472:0.7906 473:-0.54659998 474:0.046999998 475:-0.77359998 476:-0.69419998 477:-0.53719997 478:-0.38679999 479:-0.1514 480:1 481:-0.89840001 482:-0.44159999 483:-0.40599999 484:-0.1522 485:-0.20299999 486:-0.1928 487:-0.16760001 488:-0.0152 489:-0.020400001 490:0.086199999 491:0.1066 492:0.3908 493:0.40599999 494:0.36539999 495:0.41620001 496:0.44679999 497:0.88319999 498:0.86299998 499:0.88319999 500:0.995 501:1 502:0.81720001 503:0.94919997 504:0.73100001 505:0.59899998 506:0.63959998 507:0.72079998 508:0.74119997 509:0.66500002 510:0.57359999 511:0.53299999 512:0.3046 513:-0.94239998 514:-0.48559999 515:-0.4664 516:-0.2692 517:-0.27399999 518:-0.3414 519:-0.1058 520:0.086599998 521:0.2212 522:0.2308 523:0.2836 524:0.2692 525:0.36059999 526:0.12980001 527:0.149 528:0.375 529:0.6972 530:0.63459998 531:0.55760002 532:0.75 533:1 534:0.80760002 535:0.86540002 536:0.59140003 537:0.61540002 538:0.69239998 539:0.73559999 540:0.66339999 541:0.54320002 542:0.68260002 543:0.226 544:0.067400001 545:-0.40959999 546:-0.1366 547:-0.2114 548:-0.0484 549:-0.0176 550:0.066 551:0.1454 552:0.1586 553:0.6652 554:0.71799999 555:0.6124 556:0.87220001 557:0.815 558:0.6476 559:0.6476 560:0.74000001 561:1 562:0.63440001 563:0.66960001 564:0.96920002 565:0.74879998 566:0.66079998 567:0.65640002 568:0.64319998 569:0.52859998 570:0.55059999 571:0.50660002 572:0.44060001 573:0.41859999 574:0.29519999 575:0.25560001 576:-0.1014 577:-0.3486 578:-1 579:-1 580:1 581:-1 582:-1 583:-1 584:-0.066600002 585:1 586:-0.31619999 587:-0.3504 588:0.1112 589:0.19660001 590:0.1452 591:0.2992 592:0.55559999 593:0.93159997 594:0.79479998 595:0.64099997 596:1 597:1 598:0.40180001 599:0.40180001 600:0.77780002 601:0.5898 602:0.28200001 603:0.2992 604:0.76059997 605:0.76059997 606:0.52139997 607:0.19660001 608:0.40180001 609:0.43579999 610:-0.042800002 611:-0.43579999 612:0.0086000003 613:0.16240001 614:-0.19660001 615:-0.16240001 616:0.059799999 617:-0.1112 #
-0.25115290480762630931366174991126 1:0.082400002 2:0.98820001 3:1 4:0.67839998 5:0.47839999 6:-0.0902 7:-0.32539999 8:-0.29800001 9:-0.43920001 10:-0.80400002 11:-0.59600002 12:-0.3608 13:-0.4666 14:-0.39219999 15:-0.44319999 16:-0.38820001 17:-0.57639998 18:-0.61180001 19:-0.60000002 20:-0.43920001 21:-0.38440001 22:0.1098 23:0.50980002 24:0.6196 25:0.60000002 26:0.68620002 27:0.69019997 28:0.69800001 29:0.6196 30:0.65499997 31:0.4862 32:0.41960001 33:0.124 34:0.829 35:0.74860001 36:0.69639999 37:0.49739999 38:-0.0436 39:-0.34040001 40:-0.65439999 41:-0.94059998 42:-0.85339999 43:-0.71020001 44:-0.69639999 45:-0.47999999 46:-0.52880001 47:-0.50440001 48:-0.54280001 49:-0.56019998 50:-0.69279999 51:-0.68940002 52:-0.67879999 53:-0.51139998 54:0.2322 55:0.3856 56:0.94059998 57:1 58:0.801 59:0.7766 60:0.93019998 61:0.86739999 62:0.74180001 63:0.6336 64:0.50440001 65:0.27020001 66:0.97640002 67:0.84619999 68:0.92500001 69:0.60159999 70:0.1204 71:-0.3964 72:-0.3768 73:-0.73580003 74:-0.84619999 75:-0.79879999 76:-0.75940001 77:-0.574 78:-0.46360001 79:-0.35299999 80:-0.2938 81:-0.2978 82:-0.28600001 83:-0.2308 84:-0.0138 85:0.096600004 86:0.2308 87:0.66460001 88:0.82639998 89:0.97640002 90:1 91:0.98019999 92:0.87779999 93:0.93300003 94:0.77520001 95:0.65679997 96:0.574 97:0.077 98:0.66839999 99:0.5316 100:0.69239998 101:0.347 102:-0.028999999 103:-0.31619999 104:-0.37099999 105:-0.57599998 106:-0.72640002 107:-0.7676 108:-0.74019998 109:-0.73000002 110:-0.73000002 111:-0.73680001 112:-0.67519999 113:-0.73339999 114:-0.56239998 115:-0.26159999 116:-0.118 117:0.21699999 118:0.27520001 119:0.81199998 120:0.7676 121:1 122:0.80180001 123:0.92820001 124:0.85979998 125:0.92479998 126:0.75040001 127:0.71280003 128:0.6548 129:0.050000001 130:0.68019998 131:0.60259998 132:0.66720003 133:0.46360001 134:0.0146 135:-0.37639999 136:-0.37 137:-0.64139998 138:-0.59619999 139:-0.9774 140:-0.86760002 141:-0.70920002 142:-0.70599997 143:-0.56379998 144:-0.63819999 145:-0.52499998 146:-0.412 147:-0.2536 148:-0.1212 149:0.0436 150:0.40220001 151:0.74800003 152:1 153:0.97100002 154:0.74479997 155:0.87720001 156:0.8998 157:0.81260002 158:0.69300002 159:0.58639997 160:0.59619999 161:-0.077399999 162:0.74919999 163:0.76480001 164:0.51700002 165:0.5108 166:0 167:0.0124 168:-0.33739999 169:-0.3312 170:-0.67799997 171:-0.70899999 172:-0.65319997 173:-0.5758 174:-0.62540001 175:-0.63459998 176:-0.53860003 177:-0.616 178:-0.37779999 179:-0.1176 180:0.040199999 181:0.161 182:0.45199999 183:0.89160001 184:1 185:0.7554 186:0.6688 187:0.85759997 188:0.96600002 189:0.75239998 190:0.4736 191:0.45519999 192:0.64700001 193:-0.73979998 194:0.8082 195:1 196:0.61619997 197:0.1804 198:0.109 199:-0.148 200:-0.0178 201:-0.32679999 202:-0.49599999 203:-0.47639999 204:-0.6552 205:-0.49919999 206:-0.44060001 207:-0.41460001 208:-0.317 209:-0.30399999 210:-0.0276 211:0.21960001 212:0.60979998 213:0.81779999 214:0.71700001 215:0.7626 216:0.69760001 217:0.7658 218:0.77880001 219:0.71700001 220:0.45699999 221:0.3822 222:0.2748 223:0.2422 224:0.36919999 225:-0.2122 226:0.87879997 227:1 228:0.45460001 229:-0.2728 230:-0.090999998 231:-0.2122 232:-0.2122 233:-0.39399999 234:-0.51520002 235:-0.1516 236:-0.090999998 237:-0.33340001 238:-0.1516 239:-0.1516 240:-0.2728 241:-0.2728 242:-0.5758 243:-0.33340001 244:-0.51520002 245:-0.63639998 246:-0.1516 247:0.2728 248:0.39399999 249:-0.2122 250:-0.030400001 251:0.33340001 252:0.2728 253:-0.090999998 254:0.1516 255:0.030400001 256:0.030400001 257:0.26539999 258:0.95920002 259:1 260:0.796 261:0.59179997 262:-0.020400001 263:-0.020400001 264:-0.020400001 265:-0.020400001 266:-0.59179997 267:-0.38780001 268:0.020400001 269:-0.020400001 270:-0.0612 271:0.020400001 272:-0.0612 273:-0.42860001 274:-0.18359999 275:0.020400001 276:0.020400001 277:-0.18359999 278:0.18359999 279:0.59179997 280:0.59179997 281:0.3062 282:0.46939999 283:0.38780001 284:0.63260001 285:0.75520003 286:0.63260001 287:0.796 288:0.71420002 289:0.3044 290:1 291:0.91299999 292:0.94199997 293:0.6232 294:0.1594 295:-0.3624 296:-0.39140001 297:-0.65219998 298:-0.82599998 299:-0.68120003 300:-0.71020001 301:-0.42019999 302:-0.33340001 303:-0.33340001 304:-0.33340001 305:-0.4492 306:-0.1304 307:-0.27540001 308:0.1014 309:0.1304 310:0.33340001 311:0.79720002 312:0.91299999 313:0.56519997 314:0.65219998 315:0.4492 316:0.47819999 317:0.7392 318:0.6232 319:0.56519997 320:0.68120003 321:-1 322:-1 323:-1 324:-1 325:-1 326:-1 327:-1 328:-1 329:-1 330:-0.97860003 331:-0.96740001 332:0.53320003 333:0.454 334:0.5456 335:0.47839999 336:0.24860001 337:0.1174 338:0.1988 339:0.26800001 340:0.2242 341:0.36559999 342:0.22220001 343:-0.73259997 344:-0.94620001 345:-0.9472 346:-0.9472 347:-0.96439999 348:-1 349:-1 350:-1 351:-1 352:-1 353:-1 354:-1 355:-1 356:-1 357:-1 358:-1 359:-1 360:-1 361:-1 362:-1 363:-0.95999998 364:-0.94480002 365:0.54479998 366:0.64719999 367:0.80479997 368:0.66860002 369:0.4896 370:0.47 371:0.58759999 372:0.71319997 373:0.56160003 374:0.59740001 375:0.45919999 376:-0.61159998 377:-0.73799998 378:-0.78079998 379:-0.82099998 380:-0.8994 381:-1 382:-1 383:-1 384:-1 385:-1 386:-1 387:-1 388:-1 389:-1 390:-1 391:-1 392:-1 393:-1 394:-1 395:-1 396:-0.96679997 397:-0.88679999 398:-0.87120003 399:-0.87120003 400:-0.8556 401:-0.90679997 402:-0.86000001 403:-0.86680001 404:-0.77200001 405:-0.82800001 406:-0.84200001 407:-0.89999998 408:-0.92199999 409:-0.54000002 410:-0.079999998 411:-0.11 412:-0.29679999 413:-0.56 414:-1 415:-1 416:-1 417:-1 418:-1 419:-1 420:-1 421:-1 422:-1 423:-1 424:-1 425:-1 426:-1 427:-1 428:-1 429:-0.65719998 430:1 431:1 432:-0.6286 433:-0.7428 434:-0.77139997 435:-0.68580002 436:-1 437:-0.8858 438:-1 439:-0.85720003 440:-0.68580002 441:0.0286 442:-0.2 443:-0.31420001 444:-0.4858 445:-0.34279999 446:-0.40000001 447:-1 448:-1 449:-1 450:-1 451:-1 452:-1 453:-0.1374 454:-0.1446 455:-0.1314 456:-0.1416 457:-0.145 458:-0.1736 459:-0.1842 460:-0.22759999 461:-0.21520001 462:-0.0748 463:0.84859997 464:0.84960002 465:0.87519997 466:0.88260001 467:0.87559998 468:0.91540003 469:1 470:1 471:1 472:1 473:-0.70660001 474:0.1058 475:-0.95279998 476:-0.41460001 477:0.97420001 478:0.6142 479:0.52780002 480:0.24160001 481:0.042800002 482:0.24779999 483:0.5898 484:0.7094 485:0.57260001 486:0.57260001 487:0.5898 488:0.79479998 489:1 490:0.50419998 491:0.53839999 492:0.48719999 493:0.79479998 494:0.5898 495:0.36759999 496:0.33340001 497:0.16240001 498:0.65820003 499:0.45300001 500:0.38460001 501:0.55559999 502:0.57260001 503:0.60680002 504:0.74360001 505:0.28200001 506:0.74360001 507:0.57260001 508:0.67519999 509:0.3504 510:0.5898 511:-0.077 512:-0.28200001 513:0.1594 514:0.2174 515:0.53619999 516:0.65219998 517:0.4928 518:0.40580001 519:0.46380001 520:1 521:0.95660001 522:0.5072 523:0.89859998 524:0.66659999 525:0.81160003 526:0.4492 527:0.7536 528:0.8696 529:0.91299999 530:0.76819998 531:0.46380001 532:0.53619999 533:0.3188 534:0.3188 535:0.59420002 536:0.56519997 537:0.66659999 538:0.3768 539:0.53619999 540:0.3044 541:0.1884 542:0.043400001 543:0.17399999 544:-0.3188 545:-0.1152 546:-0.090999998 547:-0.042399999 548:0.3576 549:0.1758 550:0.2242 551:0.39399999 552:0.1758 553:0.51520002 554:0.3576 555:0.55159998 556:0.81819999 557:0.9152 558:0.80599999 559:0.68480003 560:0.79400003 561:0.62419999 562:1 563:0.70899999 564:0.5758 565:0.4666 566:0.2728 567:0.40599999 568:0.62419999 569:0.3818 570:0.41819999 571:0.45460001 572:0.1636 573:0.0788 574:0.40599999 575:0.32120001 576:-0.1516 577:-0.98400003 578:1 579:-1 580:-1 581:-1 582:-1 583:-0.80000001 584:-1 585:-1 586:-0.47060001 587:-0.2058 588:0.147 589:0.073600002 590:0.1912 591:0.058800001 592:0.30880001 593:0.17640001 594:0.75 595:0.97060001 596:0.98519999 597:0.69120002 598:1 599:0.9558 600:0.82359999 601:0.5442 602:0.55879998 603:0.058800001 604:0.3382 605:0.3382 606:0.39700001 607:0.44119999 608:0.2942 609:0.2942 610:0.2058 611:-0.0148 612:0.27939999 613:0.13240001 614:-0.2352 615:-0.2352 616:0.103 617:-0.0294 #
0.10745996314094380386094940149633 1:-0.163 2:0.3734 3:0.5108 4:0.5194 5:0.1374 6:-0.29620001 7:-0.4506 8:-0.5966 9:-0.57520002 10:-0.71240002 11:-0.67379999 12:-0.588 13:-0.54939997 14:-0.42480001 15:-0.30039999 16:-0.249 17:-0.1802 18:0.043000001 19:0.1374 20:0.5108 21:0.64380002 22:0.588 23:0.3734 24:0.47220001 25:0.43779999 26:0.6652 27:0.97420001 28:1 29:0.9914 30:0.90979999 31:0.86260003 32:0.83700001 33:-0.199 34:0.25920001 35:1 36:0.95840001 37:-0.22220001 38:-0.56480002 39:-0.72680002 40:-0.70840001 41:-0.97680002 42:-0.88880002 43:-0.74540001 44:-0.75 45:-0.699 46:-0.676 47:-0.50459999 48:-0.37959999 49:-0.25920001 50:-0.2362 51:0.050999999 52:0.56940001 53:0.77319998 54:0.73140001 55:0.43520001 56:0.41659999 57:0.45379999 58:0.63880002 59:0.75 60:0.926 61:0.90740001 62:0.76380002 63:0.60640001 64:0.68519998 65:-0.2154 66:0.40439999 67:0.97579998 68:0.787 69:-0.45280001 70:-0.73839998 71:-0.82560003 72:-0.86440003 73:-0.82560003 74:-0.86919999 75:-0.91280001 76:-0.85960001 77:-0.86919999 78:-0.7482 79:-0.5302 80:-0.54000002 81:-0.63200003 82:-0.49160001 83:-0.017000001 84:0.1962 85:0.44299999 86:0.7288 87:0.59799999 88:0.138 89:0.167 90:0.22040001 91:0.40439999 92:0.78200001 93:0.82080001 94:0.88380003 95:0.96619999 96:1 97:-0.244 98:0.37400001 99:0.74400002 100:0.58139998 101:-0.435 102:-0.63819999 103:-0.78860003 104:-0.90240002 105:-0.77640003 106:-0.63419998 107:-0.84560001 108:-0.6178 109:-0.56099999 110:-0.71139997 111:-0.55699998 112:-0.56919998 113:-0.47960001 114:-0.248 115:-0.2032 116:0.34560001 117:0.53659999 118:0.73180002 119:0.565 120:0.2032 121:0.28459999 122:0.37799999 123:0.52039999 124:0.87400001 125:1 126:1 127:0.9716 128:0.9228 129:-0.23379999 130:0.25139999 131:0.67320001 132:0.52539998 133:-0.58880001 134:-0.57120001 135:-0.67659998 136:-0.76800001 137:-0.83840001 138:-0.68360001 139:-0.54659998 140:-0.59579998 141:-0.69779998 142:-0.50080001 143:-0.52200001 144:-0.47620001 145:-0.33219999 146:-0.2022 147:-0.075599998 148:0.17039999 149:0.43759999 150:0.58520001 151:0.54659998 152:0.26539999 153:0.26539999 154:0.47279999 155:0.49039999 156:0.70480001 157:1 158:0.8876 159:0.97899997 160:0.884 161:-0.27559999 162:0.171 163:0.74239999 164:0.62580001 165:-0.63380003 166:-0.67400002 167:-0.81080002 168:-0.76660001 169:-0.76660001 170:-0.7062 171:-0.74239999 172:-0.81480002 173:-0.59359998 174:-0.63380003 175:-0.5492 176:-0.5492 177:-0.41240001 178:-0.34400001 179:-0.1428 180:0.2394 181:0.5212 182:0.72640002 183:0.64179999 184:0.28780001 185:0.30379999 186:0.48500001 187:0.53320003 188:0.8592 189:0.96780002 190:0.98400003 191:1 192:0.9558 193:-0.056400001 194:0.37439999 195:0.82560003 196:0.82059997 197:-0.52819997 198:-0.97439998 199:-0.69739997 200:-0.6512 201:-0.77939999 202:-0.96920002 203:-0.90759999 204:-0.84100002 205:-0.62559998 206:-0.60519999 207:-0.68199998 208:-0.68720001 209:-0.42559999 210:-0.51279998 211:-0.4154 212:0.092399999 213:0.54360002 214:0.6462 215:0.5334 216:0.2974 217:0.2308 218:0.3436 219:0.68720001 220:0.73839998 221:1 222:0.82059997 223:0.67180002 224:0.64099997 225:0.1708 226:0.65859997 227:0.65859997 228:0.21960001 229:0.122 230:0.0244 231:-0.1708 232:-0.75599998 233:-0.317 234:-0.1708 235:-0.26820001 236:-0.21960001 237:-0.36579999 238:-0.36579999 239:-0.46340001 240:-0.26820001 241:-0.317 242:-0.073200002 243:-0.21960001 244:-0.1708 245:0.21960001 246:0.36579999 247:0.36579999 248:0.41460001 249:-0.122 250:0.70740002 251:0.70740002 252:0.90240002 253:1 254:0.85360003 255:0.56099999 256:0.5122 257:-0.1578 258:0.2106 259:0.579 260:0.68419999 261:0.1578 262:-0.421 263:-0.68419999 264:-0.73680001 265:-0.52640003 266:-0.68419999 267:-0.68419999 268:-0.84219998 269:-0.68419999 270:-0.31580001 271:-0.52640003 272:-0.2106 273:-0.1052 274:0 275:0.26320001 276:0.1578 277:0.78939998 278:0.579 279:0.36840001 280:0.421 281:0.4736 282:0.73680001 283:0.68419999 284:1 285:0.68419999 286:0.73680001 287:0.89480001 288:0.84219998 289:-0.066600002 290:0.44 291:1 292:0.89340001 293:0.0134 294:-0.3066 295:-0.4666 296:-0.38659999 297:-0.6534 298:-0.51999998 299:-0.57340002 300:-0.70660001 301:-0.36000001 302:-0.44 303:-0.41339999 304:-0.28 305:-0.41339999 306:-0.2 307:0.039999999 308:0.4666 309:0.68000001 310:0.86659998 311:0.4666 312:0.3066 313:0.38659999 314:0.51999998 315:0.57340002 316:0.78659999 317:0.62660003 318:0.6534 319:0.36000001 320:0.73339999 321:-1 322:-1 323:-1 324:-0.96259999 325:-0.97060001 326:-0.94499999 327:-0.67559999 328:-0.8624 329:-0.8506 330:-0.87620002 331:-0.85640001 332:0.65200001 333:0.91159999 334:0.94300002 335:0.82700002 336:0.6972 337:0.68919998 338:0.72460002 339:0.84079999 340:0.79360002 341:0.62239999 342:0.0128 343:-0.59299999 344:-0.81720001 345:-0.81720001 346:-0.85259998 347:-0.8998 348:-0.92720002 349:-0.92339998 350:-0.93120003 351:-1 352:-1 353:-1 354:-1 355:-1 356:-1 357:-0.94980001 358:-0.96020001 359:-0.57319999 360:0.39340001 361:1 362:1 363:0.3944 364:-0.38280001 365:0.4174 366:0.8326 367:0.3892 368:0.26879999 369:0.27399999 370:0.3608 371:0.5126 372:0.53979999 373:0.59619999 374:0.35879999 375:-0.29280001 376:-0.56279999 377:-0.70499998 378:-0.68720001 379:-0.78460002 380:-0.80540001 381:-0.82639998 382:-0.83780003 383:-0.86500001 384:-1 385:-1 386:-1 387:-1 388:-1 389:-1 390:-0.92680001 391:-0.98000002 392:-0.63 393:1 394:1 395:0.64660001 396:0.64660001 397:0.45660001 398:-0.5226 399:-0.58999997 400:-0.81999999 401:-0.78759998 402:-0.70499998 403:-0.73500001 404:-0.65259999 405:-0.69499999 406:-0.815 407:-0.82679999 408:-0.81339997 409:-0.2168 410:-0.2168 411:-0.18340001 412:-0.3468 413:-0.2534 414:-0.22679999 415:-0.46000001 416:-0.5668 417:-1 418:-1 419:-1 420:-1 421:-1 422:-1 423:-0.60000002 424:1 425:1 426:1 427:1 428:0.3714 429:1 430:1 431:1 432:0.1428 433:-0.1428 434:-0.91420001 435:-1 436:-1 437:-1 438:-1 439:-0.8858 440:-0.0572 441:0.34279999 442:-0.28580001 443:-0.3714 444:-0.7428 445:-0.71420002 446:-0.6286 447:-0.6286 448:-0.82859999 449:-0.6286 450:-1 451:-1 452:-1 453:-0.1014 454:-0.091600001 455:-0.0986 456:-0.1072 457:-0.1728 458:-0.21160001 459:-0.2458 460:-0.389 461:-0.49599999 462:-0.57099998 463:0.8452 464:0.87959999 465:0.88959998 466:0.9084 467:0.93620002 468:0.96939999 469:0.97399998 470:0.91799998 471:0.926 472:0.9382 473:-0.42660001 474:-0.058800001 475:-0.4404 476:-0.34619999 477:0.3484 478:0.94880003 479:0.95819998 480:1 481:-0.90499997 482:-0.39539999 483:-0.384 484:-0.23199999 485:-0.1978 486:-0.2168 487:-0.1788 488:-0.20919999 489:0.079800002 490:0.064599998 491:0.060800001 492:0.064599998 493:0.46000001 494:0.53619999 495:0.3536 496:0.41440001 497:0.54000002 498:0.49039999 499:0.63499999 500:0.73760003 501:0.8556 502:0.91259998 503:0.86699998 504:0.75279999 505:0.90880001 506:0.96579999 507:1 508:0.80980003 509:0.7604 510:0.46380001 511:0.44100001 512:0.29660001 513:-0.86619997 514:-0.6548 515:-0.54900002 516:-0.51480001 517:-0.44940001 518:-0.4122 519:-0.29080001 520:-0.12899999 521:0.079400003 522:0.076200001 523:0.1478 524:0.25979999 525:0.69819999 526:1 527:0.51779997 528:0.2784 529:0.56459999 530:0.55199999 531:0.52100003 532:0.6796 533:0.76980001 534:0.73259997 535:0.78539997 536:0.81959999 537:0.77600002 538:0.81339997 539:0.76679999 540:0.84759998 541:0.57999998 542:0.493 543:0.43700001 544:0.22239999 545:-0.64920002 546:-0.25400001 547:-0.3346 548:-0.2782 549:-0.21780001 550:-0.26199999 551:0.0242 552:0.012 553:0.28619999 554:0.33880001 555:0.36300001 556:0.46779999 557:0.76620001 558:1 559:0.78619999 560:0.51200002 561:0.83880001 562:0.875 563:0.73799998 564:0.70160002 565:0.91540003 566:0.66939998 567:0.64120001 568:0.58060002 569:0.65319997 570:0.58060002 571:0.61699998 572:0.4596 573:0.35479999 574:0.48800001 575:0.28220001 576:0.1734 577:0.73019999 578:-1 579:-1 580:1 581:-1 582:-1 583:-0.40000001 584:0.1 585:-1 586:-0.0057999999 587:0.16760001 588:-0.1098 589:-0.098200001 590:-0.156 591:0.0174 592:-0.028999999 593:0.052000001 594:0.156 595:0.24860001 596:0.52600002 597:0.60699999 598:0.24860001 599:0.93059999 600:1 601:0.76880002 602:0.44499999 603:0.59539998 604:0.61839998 605:0.56059998 606:0.64160001 607:0.50279999 608:0.53759998 609:0.42199999 610:0.35260001 611:0.3064 612:0.3642 613:0.34099999 614:0.2138 615:0.237 616:-0.0057999999 617:-0.35260001 #
0.13295135518901346483033876211266 1:-0.26499999 2:0.4808 3:0.51380002 4:0.15539999 5:0.192 6:-0.1956 7:-0.1152 8:-0.29440001 9:-0.2102 10:-0.53200001 11:-0.30899999 12:-0.4224 13:-0.29800001 14:-0.36019999 15:-0.1664 16:-0.26140001 17:-0.17 18:-0.148 19:0.093199998 20:0.060400002 21:0.31259999 22:0.3748 23:0.66720003 24:0.79159999 25:0.81720001 26:1 27:0.91219997 28:0.80980003 29:0.82080001 30:0.82819998 31:0.72939998 32:0.64899999 33:-0.1726 34:0.30739999 35:0.30739999 36:0.3488 37:0.3308 38:0.1648 39:0.15700001 40:0.022 41:0.016799999 42:-0.048 43:-0.053199999 44:-0.053199999 45:-0.048 46:-0.1154 47:-0.1102 48:0.0298 49:0.035 50:0.15440001 51:0.18799999 52:0.2814 53:0.3644 54:0.59280002 55:0.69139999 56:0.87540001 57:1 58:0.97399998 59:0.91960001 60:0.89359999 61:0.8962 62:0.85479999 63:0.84179997 64:0.88059998 65:-0.31220001 66:0.099399999 67:0.1464 68:0.33419999 69:0.1824 70:0.0138 71:-0.20720001 72:-0.20720001 73:-0.2762 74:-0.27340001 75:-0.39219999 76:-0.41159999 77:-0.46959999 78:-0.34799999 79:-0.22920001 80:-0.185 81:-0.13259999 82:-0.093999997 83:0.046999998 84:0.14920001 85:0.28459999 86:0.38960001 87:0.58279997 88:0.79839998 89:0.94480002 90:1 91:0.9752 92:0.84539998 93:0.87559998 94:0.88120002 95:0.84799999 96:0.85640001 97:-0.43220001 98:-0.113 99:0.37099999 100:0.4032 101:-0.14839999 102:-0.3612 103:-0.4032 104:-0.52579999 105:-0.56120002 106:-0.64520001 107:-0.64840001 108:-0.55800003 109:-0.59680003 110:-0.51300001 111:-0.4032 112:-0.41620001 113:-0.3838 114:-0.37740001 115:-0.29679999 116:-0.12899999 117:-0.0031999999 118:0.1936 119:0.35479999 120:0.6354 121:0.93879998 122:1 123:0.93879998 124:0.87099999 125:0.8484 126:0.75160003 127:0.70959997 128:0.75160003 129:-0.36739999 130:0.3184 131:0.75059998 132:0.54119998 133:0.046799999 134:-0.1938 135:-0.37200001 136:-0.53219998 137:-0.53219998 138:-0.55019999 139:-0.6882 140:-0.71039999 141:-0.68379998 142:-0.84399998 143:-0.79519999 144:-0.77719998 145:-0.75940001 146:-0.6124 147:-0.57239997 148:-0.41639999 149:-0.36739999 150:-0.1626 151:0.1314 152:0.54119998 153:0.73720002 154:1 155:0.8664 156:0.80400002 157:0.67479998 158:0.61699998 159:0.34079999 160:0.4032 161:-0.44440001 162:0.55559999 163:0.7324 164:0.52020001 165:0.030400001 166:-0.29300001 167:-0.43439999 168:-0.54540002 169:-0.55059999 170:-0.6566 171:-0.69199997 172:-0.61619997 173:-0.51520002 174:-0.67180002 175:-0.8434 176:-0.80800003 177:-0.89899999 178:-0.85360003 179:-0.79299998 180:-0.67680001 181:-0.43439999 182:-0.0656 183:0.106 184:0.64139998 185:0.94940001 186:1 187:0.89399999 188:0.85360003 189:0.92919999 190:0.9242 191:0.61119998 192:0.5758 193:-0.52939999 194:0.038600001 195:0.213 196:0.213 197:-0.28200001 198:-0.72000003 199:-0.71600002 200:-0.708 201:-0.72000003 202:-0.81739998 203:-0.95539999 204:-0.85399997 205:-0.75260001 206:-0.74440002 207:-0.6552 208:-0.73220003 209:-0.74040002 210:-0.57800001 211:-0.48480001 212:-0.29820001 213:-0.091200002 214:0.018200001 215:0.1076 216:0.5862 217:0.92299998 218:1 219:0.91479999 220:0.94319999 221:0.84579998 222:0.73220003 223:0.505 224:0.35100001 225:-0.2 226:0.51120001 227:0.51120001 228:0.1112 229:-0.066600002 230:-0.1112 231:-0.2 232:-0.37779999 233:-0.6444 234:-0.51120001 235:-0.2 236:-0.1112 237:-0.33340001 238:-0.60000002 239:-0.55559999 240:-0.4666 241:-0.6444 242:-0.066600002 243:0.1112 244:0.1112 245:0.1112 246:0.2888 247:0.60000002 248:0.73339999 249:0.60000002 250:0.55559999 251:1 252:1 253:1 254:0.95560002 255:0.73339999 256:0.42219999 257:-0.23999999 258:0.56 259:0.60000002 260:0.039999999 261:0.16 262:-0.16 263:-0.12 264:-0.28 265:-0.2 266:-0.51999998 267:-0.40000001 268:-0.47999999 269:-0.56 270:-0.40000001 271:-0.28 272:-0.56 273:-0.31999999 274:-0.44 275:-0.079999998 276:-0.039999999 277:0.2 278:0.28 279:0.60000002 280:0.72000003 281:0.80000001 282:1 283:0.88 284:0.75999999 285:0.72000003 286:0.80000001 287:0.68000001 288:0.80000001 289:-0.44319999 290:-0.2164 291:0.44319999 292:0.4226 293:-0.23720001 294:-0.31959999 295:-0.44319999 296:-0.52579999 297:-0.58759999 298:-0.73199999 299:-0.69080001 300:-0.60820001 301:-0.56699997 302:-0.54640001 303:-0.54640001 304:-0.50520003 305:-0.46399999 306:-0.50520003 307:-0.40200001 308:-0.3608 309:-0.0722 310:0.134 311:0.2164 312:0.46399999 313:0.87620002 314:1 315:1 316:0.89700001 317:0.87620002 318:0.73199999 319:0.69080001 320:0.67019999 321:-1 322:-1 323:-0.96939999 324:-0.98140001 325:-0.9774 326:-0.97399998 327:-0.90039998 328:-0.87180001 329:-0.59820002 330:-0.7058 331:-0.83200002 332:0.50239998 333:0.70700002 334:0.2608 335:0.183 336:0.2474 337:0.5848 338:0.7676 339:0.52179998 340:0.096000001 341:-0.35299999 342:-0.3822 343:-0.7098 344:-0.78939998 345:-0.87580001 346:-0.94819999 347:-0.9368 348:-0.96020001 349:-0.94880003 350:-1 351:-1 352:-1 353:-1 354:-1 355:-1 356:-0.9806 357:-0.98019999 358:-0.97479999 359:-0.98860002 360:-0.68239999 361:-0.048 362:-0.25119999 363:-0.61720002 364:-0.7852 365:-0.51560003 366:0.6286 367:0.57239997 368:0.36880001 369:0.32359999 370:0.1586 371:-0.31639999 372:-0.55500001 373:-0.65020001 374:-0.7554 375:-0.71679997 376:-0.91140002 377:-0.92500001 378:-0.93940002 379:-0.94980001 380:-0.9562 381:-0.96460003 382:-0.96439999 383:-1 384:-1 385:-1 386:-1 387:-1 388:-1 389:-0.56639999 390:-0.57300001 391:-0.69980001 392:-0.67299998 393:-0.2298 394:1 395:0.52359998 396:0.33360001 397:0.2502 398:-0.61739999 399:-0.18880001 400:0.082599998 401:0.134 402:0.1112 403:-0.13160001 404:-0.68159997 405:-0.8976 406:-0.92259997 407:-0.59759998 408:-0.54259998 409:-0.70999998 410:-0.42340001 411:-0.28 412:-0.1434 413:-0.2068 414:-0.1134 415:-0.1868 416:-1 417:-1 418:-1 419:-1 420:-1 421:-1 422:0.0572 423:-0.8858 424:0.28580001 425:1 426:1 427:1 428:1 429:1 430:0.60000002 431:1 432:1 433:-0.57139999 434:-0.65719998 435:-0.80000001 436:0.1428 437:0.2286 438:-0.2286 439:-0.60000002 440:-0.0858 441:1 442:1 443:-0.7428 444:-0.77139997 445:-0.34279999 446:-0.45719999 447:-0.65719998 448:-0.42860001 449:-1 450:-1 451:-1 452:-1 453:-0.036600001 454:0.021 455:0.050799999 456:0.0902 457:0.1656 458:0.233 459:0.30700001 460:0.37639999 461:0.3624 462:0.15539999 463:1 464:1 465:1 466:1 467:1 468:1 469:1 470:1 471:1 472:1 473:-0.57340002 474:-0.153 475:-0.80580002 476:-0.76279998 477:-0.52999997 478:-0.082800001 479:0.37259999 480:1 481:-0.88380003 482:-0.49219999 483:-0.252 484:-0.2714 485:-0.2286 486:-0.1124 487:-0.058200002 488:-0.093000002 489:0.030999999 490:0.3644 491:0.68599999 492:0.61619997 493:0.31 494:0.30239999 495:0.4844 496:0.54659998 497:0.67820001 498:0.64340001 499:0.50379997 500:0.81400001 501:1 502:0.96899998 503:0.95740002 504:0.96899998 505:0.8682 506:0.8488 507:0.76740003 508:0.7906 509:0.76359999 510:0.6706 511:0.49219999 512:0.26359999 513:-0.53079998 514:-0.61479998 515:-0.59500003 516:-0.5704 517:-0.51120001 518:-0.32339999 519:-0.2098 520:-0.0766 521:0.1604 522:0.34819999 523:0.4716 524:0.96039999 525:0.88639998 526:0.69379997 527:0.50120002 528:0.51120001 529:0.53079998 530:0.47659999 531:0.35800001 532:0.4172 533:0.67400002 534:1 535:0.96039999 536:0.96539998 537:0.96539998 538:0.72839999 539:0.7432 540:0.68879998 541:0.53079998 542:0.43200001 543:0.32339999 544:0.19499999 545:-0.27959999 546:-0.055199999 547:0.015799999 548:-0.0118 549:-0.090599999 550:-0.2166 551:-0.015799999 552:0.1102 553:0.1772 554:0.4016 555:0.5984 556:0.93699998 557:0.96060002 558:0.7992 559:0.95279998 560:0.86619997 561:0.86619997 562:0.87 563:0.68120003 564:0.45280001 565:0.79519999 566:0.86220002 567:0.86220002 568:1 569:0.88980001 570:0.8976 571:0.96460003 572:0.82679999 573:0.66140002 574:0.51179999 575:0.46059999 576:0.0196 577:0.35120001 578:-1 579:-1 580:1 581:-1 582:-1 583:-0.2 584:-0.066600002 585:-1 586:-0.1666 587:-0.059599999 588:0.1786 589:0.4404 590:0.2262 591:0.071400002 592:0.1666 593:0.1666 594:0.047600001 595:0.3096 596:0.46419999 597:0.89279997 598:1 599:0.9048 600:0.83340001 601:0.5952 602:0.5952 603:0.73799998 604:0.76200002 605:0.48800001 606:0.57139999 607:0.61900002 608:0.60720003 609:0.2976 610:0.23800001 611:0.059599999 612:0 613:0.2262 614:0.38100001 615:0.27379999 616:-0.119 617:-0.53579998 #
0.54308050637182558872950721706729 1:-0.59259999 2:-0.087399997 3:0.1376 4:0.28299999 5:-0.17200001 6:-0.55019999 7:-0.65600002 8:-0.59259999 9:-0.79360002 10:-0.60320002 11:-0.5952 12:-0.5794 13:-0.53960001 14:-0.52920002 15:-0.49200001 16:-0.52920002 17:-0.574 18:-0.52920002 19:-0.32800001 20:-0.1296 21:0.0106 22:0.40220001 23:0.69319999 24:0.91799998 25:0.88099998 26:0.70099998 27:0.78839999 28:0.9576 29:1 30:0.8624 31:0.67460001 32:0.3942 33:-0.6548 34:-0.31619999 35:0.0526 36:0.1126 37:-0.51340002 38:-0.69559997 39:-0.76200002 40:-0.8114 41:-0.8822 42:-0.7234 43:-0.67640001 44:-0.63120002 45:-0.59060001 46:-0.63120002 47:-0.61199999 48:-0.51560003 49:-0.51120001 50:-0.64639997 51:-0.29260001 52:-0.17039999 53:0.1276 54:0.29260001 55:0.54979998 56:0.9206 57:1 58:0.76639998 59:0.77499998 60:0.98500001 61:0.93779999 62:0.96579999 63:0.79640001 64:0.67839998 65:-0.60799998 66:-0.2802 67:0.1296 68:0.1672 69:-0.55479997 70:-0.65899998 71:-0.74980003 72:-0.62559998 73:-0.78960001 74:-0.79619998 75:-0.588 76:-0.59460002 77:-0.76740003 78:-0.62559998 79:-0.59240001 80:-0.56819999 81:-0.639 82:-0.6124 83:-0.3576 84:-0.3134 85:-0.1472 86:0.3644 87:0.58579999 88:0.87599999 89:0.78079998 90:0.82499999 91:0.88260001 92:0.86720002 93:1 94:0.86720002 95:0.84280002 96:0.66119999 97:-0.60000002 98:-0.26100001 99:0.182 100:0.2022 101:-0.56840003 102:-0.71759999 103:-0.80119997 104:-0.704 105:-0.80339998 106:-0.85320002 107:-0.84179997 108:-0.74239999 109:-0.60000002 110:-0.6724 111:-0.64060003 112:-0.63160002 113:-0.60900003 114:-0.56160003 115:-0.43720001 116:-0.148 117:-0.0055999998 118:0.331 119:0.71520001 120:0.94120002 121:0.83499998 122:0.88239998 123:0.88480002 124:0.89380002 125:1 126:0.87580001 127:0.81919998 128:0.65880001 129:-0.5934 130:-0.24160001 131:0.176 132:0.2154 133:-0.51480001 134:-0.64380002 135:-0.79680002 136:-0.75520003 137:-0.85140002 138:-0.7748 139:-0.79680002 140:-0.764 141:-0.70499998 142:-0.71359998 143:-0.65460002 144:-0.63940001 145:-0.66780001 146:-0.52780002 147:-0.48859999 148:-0.1868 149:0.1038 150:0.45140001 151:0.52139997 152:0.94760001 153:0.86019999 154:1 155:0.954 156:0.95200002 157:0.801 158:0.62180001 159:0.70719999 160:0.495 161:-0.52359998 162:-0.032400001 163:0.32359999 164:0.4382 165:-0.45300001 166:-0.5794 167:-0.6706 168:-0.60299999 169:-0.74419999 170:-0.78820002 171:-0.80299997 172:-0.63520002 173:-0.61479998 174:-0.72640002 175:-0.74419999 176:-0.74699998 177:-0.70300001 178:-0.66759998 179:-0.50300002 180:-0.39120001 181:-0.067599997 182:0.33239999 183:0.83520001 184:0.92940003 185:0.8294 186:1 187:0.9824 188:0.98820001 189:0.57059997 190:0.29699999 191:0.34119999 192:0.24420001 193:-0.58759999 194:0.47940001 195:0.2886 196:0.2216 197:-0.103 198:-0.53100002 199:-0.56699997 200:-0.44839999 201:-0.77319998 202:-0.96399999 203:-0.59799999 204:-0.38659999 205:-0.29899999 206:-0.47940001 207:-0.366 208:-0.34540001 209:-0.46399999 210:-0.4226 211:-0.1494 212:0.19580001 213:0.56699997 214:0.7062 215:0.76279998 216:0.95880002 217:1 218:0.96899998 219:0.9382 220:0.78860003 221:0.3608 222:0.38139999 223:0.051600002 224:0.030999999 225:-0.2 226:0.3714 227:0.2572 228:0.31420001 229:0.1428 230:-0.31420001 231:-0.1428 232:-0.0286 233:-0.60000002 234:-0.1428 235:-0.0286 236:-0.3714 237:-0.31420001 238:-0.1428 239:0.0286 240:-0.2 241:-0.4858 242:-0.31420001 243:-0.0286 244:0.1428 245:0.2572 246:0.31420001 247:0.2 248:0.54280001 249:0.65719998 250:0.42860001 251:0.71420002 252:0.77139997 253:0.8858 254:1 255:0.60000002 256:0.4858 257:-0.26320001 258:0.2106 259:0.1578 260:0.4736 261:0 262:-0.421 263:-0.31580001 264:-0.31580001 265:-0.52640003 266:-0.421 267:-0.36840001 268:-0.2106 269:-0.1052 270:-0.31580001 271:-0.36840001 272:-0.31580001 273:-0.63160002 274:-0.52640003 275:-0.26320001 276:-0.1578 277:0.2106 278:0.1578 279:0.78939998 280:0.89480001 281:0.84219998 282:0.1578 283:0.2106 284:1 285:0.89480001 286:0.579 287:0.36840001 288:0.2106 289:-0.45840001 290:-0.14579999 291:0.25 292:0.29159999 293:-0.39579999 294:-0.66659999 295:-0.56239998 296:-0.54159999 297:-0.85420001 298:-0.68760002 299:-0.5 300:-0.43759999 301:-0.625 302:-0.45840001 303:-0.41659999 304:-0.60420001 305:-0.54159999 306:-0.39579999 307:-0.41659999 308:-0.1042 309:0.2084 310:0.52079999 311:0.625 312:0.95840001 313:0.89579999 314:0.97920001 315:0.97920001 316:1 317:0.72920001 318:0.60420001 319:0.68760002 320:0.5 321:-0.89200002 322:-0.82020003 323:-0.7626 324:-0.7554 325:-0.78420001 326:-0.82740003 327:-0.80580002 328:-0.68339998 329:-0.61879998 330:-0.78420001 331:-0.7554 332:0.41 333:0.81300002 334:0.58279997 335:0.70499998 336:0.89920002 337:0.85619998 338:0.90640002 339:0.7554 340:0.38839999 341:0.0071999999 342:-0.40279999 343:-0.76980001 344:-0.84179997 345:-0.82740003 346:-0.87760001 347:-1 348:-1 349:-1 350:-1 351:-1 352:-1 353:-1 354:-0.95039999 355:-0.4684 356:1 357:0.85140002 358:0.83639997 359:0.80479997 360:0.7762 361:0.2868 362:-0.1952 363:-0.6652 364:-0.81980002 365:-0.30180001 366:0.7238 367:0.88880002 368:0.45199999 369:0.419 370:0.40700001 371:0.39480001 372:0.041999999 373:-0.48339999 374:-0.67860001 375:-0.80479997 376:-0.91140002 377:-0.92339998 378:-0.86180001 379:-0.79720002 380:-1 381:-1 382:-1 383:-1 384:-1 385:-1 386:-1 387:-1 388:0.22660001 389:1 390:1 391:1 392:1 393:0.84320003 394:0.81 395:0.63319999 396:0.35319999 397:-0.16339999 398:-0.414 399:0.095200002 400:0.096799999 401:-0.22319999 402:-0.1816 403:-0.134 404:-0.1078 405:-0.092399999 406:-0.27700001 407:-0.55239999 408:-0.64480001 409:-0.75340003 410:-0.80680001 411:-0.86680001 412:-0.80680001 413:-1 414:-1 415:-1 416:-1 417:-1 418:-1 419:-1 420:1 421:1 422:1 423:-0.71420002 424:-0.85720003 425:-0.85720003 426:-0.77139997 427:-0.3714 428:0.68580002 429:1 430:1 431:0.1142 432:-0.42860001 433:-1 434:-1 435:-1 436:-1 437:-0.94279999 438:-0.8858 439:-0.60000002 440:-0.6286 441:0.1428 442:-0.40000001 443:-0.97140002 444:-0.77139997 445:0 446:-1 447:-1 448:-1 449:-1 450:-1 451:-1 452:-1 453:-0.0083999997 454:-0.0222 455:-0.0099999998 456:-0.047800001 457:-0.053199999 458:-0.043200001 459:-0.0722 460:-0.1074 461:-0.1208 462:-0.1156 463:1 464:1 465:1 466:1 467:1 468:1 469:1 470:1 471:1 472:1 473:-0.58660001 474:0.56480002 475:-0.82440001 476:-0.71020001 477:-0.55559999 478:-0.43700001 479:-0.1052 480:-0.76660001 481:-0.79579997 482:-0.73199999 483:-0.60820001 484:-0.5072 485:-0.50520003 486:-0.433 487:-0.50099999 488:-0.41440001 489:-0.32159999 490:-0.23720001 491:0.041200001 492:-0.0082 493:0.0104 494:0.28240001 495:0.42680001 496:0.30720001 497:0.4928 498:0.58139998 499:0.76279998 500:0.74440002 501:0.82880002 502:0.83719999 503:0.91140002 504:1 505:0.96899998 506:0.77520001 507:0.57120001 508:0.55059999 509:0.49700001 510:0.49079999 511:0.3712 512:0.20200001 513:-0.83999997 514:-0.78860003 515:-0.64819998 516:-0.54939997 517:-0.54339999 518:-0.4348 519:-0.36759999 520:-0.336 521:-0.1028 522:0.0276 523:0.4506 524:0.4348 525:0.2252 526:0.6778 527:0.77079999 528:0.41100001 529:0.47240001 530:0.75099999 531:0.84780002 532:0.94080001 533:1 534:0.9684 535:0.99599999 536:0.88739997 537:0.80040002 538:0.80239999 539:0.6778 540:0.60860002 541:0.4664 542:0.47819999 543:0.30840001 544:-0.035599999 545:-0.67500001 546:-0.57440001 547:-0.4862 548:-0.28960001 549:-0.3098 550:-0.2746 551:-0.2368 552:-0.2216 553:0.020199999 554:0.1688 555:0.42820001 556:0.80860001 557:0.60699999 558:0.77319998 559:0.9824 560:0.62459999 561:0.42820001 562:0.56419998 563:1 564:0.97479999 565:0.68019998 566:0.75559998 567:0.8136 568:0.6146 569:0.51380002 570:0.43079999 571:0.47600001 572:0.3854 573:0.44080001 574:0.42320001 575:0.36019999 576:0.204 577:1 578:-1 579:1 580:-1 581:-1 582:-1 583:-1 584:1 585:-1 586:-0.30160001 587:-0.34920001 588:-0.20640001 589:-0.0634 590:-0.1904 591:0.0634 592:-0.047600001 593:0.15880001 594:0.31740001 595:0.55559999 596:0.84119999 597:0.9842 598:1 599:0.58740002 600:0.25400001 601:0.23800001 602:0.41260001 603:0.47620001 604:0.50800002 605:0.26980001 606:0.1428 607:-0.031800002 608:-0.015799999 609:0.031800002 610:0.1904 611:0.17460001 612:0.095200002 613:-0.0634 614:0.1428 615:0.047600001 616:-0.031800002 617:-0.34920001 #
0.42516905636719715122495699688443 1:-0.0504 2:0.94959998 3:1 4:0.3854 5:0.3486 6:-0.2018 7:-0.2386 8:-0.39899999 9:-0.42199999 10:-0.69260001 11:-0.64219999 12:-0.5596 13:-0.53659999 14:-0.5596 15:-0.51380002 16:-0.6376 17:-0.66979998 18:-0.73400003 19:-0.59640002 20:-0.091799997 21:0.087200001 22:0.7202 23:0.93580002 24:0.64679998 25:0.7432 26:0.59179997 27:0.71560001 28:0.46340001 29:0.4862 30:0.3348 31:0.211 32:0.0046000001 33:0.1006 34:0.7342 35:0.71719998 36:0.56720001 37:0.50599998 38:0.069799997 39:-0.012 40:-0.2368 41:-0.32879999 42:-0.44119999 43:-0.50599998 44:-0.3152 45:-0.44800001 46:-0.2402 47:-0.39359999 48:-0.32539999 49:-0.43099999 50:-0.53320003 51:-0.2674 52:-0.0086000003 53:0.20280001 54:0.45480001 55:0.78539997 56:1 57:0.81940001 58:0.69340003 59:0.58780003 60:0.64219999 61:0.45820001 62:0.069799997 63:0.066399999 64:0.1108 65:0.025800001 66:0.71079999 67:0.65939999 68:0.58819997 69:0.4614 70:-0.1446 71:-0.3188 72:-0.505 73:-0.71079999 74:-0.60799998 75:-0.7148 76:-0.5564 77:-0.52880001 78:-0.41 79:-0.68720001 80:-0.61580002 81:-0.8258 82:-0.86540002 83:-0.41780001 84:-0.40599999 85:0.2238 86:0.38620001 87:1 88:0.9684 89:0.74260002 90:0.63959998 91:0.56040001 92:0.42179999 93:0.0178 94:-0.1128 95:0.037599999 96:0.105 97:0.1034 98:0.81459999 99:0.74559999 100:0.73280001 101:0.5776 102:-0.081799999 103:-0.31459999 104:-0.51719999 105:-0.77579999 106:-0.69819999 107:-0.55180001 108:-0.5 109:-0.48699999 110:-0.46560001 111:-0.62059999 112:-0.6164 113:-0.76300001 114:-0.83179998 115:-0.7112 116:-0.2068 117:0.1682 118:0.61199999 119:0.89660001 120:0.75440001 121:1 122:0.69400001 123:0.7112 124:0.30180001 125:-0.18099999 126:0.017200001 127:0.077600002 128:0.3362 129:0.1054 130:0.81019998 131:0.76800001 132:0.75520003 133:0.61180001 134:-0.0041999999 135:-0.21520001 136:-0.616 137:-0.76380002 138:-0.66659999 139:-0.61180001 140:-0.45559999 141:-0.4262 142:-0.3418 143:-0.57800001 144:-0.52740002 145:-0.62019998 146:-0.60339999 147:-0.61180001 148:-0.45559999 149:0.1476 150:0.4346 151:0.95779997 152:0.84820002 153:1 154:0.85659999 155:0.7216 156:0.48100001 157:-0.067599997 158:-0.25740001 159:-0.0506 160:0.1012 161:0.0060000001 162:0.97219998 163:1 164:0.46540001 165:0.493 166:-0.2872 167:-0.2674 168:-0.53659999 169:-0.6476 170:-0.76239997 171:-0.699 172:-0.3504 173:-0.35440001 174:-0.35839999 175:-0.41780001 176:-0.40599999 177:-0.58819997 178:-0.7306 179:-0.57620001 180:-0.2436 181:0.0060000001 182:0.37020001 183:0.66339999 184:0.84960002 185:0.76639998 186:0.7148 187:0.56440002 188:0.4258 189:0.23559999 190:-0.049600001 191:0.045600001 192:0.0614 193:-1 194:0.73460001 195:1 196:0.7306 197:-0.069399998 198:0.0099999998 199:-0.4258 200:-0.34259999 201:-0.58420002 202:-0.493 203:-0.45339999 204:-0.4892 205:-0.54860002 206:-0.54460001 207:-0.52880001 208:-0.44960001 209:-0.50099999 210:-0.4892 211:-0.58420002 212:-0.3346 213:-0.204 214:-0.0178 215:0.093000002 216:0.208 217:0.1842 218:0.44960001 219:0.44960001 220:0.2712 221:-0.0218 222:-0.26339999 223:-0.2832 224:-0.1762 225:-0.13339999 226:0.93339998 227:1 228:0.40000001 229:0.066600002 230:-0.40000001 231:-0.33340001 232:-0.26660001 233:-0.4666 234:-0.60000002 235:-0.5334 236:-0.73339999 237:-0.86659998 238:-0.5334 239:-0.2 240:-0.33340001 241:-0.5334 242:-0.4666 243:-0.80000001 244:-0.13339999 245:0.40000001 246:0.5334 247:0.93339998 248:0.5334 249:0.73339999 250:0.73339999 251:0.93339998 252:0.5334 253:0.26660001 254:0.60000002 255:0.40000001 256:0.33340001 257:0 258:0.90899998 259:1 260:0.54540002 261:0.31819999 262:-0.090999998 263:-0.18179999 264:-0.31819999 265:-0.2728 266:-0.5 267:-0.59100002 268:-0.68180001 269:-0.45460001 270:-0.36359999 271:-0.31819999 272:-0.36359999 273:-0.72719997 274:-0.68180001 275:-0.2728 276:-0.45460001 277:-0.2272 278:0.5 279:0.59100002 280:0 281:0.045400001 282:0.31819999 283:0.5 284:0.36359999 285:0 286:0.090999998 287:0 288:-0.2728 289:0.051600002 290:0.67019999 291:0.58759999 292:0.54640001 293:0.4226 294:-0.092799999 295:-0.2164 296:-0.46399999 297:-0.58759999 298:-0.46399999 299:-0.52579999 300:-0.4226 301:-0.29899999 302:-0.23720001 303:-0.56699997 304:-0.60820001 305:-0.77319998 306:-0.75260001 307:-0.56699997 308:-0.3608 309:0.25780001 310:0.2784 311:0.97939998 312:1 313:0.6494 314:0.60820001 315:0.56699997 316:0.50520003 317:0.134 318:0.092799999 319:0.0104 320:-0.0104 321:-1 322:-1 323:-1 324:-0.97920001 325:-0.9842 326:-0.92079997 327:-0.79519999 328:-0.79040003 329:-0.87239999 330:-0.90100002 331:-0.90100002 332:0.57560003 333:0.37779999 334:0.26699999 335:0.2088 336:0.1514 337:0.1434 338:0.1098 339:0.065200001 340:0.0484 341:0.175 342:-0.19580001 343:-0.71520001 344:-0.9684 345:-0.96640003 346:-0.97619998 347:-0.98119998 348:-1 349:-1 350:-1 351:-1 352:-1 353:-1 354:-1 355:-1 356:-1 357:-0.96219999 358:-0.96759999 359:-0.52859998 360:0.69999999 361:0.95679998 362:0.43340001 363:-0.098399997 364:-0.63800001 365:0.58960003 366:0.59579998 367:0.57520002 368:0.49340001 369:0.31479999 370:0.31119999 371:0.31659999 372:0.26539999 373:0.1586 374:0.22939999 375:-0.1568 376:-0.67040002 377:-0.87879997 378:-0.86260003 379:-0.8994 380:-0.94260001 381:-1 382:-1 383:-1 384:-1 385:-1 386:-1 387:-1 388:-1 389:-1 390:-0.94 391:-1 392:-0.63 393:1 394:0.92000002 395:0.57660002 396:0.50319999 397:0.17659999 398:-0.8258 399:-0.84859997 400:-0.82260001 401:-0.86000001 402:-0.88999999 403:-0.8926 404:-0.8926 405:-0.88999999 406:-0.8876 407:-0.88 408:-0.87260002 409:-0.58679998 410:-0.1734 411:-0.1068 412:-0.31999999 413:-0.78680003 414:-1 415:-1 416:-1 417:-1 418:-1 419:-1 420:-1 421:-1 422:-1 423:-0.77139997 424:1 425:1 426:1 427:-0.0858 428:0.45719999 429:1 430:1 431:1 432:0.2572 433:-0.82859999 434:-0.40000001 435:-0.65719998 436:-1 437:-1 438:-0.8858 439:-0.6286 440:-0.6286 441:-0.42860001 442:-0.2572 443:-0.45719999 444:-0.7428 445:-0.1714 446:-0.1714 447:-1 448:-1 449:-1 450:-1 451:-1 452:-1 453:-0.2308 454:-0.20119999 455:-0.193 456:-0.13779999 457:-0.1008 458:-0.045200001 459:-0.0242 460:-0.037799999 461:-0.0902 462:-0.077 463:0.96539998 464:0.96139997 465:0.9052 466:0.93379998 467:0.97759998 468:1 469:1 470:1 471:1 472:0.98140001 473:-0.77340001 474:-0.1058 475:-0.66960001 476:-0.366 477:0.87239999 478:0.85360003 479:0.60399997 480:1 481:-0.75599998 482:-0.28040001 483:-0.2318 484:-0.093400002 485:-0.17479999 486:-0.22759999 487:-0.1504 488:-0.183 489:0.044799998 490:0.036600001 491:0.14219999 492:0.0082 493:0.191 494:0.4756 495:0.3292 496:0.3822 497:0.61379999 498:0.72759998 499:0.89020002 500:0.79259998 501:0.85360003 502:1 503:0.86580002 504:0.9878 505:0.91460001 506:0.86580002 507:0.75199997 508:0.71139997 509:0.56099999 510:0.33739999 511:0.244 512:-0.064999998 513:-0.67119998 514:-0.59079999 515:-0.44940001 516:-0.38440001 517:-0.3804 518:-0.34999999 519:-0.36140001 520:-0.1778 521:-0.0592 522:0.29640001 523:0.4914 524:0.27340001 525:0.49900001 526:0.95420003 527:0.99239999 528:0.43020001 529:0.69779998 530:1 531:0.98860002 532:0.70179999 533:0.8624 534:0.977 535:0.83560002 536:0.71700001 537:0.7094 538:0.74760002 539:0.74000001 540:0.75520003 541:0.64819998 542:0.57560003 543:0.3766 544:0.20460001 545:-0.37020001 546:-0.1602 547:-0.20280001 548:-0.032000002 549:-0.089000002 550:-0.2278 551:-0.121 552:-0.19580001 553:0.025 554:0.1992 555:0.59439999 556:0.87540001 557:0.4804 558:1 559:0.91100001 560:0.66900003 561:0.6868 562:0.6868 563:0.59079999 564:0.72240001 565:0.82560003 566:0.71880001 567:0.54799998 568:0.41280001 569:0.28119999 570:0.29179999 571:0.2456 572:0.28459999 573:0.1174 574:0.1814 575:-0.0142 576:-0.40560001 577:0.72420001 578:-1 579:-1 580:1 581:-1 582:-1 583:-1 584:0.13339999 585:-1 586:-0.54680002 587:-0.375 588:-0.125 589:0.062399998 590:0.046799999 591:-0.1094 592:0.21879999 593:0.2032 594:-0.046799999 595:0.4844 596:1 597:0.73439997 598:0.67180002 599:0.76560003 600:0.32820001 601:0.56239998 602:0.60939997 603:0.046799999 604:0.15620001 605:0.31259999 606:0.1876 607:0.64060003 608:-0.0156 609:0.062399998 610:0.078199998 611:-0.078199998 612:-0.59380001 613:-0.1094 614:-0.15620001 615:-0.2344 616:-0.375 617:-0.375 #
0.13397174991233376517563158358826 1:-0.2322 2:0.81519997 3:0.87199998 4:0.60180002 5:0.63499999 6:-0.0616 7:0.047400001 8:-0.37439999 9:-0.2938 10:-0.56879997 11:-0.4454 12:-0.53079998 13:-0.2274 14:-0.31279999 15:-0.1328 16:-0.27020001 17:-0.018999999 18:-0.023600001 19:0.4928 20:0.57340002 21:0.90039998 22:1 23:0.52600002 24:0.52600002 25:0.47400001 26:0.66820002 27:0.2938 28:0.0048000002 29:-0.1516 30:-0.099600002 31:-0.2274 32:-0.1754 33:0.1168 34:0.93660003 35:0.94059998 36:0.89300001 37:0.86140001 38:0.398 39:0.38620001 40:0.1366 41:0.1406 42:-0.089199997 43:-0.077200003 44:0.0099999998 45:0.045600001 46:0.1486 47:0.1882 48:0.2436 49:0.29100001 50:0.50099999 51:0.58420002 52:0.81779999 53:0.95639998 54:0.97619998 55:1 56:0.63559997 57:0.72280002 58:0.79400003 59:0.8258 60:0.44960001 61:0.29499999 62:0.2 63:0.2278 64:0.26339999 65:0.16779999 66:0.93199998 67:0.89380002 68:0.98720002 69:0.87260002 70:0.36300001 71:0.2016 72:0.031800002 73:-0.155 74:-0.26120001 75:-0.465 76:-0.37580001 77:-0.26539999 78:-0.040399998 79:-0.2314 80:-0.065800004 81:-0.023399999 82:0.1464 83:0.3206 84:0.4734 85:0.77920002 86:0.97460002 87:0.76639998 88:0.6602 89:0.88120002 90:1 91:0.75379997 92:0.62639999 93:0.3206 94:0.3504 95:0.40560001 96:0.414 97:0.0858 98:0.76340002 99:0.66579998 100:1 101:0.73079997 102:0.030200001 103:-0.25760001 104:-0.2158 105:-0.54979998 106:-0.58700001 107:-0.76800001 108:-0.62879997 109:-0.5406 110:-0.58240002 111:-0.48019999 112:-0.41060001 113:-0.3132 114:-0.20640001 115:-0.1044 116:0.0070000002 117:0.48019999 118:0.68440002 119:0.64740002 120:0.61940002 121:0.7216 122:0.53600001 123:0.57779998 124:0.37360001 125:-0.067199998 126:-0.071999997 127:-0.0024000001 128:0.095200002 129:-0.0086000003 130:0.49559999 131:0.88260001 132:1 133:0.4522 134:-0.34779999 135:-0.35659999 136:-0.59560001 137:-0.55220002 138:-0.8434 139:-0.90859997 140:-0.96079999 141:-0.66960001 142:-0.52600002 143:-0.59560001 144:-0.5478 145:-0.51740003 146:-0.60860002 147:-0.2086 148:0.17399999 149:0.4522 150:0.58700001 151:0.58700001 152:0.58700001 153:0.50440001 154:0.4174 155:0.42179999 156:0.1304 157:-0.213 158:-0.2086 159:-0.2218 160:-0.28259999 161:-0.104 162:0.35339999 163:0.94 164:1 165:0.1132 166:-0.53820002 167:-0.60280001 168:-0.4966 169:-0.56120002 170:-0.71820003 171:-0.88919997 172:-0.85219997 173:-0.73220003 174:-0.77359998 175:-0.68120003 176:-0.5474 177:-0.57499999 178:-0.62120003 179:-0.3856 180:-0.2518 181:0.27939999 182:0.27939999 183:0.3996 184:0.4826 185:0.48719999 186:0.5334 187:0.3488 188:0.0438 189:-0.40880001 190:-0.5104 191:-0.41800001 192:-0.46880001 193:-0.056200001 194:0.48980001 195:0.88779998 196:1 197:0.204 198:-0.32659999 199:-0.62239999 200:-0.67339998 201:-0.77039999 202:-0.86739999 203:-0.91839999 204:-0.64279997 205:-0.82139999 206:-0.75520003 207:-0.96420002 208:-0.57660002 209:-0.3928 210:-0.59179997 211:-0.46939999 212:-0.0766 213:0.41839999 214:0.57139999 215:0.296 216:0.1786 217:0.3572 218:0.23459999 219:-0.0766 220:-0.454 221:-0.449 222:-0.454 223:-0.59179997 224:-0.53060001 225:-0.1892 226:0.94599998 227:0.89179999 228:0.67559999 229:0.4594 230:-0.081 231:0.1892 232:-0.027000001 233:-0.13519999 234:-0.081 235:-0.081 236:-0.29719999 237:0.027000001 238:0.2432 239:0.29719999 240:-0.081 241:-0.081 242:0.2432 243:0.67559999 244:0.78380001 245:1 246:0.89179999 247:1 248:1 249:0.78380001 250:1 251:0.78380001 252:0.35139999 253:0.29719999 254:0.29719999 255:0.35139999 256:0.2432 257:-0.1578 258:0.94739997 259:1 260:0.73680001 261:0.78939998 262:0.31580001 263:0.2106 264:0 265:-0.2106 266:-0.26320001 267:-0.31580001 268:-0.31580001 269:-0.0526 270:0 271:-0.1052 272:-0.0526 273:0.0526 274:0.1052 275:0.63160002 276:0.68419999 277:0.89480001 278:0.94739997 279:0.63160002 280:0.73680001 281:0.73680001 282:0.31580001 283:-0.52640003 284:-0.1052 285:-0.26320001 286:-0.0526 287:0.1052 288:-0.2106 289:0.1084 290:0.63859999 291:0.78320003 292:1 293:0.63859999 294:-0.1084 295:-0.27720001 296:-0.27720001 297:-0.3734 298:-0.54220003 299:-0.90359998 300:-0.54220003 301:-0.63859999 302:-0.3012 303:-0.34940001 304:-0.3976 305:-0.56620002 306:-0.44580001 307:-0.084399998 308:-0.036200002 309:0.63859999 310:0.51800001 311:0.66259998 312:0.66259998 313:0.78320003 314:0.59039998 315:0.6868 316:0.012 317:-0.18080001 318:0.13259999 319:-0.060199998 320:0.084399998 321:-1 322:-1 323:-1 324:-1 325:-0.97640002 326:-0.98000002 327:-0.61260003 328:-0.75779998 329:-0.39320001 330:-0.28619999 331:-0.69700003 332:0.67079997 333:0.84939998 334:0.7234 335:0.62819999 336:0.59640002 337:0.60540003 338:0.7044 339:0.59820002 340:0.347 341:0.024 342:-0.3624 343:-0.69700003 344:-0.92479998 345:-0.9756 346:-0.96820003 347:-0.95920002 348:-1 349:-1 350:-1 351:-1 352:-1 353:-1 354:-1 355:-1 356:-1 357:-1 358:-0.96359998 359:-0.96100003 360:0.49039999 361:1 362:0.5966 363:0.0198 364:-0.5582 365:0.58420002 366:0.97119999 367:0.89099997 368:0.759 369:0.64099997 370:0.58759999 371:0.59320003 372:0.51840001 373:0.25 374:-0.0548 375:-0.41440001 376:-0.71920002 377:-0.89579999 378:-0.94459999 379:-0.93419999 380:-0.92799997 381:-1 382:-1 383:-1 384:-1 385:-1 386:-1 387:-1 388:-1 389:-1 390:-1 391:-0.85339999 392:-0.95340002 393:0.1366 394:1 395:0.44659999 396:-0.46340001 397:-0.3468 398:-0.75440001 399:-0.8944 400:-0.92580003 401:-0.91720003 402:-0.93260002 403:-0.8976 404:-0.86260003 405:-0.90499997 406:-0.91259998 407:-0.91000003 408:-0.91500002 409:-0.93000001 410:-0.66339999 411:-0.67339998 412:-0.63340002 413:-0.6534 414:-1 415:-1 416:-1 417:-1 418:-1 419:-1 420:-1 421:-1 422:-1 423:-1 424:-0.71420002 425:1 426:1 427:1 428:0.82859999 429:1 430:1 431:1 432:-0.1142 433:-0.82859999 434:-0.80000001 435:-0.82859999 436:-0.7428 437:-0.51419997 438:-0.85720003 439:-0.94279999 440:-0.77139997 441:-0.6286 442:-0.54280001 443:-0.57139999 444:-0.85720003 445:-0.97140002 446:-0.91420001 447:-1 448:-1 449:-1 450:-1 451:-1 452:-1 453:0.1148 454:0.1488 455:0.17 456:0.1768 457:0.2172 458:0.2316 459:0.26159999 460:0.26840001 461:0.2412 462:-0.051399998 463:0.54759997 464:0.5438 465:0.53680003 466:0.51520002 467:0.54799998 468:0.54040003 469:0.59320003 470:0.66640002 471:0.773 472:0.83539999 473:-0.73339999 474:-0.1294 475:-0.63080001 476:-0.259 477:0.7924 478:0.98280001 479:0.98159999 480:1 481:-0.76340002 482:-0.38280001 483:-0.44319999 484:-0.37360001 485:-0.31779999 486:-0.30399999 487:-0.2158 488:-0.2018 489:-0.0116 490:0.2854 491:0.2854 492:0.081200004 493:0.067199998 494:0.2344 495:0.2436 496:0.1972 497:0.30860001 498:0.4386 499:0.72619998 500:0.7216 501:0.85159999 502:1 503:0.85159999 504:0.96280003 505:0.884 506:0.7216 507:0.833 508:0.73540002 509:0.54519999 510:0.4524 511:0.4014 512:0.0116 513:-0.22579999 514:-0.4102 515:-0.447 516:-0.47 517:-0.3272 518:-0.2904 519:-0.073799998 520:-0.082999997 521:0.1428 522:0.52999997 523:0.59899998 524:0.3502 525:0.47920001 526:0.3134 527:0.41940001 528:0.29960001 529:0.52999997 530:0.78799999 531:0.87559998 532:0.85259998 533:0.76959997 534:0.83880001 535:1 536:0.97240001 537:0.87559998 538:0.54839998 539:0.62220001 540:0.64520001 541:0.40560001 542:0.38240001 543:0.52999997 544:-0.032200001 545:0.068599999 546:0.1768 547:0.19760001 548:0.106 549:-0.064400002 550:0.1186 551:0.056200001 552:0.052000001 553:0.3222 554:0.84200001 555:1 556:0.70480001 557:0.89179999 558:0.80040002 559:0.4844 560:0.289 561:0.30559999 562:0.42199999 563:0.84619999 564:0.60500002 565:0.59259999 566:0.53439999 567:0.60079998 568:0.4844 569:0.50940001 570:0.43040001 571:0.46779999 572:0.3222 573:0.3348 574:0.34720001 575:0.4262 576:-0.047800001 577:1 578:-1 579:-1 580:1 581:-1 582:-1 583:-0.60000002 584:0 585:-1 586:-0.33919999 587:0 588:0.375 589:0.30360001 590:0 591:0.1072 592:0.32139999 593:0.1608 594:0.42860001 595:0.55360001 596:0.3928 597:0.96420002 598:1 599:0.2322 600:0.1608 601:0.053599998 602:-0.053599998 603:0.3572 604:0.46419999 605:0.1608 606:0.1428 607:0.25 608:0.32139999 609:0.25 610:0.41080001 611:0.1786 612:0.1072 613:-0.25 614:-0.2322 615:-0.2678 616:-0.1428 617:-0.5 #
0.05667400080326270156438894787243 1:-0.6444 2:0.75919998 3:0.84439999 4:-0.3186 5:-0.74080002 6:-0.20739999 7:0.0038000001 8:-0.40000001 9:-0.52600002 10:-0.77039999 11:-0.50739998 12:-0.50739998 13:-0.27779999 14:-0.37400001 15:-0.463 16:-0.40000001 17:-0.32600001 18:-0.30739999 19:0.2518 20:0.63700002 21:0.61860001 22:1 23:0.84820002 24:0.88520002 25:0.84079999 26:0.86299998 27:0.82599998 28:0.47400001 29:0.54079998 30:0.43700001 31:0.61860001 32:0.6074 33:-0.8326 34:0.26699999 35:0.3362 36:-0.62779999 37:-0.70859998 38:-0.4632 39:-0.2958 40:-0.63340002 41:-0.5266 42:-0.72000003 43:-0.69700003 44:-0.79500002 45:-0.45159999 46:-0.50080001 47:-0.54680002 48:-0.59299999 49:-0.59299999 50:-0.50940001 51:-0.0044 52:0.189 53:0.66240001 54:1 55:0.7518 56:0.63340002 57:0.47479999 58:0.82099998 59:0.76340002 60:0.41999999 61:0.4402 62:0.3998 63:0.5266 64:0.65359998 65:-0.74919999 66:0.1652 67:0.1596 68:-0.56699997 69:-0.62099999 70:-0.31060001 71:-0.3646 72:-0.55839998 73:-0.6354 74:-0.68940002 75:-0.75220001 76:-0.7008 77:-0.61260003 78:-0.56980002 79:-0.50999999 80:-0.72939998 81:-0.65820003 82:-0.49860001 83:-0.062600002 84:0.1566 85:0.63819999 86:0.7464 87:1 88:0.94019997 89:0.93159997 90:0.9544 91:0.67519999 92:0.62959999 93:0.63239998 94:0.6724 95:0.6354 96:0.91159999 97:-0.67119998 98:-0.2156 99:-0.3046 100:-0.20479999 101:-0.52020001 102:-0.5122 103:-0.6038 104:-0.63880002 105:-0.66579998 106:-0.69819999 107:-0.80059999 108:-0.64700001 109:-0.57959998 110:-0.65759999 111:-0.46900001 112:-0.54720002 113:-0.64700001 114:-0.58499998 115:-0.3154 116:-0.1078 117:0.36379999 118:0.70359999 119:0.87059999 120:0.7978 121:0.70880002 122:0.85180002 123:0.83819997 124:0.56599998 125:0.57419997 126:0.59020001 127:0.6846 128:1 129:-0.741 130:-0.41960001 131:0.060800001 132:-0.011 133:-0.90960002 134:-0.741 135:-0.80659997 136:-0.75660002 137:-0.75040001 138:-0.88459998 139:-0.84399998 140:-0.66619998 141:-0.66299999 142:-0.713 143:-0.50080001 144:-0.58200002 145:-0.54140002 146:-0.50080001 147:-0.41339999 148:-0.33860001 149:-0.020199999 150:0.67559999 151:0.70039999 152:0.62559998 153:0.59119999 154:0.61000001 155:0.69419998 156:0.53820002 157:0.47260001 158:0.33860001 159:0.66619998 160:1 161:-0.685 162:-0.3274 163:0.285 164:0.1682 165:-0.93980002 166:-0.62120003 167:-0.7062 168:-0.78759998 169:-0.90079999 170:-0.93279999 171:-0.72039998 172:-0.69919997 173:-0.56819999 174:-0.50440001 175:-0.43360001 176:-0.47960001 177:-0.54699999 178:-0.6566 179:-0.3592 180:-0.1116 181:0.1752 182:0.76639998 183:0.7026 184:0.75580001 185:0.69919997 186:0.64240003 187:0.83719999 188:0.55400002 189:0.43360001 190:0.51499999 191:0.62840003 192:1 193:-0.62620002 194:-0.068000004 195:0.2378 196:0.20379999 197:-0.9418 198:-0.597 199:-0.7184 200:-0.67000002 201:-0.54860002 202:-0.699 203:-0.5826 204:-0.50980002 205:-0.34959999 206:-0.48539999 207:-0.087399997 208:-0.32519999 209:-0.30579999 210:-0.27180001 211:-0.53399998 212:-0.019400001 213:0.45140001 214:1 215:0.97079998 216:0.75239998 217:0.85439998 218:0.86400002 219:0.36899999 220:0.15539999 221:0.2572 222:0.1602 223:0.45140001 224:0.5388 225:0.30239999 226:0.86040002 227:0.90700001 228:0.39539999 229:0.0232 230:0.4418 231:0.2094 232:0.48840001 233:0.30239999 234:0.069799997 235:0.1162 236:0.0232 237:0.1628 238:0.0232 239:0.30239999 240:0.4418 241:0.1162 242:0.39539999 243:0.76740003 244:0.81400001 245:0.48840001 246:0.39539999 247:0.67439997 248:0.58139998 249:0.81400001 250:1 251:0.86040002 252:0.62800002 253:0.62800002 254:0.72100002 255:0.53479999 256:0.90700001 257:-0.22220001 258:0.61119998 259:0.66659999 260:-0.33340001 261:-0.66659999 262:-0.33340001 263:-0.055599999 264:-0.33340001 265:-0.27779999 266:-0.77780002 267:-0.44440001 268:0.055599999 269:0.055599999 270:-0.055599999 271:-0.27779999 272:-0.1666 273:-0.1666 274:-0.1666 275:0.22220001 276:0.61119998 277:0.88880002 278:1 279:0.88880002 280:0.72219998 281:0.55559999 282:0.83340001 283:0.77780002 284:0.33340001 285:0.44440001 286:0.1666 287:0.3888 288:0.72219998 289:-0.77499998 290:0.175 291:0.22499999 292:-0.5 293:-0.5 294:-0.175 295:-0.125 296:-0.625 297:-0.55000001 298:-0.72500002 299:-0.72500002 300:-0.69999999 301:-0.42500001 302:-0.47499999 303:-0.27500001 304:-0.27500001 305:-0.52499998 306:-0.57499999 307:0.075000003 308:0.1 309:0.85000002 310:1 311:0.625 312:0.69999999 313:0.625 314:0.89999998 315:0.69999999 316:0.52499998 317:0.34999999 318:0.60000002 319:0.5 320:0.94999999 321:-1 322:-0.81419998 323:-0.83179998 324:-0.80540001 325:-0.59299999 326:-0.55760002 327:-0.44240001 328:-0.097400002 329:-0.45140001 330:-0.71679997 331:-0.73460001 332:0.81419998 333:0.78759998 334:0.60180002 335:0.43360001 336:0.1858 337:-0.1062 338:-0.2124 339:-0.2212 340:-0.177 341:-0.2036 342:-0.48679999 343:-0.74339998 344:-0.708 345:-0.84960002 346:-0.76999998 347:-1 348:-1 349:-1 350:-1 351:-1 352:-1 353:-1 354:-1 355:-0.83359998 356:-0.83359998 357:0.1304 358:1 359:1 360:1 361:0.95459998 362:-0.032200001 363:-0.5086 364:-0.67860001 365:0.1532 366:0.2212 367:0.4858 368:0.62580001 369:0.83359998 370:0.60299999 371:-0.085000001 372:-0.29300001 373:-0.32319999 374:-0.3572 375:-0.63319999 376:-0.75040001 377:-0.73159999 378:-0.7694 379:-0.73159999 380:-1 381:-1 382:-1 383:-1 384:-1 385:-1 386:-1 387:-1 388:-0.93339998 389:-0.94 390:-0.41679999 391:1 392:1 393:1 394:0.5 395:0.4066 396:-0.1134 397:-0.1768 398:-0.68159997 399:-0.60479999 400:-0.46000001 401:-0.21699999 402:-0.2554 403:-0.2462 404:-0.23540001 405:-0.38 406:-0.44780001 407:-0.54000002 408:-0.75580001 409:-0.94999999 410:-0.88340002 411:-0.81339997 412:-0.89999998 413:-1 414:-1 415:-1 416:-1 417:-1 418:-1 419:-1 420:-1 421:-0.94279999 422:1 423:1 424:1 425:0.57139999 426:0.2 427:0.54280001 428:0.2286 429:0.34279999 430:-0.31420001 431:0.3714 432:-0.97140002 433:-0.80000001 434:-0.85720003 435:-0.97140002 436:-0.85720003 437:-0.97140002 438:-1 439:-1 440:-0.4858 441:-0.68580002 442:-0.8858 443:-0.94279999 444:-0.94279999 445:-0.68580002 446:-1 447:-1 448:-1 449:-1 450:-1 451:-1 452:-1 453:0.0964 454:0.090000004 455:0.099600002 456:0.093400002 457:0.0902 458:0.062799998 459:0.079000004 460:0.076200001 461:0.13600001 462:0.0482 463:0.6742 464:0.68239999 465:0.68580002 466:0.70160002 467:0.71499997 468:0.7306 469:0.7482 470:0.83200002 471:0.8854 472:0.79860002 473:-0.62660003 474:0.57639998 475:-0.72399998 476:-0.42919999 477:0.2438 478:0.23999999 479:0.2552 480:-0.9666 481:-0.69199997 482:-0.53100002 483:-0.4774 484:-0.38980001 485:-0.28819999 486:-0.24860001 487:-0.161 488:-0.2316 489:-0.042399999 490:0.082000002 491:-0.0112 492:0.1356 493:0.1328 494:0.14399999 495:0.2146 496:0.39539999 497:0.45480001 498:0.51120001 499:0.54519999 500:0.73159999 501:0.83060002 502:0.97180003 503:1 504:0.87580001 505:0.87580001 506:0.82480001 507:0.82480001 508:0.63 509:0.4152 510:0.35319999 511:0.090400003 512:-0.1864 513:-0.50379997 514:-0.57599998 515:-0.4912 516:-0.4314 517:-0.30680001 518:-0.35659999 519:-0.17200001 520:-0.0748 521:0.15719999 522:0.24680001 523:0.2942 524:0.35420001 525:0.2494 526:0.1946 527:0.177 528:0.57859999 529:0.778 530:0.57359999 531:0.42140001 532:0.60839999 533:0.838 534:1 535:0.98259997 536:0.72820002 537:0.67079997 538:0.64340001 539:0.59859997 540:0.45140001 541:0.45379999 542:0.36160001 543:0.15459999 544:-0.197 545:-0.59560001 546:-0.44119999 547:-0.3714 548:-0.1398 549:-0.38240001 550:-0.084600002 551:-0.022 552:-0.047800001 553:-0.077200003 554:0.27579999 555:0.43020001 556:0.47799999 557:0.4964 558:0.35659999 559:0.13240001 560:0.55879998 561:0.82359999 562:0.67640001 563:0.50739998 564:0.66180003 565:0.9228 566:1 567:0.92640001 568:0.55519998 569:0.47060001 570:0.35299999 571:0.31619999 572:0.4558 573:0.2316 574:0.2868 575:-0.051399998 576:-0.56239998 577:1 578:-1 579:1 580:-1 581:-1 582:-1 583:-1 584:0.56660002 585:-1 586:-0.127 587:-0.0634 588:0.23800001 589:0.17460001 590:0.0634 591:0.15880001 592:0.28580001 593:0.33340001 594:0.31740001 595:0.34920001 596:0.28580001 597:0.42860001 598:0.63499999 599:0.41260001 600:0.68260002 601:0.8096 602:0.84119999 603:1 604:0.55559999 605:0.50800002 606:0.015799999 607:0.047600001 608:0.15880001 609:0.28580001 610:0.17460001 611:0.079400003 612:0.25400001 613:0.17460001 614:0.031800002 615:0.031800002 616:-0.26980001 617:-0.44440001 #
-0.54308050637182558872950721706729 1:-0.2586 2:0.13079999 3:0.42359999 4:0.41119999 5:-0.56080002 6:-0.94080001 7:-0.70719999 8:-0.62 9:-0.82239997 10:-0.85979998 11:-0.78820002 12:-0.60439998 13:-0.68220001 14:-0.65100002 15:-0.48899999 16:-0.52640003 17:-0.38 18:-0.37380001 19:0.071599998 20:0.324 21:0.65420002 22:0.90039998 23:1 24:0.73839998 25:0.56699997 26:0.405 27:0.3116 28:0.1714 29:0.13699999 30:-0.1122 31:-0.1962 32:-0.20559999 33:-0.32139999 34:-0.0262 35:0.37940001 36:0.33239999 37:-0.62760001 38:-0.76279998 39:-0.89240003 40:-0.85100001 41:-0.88679999 42:-0.93099999 43:-0.88139999 44:-0.50059998 45:-0.55580002 46:-0.6056 47:-0.51440001 48:-0.58340001 49:-0.59719998 50:-0.26899999 51:0.0068000001 52:0.1558 53:0.4594 54:0.83179998 55:1 56:0.611 57:0.44819999 58:0.35440001 59:0.3628 60:0.27180001 61:0.2358 62:-0.1006 63:-0.1972 64:-0.1338 65:-0.27020001 66:0.039000001 67:0.4294 68:0.37540001 69:-0.58560002 70:-0.92799997 71:-0.98199999 72:-0.85280001 73:-0.96100003 74:-0.98199999 75:-0.83780003 76:-0.60960001 77:-0.57660002 78:-0.51359999 79:-0.51660001 80:-0.62459999 81:-0.57359999 82:-0.35139999 83:-0.029999999 84:0.063000001 85:0.3274 86:0.93400002 87:1 88:0.50160003 89:0.33039999 90:0.30039999 91:0.19220001 92:0.40239999 93:0.45640001 94:-0.1172 95:-0.050999999 96:0.0060000001 97:-0.29980001 98:0.025800001 99:0.38499999 100:0.33340001 101:-0.6074 102:-0.95120001 103:-0.73220003 104:-0.66219997 105:-0.87519997 106:-0.80519998 107:-0.70779997 108:-0.75040001 109:-0.69859999 110:-0.653 111:-0.7626 112:-0.71679997 113:-0.65899998 114:-0.4278 115:-0.1506 116:-0.041000001 117:0.3028 118:0.87819999 119:1 120:0.50379997 121:0.36680001 122:0.2238 123:0.2146 124:0.30599999 125:0.38820001 126:-0.0898 127:-0.095799997 128:-0.032000002 129:-0.2254 130:0.1886 131:0.4858 132:0.45899999 133:-0.63940001 134:-0.87980002 135:-0.64600003 136:-0.58939999 137:-0.94319999 138:-0.72619998 139:-0.65939999 140:-0.69620001 141:-0.60259998 142:-0.59259999 143:-0.4558 144:-0.47240001 145:-0.42899999 146:-0.55260003 147:-0.222 148:0.1586 149:0.3522 150:0.75959998 151:1 152:0.86320001 153:0.44240001 154:0.2054 155:0.26539999 156:0.389 157:0.2554 158:0.1318 159:0.182 160:-0.071800001 161:-0.36320001 162:0.15099999 163:0.2604 164:0.35659999 165:-0.41960001 166:-0.89380002 167:-0.74119997 168:-0.76459998 169:-0.75459999 170:-0.77780002 171:-0.72479999 172:-0.64179999 173:-0.59539998 174:-0.59200001 175:-0.4064 176:-0.486 177:-0.38299999 178:-0.54900002 179:-0.33340001 180:-0.24699999 181:-0.1078 182:0.72799999 183:1 184:0.77780002 185:0.51239997 186:0.2238 187:0.26359999 188:0.2272 189:0.3466 190:0.1874 191:0.038199998 192:-0.121 193:-0.44119999 194:0.55879998 195:0.42860001 196:0.016799999 197:-0.2016 198:-0.69739997 199:-0.56300002 200:-0.49579999 201:-0.68900001 202:-0.68480003 203:-0.41600001 204:-0.36140001 205:-0.4034 206:-0.50419998 207:-0.41600001 208:-0.26480001 209:-0.20999999 210:-0.34040001 211:-0.1344 212:0.1302 213:0.31940001 214:0.71420002 215:0.92019999 216:1 217:0.94959998 218:0.73100001 219:0.77740002 220:0.60079998 221:0.2142 222:0 223:-0.2942 224:-0.2184 225:0.020400001 226:0.347 227:0.3062 228:0.38780001 229:0.2244 230:-0.3062 231:-0.102 232:-0.0612 233:-0.42860001 234:-0.26539999 235:-0.2244 236:-0.42860001 237:-0.347 238:0.0612 239:0.102 240:0.020400001 241:0.020400001 242:-0.0612 243:0.347 244:0.551 245:0.83679998 246:1 247:0.95920002 248:0.63260001 249:0.59179997 250:0.551 251:0.3062 252:-0.1428 253:0.2244 254:0.26539999 255:0.2244 256:0.26539999 257:0 258:0.36359999 259:0.54540002 260:0.54540002 261:-0.40900001 262:-0.40900001 263:-0.36359999 264:-0.2728 265:-0.40900001 266:-0.72719997 267:-0.63639998 268:-0.2728 269:-0.045400001 270:-0.045400001 271:-0.31819999 272:-0.31819999 273:-0.5 274:-0.045400001 275:0.2272 276:0.40900001 277:0.68180001 278:1 279:0.90899998 280:0.68180001 281:0.63639998 282:0.36359999 283:0.36359999 284:-0.1364 285:0.090999998 286:0.090999998 287:-0.090999998 288:-0.18179999 289:-0.30860001 290:0.061799999 291:0.40740001 292:0.33340001 293:-0.45680001 294:-0.72839999 295:-0.80239999 296:-0.77780002 297:-0.85180002 298:-0.8272 299:-0.75300002 300:-0.35800001 301:-0.43200001 302:-0.45680001 303:-0.43200001 304:-0.55559999 305:-0.43200001 306:-0.33340001 307:0.037 308:0.1604 309:0.43200001 310:0.9012 311:1 312:0.58020002 313:0.43200001 314:0.38280001 315:0.40740001 316:0.33340001 317:0.25920001 318:-0.037 319:-0.2098 320:-0.1604 321:-1 322:-1 323:-1 324:-1 325:-1 326:-1 327:-0.91939998 328:-0.89380002 329:-0.88639998 330:-0.87180001 331:-0.64459997 332:0.55680001 333:0.9598 334:0.79479998 335:0.66299999 336:0.52740002 337:0.50919998 338:0.29300001 339:0.1026 340:-0.1428 341:-0.34060001 342:-0.4982 343:-0.79479998 344:-0.88279998 345:-0.88639998 346:-0.93040001 347:-1 348:-1 349:-1 350:-1 351:-1 352:-1 353:-1 354:-1 355:-1 356:-1 357:-1 358:-1 359:-1 360:-0.89660001 361:-0.8786 362:-0.2058 363:-0.79299998 364:-0.5298 365:0.59960002 366:0.84920001 367:0.94379997 368:0.74800003 369:0.4668 370:0.36559999 371:0.2396 372:-0.0012000001 373:-0.17219999 374:-0.32280001 375:-0.53200001 376:-0.77960002 377:-0.86059999 378:-0.8696 379:-0.87180001 380:-1 381:-1 382:-1 383:-1 384:-1 385:-1 386:-1 387:-1 388:-1 389:-1 390:-1 391:-1 392:-1 393:-0.9734 394:-0.98680001 395:-0.32679999 396:-0.45339999 397:-0.07 398:-0.60000002 399:-0.41819999 400:-0.40000001 401:-0.53640002 402:-0.542 403:-0.52999997 404:-0.465 405:-0.60100001 406:-0.454 407:-0.56900001 408:-0.83560002 409:-0.76560003 410:-0.80559999 411:-0.84560001 412:-0.97219998 413:-1 414:-1 415:-1 416:-1 417:-1 418:-1 419:-1 420:-1 421:-1 422:-1 423:-1 424:-1 425:-1 426:-0.8858 427:1 428:1 429:-0.65719998 430:1 431:0.8858 432:-1 433:-0.8858 434:-0.97140002 435:-1 436:-0.97140002 437:-1 438:-0.97140002 439:-0.71420002 440:-0.7428 441:0.40000001 442:-0.7428 443:-0.82859999 444:-0.8858 445:-0.85720003 446:-1 447:-1 448:-1 449:-1 450:-1 451:-1 452:-1 453:-0.449 454:-0.4826 455:-0.50080001 456:-0.47920001 457:-0.51899999 458:-0.54759997 459:-0.57499999 460:-0.59039998 461:-0.60079998 462:-0.4772 463:0.71060002 464:0.75340003 465:0.75220001 466:0.78119999 467:0.81919998 468:0.82920003 469:0.85100001 470:0.87440002 471:0.87300003 472:0.83380002 473:-0.5334 474:0.37639999 475:-0.49599999 476:0.059599999 477:0.48699999 478:0.69400001 479:0.88520002 480:-0.0166 481:-0.5406 482:-0.20720001 483:-0.1892 484:-0.3154 485:-0.28819999 486:-0.3064 487:0.13519999 488:-0.027000001 489:0.027000001 490:0.5316 491:0.83780003 492:0.95499998 493:0.7658 494:0.71179998 495:0.58560002 496:0.3064 497:0.29719999 498:0.1622 499:0.42340001 500:0.1622 501:0.43239999 502:0.81980002 503:0.98199999 504:0.89179999 505:0.79280001 506:1 507:0.92799997 508:0.50459999 509:0.21619999 510:0.3064 511:0.26120001 512:0.054000001 513:-0.47600001 514:-0.1978 515:-0.058800001 516:0.016000001 517:-0.0054000001 518:-0.090999998 519:0.026799999 520:-0.1444 521:0.1016 522:0.18719999 523:0.79680002 524:0.78600001 525:0.50800002 526:0.39039999 527:0.2728 528:-0.23 529:-0.2406 530:0.23 531:0.32620001 532:-0.058800001 533:0.1978 534:0.3048 535:0.722 536:1 537:0.68980002 538:0.98940003 539:0.88239998 540:0.64700001 541:0.31560001 542:0.35820001 543:0.50800002 544:-0.016000001 545:-0.26820001 546:-0.1952 547:-0.22759999 548:-0.097599998 549:-0.2358 550:-0.15440001 551:-0.1138 552:0 553:-0.0814 554:-0.057 555:0.26820001 556:0.70740002 557:0.58539999 558:0.47960001 559:0.46340001 560:0.1138 561:0 562:0.1464 563:0.1626 564:0.15440001 565:0.3414 566:0.60159999 567:0.90240002 568:0.5934 569:0.5772 570:0.8944 571:1 572:0.65039998 573:0.64219999 574:0.1708 575:0.2764 576:-0.2764 577:0.52539998 578:-1 579:-1 580:1 581:-1 582:-1 583:-1 584:-0.36660001 585:-1 586:-0.0098000001 587:0.18440001 588:-0.16500001 589:0.4368 590:0.2622 591:0.16500001 592:0.2816 593:0.4368 594:0.74760002 595:0.68940002 596:0.3204 597:0.65039998 598:0.80580002 599:1 600:-0.087399997 601:-0.029200001 602:0.2428 603:0.63099998 604:0.3786 605:0.2234 606:0.4368 607:0.53399998 608:0.47580001 609:0.3398 610:-0.0098000001 611:0.0098000001 612:-0.1068 613:-0.14560001 614:0.12620001 615:0.048599999 616:0.12620001 617:-0.3592 #
-0.54308050637182558872950721706729 1:-0.25619999 2:0.025 3:0.39219999 4:0.28799999 5:-0.62360001 6:-0.8276 7:-0.66219997 8:-0.67580003 9:-0.97960001 10:-0.89560002 11:-0.79360002 12:-0.70740002 13:-0.68480003 14:-0.52600002 15:-0.51239997 16:-0.51239997 17:-0.3854 18:-0.1044 19:0.2494 20:0.542 21:0.85259998 22:1 23:0.898 24:0.75959998 25:0.55320001 26:0.34459999 27:0.2018 28:0.095200002 29:0.095200002 30:-0.034000002 31:-0.047600001 32:0.077 33:-0.25819999 34:-0.0392 35:0.3224 36:0.14659999 37:-0.54960001 38:-0.58880001 39:-0.70459998 40:-0.7604 41:-0.83679998 42:-0.99180001 43:-0.85339999 44:-0.71700001 45:-0.64660001 46:-0.62199998 47:-0.54339999 48:-0.59500003 49:-0.5352 50:-0.30160001 51:0.20039999 52:0.45860001 53:0.6074 54:1 55:0.90899998 56:0.79140002 57:0.60960001 58:0.35120001 59:0.26440001 60:0.20460001 61:0.1962 62:0.059999999 63:0.043400001 64:0.1384 65:-0.32820001 66:-0.038400002 67:0.26899999 68:0.080200002 69:-0.5916 70:-0.65539998 71:-0.741 72:-0.85939997 73:-0.93419999 74:-0.9188 75:-0.87040001 76:-0.80019999 77:-0.76499999 78:-0.68599999 79:-0.63559997 80:-0.71020001 81:-0.70359999 82:-0.45120001 83:-0.0098000001 84:0.124 85:0.63340002 86:1 87:0.80900002 88:0.61360002 89:0.47319999 90:0.1964 91:0.1504 92:0.2052 93:0.19859999 94:-0.042800002 95:0.0142 96:0.069200002 97:-0.25 98:0.0046000001 99:0.29719999 100:0.1126 101:-0.54720002 102:-0.80180001 103:-0.61040002 104:-0.6846 105:-0.7748 106:-0.86940002 107:-0.92119998 108:-0.76800001 109:-0.65759999 110:-0.70039999 111:-0.71619999 112:-0.76359999 113:-0.71619999 114:-0.41659999 115:-0.083400004 116:0.1104 117:0.56300002 118:1 119:0.90319997 120:0.64179999 121:0.3784 122:0.21619999 123:0.26800001 124:0.32440001 125:0.27700001 126:0.20280001 127:0.038199998 128:0.1734 129:-0.24240001 130:0.0792 131:0.25940001 132:0.15459999 133:-0.63700002 134:-0.91960001 135:-0.6882 136:-0.69300002 137:-0.80260003 138:-0.82700002 139:-0.72960001 140:-0.6322 141:-0.61019999 142:-0.62480003 143:-0.6638 144:-0.63700002 145:-0.52740002 146:-0.5176 147:-0.1206 148:0.1742 149:0.54939997 150:0.93419999 151:1 152:0.8538 153:0.43720001 154:0.29359999 155:0.40079999 156:0.4276 157:0.45179999 158:0.38859999 159:0.31299999 160:0.2692 161:-0.38839999 162:0.032200001 163:0.26199999 164:0.2438 165:-0.70840001 166:-0.82959998 167:-0.76520002 168:-0.7238 169:-0.88639998 170:-0.89679998 171:-0.75739998 172:-0.5226 173:-0.47099999 174:-0.68260002 175:-0.7058 176:-0.69300002 177:-0.74199998 178:-0.53039998 179:-0.33419999 180:0.086400002 181:0.44260001 182:0.81940001 183:1 184:0.85540003 185:0.2154 186:0.12 187:0.2852 188:0.458 189:0.30320001 190:0.27739999 191:0.076200001 192:0.1174 193:-0.1626 194:0.44159999 195:0.30379999 196:0.39579999 197:-0.4876 198:-0.4628 199:-0.4628 200:-0.38519999 201:-0.69260001 202:-0.92580003 203:-0.43099999 204:-0.27919999 205:-0.12720001 206:-0.091799997 207:-0.2296 208:-0.39579999 209:-0.29679999 210:0.056600001 211:0.17659999 212:0.4946 213:0.67839998 214:0.94 215:1 216:0.86580002 217:0.55479997 218:0.32499999 219:0.39219999 220:0.38159999 221:-0.042399999 222:-0.1696 223:0.0142 224:0.077799998 225:-0.22220001 226:0.1112 227:0.5 228:0.5 229:-0.3888 230:-0.5 231:-0.5 232:-0.72219998 233:-0.66659999 234:-0.66659999 235:-0.66659999 236:-0.66659999 237:-0.66659999 238:-0.5 239:-0.27779999 240:-0.22220001 241:-0.66659999 242:0 243:0.1112 244:0.72219998 245:0.88880002 246:0.94440001 247:1 248:0.77780002 249:0.72219998 250:0.27779999 251:0.1112 252:0.1666 253:0.27779999 254:0 255:-0.27779999 256:-0.1666 257:-0.1892 258:0.35139999 259:0.56760001 260:0.4594 261:-0.67559999 262:-0.56760001 263:-0.56760001 264:-0.51359999 265:-0.56760001 266:-0.56760001 267:-0.72979999 268:-0.4594 269:-0.40540001 270:-0.56760001 271:-0.51359999 272:-0.56760001 273:-0.29719999 274:-0.2432 275:0.2432 276:0.62159997 277:0.78380001 278:0.94599998 279:1 280:0.83780003 281:0.51359999 282:0.2432 283:0.13519999 284:0.081 285:-0.027000001 286:-0.13519999 287:-0.1892 288:0.13519999 289:-0.1392 290:0.1392 291:0.31639999 292:0.18979999 293:-0.36700001 294:-0.84820002 295:-0.69620001 296:-0.62019998 297:-0.87339997 298:-0.54439998 299:-0.62019998 300:-0.49360001 301:-0.59500003 302:-0.49360001 303:-0.54439998 304:-0.51899999 305:-0.3418 306:-0.1646 307:-0.1646 308:0.18979999 309:0.64560002 310:0.74680001 311:1 312:0.82279998 313:0.51899999 314:0.41780001 315:0.49360001 316:0.4684 317:0.44299999 318:0.41780001 319:0.3418 320:0.3418 321:-1 322:-1 323:-1 324:-1 325:-1 326:-1 327:-1 328:-0.92460001 329:-0.88919997 330:-0.77380002 331:-0.24160001 332:0.72939998 333:0.88480002 334:0.86699998 335:0.57880002 336:0.46340001 337:0.32159999 338:0.033199999 339:-0.086400002 340:-0.184 341:-0.13959999 342:-0.58759999 343:-0.7694 344:-0.81819999 345:-0.8448 346:-0.84920001 347:-1 348:-1 349:-1 350:-1 351:-1 352:-1 353:-1 354:-1 355:-1 356:-1 357:-1 358:-1 359:-1 360:-1 361:-0.9048 362:-0.88099998 363:-0.57440001 364:0.82160002 365:0.45539999 366:0.78359997 367:0.69319999 368:0.36500001 369:0.208 370:0.070200004 371:-0.14380001 372:-0.2272 373:-0.296 374:-0.3626 375:-0.68599999 376:-0.80019999 377:-0.81220001 378:-0.84299999 379:-0.84780002 380:-1 381:-1 382:-1 383:-1 384:-1 385:-1 386:-1 387:-1 388:-1 389:-1 390:-1 391:-1 392:-1 393:-1 394:-0.95999998 395:-0.93339998 396:-0.4668 397:-0.036800001 398:-0.43340001 399:-0.2068 400:-0.30540001 401:-0.36140001 402:-0.36000001 403:-0.4014 404:-0.48800001 405:-0.435 406:-0.42140001 407:-0.6688 408:-0.69499999 409:-0.86680001 410:-0.76679999 411:-0.83999997 412:-0.88679999 413:-1 414:-1 415:-1 416:-1 417:-1 418:-1 419:-1 420:-1 421:-1 422:-1 423:-1 424:-1 425:-1 426:-1 427:-0.91420001 428:1 429:1 430:1 431:-0.60000002 432:-0.0572 433:-0.91420001 434:-1 435:-1 436:-1 437:-0.97140002 438:-1 439:-0.85720003 440:-0.6286 441:-0.45719999 442:-0.77139997 443:-0.94279999 444:-0.91420001 445:-0.8858 446:-1 447:-1 448:-1 449:-1 450:-1 451:-1 452:-1 453:-0.63679999 454:-0.66360003 455:-0.6656 456:-0.62819999 457:-0.64160001 458:-0.6476 459:-0.60960001 460:-0.64719999 461:-0.59680003 462:-0.4718 463:0.75440001 464:0.7622 465:0.78799999 466:0.80739999 467:0.82959998 468:0.829 469:0.81459999 470:0.80919999 471:0.82200003 472:0.72780001 473:-0.44 474:0.87059999 475:0.77399999 476:0.0416 477:0.27000001 478:0.50779998 479:0.62180001 480:0.94160002 481:-0.77319998 482:-0.44319999 483:-0.44319999 484:-0.40200001 485:-0.52579999 486:-0.50520003 487:-0.38139999 488:-0.3608 489:-0.1134 490:0.52579999 491:0.89700001 492:1 493:1 494:0.77319998 495:0.7938 496:0.52579999 497:0.67019999 498:0.69080001 499:0.31959999 500:0.051600002 501:-0.0722 502:0.46399999 503:0.75260001 504:0.71139997 505:0.60820001 506:0.6494 507:0.7938 508:0.75260001 509:0.46399999 510:0.44319999 511:0.58759999 512:0.44319999 513:-0.062399998 514:0.125 515:-0.27079999 516:-0.39579999 517:-0.52079999 518:-0.52079999 519:-0.375 520:-0.35420001 521:-0.14579999 522:0.60420001 523:1 524:0.93760002 525:0.95840001 526:0.33340001 527:0.375 528:0.2084 529:0.875 530:0.875 531:0.60420001 532:-0.1876 533:-0.0208 534:0.1876 535:0.35420001 536:0.52079999 537:0.56239998 538:0.35420001 539:0.58340001 540:0.43759999 541:0.25 542:0.2084 543:0.64579999 544:0.54159999 545:0.1182 546:0.1338 547:-0.0077999998 548:-0.3858 549:-0.62199998 550:-0.59060001 551:-0.49599999 552:-0.33860001 553:-0.1338 554:0.27559999 555:1 556:0.87400001 557:0.55900002 558:0.1496 559:0.055199999 560:0.055199999 561:0.4488 562:0.52759999 563:0.055199999 564:-0.0077999998 565:0.1024 566:0.1182 567:0.37 568:0.433 569:0.4016 570:0.30700001 571:0.60619998 572:0.4488 573:0.1338 574:-0.0077999998 575:-0.086599998 576:-0.1182 577:1 578:-1 579:-1 580:1 581:-0.80000001 582:-1 583:-1 584:-0.76660001 585:-1 586:0.1486 587:0.109 588:-0.069399998 589:0.049600001 590:-0.069399998 591:0.30700001 592:0.40599999 593:0.3664 594:1 595:0.6832 596:0.30700001 597:0.2674 598:0.66339999 599:0.4258 600:0.2872 601:0.2872 602:0.56440002 603:0.4258 604:0.3664 605:0.38620001 606:0.38620001 607:0.4258 608:0.0099999998 609:0.208 610:0.0298 611:0.109 612:0.049600001 613:0.2872 614:0.2872 615:0.089199997 616:-0.0099999998 617:-0.4456 #
