SVM-light Version V6.02
2 # kernel type
3 # kernel parameter -d 
13 # kernel parameter -g 
1 # kernel parameter -s 
1 # kernel parameter -r 
empty# kernel parameter -u 
6 # highest feature index 
200 # number of training documents 
185 # number of support vectors plus 1 
-0.64817104 # threshold b, each following line is a SV (starting with alpha*y)
-0.50007857089842944198210261674831 1:0.052632 2:0.2 3:-0.45695001 4:-0.42857 5:-0.82191998 6:-1 #
-0.50007857089842944198210261674831 1:0.31579 2:-0.35652 3:-0.72184998 4:-0.63635999 5:-1 6:-0.94999999 #
-0.50007857089842944198210261674831 1:-0.10526 2:-0.32174 3:-0.82780999 4:-0.68831003 5:-0.93150997 6:-0.94999999 #
-0.50007857089842944198210261674831 1:0.10526 2:-0.060869999 3:-0.72184998 4:-0.63635999 5:-0.91096002 6:-0.94999999 #
-0.50007857089842944198210261674831 1:0.36842 2:-0.043478001 3:-0.78807998 4:-0.32466999 5:-0.91096002 6:-0.94999999 #
0.25490096871447054382997521315701 1:0.052632 2:-0.28696001 3:-0.27151999 4:-0.2987 5:-0.87671 6:-1 #
0.50007857089842944198210261674831 1:0.36842 2:-0.043478001 3:-0.60264999 4:-0.50648999 5:-0.78767002 6:-1 #
0.50007857089842944198210261674831 1:0.15790001 2:-0.18261001 3:-0.89403999 4:-0.40259999 5:-0.96574998 6:-1 #
0.35227852095657707920395296241622 1:0.36842 2:-0.14782999 3:1 4:0.63635999 5:-0.47260001 6:-0.94999999 #
0.48795238378550692681656641980226 1:0.42105001 2:-0.13044 3:-0.73509997 4:-0.58442003 5:-0.70547998 6:-0.60000002 #
-0.50007857089842944198210261674831 1:0.21053 2:-0.2 3:-0.12582999 4:-0.50648999 5:-0.59588999 6:-0.80000001 #
-0.50007857089842944198210261674831 1:0.52631998 2:0.18261001 3:-0.69536 4:-0.61039001 5:-0.93150997 6:-0.94999999 #
0.50007857089842944198210261674831 1:0.052632 2:-0.26956999 3:-0.72184998 4:-0.76622999 5:-0.91096002 6:-0.94999999 #
0.50007857089842944198210261674831 1:0.052632 2:-0.32174 3:-0.85430002 4:-0.79220998 5:-0.88356 6:-0.94999999 #
-0.50007857089842944198210261674831 1:0.21053 2:-0.25217 3:-0.74834001 4:-0.81818002 5:-0.93150997 6:-0.69999999 #
-0.50007857089842944198210261674831 1:0.052632 2:-0.026086999 3:-0.82780999 4:-0.92207998 5:-0.97259998 6:-0.94999999 #
0.50007857089842944198210261674831 1:0 2:0.28696001 3:-0.50993001 4:-0.61039001 5:-0.81506997 6:-1 #
0.50007857089842944198210261674831 1:0.052632 2:0.078261003 3:-0.72184998 4:-0.45454001 5:-0.82876998 6:-0.94999999 #
-0.50007857089842944198210261674831 1:0.21053 2:0.46087 3:-0.60264999 4:-0.58442003 5:-0.84931999 6:-0.94999999 #
-0.50007857089842944198210261674831 1:0 2:0.026086999 3:-0.48344001 4:-0.2987 5:-0.77397001 6:-0.80000001 #
0.50007857089842944198210261674831 1:0.10526 2:0.060869999 3:-0.81457001 4:-0.76622999 5:-0.92466003 6:-0.94999999 #
0.50007857089842944198210261674831 1:0.36842 2:-0.28696001 3:-0.77482998 4:-0.68831003 5:-0.85615999 6:-0.69999999 #
-0.50007857089842944198210261674831 1:0.42105001 2:-0.25217 3:-0.77482998 4:-0.71429002 5:-0.80822003 6:-0.5 #
-0.50007857089842944198210261674831 1:0.15790001 2:-0.095651999 3:-0.72184998 4:-0.58442003 5:-0.93835998 6:-1 #
0.50007857089842944198210261674831 1:0.52631998 2:0.18261001 3:-0.65562999 4:-0.45454001 5:-0.86300999 6:-0.80000001 #
0.47783282237113489099300522866542 1:0.10526 2:-0.043478001 3:-0.36423999 4:-0.37661999 5:-0.60958999 6:-0.94999999 #
-0.50007857089842944198210261674831 1:0 2:-0.0086960001 3:-0.43046001 4:-0.27272999 5:-0.36985999 6:-0.94999999 #
-0.50007857089842944198210261674831 1:0.73684001 2:0.35652 3:-0.64238 4:-0.45454001 5:-0.81506997 6:-0.40000001 #
0.50007857089842944198210261674831 1:0.36842 2:-0.095651999 3:-0.73509997 4:-0.55844003 5:-0.95889997 6:-0.94999999 #
0.50007857089842944198210261674831 1:0.31579 2:-0.14782999 3:-0.82780999 4:-0.63635999 5:-0.90411001 6:-0.40000001 #
-0.50007857089842944198210261674831 1:0.42105001 2:-0.026086999 3:-0.76159 4:-0.61039001 5:-0.95889997 6:-0.69999999 #
-0.50007857089842944198210261674831 1:0.36842 2:-0.16522001 3:-0.89403999 4:-0.55844003 5:-0.95889997 6:-0.69999999 #
0.50007857089842944198210261674831 1:0.21053 2:0.72174001 3:-0.58939999 4:-0.37661999 5:-0.74656999 6:-0.94999999 #
0.25273915787991174664028903862345 1:0.26315999 2:-0.56522 3:-0.62914002 4:-0.55844003 5:-0.93835998 6:-0.60000002 #
-0.50007857089842944198210261674831 1:0.36842 2:-0.40869999 3:-0.64238 4:-0.53246999 5:-0.74656999 6:-0.94999999 #
-0.50007857089842944198210261674831 1:0.31579 2:-0.35652 3:-0.74834001 4:-0.42857 5:-1 6:-0.94999999 #
0.50007857089842944198210261674831 1:0.26315999 2:-0.078261003 3:-0.86755002 4:-0.58442003 5:-0.86985999 6:-0.60000002 #
0.50007857089842944198210261674831 1:0.42105001 2:-0.095651999 3:-0.70861 4:-0.45454001 5:-0.86985999 6:-0.69999999 #
-0.50007857089842944198210261674831 1:0.42105001 2:-0.0086960001 3:-0.92053002 4:-0.45454001 5:-0.89726001 6:-0.40000001 #
0.50007857089842944198210261674831 1:0.47367999 2:-0.42609 3:-0.72184998 4:-0.58442003 5:-0.80822003 6:-0.94999999 #
0.50007857089842944198210261674831 1:0.21053 2:-0.33913001 3:-0.80132002 4:-0.58442003 5:-0.94520003 6:-0.94999999 #
-0.50007857089842944198210261674831 1:0.42105001 2:-0.0086960001 3:-0.92053002 4:-0.45454001 5:-0.89726001 6:-0.40000001 #
-0.50007857089842944198210261674831 1:0.42105001 2:-0.35652 3:-0.74834001 4:-0.74026 5:-0.90411001 6:-0.89999998 #
-0.50007857089842944198210261674831 1:0.31579 2:-0.44348001 3:-0.78807998 4:-0.61039001 5:-0.92466003 6:-0.69999999 #
0.33023149063040868611551559297368 1:0.68421 2:0.21739 3:-0.77482998 4:-0.61039001 5:-0.56849003 6:-0.40000001 #
0.39039385964597389522268144901318 1:0 2:0.2 3:-0.15232 4:-0.16883001 5:-0.73288 6:-0.94999999 #
-0.50007857089842944198210261674831 1:0.31579 2:0.11304 3:-0.80132002 4:-0.48052001 5:-0.90411001 6:-0.94999999 #
-0.50007857089842944198210261674831 1:0.26315999 2:0.026086999 3:-0.74834001 4:-0.76622999 5:-0.79452002 6:-0.94999999 #
0.50007857089842944198210261674831 1:0.42105001 2:-0.26956999 3:-0.82780999 4:-0.48052001 5:-0.97259998 6:-0.80000001 #
0.50007857089842944198210261674831 1:0.31579 2:-0.40869999 3:-0.64238 4:-0.66233999 5:-0.78082001 6:-0.60000002 #
-0.50007857089842944198210261674831 1:0.31579 2:-0.33913001 3:-0.68212003 4:-0.37661999 5:-0.82191998 6:-0.80000001 #
-0.50007857089842944198210261674831 1:0.42105001 2:-0.32174 3:-0.56291002 4:-0.58442003 5:-0.78767002 6:-0.40000001 #
0.50007857089842944198210261674831 1:0.31579 2:-0.026086999 3:-0.81457001 4:-0.74026 5:-0.86985999 6:-0.94999999 #
0.50007857089842944198210261674831 1:0.21053 2:0.078261003 3:-0.86755002 4:-0.74026 5:-0.96574998 6:-0.80000001 #
-0.50007857089842944198210261674831 1:0.26315999 2:-0.026086999 3:-0.82780999 4:-0.68831003 5:-0.92466003 6:-0.94999999 #
-0.50007857089842944198210261674831 1:0.36842 2:0.060869999 3:-0.90728998 4:-0.81818002 5:-0.96574998 6:-0.94999999 #
0.50007857089842944198210261674831 1:0.42105001 2:0.026086999 3:-0.69536 4:-0.50648999 5:-0.78082001 6:-0.40000001 #
0.35653217657145941377194731103373 1:0.42105001 2:-0.078261003 3:-0.64238 4:-0.40259999 5:-0.75343001 6:-0.40000001 #
-0.50007857089842944198210261674831 1:0.31579 2:-0.078261003 3:-0.56291002 4:-0.63635999 5:-0.69177997 6:-0.40000001 #
-0.50007857089842944198210261674831 1:0.47367999 2:-0.18261001 3:-0.44371 4:-0.35065001 5:-0.80822003 6:-0.2 #
0.054995590455259528439579952419081 1:0.36842 2:-0.44348001 3:-1 4:-0.92207998 5:-0.94520003 6:-0.94999999 #
0.50007857089842944198210261674831 1:0.57894999 2:-0.37391001 3:-0.74834001 4:-0.66233999 5:-0.90411001 6:-0.60000002 #
-0.50007857089842944198210261674831 1:0.26315999 2:-0.7913 3:-0.69536 4:-0.37661999 5:-0.91781002 6:-0.60000002 #
-0.50007857089842944198210261674831 1:0.63158 2:-0.21739 3:-0.81457001 4:-0.63635999 5:-0.90411001 6:-0.94999999 #
0.50007857089842944198210261674831 1:0.15790001 2:0.2 3:-0.77482998 4:-0.55844003 5:-0.78082001 6:-0.89999998 #
0.50007857089842944198210261674831 1:0 2:0.026086999 3:-0.77482998 4:-0.58442003 5:-0.90411001 6:-0.94999999 #
-0.50007857089842944198210261674831 1:0.21053 2:0.25217 3:-0.72184998 4:-0.63635999 5:-0.93835998 6:-0.60000002 #
-0.50007857089842944198210261674831 1:0.31579 2:0.060869999 3:-0.81457001 4:-0.53246999 5:-0.94520003 6:-0.60000002 #
0.50007857089842944198210261674831 1:0.42105001 2:-0.39129999 3:-0.86755002 4:-0.71429002 5:-0.94520003 6:-0.94999999 #
0.36673942560927869083187147225544 1:0.15790001 2:-0.66956002 3:-0.70861 4:-0.53246999 5:-0.91781002 6:-0.60000002 #
-0.50007857089842944198210261674831 1:0.10526 2:-0.56522 3:-0.78807998 4:-0.61039001 5:-0.99315 6:-0.69999999 #
-0.50007857089842944198210261674831 1:0.31579 2:-0.58261001 3:-0.68212003 4:-0.74026 5:-0.91096002 6:-0.94999999 #
0.50007857089842944198210261674831 1:0.26315999 2:0.16522001 3:-0.85430002 4:-0.68831003 5:-0.86300999 6:-0.60000002 #
0.50007857089842944198210261674831 1:0.21053 2:-0.0086960001 3:-0.73509997 4:-0.48052001 5:-0.91781002 6:-0.60000002 #
-0.50007857089842944198210261674831 1:0.10526 2:-0.25217 3:-0.68212003 4:-0.50648999 5:-0.89041001 6:-0.80000001 #
-0.50007857089842944198210261674831 1:0.47367999 2:-0.30434999 3:-0.70861 4:-0.66233999 5:-0.91096002 6:-0.5 #
0.50007857089842944198210261674831 1:0.31579 2:-0.53043002 3:-0.70861 4:-0.55844003 5:-0.67123002 6:-0.2 #
0.38568265589711769880665315213264 1:0.36842 2:-0.32174 3:-0.27151999 4:0.090908997 5:-0.62329 6:-0.2 #
-0.50007857089842944198210261674831 1:0.47367999 2:-0.65217 3:-0.90728998 4:-0.71429002 5:-0.66438001 6:-0.40000001 #
-0.50007857089842944198210261674831 1:0.31579 2:-0.32174 3:-0.76159 4:-0.58442003 5:-0.89041001 6:-0.2 #
0.50007857089842944198210261674831 1:0.052632 2:-0.28696001 3:-0.73509997 4:-0.55844003 5:-0.95889997 6:-0.94999999 #
0.50007857089842944198210261674831 1:0.63158 2:-0.14782999 3:-0.68212003 4:-0.63635999 5:-0.82876998 6:-0.80000001 #
-0.50007857089842944198210261674831 1:0.21053 2:-0.25217 3:-0.78807998 4:-0.58442003 5:-0.96574998 6:-0.94999999 #
-0.50007857089842944198210261674831 1:0.10526 2:-0.026086999 3:-0.68212003 4:-0.71429002 5:-0.91781002 6:-0.94999999 #
0.50007857089842944198210261674831 1:0.47367999 2:-0.53043002 3:-0.81457001 4:-0.48052001 5:-0.91781002 6:-0.40000001 #
0.50007857089842944198210261674831 1:0.31579 2:-0.30434999 3:-0.89403999 4:-0.45454001 5:-0.89041001 6:-0.40000001 #
-0.50007857089842944198210261674831 1:0.36842 2:-0.30434999 3:-0.72184998 4:-0.45454001 5:-0.93150997 6:-0.40000001 #
-0.50007857089842944198210261674831 1:0.78947002 2:-0.2 3:-0.45695001 4:-0.2987 5:-0.82876998 6:-0.69999999 #
0.50007857089842944198210261674831 1:0.31579 2:-0.30434999 3:-0.84105998 4:-0.58442003 5:-0.93835998 6:-0.89999998 #
0.50007857089842944198210261674831 1:0.31579 2:-0.28696001 3:-0.89403999 4:-0.68831003 5:-0.93835998 6:-0.94999999 #
-0.50007857089842944198210261674831 1:0.42105001 2:-0.23478 3:-0.74834001 4:-0.74026 5:-0.95204997 6:-0.94999999 #
-0.50007857089842944198210261674831 1:0.57894999 2:-0.77390999 3:-0.54966998 4:-0.63635999 5:-0.93150997 6:-0.40000001 #
0.50007857089842944198210261674831 1:0.63158 2:-0.42609 3:-0.54966998 4:-0.45454001 5:-0.87671 6:-0.5 #
0.39617196919280073252878082712414 1:0.10526 2:-0.25217 3:-0.76159 4:-0.50648999 5:-0.85615999 6:0 #
-0.50007857089842944198210261674831 1:0.42105001 2:0.21739 3:-0.76159 4:-0.40259999 5:-0.19178 6:-0.1 #
-0.50007857089842944198210261674831 1:0.42105001 2:0.21739 3:-0.28477001 4:-0.22078 5:-0.21233 6:-0.30000001 #
0.48356966929078509798145546483283 1:0.10526 2:0.49564999 3:-0.84105998 4:-0.55844003 5:-0.84246999 6:-0.40000001 #
0.39357344792598814020578856798238 1:0.42105001 2:0.11304 3:-0.29800999 4:-0.48052001 5:-0.73288 6:-0.40000001 #
-0.50007857089842944198210261674831 1:0 2:0.32174 3:-0.61589003 4:-0.63635999 5:-0.85615999 6:-0.2 #
-0.50007857089842944198210261674831 1:0.36842 2:1 3:-0.45695001 4:-0.58442003 5:-0.70547998 6:0 #
0.32895333025590084430334059106826 1:0.52631998 2:-0.61738998 3:-0.78807998 4:-0.71429002 5:-0.95204997 6:-0.5 #
0.37033367778475045906105833637412 1:-0.26315999 2:-0.72174001 3:-0.86755002 4:-0.63635999 5:-0.97259998 6:-0.94999999 #
-0.50007857089842944198210261674831 1:0.57894999 2:-0.35652 3:-0.70861 4:-0.55844003 5:-0.84246999 6:-0.40000001 #
-0.50007857089842944198210261674831 1:0.52631998 2:0.043478001 3:0.019867999 4:-0.24675 5:0.34246999 6:1 #
0.30270162801404926211645829425834 1:-0.052632 2:-0.043478001 3:-0.64238 4:-0.63635999 5:-0.24657001 6:-0.89999998 #
0.44417292511838502022669672442134 1:0.15790001 2:0.16522001 3:-0.48344001 4:-0.40259999 5:0.034247 6:-0.80000001 #
-0.50007857089842944198210261674831 1:0.36842 2:0.26956999 3:-0.58939999 4:-0.55844003 5:-0.10959 6:-0.94999999 #
-0.50007857089842944198210261674831 1:0.73684001 2:-0.25217 3:0.31126001 4:0.35065001 5:-0.25343001 6:-0.40000001 #
0.38695605816250300268421824512188 1:0.36842 2:-0.2 3:-0.72184998 4:-0.48052001 5:-0.58218998 6:-0.2 #
0.26258837232626841551308416455868 1:0.73684001 2:-0.65217 3:-0.58939999 4:-0.53246999 5:-0.56164002 6:-0.40000001 #
-0.50007857089842944198210261674831 1:0.42105001 2:-0.47826001 3:-0.37748 4:-0.27272999 5:-0.40411001 6:-0.40000001 #
-0.50007857089842944198210261674831 1:0.78947002 2:0.095651999 3:-0.28477001 4:-0.038961001 5:0.35616001 6:-0.40000001 #
0.37192587703972307400235308705305 1:0.42105001 2:-0.40869999 3:-0.2053 4:-0.19481 5:-0.41780999 6:-0.94999999 #
0.34072675328655699367175202496583 1:0.47367999 2:0.060869999 3:-0.28477001 4:0.090908997 5:-0.60958999 6:-0.30000001 #
-0.50007857089842944198210261674831 1:0.68421 2:0.23478 3:-0.48344001 4:-0.012987 5:-0.47260001 6:-0.40000001 #
-0.50007857089842944198210261674831 1:0.36842 2:0.42609 3:-0.52318001 4:-0.45454001 5:-0.65068001 6:-0.94999999 #
0.1746378140816411961289134069375 1:0.36842 2:-0.44348001 3:-0.68212003 4:-0.40259999 5:-0.47260001 6:-0.60000002 #
0.50007857089842944198210261674831 1:0.15790001 2:-0.37391001 3:-0.56291002 4:-0.42857 5:-0.80137002 6:-0.80000001 #
-0.50007857089842944198210261674831 1:0.31579 2:-0.23478 3:-0.58939999 4:-0.63635999 5:-0.79452002 6:-0.80000001 #
-0.50007857089842944198210261674831 1:0.31579 2:-0.23478 3:-0.033112999 4:-0.11688 5:-0.25343001 6:-0.2 #
0.48344430162921425697675203991821 1:0.42105001 2:0.35652 3:-0.60264999 4:-0.35065001 5:-0.59588999 6:-0.80000001 #
0.42545703397823741997996194186271 1:0.36842 2:0.32174 3:-0.49669001 4:-0.27272999 5:-0.92466003 6:-0.80000001 #
-0.50007857089842944198210261674831 1:0.26315999 2:0.60000002 3:-0.82780999 4:-0.42857 5:-0.98629999 6:-0.94999999 #
-0.50007857089842944198210261674831 1:0.47367999 2:-1 3:-0.58939999 4:-0.61039001 5:-0.89726001 6:-0.94999999 #
0.36425226765275270368604765280907 1:-0.10526 2:-0.42609 3:-0.16556001 4:-0.14286 5:-0.40411001 6:-0.40000001 #
0.27535434135587494308694544997707 1:0.15790001 2:-0.42609 3:-0.36423999 4:-0.012987 5:-0.65753001 6:0 #
-0.50007857089842944198210261674831 1:0.42105001 2:0.23478 3:-0.81457001 4:-0.68831003 5:-0.99315 6:-0.2 #
0.35822396277995849356301505395095 1:0.68421 2:-0.63477999 3:0.44371 4:0.038961001 5:-0.0068490002 6:-0.5 #
-0.50007857089842944198210261674831 1:0.73684001 2:0.73913002 3:-0.68212003 4:-0.50648999 5:-0.82191998 6:-0.2 #
0.31976566702234832106910289439838 1:0.68421 2:0.2 3:-0.76159 4:-0.40259999 5:-0.69862998 6:0.2 #
-0.50007857089842944198210261674831 1:0.26315999 2:0.026086999 3:-0.61589003 4:-0.2987 5:-0.91096002 6:-0.94999999 #
-0.50007857089842944198210261674831 1:0.57894999 2:-0.32174 3:-0.2053 4:-0.038961001 5:-0.51370001 6:-0.40000001 #
0.41174265567078943695022985593823 1:0.15790001 2:0.11304 3:-0.85430002 4:-0.53246999 5:-0.95889997 6:0 #
0.35236483050325578814110372150026 1:0.10526 2:0.73913002 3:-0.78807998 4:-0.48052001 5:-0.87671 6:0 #
-0.50007857089842944198210261674831 1:0.36842 2:0.49564999 3:-0.61589003 4:-0.74026 5:-0.91096002 6:-0.60000002 #
-0.50007857089842944198210261674831 1:0.31579 2:-0.0086960001 3:-0.80132002 4:-0.76622999 5:-0.74656999 6:-0.80000001 #
0.50007857089842944198210261674831 1:0.21053 2:0.0086960001 3:-0.50993001 4:-0.42857 5:-0.78767002 6:-0.94999999 #
0.35335383050719659792093807482161 1:0.36842 2:-0.11304 3:0.099338003 4:0.16883001 5:-0.57533997 6:-0.40000001 #
-0.50007857089842944198210261674831 1:0.15790001 2:-0.25217 3:-0.69536 4:-0.55844003 5:-0.97259998 6:-0.80000001 #
-0.50007857089842944198210261674831 1:0.36842 2:-0.23478 3:-0.62914002 4:-0.45454001 5:-0.94520003 6:-0.89999998 #
0.28576141134611493521688885266485 1:0.36842 2:-0.30434999 3:-0.82780999 4:-0.68831003 5:-0.71917999 6:-0.60000002 #
0.3675904588622642688022779111634 1:0.31579 2:0.93044001 3:-0.86755002 4:-0.61039001 5:-0.93835998 6:-0.60000002 #
-0.50007857089842944198210261674831 1:0.42105001 2:-0.23478 3:-0.85430002 4:-0.76622999 5:-0.93835998 6:-0.40000001 #
-0.50007857089842944198210261674831 1:0.21053 2:0.23478 3:-0.70861 4:-0.66233999 5:-0.97944999 6:-0.94999999 #
0.50007857089842944198210261674831 1:0.57894999 2:-0.32174 3:-0.73509997 4:-0.53246999 5:-0.93835998 6:-0.89999998 #
0.35276414279154399977755929285195 1:0.63158 2:-0.2 3:-0.35099 4:-0.012987 5:0.35616001 6:0.2 #
-0.50007857089842944198210261674831 1:0.36842 2:-0.40869999 3:-0.61589003 4:-0.53246999 5:-0.95204997 6:-0.2 #
-0.50007857089842944198210261674831 1:0.21053 2:-0.39129999 3:-0.64238 4:-0.68831003 5:-0.91781002 6:-0.80000001 #
0.50007857089842944198210261674831 1:0.21053 2:-0.44348001 3:-0.80132002 4:-0.68831003 5:-0.93835998 6:-0.40000001 #
0.46812935918279541258613107856945 1:0.10526 2:-0.32174 3:-0.66886997 4:-0.58442003 5:-0.85615999 6:-0.60000002 #
-0.50007857089842944198210261674831 1:0.47367999 2:0.11304 3:-0.81457001 4:-0.68831003 5:-0.85615999 6:-0.80000001 #
-0.50007857089842944198210261674831 1:0.47367999 2:-0.21739 3:-0.73509997 4:-0.66233999 5:-0.90411001 6:-0.40000001 #
0.34978603980718236954317035269924 1:0.15790001 2:-0.078261003 3:-0.76159 4:0.2987 5:-0.97259998 6:-0.60000002 #
0.35227879015995822165052686614217 1:0.94736999 2:0.026086999 3:-0.60264999 4:0.89609998 5:0.35616001 6:-0.30000001 #
-0.50007857089842944198210261674831 1:0.36842 2:-0.35652 3:-0.62914002 4:-0.76622999 5:-0.97944999 6:-0.89999998 #
-0.50007857089842944198210261674831 1:0.15790001 2:-0.16522001 3:-0.61589003 4:-0.61039001 5:-0.88356 6:-0.80000001 #
0.2379073853504126145885777532385 1:0.63158 2:-0.18261001 3:-0.77482998 4:-0.45454001 5:-0.89041001 6:-0.60000002 #
-0.31425058754514850756223154348845 1:0.31579 2:-0.13044 3:-0.73509997 4:-0.53246999 5:-0.95889997 6:-0.94999999 #
-0.13526265113193505773558911187138 1:0.42105001 2:0.078261003 3:-0.72184998 4:-0.61039001 5:-0.95204997 6:-0.94999999 #
0.50007857089842944198210261674831 1:0.15790001 2:-0.40869999 3:-0.65562999 4:-0.35065001 5:-0.88356 6:-0.94999999 #
0.34121763962265450054189841466723 1:0.15790001 2:-0.49564999 3:-0.77482998 4:-0.63635999 5:-0.82876998 6:-0.94999999 #
0.35252164385573142579843874955259 1:-1 2:-0.30434999 3:-0.80132002 4:-0.61039001 5:-0.93835998 6:-0.94999999 #
0.35205382876165969285864321136614 1:0.31579 2:0.26956999 3:-0.60264999 4:0.14286 5:0.12329 6:-0.60000002 #
0.31773045213701150979446197197831 1:-0.26315999 2:0.35652 3:-0.82780999 4:-0.42857 5:-0.87671 6:-0.60000002 #
0.50007857089842944198210261674831 1:0.052632 2:-0.37391001 3:-0.72184998 4:-0.61039001 5:-0.86300999 6:-0.69999999 #
0.3096301131734617850810309391818 1:-0.10526 2:-0.11304 3:-0.54966998 4:-0.40259999 5:-0.70547998 6:-0.94999999 #
-0.096351659228763902875769531419792 1:0.15790001 2:-0.16522001 3:-0.62914002 4:-0.63635999 5:-0.84931999 6:-0.89999998 #
0.31751780051824574080399088416016 1:0.36842 2:0.21739 3:-0.58939999 4:-0.24675 5:-0.78082001 6:0 #
0.32813583033608628714006272275583 1:0.68421 2:-0.0086960001 3:-0.82780999 4:-0.61039001 5:-0.67123002 6:-0.2 #
0.38098483787491921326306965056574 1:0.26315999 2:-0.51304001 3:-0.50993001 4:-0.55844003 5:-0.70547998 6:-0.80000001 #
0.36468211079550716391395326354541 1:0.36842 2:-0.63477999 3:-0.81457001 4:-0.66233999 5:-0.87671 6:-0.80000001 #
0.24141091676988596370634354570939 1:0.78947002 2:-0.37391001 3:-0.82780999 4:-0.63635999 5:-0.95889997 6:-0.5 #
0.28230892665790469076014801430574 1:0.36842 2:0.095651999 3:-0.36423999 4:0.090908997 5:-0.67808002 6:-0.60000002 #
0.30475551650214027787910708866548 1:0.31579 2:-0.61738998 3:-0.61589003 4:-0.24675 5:-0.84931999 6:-0.94999999 #
0.21668326511527588595917848124373 1:0.21053 2:-0.60000002 3:-0.85430002 4:-0.27272999 5:-0.65753001 6:-0.60000002 #
0.25365117827303651498738190639415 1:0.84210002 2:-0.35652 3:-0.66886997 4:-0.53246999 5:-0.51370001 6:-0.40000001 #
0.22445687031112249165687444474315 1:-0.10526 2:-0.14782999 3:-0.64238 4:-0.61039001 5:-0.4589 6:-0.69999999 #
0.20110557691384428613545765074377 1:0.26315999 2:-0.23478 3:-0.98676002 4:-0.68831003 5:-0.93835998 6:-0.89999998 #
0.27443552725596220831505434034625 1:0.26315999 2:-0.30434999 3:-0.73509997 4:-0.37661999 5:-0.83561999 6:-0.40000001 #
0.246815958537188712140775237458 1:0.78947002 2:-0.66956002 3:-0.86755002 4:-0.58442003 5:-0.69862998 6:-0.5 #
0.21050459248268912904045180312096 1:0.42105001 2:-0.33913001 3:-0.81457001 4:-0.79220998 5:-0.47944999 6:-0.69999999 #
0.25505614914434598938797194023209 1:0.42105001 2:-0.42609 3:-0.86755002 4:-0.71429002 5:-0.96574998 6:-0.94999999 #
0.04438608025440599763600246774331 1:0.052632 2:-0.53043002 3:-0.89403999 4:-0.66233999 5:-0.93835998 6:-0.30000001 #
0.0040387231567317969510577668756923 1:0.052632 2:-0.39129999 3:-0.81457001 4:-0.50648999 5:-0.92466003 6:-0.94999999 #
