SVM-light Version V6.02
0 # kernel type
3 # kernel parameter -d 
1 # kernel parameter -g 
1 # kernel parameter -s 
1 # kernel parameter -r 
empty# kernel parameter -u 
34 # highest feature index 
250 # number of training documents 
110 # number of support vectors plus 1 
1.6087068 # threshold b, each following line is a SV (starting with alpha*y)
0.083309751625995714929828750427987 1:1 2:0 3:0.84842998 4:0.067939997 5:0.80562001 6:-0.02299 7:0.77030998 8:-0.032990001 9:0.66724998 10:-0.066200003 11:0.59582001 12:-0.07666 13:0.67259997 14:-0.057709999 15:0.6426 16:-0.064379998 17:0.39199001 18:0.045299999 19:0.71253997 20:0.01394 21:0.55970001 22:-0.080389999 23:0.53430003 24:-0.084530003 25:0.47038001 26:-0.22822 27:0.48659 28:-0.091279998 29:0.52613002 30:-0.085369997 31:0.44277 32:-0.096210003 33:0.42223001 34:-0.098080002 #
0.083309751625995714929828750427987 1:1 2:0 3:1 4:-0.37838 5:0.64864999 6:0.29730001 7:0.64864999 8:-0.24324 9:0.86486 10:0.18919 11:1 12:-0.27026999 13:0.51350999 14:0 15:0.62162 16:-0.054049999 17:0.32431999 18:-0.21622001 19:0.71833003 20:-0.17666 21:0.62162 22:0.054049999 23:0.75676 24:0.13514 25:0.35135001 26:-0.29730001 27:0.61031002 28:-0.22163001 29:0.58477998 30:-0.23027 31:0.72973001 32:-0.59459001 33:0.51350999 34:-0.24324 #
-0.043773795801775462754878986970652 1:-1 2:0 3:1 4:1 5:0 6:0 7:1 8:-1 9:1 10:-1 11:1 12:1 13:1 14:1 15:1 16:-1 17:1 18:1 19:1 20:1 21:1 22:-1 23:-1 24:-1 25:1 26:-1 27:1 28:-1 29:1 30:1 31:0 32:0 33:1 34:-1 #
-0.083309751625995714929828750427987 1:1 2:0 3:1 4:0.57819998 5:1 6:-1 7:1 8:-1 9:1 10:-1 11:1 12:-1 13:1 14:-1 15:1 16:-1 17:1 18:-1 19:1 20:-1 21:1 22:-0.62796003 23:1 24:-1 25:1 26:-1 27:1 28:-1 29:1 30:-1 31:1 32:-1 33:1 34:-1 #
-0.083309751625995714929828750427987 1:1 2:0 3:1 4:1 5:1 6:-1 7:0 8:0 9:0 10:0 11:1 12:1 13:1 14:-1 15:1 16:1 17:1 18:-1 19:0 20:0 21:0 22:0 23:1 24:-0.27778 25:0 26:0 27:1 28:-1 29:1 30:1 31:1 32:-1 33:0 34:0 #
-0.083309751625995714929828750427987 1:-1 2:0 3:1 4:1 5:1 6:-1 7:1 8:1 9:1 10:1 11:1 12:1 13:1 14:-1 15:1 16:1 17:1 18:-1 19:1 20:-1 21:1 22:1 23:1 24:1 25:1 26:-1 27:1 28:1 29:1 30:1 31:1 32:1 33:1 34:1 #
0.083309751625995714929828750427987 1:1 2:0 3:0.19465999 4:0.057250001 5:0.041979998 6:0.25191 7:-0.10557 8:0.48866001 9:-0.18321 10:-0.18321 11:-0.41984999 12:0.061069999 13:-0.4542 14:0.091600001 15:-0.16412 16:-0.30533999 17:-0.10305 18:-0.39695001 19:0.18702 20:-0.17557 21:0.34011999 22:-0.11953 23:0.28626001 24:-0.16031 25:0.21645001 26:0.24692 27:0.039129999 28:0.31092 29:-0.038169999 30:0.26335999 31:-0.16794001 32:0.16794001 33:-0.30153 34:-0.33588001 #
0.083309751625995714929828750427987 1:1 2:0 3:0.83427 4:0.39120999 5:0.54040003 6:0.78579003 7:0.12326 8:0.89402002 9:-0.33221 10:0.83578002 11:-0.70086002 12:0.59564 13:-0.86622 14:0.21909 15:-0.84442002 16:-0.24164 17:-0.59714001 18:-0.61894 19:-0.19354001 20:-0.87787002 21:0.12439 22:-0.89064002 23:0.51108998 24:-0.72454 25:0.79143 26:-0.27733999 27:0.83007997 28:0.087180004 29:0.66592002 30:0.49079001 31:0.37542 32:0.70011002 33:-0.039829999 34:0.79443997 #
-0.040089979583782506256106614728196 1:1 2:0 3:-1 4:1 5:-1 6:0.15244 7:0.28354001 8:1 9:-1 10:1 11:-1 12:-1 13:1 14:1 15:-1 16:-0.23476 17:0.28301001 18:-1 19:1 20:1 21:-0.31402001 22:-1 23:-1 24:-1 25:1 26:-1 27:-1 28:-0.035780001 29:1 30:-1 31:-1 32:-0.32317001 33:0.14939 34:1 #
0.083309751625995714929828750427987 1:1 2:0 3:0.52542001 4:-0.0339 5:0.94915003 6:0.084749997 7:0.52542001 8:-0.16948999 9:0.30508 10:-0.01695 11:0.50847 12:-0.13559 13:0.64407003 14:0.28814 15:0.83051002 16:-0.35593 17:0.54237002 18:0.01695 19:0.55931997 20:0.0339 21:0.59322 22:0.30508 23:0.86440998 24:0.05085 25:0.40678 26:0.15254 27:0.67286998 28:-0.00266 29:0.66101998 30:-0.0339 31:0.83051002 32:-0.15254 33:0.76270998 34:-0.10169 #
0.083309751625995714929828750427987 1:1 2:0 3:0.47367999 4:-0.10526 5:0.83780998 6:0.01756 7:0.83155 8:0.026149999 9:0.68421 10:-0.05263 11:0.68421 12:0 13:0.79856002 14:0.050280001 15:0.78315002 16:0.057560001 17:0.84210998 18:0.47367999 19:1 20:0.05263 21:0.72549999 22:0.076310001 23:0.70301002 24:0.081409998 25:0.42105001 26:0.21053 27:0.65419 28:0.089680001 29:0.52631998 30:-0.21053 31:0.60149997 32:0.095339999 33:0.57418001 34:0.09719 #
-0.083309751625995714929828750427987 1:1 2:0 3:0.058660001 4:-0.0083799995 5:0.067039996 6:0.0083799995 7:0 8:-0.01117 9:0.0055900002 10:-0.039110001 11:0.016759999 12:-0.07542 13:-0.0055900002 14:0.053070001 15:0.06425 16:-0.033519998 17:0 18:0.094970003 19:-0.06425 20:0.07542 21:-0.047490001 22:0.025140001 23:0.027930001 24:-0.0055900002 25:0.0083799995 26:0.0055900002 27:0.10335 28:-0.0083799995 29:0.03073 30:-0.0027900001 31:0.044690002 32:0 33:0.047490001 34:-0.033519998 #
0.083309751625995714929828750427987 1:1 2:0 3:0.33333001 4:-0.25 5:0.44444001 6:0.22222 7:0.38889 8:0.16666999 9:0.41666999 10:0.13889 11:0.5 12:-0.11111 13:0.54911 14:-0.084430002 15:0.58332998 16:0.33333001 17:0.55555999 18:0.02778 19:0.25 20:-0.19444001 21:0.47222 22:-0.05556 23:0.52778 24:-0.02778 25:0.38889 26:0.083329998 27:0.41543001 28:-0.14256001 29:0.19444001 30:-0.13889 31:0.36923999 32:-0.14809 33:0.083329998 34:-0.5 #
0.083309751625995714929828750427987 1:1 2:0 3:0.62335002 4:-0.034899998 5:0.59085 6:0.0048099998 7:0.60408998 8:-0.074610002 9:0.63177001 10:0.0096300002 11:0.62454998 12:-0.074610002 13:0.67027998 14:0.0722 15:0.62936002 16:-0.084239997 17:0.67509001 18:0.091459997 19:0.67148 20:0 21:0.58964998 22:0.10108 23:0.50059998 24:0.031289998 25:0.65944999 26:0.14079 27:0.60462999 28:0.020190001 29:0.51384002 30:0.044520002 31:0.61733001 32:-0.0096300002 33:0.61372 34:-0.091459997 #
0.083309751625995714929828750427987 1:1 2:0 3:0.57539999 4:-0.031750001 5:0.75198001 6:-0.053569999 7:0.61508 8:-0.0119 9:0.53968 10:0.03373 11:0.61706001 12:0.099210002 13:0.59127003 14:-0.023809999 15:0.62698001 16:0.0119 17:0.70832998 18:0.02579 19:0.60316998 20:0.015869999 21:0.47817001 22:-0.02778 23:0.59127003 24:0.037700001 25:0.5 26:0.03968 27:0.61290997 28:-0.01237 29:0.61706001 30:-0.13492 31:0.68848997 32:-0.01389 33:0.625 34:-0.031750001 #
-0.083309751625995714929828750427987 1:-1 2:0 3:1 4:-1 5:1 6:1 7:1 8:1 9:1 10:1 11:1 12:1 13:1 14:-1 15:1 16:-1 17:1 18:1 19:1 20:-1 21:1 22:1 23:1 24:1 25:1 26:-1 27:1 28:1 29:1 30:-1 31:1 32:1 33:1 34:-1 #
-0.083309751625995714929828750427987 1:1 2:0 3:1 4:-1 5:1 6:1 7:1 8:1 9:1 10:-0.5 11:1 12:1 13:1 14:1 15:1 16:1 17:0 18:0 19:1 20:1 21:1 22:1 23:1 24:-1 25:1 26:1 27:1 28:0.625 29:1 30:-0.75 31:-0.75 32:1 33:1 34:1 #
-0.083309751625995714929828750427987 1:1 2:0 3:0.85271001 4:0.054260001 5:1 6:0.080689996 7:1 8:1 9:0.91473001 10:-0.0077499999 11:0.83721 12:0.038759999 13:1 14:0.27153 15:1 16:1 17:0.81395 18:0.04651 19:0.90697998 20:0.11628 21:1 22:0.50669998 23:1 24:-1 25:0.80620003 26:0.038759999 27:1 28:0.71613002 29:0.84495997 30:0.069770001 31:1 32:0.87317002 33:1 34:1 #
0.083309751625995714929828750427987 1:1 2:0 3:0.32789001 4:0.11042 5:0.15970001 6:0.29308 7:0.1402 8:0.74484998 9:-0.25130999 10:0.91992998 11:-0.16503 12:0.26664001 13:-0.63713998 14:0.24865 15:-0.97649997 16:-0.00337 17:-0.23227 18:-0.19909 19:-0.30522001 20:-0.48886001 21:-0.14426 22:-0.89990997 23:0.093450002 24:-0.28916001 25:0.28307 26:-0.1856 27:0.39599001 28:-0.11498 29:0.31005001 30:0.056139998 31:0.21443 32:0.2054 33:0.13376001 34:0.26422 #
-0.026341812564573699462222577949433 1:-1 2:0 3:0 4:0 5:0 6:0 7:0 8:0 9:0 10:0 11:0 12:0 13:1 14:1 15:1 16:1 17:1 18:-1 19:0 20:0 21:1 22:1 23:1 24:-1 25:1 26:1 27:1 28:0 29:1 30:1 31:1 32:-1 33:0 34:0 #
-0.083309751625995714929828750427987 1:1 2:0 3:0.79157001 4:0.16851 5:0 6:0 7:0.56541002 8:0.068740003 9:0.39467999 10:1 11:0.38359001 12:0.99557 13:-0.024390001 14:0.53214997 15:0.23725 16:0.1286 17:-0.02661 18:0.95121998 19:-0.50998002 20:0.84921998 21:-0.102 22:0.38802999 23:-0.42572001 24:0.23725 25:-0.91574001 26:0.8071 27:-0.34145999 28:0.88248003 29:-1 30:0.69401002 31:-1 32:0.1286 33:0 34:0 #
-0.083309751625995714929828750427987 1:1 2:0 3:0.41931999 4:0.12482 5:0.34999999 6:0.125 7:0.23182 8:0.27954999 9:-0.036359999 10:0.44317999 11:0.045170002 12:0.36194 13:-0.19091 14:0.33636001 15:-0.13349999 16:0.27322 17:0.02727 18:0.40454999 19:-0.34773001 20:0.12727 21:-0.20028 22:0.050779998 23:-0.18636 24:0.36364001 25:-0.14003 26:-0.048020002 27:-0.099710003 28:-0.071139999 29:-1 30:-1 31:-0.02916 32:-0.074639998 33:-0.00526 34:-0.063139997 #
-0.083309751625995714929828750427987 1:1 2:0 3:1 4:1 5:0 6:0 7:0 8:0 9:0 10:0 11:0.47744 12:-0.89098001 13:-0.51503998 14:0.45489001 15:-0.95489001 16:0.28571001 17:0.64661998 18:1 19:0 20:0 21:0 22:0 23:0.62029999 24:0.20300999 25:-1 26:-1 27:1 28:-1 29:1 30:1 31:0 32:0 33:0 34:0 #
-0.083309751625995714929828750427987 1:1 2:0 3:0.63815999 4:1 5:0.20833001 6:-1 7:1 8:1 9:0.87718999 10:0.30921 11:-0.66886002 12:1 13:-0.059209999 14:0.58771998 15:0.01754 16:0.050439999 17:-0.51534998 18:-1 19:0.14253999 20:-0.032889999 21:0.32675001 22:-0.4386 23:-1 24:1 25:0.80921 26:-1 27:1 28:-0.0614 29:1 30:1 31:0.20614 32:-1 33:1 34:1 #
0.083309751625995714929828750427987 1:1 2:0 3:0.68147999 4:0.1037 5:0.77037001 6:0.034570001 7:0.65184999 8:0.081479996 9:0.60987997 10:-0.0049399999 11:0.79012001 12:0.11852 13:0.59753001 14:0.049380001 15:0.62469 16:0.096299998 17:0.78272003 18:-0.17531 19:0.73826998 20:-0.10864 21:0.48642001 22:0.0098799998 23:0.60987997 24:0.081479996 25:0.66667002 26:-0.1284 27:0.63773 28:-0.02451 29:0.76542997 30:0.022220001 31:0.61234999 32:-0.071599998 33:0.51358002 34:-0.046909999 #
0.013176218043343790320420794159872 1:1 2:0 3:0.58459002 4:-0.35526001 5:1 6:0.35337999 7:0.75375998 8:-0.0056400001 9:0.82519001 10:0.19361 11:0.50187999 12:-0.27632001 13:0.65977001 14:0.06391 15:0.69736999 16:0.14662001 17:0.72368002 18:-0.42669001 19:0.76128 20:0.045109998 21:0.66917002 22:0.20489 23:0.84773999 24:-0.40977001 25:0.64850003 26:-0.04699 27:0.56835997 28:-0.10571 29:0.52819997 30:-0.13346 31:0.15602 32:-0.12218 33:0.44767001 34:-0.10309 #
0.083309751625995714929828750427987 1:1 2:0 3:0.60000002 4:0.033330001 5:0.63332999 6:0.066670001 7:0.69999999 8:0.066670001 9:0.69999999 10:0 11:0.63332999 12:0 13:0.80000001 14:0 15:0.73333001 16:0 17:0.69999999 18:0.1 19:0.66667002 20:0.1 21:0.73333001 22:-0.033330001 23:0.76666999 24:0 25:0.63332999 26:0.13333 27:0.65932 28:0.10168 29:0.60000002 30:0.13333 31:0.60000002 32:0.16666999 33:0.63332999 34:0.16666999 #
0.083309751625995714929828750427987 1:1 2:0 3:0.63510001 4:-0.043880001 5:0.76529998 6:0.029680001 7:0.61431998 8:0.36028001 9:0.65358001 10:-0.0046199998 11:0.64203 12:0.083140001 13:0.79446 14:-0.43417999 15:0.72517002 16:0.54965001 17:0.59583998 18:0.13857 19:0.63510001 20:0.2194 21:0.63279003 22:-0.25404 23:0.70951003 24:0.15358999 25:0.64665002 26:0.23095 27:0.68774998 28:0.17704 29:0.61663002 30:0.07621 31:0.66316003 32:0.19841 33:0.69053 34:0.36721 #
-0.083309751625995714929828750427987 1:1 2:0 3:0.66161001 4:-1 5:1 6:1 7:1 8:-0.67321002 9:0.80892998 10:-0.40446001 11:1 12:-1 13:1 14:-0.89375001 15:1 16:0.73392999 17:0.17589 18:0.70981997 19:1 20:0.78035998 21:1 22:0.85268003 23:1 24:-1 25:1 26:0.85356998 27:1 28:-0.085709997 29:0.95981997 30:-0.36250001 31:1 32:0.65267998 33:1 34:0.34731999 #
0.083309751625995714929828750427987 1:1 2:0 3:0.58939999 4:-0.60926998 5:0.85430002 6:0.55298001 7:0.81125998 8:0.072849996 9:0.56623 10:0.16225 11:0.32780999 12:0.24172001 13:0.50331002 14:0.12252 15:0.63906997 16:0.19868 17:0.71854001 18:0.42715001 19:0.54304999 20:0.13907 21:0.65232003 22:0.27814999 23:0.68874002 24:0.072849996 25:0.51871997 26:0.26653001 27:0.49013001 28:0.27687001 29:0.46215999 30:0.28573999 31:0.43483999 32:0.29324001 33:0.40821001 34:0.29942 #
0.014221420548029412023183226665424 1:1 2:0 3:0.89589 4:0.39286 5:0.66128999 6:0.71803999 7:0.29521 8:0.90824002 9:-0.047869999 10:0.94414997 11:-0.45725 12:0.84605002 13:-0.7766 14:0.58511001 15:-0.92818999 16:0.25132999 17:-0.92281997 18:-0.15315001 19:-0.76064003 20:-0.48403999 21:-0.50931001 22:-0.76196998 23:-0.14895 24:-0.88590997 25:0.21581 26:-0.85702997 27:0.53228998 28:-0.68593001 29:0.74845999 30:-0.40656 31:0.83142 32:-0.070289999 33:0.76862001 34:0.27926001 #
-0.083309751625995714929828750427987 1:1 2:0 3:0.68198001 4:-0.17314 5:0.82331997 6:0.21908 7:0.46643001 8:0.32861999 9:0.25795001 10:0.58304 11:1 12:-0.15194 13:0.0106 14:0.44523001 15:0.0106 16:0.38868999 17:0.18681 18:0.41168001 19:0.10567 20:0.36353001 21:0.043249998 22:0.30745 23:-0.00082999998 24:0.24936 25:-0.028620001 26:0.19405 27:-0.043140002 28:0.14481001 29:-0.047789998 30:0.10349 31:-0.045850001 32:0.070639998 33:-0.040130001 34:0.04586 #
0.083309751625995714929828750427987 1:1 2:0 3:0.84134001 4:-0.18362001 5:0.43643999 6:0.02919 7:0.93421 8:-0.0026700001 9:0.87946999 10:0.13795 11:0.81120998 12:-0.017890001 13:0.88559002 14:0.54991001 15:0.91714001 16:-0.57485998 17:0.75 18:-0.29519999 19:0.86676002 20:-0.20104 21:1 22:1 23:0.46610001 24:-0.1629 25:0.90065998 26:-0.02778 27:0.93357998 28:-0.01158 29:0.61581999 30:-0.32297999 31:0.84463 32:-0.25705999 33:0.93322998 34:-0.01425 #
-0.083309751625995714929828750427987 1:1 2:0 3:0.84783 4:0.10598 5:1 6:0.39129999 7:1 8:-1 9:0.66938001 10:0.084239997 11:1 12:0.27037999 13:1 14:0.60597998 15:1 16:0.35506999 17:1 18:0.02672 19:0.58424002 20:-0.43024999 21:1 22:0.63496 23:0.89130002 24:0.26585001 25:0.91033 26:-0.33333001 27:1 28:0.15942 29:0.37681001 30:-0.019470001 31:1 32:0.22464 33:1 34:0.37408999 #
0.083309751625995714929828750427987 1:1 2:0 3:0.91767001 4:0.18198 5:0.86089998 6:0.35543001 7:0.72873002 8:0.45747 9:0.60425001 10:0.69865 11:0.50375998 12:0.74922001 13:0.361 14:0.81795001 15:0.15663999 16:0.83557999 17:0.0039599999 18:0.85210001 19:-0.1639 20:0.77853 21:-0.35995999 22:0.76192999 23:-0.43087 24:0.65385002 25:-0.53140002 26:0.53886002 27:-0.60328001 28:0.40972 29:-0.64511001 30:0.27338001 31:-0.65710002 32:0.13666999 33:-0.64055997 34:0.053939998 #
-0.083309751625995714929828750427987 1:1 2:0 3:0.71253002 4:-0.02595 5:0.41286999 6:-0.23067001 7:0.98018998 8:-0.094729997 9:0.99708998 10:-0.10236 11:1 12:-0.10951 13:0.58964998 14:1 15:0.83726001 16:-1 17:0.82270002 18:-0.17862999 19:0.80760002 20:-0.28257 21:-0.25914001 22:0.92729998 23:0.51933002 24:0.054559998 25:0.65493 26:-0.20392001 27:0.93124002 28:-0.41306999 29:0.63810998 30:-0.21901 31:0.86136001 32:-0.87353998 33:-0.23186 34:-1 #
-0.083309751625995714929828750427987 1:1 2:0 3:0.62120998 4:-0.63635999 5:0 6:0 7:0 8:0 9:0.34470001 10:0.28788 11:0.42803001 12:0.39394 13:-0.075759999 14:0.51893997 15:0.36364001 16:0.31439 17:-0.53788 18:0.32955 19:0.12121 20:-0.14772999 21:0.01894 22:-0.53408998 23:-0.57576001 24:0.17803 25:0.29166999 26:-0.27272999 27:0.25758001 28:-0.57576001 29:0.43182001 30:0.24242 31:0.18182001 32:-0.02273 33:0.17045 34:-0.41666999 #
-0.046159710422151986608518825505598 1:1 2:0 3:0 4:0 5:0 6:0 7:0 8:0 9:0 10:0 11:1 12:-0.33333001 13:0.16666999 14:0.26041999 15:0 16:0 17:0 18:0 19:0 20:0 21:-0.19791999 22:-0.21875 23:-0.16666999 24:0.90625 25:-1 26:0.5 27:0.041669998 28:0.75 29:-0.22916999 30:-1 31:-0.125 32:-0.27083001 33:-0.19791999 34:-0.9375 #
-0.083309751625995714929828750427987 1:1 2:0 3:1 4:-1 5:0 6:0 7:0.77941 8:-0.99264997 9:0.80882001 10:0.55146998 11:-0.41912001 12:-0.94853002 13:0 14:0 15:0 16:0 17:0.72059 18:-0.77205998 19:0.73528999 20:-0.60294002 21:0 22:0 23:0.18381999 24:-1 25:-1 26:-1 27:-1 28:-1 29:1 30:-1 31:1 32:-1 33:0 34:0 #
0.083309751625995714929828750427987 1:1 2:0 3:0.92308003 4:0.15451001 5:0.86399001 6:0.29756999 7:0.72582 8:0.36790001 9:0.70587999 10:0.56830001 11:0.57449001 12:0.62718999 13:0.43270001 14:0.74676001 15:0.31705001 16:0.67697001 17:0.19128001 18:0.76818001 19:0.046859998 20:0.76170999 21:-0.12064 22:0.76968998 23:-0.18479 24:0.71327001 25:-0.29291001 26:0.65707999 27:-0.38798001 28:0.58552998 29:-0.46799001 30:0.50130999 31:-0.53145999 32:0.40731999 33:-0.56230998 34:0.35095 #
0.083309751625995714929828750427987 1:1 2:0 3:0.39394 4:-0.24242 5:0.62655002 6:0.0127 7:0.45455 8:0.090910003 9:0.63635999 10:0.090910003 11:0.21212 12:-0.21212 13:0.57576001 14:0.15152 15:0.39394 16:0 17:0.56155998 18:0.045609999 19:0.51515001 20:0.030300001 21:0.78788 22:0.18182001 23:0.30303001 24:-0.15152 25:0.48526001 26:0.059289999 27:0.46362001 28:0.061420001 29:0.33333001 30:-0.030300001 31:0.41856 32:0.064099997 33:0.39394 34:0.24242 #
0.083309751625995714929828750427987 1:1 2:0 3:0.57647002 4:-0.015690001 5:0.40391999 6:0 7:0.38431001 8:0.12941 9:0.40000001 10:-0.058820002 11:0.56471002 12:0.14117999 13:0.46667001 14:0.082350001 15:0.52548999 16:-0.054900002 17:0.58038998 18:0.015690001 19:0.50195998 20:0 21:0.45881999 22:0.066670001 23:0.58038998 24:0.082350001 25:0.49803999 26:0.00392 27:0.48600999 28:0.10039 29:0.46274999 30:0.082350001 31:0.45098001 32:0.23529001 33:0.43136999 34:0.17254999 #
0.083309751625995714929828750427987 1:1 2:0 3:0.26666999 4:-0.1 5:0.53333002 6:0 7:0.33333001 8:-0.13333 9:0.36667001 10:0.11667 11:0.56667 12:0.01667 13:0.71666998 14:0.083329998 15:0.69999999 16:-0.066670001 17:0.53333002 18:0.2 19:0.41666999 20:-0.01667 21:0.31667 22:0.2 23:0.69999999 24:0 25:0.25 26:0.13333 27:0.46213999 28:0.054389998 29:0.40000001 30:0.033330001 31:0.46667001 32:0.033330001 33:0.41666999 34:-0.050000001 #
-0.083309751625995714929828750427987 1:1 2:0 3:0.5984 4:0.40332001 5:0.82809001 6:0.80520999 7:0.76001 8:0.70709002 9:0.84009999 10:-0.10984 11:0.97311002 12:0.079810001 13:0.95823997 14:-0.85727 15:0.91961998 16:0.88444 17:0.95451999 18:-0.052060001 19:0.88673002 20:0.18134999 21:0.98483998 22:-0.69594002 23:0.86669999 24:-0.85755002 25:0.28604001 26:-0.30063 27:1 28:0.17076001 29:0.62958002 30:0.42677 31:0.87756997 32:0.81006998 33:0.81979001 34:0.68822002 #
-0.083309751625995714929828750427987 1:1 2:0 3:0.72727001 4:-0.050000001 5:0.89240998 6:0.034619998 7:1 8:0.72727001 9:0.66364002 10:-0.05909 11:0.48181999 12:-0.16818 13:0.81809002 14:0.095590003 15:0.56818002 16:1 17:0.50454998 18:0.21818 19:0.66817999 20:0.1 21:1 22:-0.30000001 23:0.98636001 24:-1 25:0.57273 26:0.32727 27:0.56981999 28:0.14673001 29:0.42273 30:0.081820004 31:0.48927 32:0.14643 33:1 34:1 #
-0.083309751625995714929828750427987 1:1 2:0 3:0.39179 4:-0.063429996 5:0.97464001 6:0.043280002 7:1 8:1 9:0.35821 10:0.15299 11:0.54478002 12:0.13060001 13:0.61567003 14:-0.82090002 15:0.57836002 16:0.67909998 17:0.66790998 18:-0.10448 19:0.46641999 20:-0.11567 21:0.65574002 22:0.14792 23:0.83209002 24:0.45522001 25:0.47014999 26:0.16418 27:0.49309 28:0.1463 29:0.32462999 30:-0.02612 31:0.39118001 32:0.13521001 33:0.34411001 34:0.12755001 #
0.083309751625995714929828750427987 1:1 2:0 3:0.31033999 4:-0.10345 5:0.24138001 6:-0.10345 7:0.2069 8:-0.068970002 9:0.074050002 10:-0.054310001 11:0.036490001 12:-0.03689 13:0.017069999 14:-0.02383 15:0.0074100001 16:-0.01482 17:0.00281 18:-0.0089299995 19:0.00078 20:-0.0052299998 21:-2.9999999e-05 22:-0.0029899999 23:-0.00028000001 24:-0.00166 25:-0.00031 26:-0.00089999998 27:-0.00025000001 28:-0.00047999999 29:-0.00018 30:-0.00023999999 31:-0.00012 32:-0.00012 33:-7.9999998e-05 34:-5.9999998e-05 #
0.083309751625995714929828750427987 1:1 2:0 3:0.29073 4:0.10025 5:0.23308 6:0.17293 7:0.037590001 8:0.34336001 9:0.1203 10:0.26315999 11:0.062660001 12:0.21303 13:-0.047249999 14:0.12767 15:-0.063330002 16:0.079070002 17:-0.063280001 18:0.040970001 19:-0.054310001 20:0.01408 21:-0.04166 22:-0.0027999999 23:-0.028759999 24:-0.01176 25:-0.017550001 26:-0.01505 27:-0.0088600004 28:-0.01475 29:-0.0027999999 30:-0.0125 31:0.00095999998 32:-0.0094799995 33:0.0029 34:-0.0064699999 #
0.083309751625995714929828750427987 1:1 2:0 3:0.25 4:0.16666999 5:0.46667001 6:0.26666999 7:0.19035999 8:0.23965999 9:0.077660002 10:0.19938999 11:0.0107 12:0.14922 13:-0.023669999 14:0.10188 15:-0.036850002 16:0.063170001 17:-0.037659999 18:0.03458 19:-0.032299999 20:0.01532 21:-0.024739999 22:0.0035699999 23:-0.01726 24:-0.0027300001 25:-0.01097 26:-0.0053900001 27:-0.0062099998 28:-0.0058599999 29:-0.00294 30:-0.0052 31:-0.00089000002 32:-0.0040799999 33:0.00025000001 34:-0.00291 #
0.083309751625995714929828750427987 1:1 2:0 3:0.97588003 4:-0.10602 5:0.94600999 6:-0.208 7:0.92806 8:-0.28349999 9:0.85996002 10:-0.27342001 11:0.79765999 12:-0.47929001 13:0.78224999 14:-0.50764 15:0.74628001 16:-0.61435997 17:0.57945001 18:-0.68085998 19:0.37852001 20:-0.73641002 21:0.36324 22:-0.76561999 23:0.31898001 24:-0.79753 25:0.22792 26:-0.81634003 27:0.13659 28:-0.8251 29:0.04606 30:-0.82394999 31:-0.042619999 32:-0.81318003 33:-0.13832 34:-0.80975002 #
-0.014492946375632538569266927197532 1:1 2:0 3:0 4:0 5:-1 6:-1 7:-1 8:1 9:0 10:0 11:-1 12:1 13:1 14:1 15:1 16:-1 17:0 18:0 19:0 20:0 21:-1 22:-1 23:-1 24:1 25:1 26:0.4375 27:1 28:-1 29:0 30:0 31:-1 32:-1 33:-1 34:1 #
-0.079098986827879830263654525879247 1:1 2:0 3:-1 4:-1 5:1 6:1 7:1 8:-0.14375 9:0 10:0 11:-1 12:1 13:1 14:1 15:0.17917 16:-1 17:-1 18:-1 19:0.087499999 20:-1 21:1 22:-1 23:-1 24:1 25:-1 26:-1 27:1 28:-1 29:-1 30:-1 31:1 32:1 33:0 34:0 #
-0.069383514860527531475931084514741 1:1 2:0 3:0 4:0 5:0 6:0 7:0 8:0 9:-0.85000002 10:-1 11:0 12:0 13:1 14:-1 15:0 16:0 17:-1 18:-1 19:-1 20:-1 21:1 22:-1 23:-0.60000002 24:-1 25:1 26:1 27:-1 28:-0.2 29:1 30:-1 31:0 32:1 33:0 34:0 #
-0.083309751625995714929828750427987 1:1 2:0 3:1 4:-0.18829 5:0.93035001 6:-0.36155999 7:-0.10868 8:-0.93597001 9:1 10:-0.04549 11:0.50874001 12:-0.67742997 13:0.34432 14:-0.69707 15:-0.51684999 16:-0.97514999 17:0.054990001 18:-0.62237 19:0.33109 20:-1 21:-0.13151 22:-0.45300001 23:-0.18055999 24:-0.35734001 25:-0.20332 26:-0.26569 27:-0.20468 28:-0.18401 29:-0.1904 30:-0.11593 31:-0.16626 32:-0.062880002 33:-0.13738 34:-0.02447 #
0.083309751625995714929828750427987 1:1 2:0 3:1 4:0.11385 5:0.70019001 6:-0.12144 7:0.81594002 8:0.096770003 9:0.71157002 10:0.01139 11:0.56167001 12:-0.077799998 13:0.69069999 14:0.12524 15:0.58634001 16:0.03985 17:0.53131002 18:-0.034159999 19:0.69450003 20:0.16888 21:0.72676003 22:0.072109997 23:0.32067999 24:0.058820002 25:0.53320998 26:0.37380999 27:0.49090001 28:0.17951 29:0.15180001 30:0.32448 31:0.44141001 32:0.18897 33:0.56167001 34:0.15180001 #
-0.083309751625995714929828750427987 1:1 2:0 3:1 4:-0.055289999 5:1 6:-1 7:0.5 8:-0.11111 9:0.36111 10:-0.22222 11:1 12:-0.25712001 13:0.16666999 14:-0.11111 15:1 16:-0.3466 17:1 18:-0.38852999 19:1 20:-0.42862001 21:0 22:-0.25 23:1 24:-0.50332999 25:1 26:-0.27778 27:1 28:-0.57091999 29:1 30:-0.27778 31:1 32:-0.63156003 33:1 34:-0.65934998 #
-0.083309751625995714929828750427987 1:-1 2:0 3:1 4:-1 5:1 6:1 7:1 8:-1 9:1 10:1 11:1 12:-1 13:1 14:-1 15:1 16:-1 17:1 18:1 19:1 20:1 21:1 22:1 23:1 24:-1 25:1 26:1 27:1 28:1 29:1 30:1 31:1 32:1 33:1 34:-1 #
0.083309751625995714929828750427987 1:1 2:0 3:0.21428999 4:-0.095239997 5:0.33333001 6:0.071429998 7:0.19047999 8:0.19047999 9:0.23810001 10:0.095239997 11:0.40476 12:0.023809999 13:0.30952001 14:-0.047619998 15:0.30952001 16:-0.047619998 17:0.28571001 18:-0.11905 19:0.33333001 20:0.047619998 21:0.30952001 22:0 23:0.21428999 24:-0.11905 25:0.35714 26:-0.047619998 27:0.22109 28:-0.0229 29:0.19047999 30:0 31:0.16997001 32:-0.020339999 33:0.14693999 34:-0.01877 #
0.083066202535335698087237688014284 1:1 2:0 3:1 4:-0.57224 5:0.99150002 6:-0.73370999 7:0.89517999 8:-0.9745 9:1 10:-0.35817999 11:1 12:-0.23229 13:0.62889999 14:-0.86401999 15:1 16:-0.57534999 17:1 18:-0.79602998 19:0.76770997 20:-0.88951999 21:0.96600997 22:-1 23:0.70120001 24:-0.74896002 25:0.61945999 26:-0.76903999 27:0.53776997 28:-0.77986002 29:0.81019998 30:-1 31:1 32:-1 33:0.30445001 34:-0.76112002 #
-0.083309751625995714929828750427987 1:1 2:0 3:0 4:0 5:1 6:-1 7:0 8:0 9:0 10:0 11:1 12:1 13:1 14:-0.25342 15:1 16:0.23288 17:1 18:-1 19:0 20:0 21:0 22:0 23:1 24:1 25:0 26:0 27:1 28:-1 29:0 30:0 31:1 32:-1 33:0 34:0 #
-0.083309751625995714929828750427987 1:1 2:0 3:0.38521001 4:0.15564001 5:0.41244999 6:0.073930003 7:0.26459 8:0.24124999 9:0.23345999 10:0.1323 11:0.19454999 12:0.25292 13:0.24514 14:0.36965001 15:0.089489996 16:0.22957 17:-0.038910002 18:0.36965001 19:0.050579999 20:0.24902999 21:0.24902999 22:0.097280003 23:0.077820003 24:0.29960999 25:-0.024940001 26:0.28481999 27:-0.06024 28:0.26256001 29:-0.14786001 30:0.14786001 31:-0.093390003 32:0.31128001 33:-0.19066 34:0.28794 #
0.00025920619416824886016570417268667 1:1 2:0 3:0.66667002 4:-0.01366 5:0.97403997 6:0.06831 7:0.49590001 8:0.50137001 9:0.75682998 10:-0.0027300001 11:0.65164 12:-0.14071 13:0.40164 14:-0.48907 15:0.39208001 16:0.58743 17:0.76775998 18:0.31830999 19:0.78552002 20:0.11339 21:0.47541001 22:-0.44944999 23:1 24:0.0068299999 25:0.60655999 26:0.069669999 27:0.68655998 28:0.17088 29:0.87568003 30:0.077869996 31:0.55328 32:0.24590001 33:0.13934 34:0.48087001 #
0.083309751625995714929828750427987 1:1 2:0 3:0.29201999 4:0.13582 5:0.45331001 6:0.16808 7:0.51783001 8:-0.0050900001 9:0.52631998 10:0.20883 11:0.52462 12:-0.16638 13:0.47367999 14:-0.047540002 15:0.55518001 16:0.039050002 17:0.81664002 18:-0.22411001 19:0.42445001 20:-0.042440001 21:0.34975001 22:0.066210002 23:0.28183001 24:-0.20883 25:0.51731002 26:-0.03176 27:0.50369 28:-0.03351 29:0.34635001 30:0.098470002 31:0.70797998 32:-0.018680001 33:0.39559001 34:-0.032260001 #
0.083309751625995714929828750427987 1:1 2:0 3:0.74703997 4:-0.13241 5:0.53754997 6:0.16996001 7:0.72727001 8:0.094860002 9:0.69564998 10:-0.11067 11:0.66798002 12:-0.23518001 13:0.87945002 14:-0.1917 15:0.73715001 16:0.041499998 17:0.63042998 18:-0.0039499998 19:0.63635999 20:-0.11858 21:0.79249001 22:-0.25296 23:0.66403002 24:-0.28656 25:0.67194003 26:-0.10474 27:0.61847001 28:-0.12041 29:0.60079002 30:-0.20949 31:0.37549001 32:0.069169998 33:0.61066997 34:-0.01383 #
0.083309751625995714929828750427987 1:1 2:0 3:0.5 4:0 5:0.38696 6:0.10435 7:0.49129999 8:0.065219998 9:0.46957001 10:-0.039129999 11:0.35652 12:-0.12609001 13:0.45651999 14:0.047830001 15:0.50435001 16:0.02609 17:0.35652 18:0.19565 19:0.42174 20:0.14782999 21:0.42174 22:-0.02609 23:0.32174 24:-0.11304 25:0.47391 26:-0.0087000001 27:0.41789001 28:0.069080003 29:0.38696 30:0.039129999 31:0.35216999 32:0.14782999 33:0.44782999 34:0.17391001 #
-0.083309751625995714929828750427987 1:1 2:0 3:1 4:0.02461 5:0.99672002 6:0.048610002 7:0.97544998 8:0.071429998 9:0.61745 10:-1 11:0.91035998 12:0.11147 13:0.88462001 14:0.53640002 15:0.82077003 16:0.14137 17:0.76928997 18:0.15188999 19:1 20:0.41003001 21:0.65850002 22:0.16371 23:0.60137999 24:0.16516 25:0.54446 26:0.1639 27:0.48866999 28:0.16019 29:0.43481001 30:0.15436 31:0.38352001 32:0.14677 33:1 34:1 #
-0.083309751625995714929828750427987 1:1 2:0 3:0.62744999 4:-0.078429997 5:0.72548997 6:0 7:0.60784 8:-0.078429997 9:0.62744999 10:-0.11765 11:0.68627 12:-0.11765 13:0.66667002 14:-0.13725001 15:0.64705998 16:-0.09804 17:0.54901999 18:-0.11765 19:0.54901999 20:-0.21569 21:0.58824003 22:-0.19608 23:0.66667002 24:-0.23529001 25:0.45098001 26:-0.25490001 27:0.52408999 28:-0.24668001 29:0.56862998 30:-0.31373 31:0.43136999 32:-0.21569 33:0.47059 34:-0.27451 #
-0.083309751625995714929828750427987 1:1 2:0 3:1 4:-0.45161 5:1 6:1 7:0.71215999 8:-1 9:0 10:0 11:0 12:0 13:0 14:0 15:-1 16:0.14516 17:0.54093999 18:-0.3933 19:-1 20:-0.54466999 21:-0.69975001 22:1 23:0 24:0 25:1 26:0.90695 27:0.51612997 28:1 29:1 30:-0.20099001 31:0.25681999 32:1 33:-0.32381999 34:1 #
0.083309751625995714929828750427987 1:1 2:0 3:0.49515 4:0.097089998 5:0.29611999 6:0.058249999 7:0.34951001 8:0 9:0.57282001 10:-0.02427 11:0.58252001 12:0.02427 13:0.33495 14:0.04854 15:0.52427 16:0.0048500001 17:0.47086999 18:-0.1068 19:0.43204001 20:0.0048500001 21:0.34951001 22:0.058249999 23:0.18932 24:0.25727999 25:0.31068 26:-0.15049 27:0.36546999 28:0.038150001 29:0.39320001 30:0.17476 31:0.26214001 32:0 33:0.37379 34:-0.01942 #
0.083309751625995714929828750427987 1:1 2:0 3:0.4375 4:0.041669998 5:0.58332998 6:-0.10417 7:0.39583001 8:0 9:0.33333001 10:-0.0625 11:0.47916999 12:0 13:0.29166999 14:0.10417 15:0.54167002 16:0.02083 17:0.4375 18:-0.22916999 19:0.35416999 20:-0.22916999 21:0.33333001 22:0.083329998 23:0.25 24:0.1875 25:0.39583001 26:-0.1875 27:0.44012001 28:-0.10064 29:0.41666999 30:-0.083329998 31:0.58332998 32:-0.3125 33:0.33333001 34:-0.0625 #
0.083309751625995714929828750427987 1:1 2:0 3:0.7087 4:-0.24783 5:0.64348 6:0.043480001 7:0.45217001 8:0.38260999 9:0.65217 10:0.18261001 11:0.5 12:0.26956999 13:0.57826 14:-0.23043001 15:0.50435001 16:0.37825999 17:0.38696 18:-0.42609 19:0.36087 20:-0.26087001 21:0.26956999 22:0.11739 23:0.53245997 24:-0.038449999 25:0.31303999 26:-0.12174 27:0.4993 28:-0.042640001 29:0.48348001 30:-0.04448 31:0.64348 32:-0.25217 33:0.50435001 34:0.14782999 #
0.083309751625995714929828750427987 1:1 2:0 3:0.45455 4:0.090910003 5:0.63635999 6:0.090910003 7:0.27272999 8:0.18182001 9:0.63635999 10:0 11:0.36364001 12:-0.090910003 13:0.45455 14:-0.090910003 15:0.48611999 16:-0.01343 17:0.63635999 18:-0.18182001 19:0.45455 20:0 21:0.36364001 22:-0.090910003 23:0.27272999 24:0.18182001 25:0.36364001 26:-0.090910003 27:0.34441999 28:-0.017680001 29:0.27272999 30:0 31:0.36364001 32:0 33:0.28985 34:-0.01832 #
-0.083309751625995714929828750427987 1:1 2:0 3:0.69444001 4:0.38889 5:0 6:0 7:-0.32936999 8:0.69840997 9:0 10:0 11:0 12:0 13:0 14:0 15:0.20635 16:-0.24206001 17:0.21032 18:0.19444001 19:0.46428999 20:0.78175002 21:0 22:0 23:0 24:0 25:0.73413002 26:0.27381 27:0.76190001 28:0.63492 29:0 30:0 31:0 32:0 33:0 34:0 #
-0.083309751625995714929828750427987 1:1 2:0 3:0.064039998 4:-0.15271001 5:-0.044330001 6:0.059110001 7:0.083740003 8:-0.024630001 9:-0.01478 10:0.18719 11:0.064039998 12:0 13:0.12315 14:-0.098520003 15:0.059110001 16:0 17:0.0197 18:-0.02956 19:-0.12808 20:-0.2069 21:0.068970002 22:0.01478 23:0.068970002 24:0.02956 25:0.078819998 26:0.16256 27:0.28079 28:-0.049260002 29:-0.059110001 30:-0.093599997 31:0.044330001 32:0.054189999 33:0.073890001 34:-0.10837 #
-0.083309751625995714929828750427987 1:1 2:0 3:-0.0064099999 4:-0.5 5:0 6:0 7:-0.019230001 8:1 9:0 10:0 11:0 12:0 13:0 14:0 15:0 16:0 17:0 18:0 19:0.3141 20:0.92948997 21:-0.35256001 22:0.74359 23:-0.34615001 24:-0.80769002 25:0 26:0 27:-0.61537999 28:-0.51282001 29:0 30:0 31:0 32:0 33:0 34:0 #
-0.083309751625995714929828750427987 1:1 2:0 3:-0.205 4:0.28749999 5:0.23 6:0.1 7:0.2825 8:0.3175 9:0.32249999 10:0.34999999 11:0.36285001 12:-0.34617001 13:0.092500001 14:0.27500001 15:-0.094999999 16:0.20999999 17:-0.087499999 18:0.235 19:-0.34187001 20:0.31408 21:-0.47999999 22:-0.079999998 23:0.29908001 24:0.33175999 25:-0.57999998 26:-0.23999999 27:0.32190001 28:-0.28475001 29:-0.47 30:0.185 31:-0.27103999 32:-0.31228 33:0.40445 34:0.0305 #
-0.058651474572439382670907548344985 1:1 2:0 3:0.73809999 4:0.83332998 5:-0.76190001 6:-0.23810001 7:0.33333001 8:-0.14286 9:0.45238 10:-0.14286 11:-0.67285001 12:0.12808 13:0.33333001 14:0 15:0.28571001 16:-0.071429998 17:-0.38214001 18:0.51163 19:0.23810001 20:0.023809999 21:0.45238 22:0.047619998 23:0.16666999 24:-0.26190001 25:-0.57255 26:-0.10234 27:0.24889 28:-0.51078999 29:1 30:0 31:-0.66667002 32:-0.047619998 33:0.26190001 34:0.023809999 #
0.083309751625995714929828750427987 1:1 2:0 3:0.92246997 4:-0.19448 5:0.96419001 6:-0.17674001 7:0.87023997 8:-0.22601999 9:0.81702 10:-0.27070001 11:0.79271001 12:-0.28909001 13:0.70301998 14:-0.49639001 15:0.63338 16:-0.49967 17:0.37254 18:-0.70728999 19:0.27070001 20:-0.72109002 21:0.40505999 22:-0.54171997 23:0.33509001 24:-0.59691 25:0.14749999 26:-0.63600999 27:0.093120001 28:-0.59588999 29:-0.071620002 30:-0.54927999 31:-0.0184 32:-0.54074001 33:-0.07457 34:-0.47898 #
0.083309751625995714929828750427987 1:1 2:0 3:0.35346001 4:-0.13767999 5:0.69387001 6:-0.02423 7:0.68194997 8:-0.035739999 9:0.55716997 10:-0.061190002 11:0.61835998 12:-0.10467 13:0.62098998 14:-0.065269999 15:0.59360999 16:-0.072889999 17:0.42271 18:-0.26409 19:0.58213001 20:0.04992 21:0.49735999 22:-0.087710001 23:0.46241 24:-0.089890003 25:0.45008001 26:-0.0056400001 27:0.39146 28:-0.090379998 29:0.35587999 30:-0.10306 31:0.32232001 32:-0.086369999 33:0.28942999 34:-0.082999997 #
0.083309751625995714929828750427987 1:1 2:0 3:0.46785 4:0.11308 5:0.5898 6:0.0066499999 7:0.55431998 8:0.068740003 9:0.47894001 10:-0.13969 11:0.52993 12:0.0133 13:0.63858002 14:-0.16186 15:0.67848998 16:-0.033259999 17:0.54544997 18:-0.13525 19:0.52993 20:-0.046560001 21:0.47894001 22:-0.19512001 23:0.50775999 24:-0.13525 25:0.41463 26:-0.20176999 27:0.53930002 28:-0.11455 29:0.59867001 30:-0.028820001 31:0.53658998 32:-0.11752 33:0.56318998 34:-0.044349998 #
0.083309751625995714929828750427987 1:1 2:0 3:0.74852002 4:-0.028109999 5:0.65679997 6:-0.05178 7:0.80620998 8:0.028109999 9:0.85947001 10:0.025149999 11:0.63462001 12:0.087279998 13:0.71597999 14:0.078400001 15:0.73076999 16:0.05178 17:0.78549999 18:-0.27811 19:0.65976 20:-0.01479 21:0.78697997 22:0.069530003 23:0.34615001 24:-0.18639 25:0.65385002 26:0.028109999 27:0.61009002 28:-0.066370003 29:0.53549999 30:-0.21154 31:0.59024 32:-0.14053001 33:0.56361002 34:0.029589999 #
-0.083309751625995714929828750427987 1:-1 2:0 3:1 4:-1 5:1 6:1 7:1 8:1 9:1 10:1 11:1 12:1 13:1 14:-1 15:1 16:1 17:1 18:1 19:1 20:-1 21:1 22:-1 23:1 24:-1 25:1 26:-1 27:1 28:1 29:1 30:-1 31:1 32:1 33:1 34:1 #
0.083309751625995714929828750427987 1:1 2:0 3:0.65845001 4:0.43617001 5:0.44681001 6:0.74804002 7:0.05319 8:0.85105997 9:-0.32027 10:0.82138997 11:-0.68252999 12:0.52407998 13:-0.84210998 14:0.071110003 15:-0.82810998 16:-0.28723001 17:-0.47031999 18:-0.71724999 19:-0.047589999 20:-0.86001998 21:0.23292001 22:-0.76315999 23:0.56663001 24:-0.52127999 25:0.74299997 26:-0.18645 27:0.74757999 28:0.23713 29:0.45185 30:0.59070998 31:0.20548999 32:0.76763999 33:-0.18533 34:0.74356002 #
-0.083309751625995714929828750427987 1:1 2:0 3:0.84557003 4:-0.0858 5:-0.31744999 6:-0.80553001 7:-0.089610003 8:-0.56435001 9:0.80647999 10:0.045759998 11:0.89513999 12:-0.0076299999 13:-0.18494 14:0.63966 15:-0.20018999 16:-0.68065 17:0.85701001 18:-0.11344 19:0.77978998 20:-0.15729 21:-0.069590002 22:0.50809997 23:-0.34128001 24:0.80934 25:0.78931999 26:-0.037179999 27:0.70881999 28:-0.25288001 29:0.77884001 30:-0.14109001 31:-0.21354 32:-0.78170002 33:-0.18494 34:-0.59867001 #
0.083309751625995714929828750427987 1:1 2:0 3:0.83609003 4:0.13214999 5:0.72171003 6:0.060589999 7:0.65829003 8:0.083149999 9:0.23887999 10:0.12961 11:0.43836999 12:0.2033 13:0.49417999 14:0.12685999 15:0.44747001 16:0.13507 17:0.29352 18:0.02922 19:0.48157999 20:0.15756001 21:0.32835001 22:0.14616001 23:0.29495001 24:0.14638001 25:0.26436001 26:0.1453 27:0.23641001 28:0.14314 29:0.26429 30:0.16136999 31:0.18767001 32:0.13631999 33:0.16655 34:0.13198 #
-0.083309751625995714929828750427987 1:1 2:0 3:0.086960003 4:0.0068600001 5:0.13959 6:-0.041189998 7:0.10526 8:-0.082379997 9:0.12586001 10:-0.061779998 11:0.23341 12:-0.01144 13:0.12357 14:0.077799998 15:0.14645 16:-0.13501 17:0.29062 18:-0.048050001 19:0.18993001 20:0.073229998 21:0.1167 22:0 23:0.11213 24:-0.00229 25:0.15103 26:-0.10297 27:0.08467 28:0.01373 29:0.11213 30:-0.066359997 31:0.096110001 32:-0.073229998 33:0.1167 34:-0.06865 #
0.083309751625995714929828750427987 1:1 2:0 3:0.79830003 4:0.094169997 5:0.78128999 6:0.20656 7:0.71627998 8:0.28068 9:0.69319999 10:0.41251999 11:0.65916997 12:0.50121999 13:0.57898003 14:0.60813999 15:0.4921 16:0.58445001 17:0.33353999 18:0.67861003 19:0.29587001 20:0.63547999 21:0.095990002 22:0.68103999 23:0.02066 24:0.72236001 25:-0.087480001 26:0.63182998 27:-0.11925 28:0.60696 29:-0.18226001 30:0.56015003 31:-0.25516 32:0.51700997 33:-0.27339 34:0.42467001 #
0.083309751625995714929828750427987 1:1 2:0 3:0.83367002 4:0.31456 5:0.65540999 6:0.57670999 7:0.34962001 8:0.70677 9:0.17293 10:0.78947002 11:-0.18976 12:0.79886001 13:-0.41729 14:0.66540998 15:-0.68421 16:0.47744 17:-0.74725002 18:0.19492 19:-0.72180003 20:-0.048870001 21:-0.62029999 22:-0.28195 23:-0.49164999 24:-0.53463 25:-0.26576999 26:-0.66013998 27:-0.0153 28:-0.69705999 29:0.22708 30:-0.64428002 31:0.43099999 32:-0.51205999 33:0.64661998 34:-0.30074999 #
-0.083309751625995714929828750427987 1:1 2:0 3:0 4:0 5:1 6:0.51723999 7:0 8:0 9:0.10991 10:-1 11:0 12:0 13:0 14:0 15:-1 16:-0.22414 17:-0.55711001 18:-0.83297002 19:0.7694 20:0.63147002 21:0 22:0 23:0.53447998 24:0.35668001 25:-0.90302002 26:0.44828001 27:1 28:-1 29:-1 30:0.81572998 31:0 32:0 33:0 34:0 #
-0.083309751625995714929828750427987 1:1 2:0 3:0.65908998 4:-0.62879002 5:0 6:0 7:0 8:0 9:0.77272999 10:1 11:1 12:-0.28029999 13:0 14:0 15:0 16:0 17:0.62120998 18:-0.22727001 19:0.84091002 20:-1 21:1 22:-1 23:0 24:0 25:0 26:0 27:1 28:-0.93939 29:-0.12879001 30:-0.93181998 31:0 32:0 33:0 34:0 #
0.083309751625995714929828750427987 1:1 2:0 3:0.47336999 4:0.19527 5:0.06213 6:-0.18343 7:0.62316 8:0.01006 9:0.45561999 10:-0.044380002 11:0.56509 12:0.017750001 13:0.44674999 14:0.27515 15:0.71597999 16:-0.038460001 17:0.55620998 18:0.12426 19:0.41420001 20:0.11538 21:0.52767003 22:0.028419999 23:0.51182997 24:-0.10651 25:0.47929001 26:-0.023669999 27:0.46514001 28:0.032590002 29:0.53549999 30:0.25148001 31:0.31953001 32:-0.14497 33:0.34615001 34:-0.00296 #
0.083309751625995714929828750427987 1:1 2:0 3:0.49869999 4:0.01818 5:0.43116999 6:-0.096100003 7:0.50648999 8:-0.041560002 9:0.50129998 10:0.096100003 11:0.44674999 12:0.059739999 13:0.55844003 14:-0.11948 15:0.51687998 16:-0.036359999 17:0.52727002 18:-0.059739999 19:0.55325001 20:-0.01039 21:0.48571 22:-0.033769999 23:0.49090999 24:-0.01039 25:0.59220999 26:0 27:0.53214997 28:-0.0328 29:0.43116999 30:0.033769999 31:0.54544997 32:-0.05455 33:0.58960998 34:-0.085709997 #
0.083309751625995714929828750427987 1:1 2:0 3:0.47938001 4:-0.12371 5:0.42783999 6:-0.12371 7:0.70103002 8:-0.39175001 9:0.73196 10:0.072159998 11:0.26289001 12:-0.21649 13:0.49485001 14:0.15978999 15:0.45361 16:-0.11856 17:0.42267999 18:0.061859999 19:0.5 20:-0.27320001 21:0.54639 22:0.18557 23:0.42267999 24:0.08247 25:0.70618999 26:0.19588 27:0.53395998 28:-0.12447 29:0.15464 30:-0.26289001 31:0.47422999 32:0.041239999 33:0.45361 34:-0.51546001 #
0.083309751625995714929828750427987 1:1 2:0 3:0.60677999 4:-0.02712 5:0.67119002 6:0.040679999 7:0.52881002 8:-0.044070002 9:0.50507998 10:0.037289999 11:0.70507997 12:-0.077969998 13:0.57966 14:-0.020339999 15:0.53219998 16:0.077969998 17:0.64068002 18:0.11864 19:0.56949002 20:-0.02373 21:0.53219998 22:0.0067799999 23:0.71525002 24:-0.0339 25:0.52881002 26:-0.0339 27:0.57261997 28:0.0074999998 29:0.58644003 30:-0.00339 31:0.58982998 32:-0.02712 33:0.50168997 34:0.0678 #
0.083309751625995714929828750427987 1:1 2:0 3:0.89835 4:0.35157001 5:0.67333001 6:0.62233001 7:0.43898001 8:0.94353002 9:-0.036430001 10:0.80510002 11:-0.22837999 12:0.75334001 13:-0.25137001 14:0.48816001 15:-0.57376999 16:0.28415 17:-0.66750002 18:0.10591 19:-0.47358999 20:-0.061930001 21:-0.81055999 22:-0.060109999 23:-0.33197001 24:-0.47591999 25:-0.12897 26:-0.53619999 27:0.07158 28:-0.51924998 29:0.24321 30:-0.43478 31:0.36585999 32:-0.30057001 33:0.42805001 34:0.13297001 #
-0.083309751625995714929828750427987 1:1 2:0 3:0 4:0 5:0 6:0 7:0 8:0 9:0 10:0 11:0 12:0 13:-1 14:1 15:1 16:0.55172002 17:0 18:0 19:0 20:0 21:0 22:0 23:0 24:0 25:0 26:0 27:1 28:1 29:0 30:0 31:0 32:0 33:0 34:0 #
-0.046337116712211731672788062041946 1:1 2:0 3:-0.54180002 4:0.14861 5:-0.33746001 6:0.73374999 7:0.52012002 8:-0.13932 9:0.31889001 10:-0.068109997 11:0.20743001 12:-0.1517 13:0.47367999 14:0.089780003 15:0.56347001 16:-0.1548 17:0.16408999 18:0.45201001 19:0.33746001 20:0.034060001 21:0.50463998 22:0.071209997 23:-0.63777 24:-0.61610001 25:1 26:0.65635002 27:0.41348001 28:-0.40116 29:-0.1517 30:0.11146 31:0.02399 32:0.5582 33:0.52631998 34:-0.089780003 #
-0.083309751625995714929828750427987 1:1 2:0 3:0.019750001 4:0.0070500001 5:0.040899999 6:-0.0084600002 7:0.021159999 8:0.01128 9:0.01128 10:0.043719999 11:0.0028200001 12:0.00141 13:0.019750001 14:-0.031029999 15:-0.019750001 16:0.060649998 17:-0.040899999 18:0.026799999 19:-0.023979999 20:-0.0042300001 21:0.043719999 22:-0.025389999 23:0.018340001 24:0 25:0 26:-0.01269 27:0.018340001 28:-0.01128 29:0.0056400001 30:-0.01551 31:-0.016930001 32:-0.023979999 33:0.0070500001 34:0 #
-0.083309751625995714929828750427987 1:1 2:0 3:0.0546 4:0.01437 5:-0.02586 6:0.045979999 7:0.01437 8:0.045979999 9:-0.077590004 10:0.0086200004 11:0.017240001 12:-0.066090003 13:-0.037360001 14:0.043099999 15:-0.083329998 16:-0.045979999 17:-0.094829999 18:0.080459997 19:-0.040229999 20:0.051720001 21:0.02011 22:0.02299 23:-0.037360001 24:-0.01149 25:0.031610001 26:-0.0086200004 27:0.0086200004 28:0.017240001 29:0.02586 30:0.01149 31:0.02586 32:0.01149 33:-0.045979999 34:-0.00575 #
-0.083309751625995714929828750427987 1:1 2:0 3:0.41999999 4:-0.61000001 5:0 6:0 7:1 8:-1 9:0.89999998 10:1 11:0.43000001 12:0.63999999 13:0 14:0 15:0 16:0 17:0.67000002 18:-0.28999999 19:0.83999997 20:-1 21:0 22:0 23:0 24:0 25:0.20999999 26:0.68000001 27:1 28:0.22 29:0 30:0 31:0 32:0 33:0 34:0 #
-0.0052454276045849970722123600808118 1:-1 2:0 3:1 4:1 5:1 6:-1 7:0 8:0 9:0 10:0 11:1 12:1 13:1 14:1 15:-1 16:-1 17:1 18:-1 19:-1 20:1 21:0 22:0 23:1 24:-1 25:1 26:-1 27:1 28:1 29:-1 30:-1 31:0 32:0 33:0 34:0 #
0.083309751625995714929828750427987 1:1 2:0 3:0.80627 4:0.13068999 5:0.73061001 6:0.24323 7:0.64614999 8:0.19038001 9:0.36923 10:0.45576999 11:0.44793001 12:0.46439001 13:0.25 14:0.57308 15:0.25192001 16:0.37114999 17:0.15215001 18:0.51876998 19:-0.098080002 20:0.57499999 21:-0.034619998 22:0.42885 23:-0.08856 24:0.44424 25:-0.14943001 26:0.40006 27:-0.19939999 28:0.34976 29:-0.23831999 30:0.29541001 31:-0.26633999 32:0.23896 33:-0.23846 34:0.31154001 #
0.083309751625995714929828750427987 1:1 2:0 3:0.50466001 4:-0.169 5:0.71442002 6:0.01513 7:0.71063 8:0.02258 9:0.68065 10:0.01282 11:0.34615001 12:0.055939998 13:0.69050002 14:0.043930002 15:0.68101001 16:0.050579999 17:0.67022997 18:0.056919999 19:0.63402998 20:-0.04662 21:0.64503002 22:0.068559997 23:0.63077003 24:0.073810004 25:0.84033 26:0.18065 27:0.59934998 28:0.083039999 29:0.38227999 30:0.067599997 31:0.56466001 32:0.090460002 33:0.54632002 34:0.093460001 #
0.033603574009362653651766805751322 1:1 2:0 3:0.84176999 4:0.4346 5:0.5 6:0.76160002 7:0.099160001 8:0.9346 9:-0.37764001 10:0.88186002 11:-0.72363001 12:0.61181003 13:-0.93882 14:0.19408999 15:-0.86708999 16:-0.25527 17:-0.62869 18:-0.65612 19:-0.25105 20:-0.85654002 21:0.16245 22:-0.86497998 23:0.51476997 24:-0.66878003 25:0.74895 26:-0.28902999 27:0.77937001 28:0.079329997 29:0.64134997 30:0.42827001 31:0.31435001 32:0.62447 33:-0.00422 34:0.69409001 #
-0.083309751625995714929828750427987 1:1 2:0 3:0.1859 4:-0.16666999 5:0 6:0 7:0 8:0 9:0 10:0 11:0 12:0 13:0.11538 14:-0.19070999 15:0 16:0 17:0 18:0 19:0 20:0 21:0 22:0 23:-0.051279999 24:-0.065710001 25:0.078529999 26:0.089740001 27:0.17308 28:-0.10897 29:0.125 30:0.096150003 31:0.02564 32:-0.048080001 33:0.16827001 34:0.19551 #
-0.069968959989772427920939890100271 1:1 2:0 3:1 4:-1 5:1 6:1 7:1 8:-1 9:1 10:-1 11:1 12:-1 13:1 14:-0.0184 15:1 16:-1 17:1 18:1 19:1 20:-0.85583001 21:1 22:1 23:1 24:-1 25:0 26:0 27:1 28:1 29:1 30:-0.79141003 31:1 32:1 33:1 34:1 #
-0.083309751625995714929828750427987 1:1 2:0 3:0.02337 4:-0.0059199999 5:-0.099239998 6:-0.11949 7:-0.0076299999 8:-0.11824 9:0.14706001 10:0.066370003 11:0.037859999 12:-0.063019998 13:0 14:0 15:-0.04572 16:-0.15539999 17:-0.00343 18:-0.10196 19:-0.11575 20:-0.054140002 21:0.018379999 22:0.03669 23:0.01519 24:0.0088799996 25:0.035130002 26:-0.01535 27:-0.032400001 28:0.09223 29:-0.078589998 30:0.0073199999 31:0 32:0 33:-0.00039 34:0.12011 #
-0.083309751625995714929828750427987 1:1 2:0 3:-0.65625 4:0.15625 5:0.0625 6:0 7:0 8:0.0625 9:0.625 10:0.0625 11:0.1875 12:0 13:-0.03125 14:0.09375 15:0.0625 16:0 17:0.15625 18:-0.15625 19:0.4375 20:-0.375 21:0 22:-0.09375 23:0 24:0 25:0.03125 26:-0.46875 27:0.03125 28:0 29:-0.71875 30:0.03125 31:-0.03125 32:0 33:0 34:0.09375 #
0.021978097481109654109943107869185 1:1 2:0 3:0.88085002 4:0.35231999 5:0.68388999 6:0.65127999 7:0.34816 8:0.79784 9:0.058320001 10:0.90842003 11:-0.29784 12:0.86489999 13:-0.62634999 14:0.69590002 15:-0.77105999 16:0.39309001 17:-0.85803002 18:0.084080003 19:-0.81641001 20:-0.24017 21:-0.64578998 22:-0.50022 23:-0.39765999 24:-0.68336999 25:-0.11147 26:-0.75533003 27:0.17041001 28:-0.71504003 29:0.40674999 30:-0.57648998 31:0.56625998 32:-0.36765 33:0.62765002 34:-0.13304999 #
