SVM-light Version V6.02
2 # kernel type
3 # kernel parameter -d 
0.001 # kernel parameter -g 
1 # kernel parameter -s 
1 # kernel parameter -r 
empty# kernel parameter -u 
617 # highest feature index 
120 # number of training documents 
48 # number of support vectors plus 1 
-0.1812195 # threshold b, each following line is a SV (starting with alpha*y)
-2.2285419757546032215600462222937 1:-0.5 2:0.4948 3:0.56779999 4:0.3802 5:0.5 6:0.164 7:0.033799998 8:-0.1224 9:-0.3152 10:-0.45320001 11:-0.336 12:-0.33860001 13:-0.4896 14:-0.38800001 15:-0.4402 16:-0.336 17:-0.35420001 18:-0.1224 19:-0.0572 20:0.3646 21:0.4296 22:0.96359998 23:1 24:0.74739999 25:0.69800001 26:0.63020003 27:0.86720002 28:0.77600002 29:0.84380001 30:0.79680002 31:0.61979997 32:0.59380001 33:-0.093400002 34:0.94340003 35:1 36:0.72799999 37:0.796 38:0.0482 39:0.1586 40:-0.221 41:-0.0396 42:-0.456 43:-0.3258 44:-0.49579999 45:-0.4646 46:-0.66000003 47:-0.4788 48:-0.53259999 49:-0.41639999 50:-0.43059999 51:-0.085000001 52:-0.0396 53:0.5808 54:0.71380001 55:0.66280001 56:0.64579999 57:0.5722 58:0.76779997 59:0.83859998 60:0.97460002 61:0.83279997 62:0.85259998 63:0.80159998 64:0.60900003 65:0.0546 66:1 67:0.99400002 68:0.8818 69:0.83459997 70:0.161 71:0.1196 72:-0.069399998 73:-0.1078 74:-0.50080001 75:-0.49779999 76:-0.5126 77:-0.47420001 78:-0.50080001 79:-0.5126 80:-0.3678 81:-0.2762 82:-0.048799999 83:-0.030999999 84:0.35600001 85:0.4122 86:0.72240001 87:0.78140002 88:0.71939999 89:0.53320003 90:0.616 91:0.72820002 92:0.85820001 93:0.72820002 94:0.6692 95:0.36480001 96:0.39140001 97:0.0814 98:0.83740002 99:0.72240001 100:0.85960001 101:0.5758 102:-0.1004 103:-0.27919999 104:-0.1866 105:-0.58219999 106:-0.53740001 107:-0.63959998 108:-0.66820002 109:-0.60119998 110:-0.48320001 111:-0.4578 112:-0.51520002 113:-0.41299999 114:-0.2186 115:0.0208 116:0.1516 117:0.3716 118:0.66500002 119:1 120:0.92019999 121:0.64279997 122:0.65859997 123:0.66180003 124:0.6268 125:0.69379997 126:0.58539999 127:0.58859998 128:0.34920001 129:0.1648 130:0.7816 131:0.88880002 132:1 133:-0.019200001 134:-0.50199997 135:-0.70880002 136:-0.77780002 137:-0.77020001 138:-0.99620003 139:-0.87360001 140:-0.63980001 141:-0.68959999 142:-0.65140003 143:-0.57480001 144:-0.73940003 145:-0.73559999 146:-0.37540001 147:-0.28740001 148:-0.2836 149:-0.099600002 150:0.44819999 151:0.92339998 152:0.80839998 153:0.3716 154:0.2568 155:0.5478 156:0.49419999 157:0.48280001 158:0.31040001 159:0.38699999 160:0.134 161:0.14579999 162:0.6408 163:1 164:0.96399999 165:-0.3414 166:-0.75639999 167:-0.77640003 168:-0.6566 169:-0.65259999 170:-0.66460001 171:-0.87620002 172:-0.6408 173:-0.62480003 174:-0.43720001 175:-0.54100001 176:-0.70859998 177:-0.7166 178:-0.34940001 179:-0.33739999 180:-0.60479999 181:0.057799999 182:0.65259999 183:0.87620002 184:0.91619998 185:0.39320001 186:0.60479999 187:0.62480003 188:0.77240002 189:0.68059999 190:0.465 191:0.3414 192:0.26539999 193:-0.0044 194:0.57200003 195:0.5546 196:0.57639998 197:-0.39739999 198:-0.65499997 199:-0.6638 200:-0.78600001 201:-0.95639998 202:-0.68120003 203:-0.7816 204:-0.51959997 205:-0.4104 206:-0.30559999 207:-0.44980001 208:-0.50660002 209:-0.3538 210:-0.27939999 211:-0.34940001 212:-0.17900001 213:-0.0088 214:0.31 215:1 216:0.98259997 217:0.77719998 218:0.4366 219:0.60699999 220:0.81660002 221:0.69 222:0.0436 223:0.074199997 224:-0.0132 225:-0.322 226:0.1864 227:0.28819999 228:0.25420001 229:0.017000001 230:0.050799999 231:0.017000001 232:-0.1186 233:-0.1864 234:-0.28819999 235:-0.1186 236:-0.1186 237:-0.38980001 238:0.017000001 239:0.1186 240:0.1186 241:0.017000001 242:0.35600001 243:0.52539998 244:0.59320003 245:0.59320003 246:0.86440003 247:1 248:1 249:0.89840001 250:0.83060002 251:0.86440003 252:0.89840001 253:0.89840001 254:0.86440003 255:0.83060002 256:0.89840001 257:-0.26980001 258:0.42860001 259:0.52380002 260:0.46039999 261:0.55559999 262:0.30160001 263:0.20640001 264:0.1112 265:0.015799999 266:-0.015799999 267:-0.1428 268:-0.1112 269:-0.17460001 270:-0.015799999 271:-0.079400003 272:0.015799999 273:-0.047600001 274:0.23800001 275:0.26980001 276:0.65079999 277:0.65079999 278:0.96820003 279:1 280:0.58740002 281:0.65079999 282:0.52380002 283:0.84119999 284:0.77780002 285:0.84119999 286:0.84119999 287:0.55559999 288:0.58740002 289:0.18179999 290:0.81819999 291:0.69700003 292:0.87879997 293:0.2728 294:-0.090999998 295:-0.2728 296:-0.48480001 297:-0.54540002 298:-0.39399999 299:-0.45460001 300:-0.1516 301:-0.303 302:-0.18179999 303:-0.45460001 304:-0.69700003 305:-0.2728 306:-0.1212 307:0.2122 308:0.060600001 309:0.45460001 310:0.81819999 311:1 312:0.63639998 313:0.5758 314:0.2122 315:0.72719997 316:0.69700003 317:0.72719997 318:0.60600001 319:0.2728 320:0.36359999 321:-1 322:-1 323:-1 324:-1 325:-1 326:-1 327:-1 328:-0.95859998 329:-0.95319998 330:-0.96039999 331:-0.93879998 332:0.5266 333:0.98379999 334:0.89560002 335:0.62919998 336:0.433 337:0.21160001 338:-0.0136 339:-0.1594 340:-0.29800001 341:-0.49419999 342:-0.65259999 343:-0.77319998 344:-0.82359999 345:-0.88660002 346:-0.91900003 347:-0.94779998 348:-0.95499998 349:-1 350:-1 351:-1 352:-1 353:-1 354:-1 355:-1 356:-1 357:-1 358:-1 359:-1 360:-1 361:-0.96700001 362:-0.96700001 363:-0.79079998 364:-0.51819998 365:0.48460001 366:0.4242 367:0.056200001 368:-0.071000002 369:-0.1846 370:-0.30540001 371:-0.46560001 372:-0.58700001 373:-0.63700002 374:-0.73460001 375:-0.81400001 376:-0.86299998 377:-0.87279999 378:-0.90439999 379:-0.89399999 380:-0.87279999 381:-0.8786 382:-1 383:-1 384:-1 385:-1 386:-1 387:-1 388:-1 389:-1 390:-1 391:-1 392:-1 393:-1 394:-0.94239998 395:-0.87339997 396:-0.89999998 397:-0.033399999 398:-0.17 399:-0.50340003 400:-0.63499999 401:-0.79839998 402:-0.7518 403:-0.69499999 404:-0.68180001 405:-0.57340002 406:-0.58999997 407:-0.61839998 408:-0.68839997 409:-0.69679999 410:-0.52340001 411:-0.51340002 412:-0.24680001 413:0.0099999998 414:-0.3768 415:-1 416:-1 417:-1 418:-1 419:-1 420:-1 421:-1 422:-1 423:-1 424:-1 425:-1 426:-1 427:-0.7428 428:-0.31420001 429:1 430:1 431:1 432:-0.6286 433:-0.82859999 434:-0.80000001 435:-0.82859999 436:-0.82859999 437:-0.7428 438:-0.8858 439:-0.94279999 440:-0.8858 441:-0.85720003 442:-0.91420001 443:-0.85720003 444:-0.91420001 445:-0.65719998 446:-0.77139997 447:-0.80000001 448:-1 449:-1 450:-1 451:-1 452:-1 453:0.64920002 454:0.63340002 455:0.6182 456:0.5808 457:0.52359998 458:0.4738 459:0.42019999 460:0.35420001 461:0.2744 462:-0.1204 463:0.91259998 464:0.91280001 465:0.93720001 466:0.92400002 467:0.91960001 468:0.93800002 469:0.99239999 470:0.9874 471:0.95319998 472:0.8416 473:-0.73339999 474:0.43520001 475:-0.80540001 476:-0.0568 477:1 478:0.1602 479:0.38339999 480:0.1416 481:-0.58920002 482:-0.33919999 483:-0.3572 484:-0.42860001 485:-0.41080001 486:-0.2142 487:-0.1964 488:-0.25 489:-0.0178 490:0.28580001 491:0.66079998 492:0.66079998 493:0.625 494:0.71420002 495:0.71420002 496:0.625 497:0.73220003 498:0.94639999 499:1 500:1 501:0.92860001 502:0.66079998 503:0.375 504:0.1964 505:-0.035799999 506:-0.51779997 507:-0.2142 508:-0.41080001 509:-0.5 510:-0.5 511:-0.33919999 512:-0.92860001 513:-0.55720001 514:-0.2 515:-0.2572 516:-0.2 517:-0.2142 518:-0.28580001 519:-0.2714 520:-0.32859999 521:-0.0858 522:-0.15719999 523:1 524:0.92860001 525:0.2572 526:0.54280001 527:0.5 528:0.32859999 529:0.31420001 530:0.6286 531:0.94279999 532:0.92860001 533:0.69999999 534:0.31420001 535:-0.042800002 536:-0.1858 537:-0.1428 538:-0.3714 539:-0.32859999 540:-0.34279999 541:-0.3714 542:-0.3714 543:-0.2286 544:-0.51419997 545:-0.41659999 546:-0.1666 547:-0.2334 548:-0.26660001 549:-0.066600002 550:-0.25 551:-0.15000001 552:-0.050000001 553:-0.1166 554:-0.050000001 555:0.51660001 556:0.63340002 557:0.5 558:0.5334 559:0.51660001 560:0.34999999 561:0.69999999 562:0.91659999 563:0.9666 564:1 565:0.88340002 566:0.5334 567:0.13339999 568:0.033399999 569:-0.2334 570:-0.25 571:-0.30000001 572:-0.31659999 573:-0.33340001 574:-0.13339999 575:-0.36660001 576:-0.56660002 577:1 578:-1 579:-1 580:1 581:-1 582:-1 583:-0.40000001 584:-0.73339999 585:-1 586:-0.73640001 587:-0.45739999 588:-0.1938 589:-0.2094 590:-0.33340001 591:-0.069799997 592:-0.0232 593:-0.1162 594:0.069799997 595:0.1162 596:0.98439997 597:1 598:0.8294 599:0.79839998 600:0.41080001 601:0.31779999 602:0.2868 603:0.4418 604:0.69 605:0.2094 606:0.069799997 607:0.069799997 608:0.22480001 609:0.054200001 610:0.1162 611:0.17820001 612:0.038800001 613:0.038800001 614:-0.25580001 615:-0.39539999 616:-0.70539999 617:-0.65899998 #
1.6402177082238509342460019979626 1:-0.95899999 2:0.59939998 3:0.82959998 4:0.52679998 5:0.41319999 6:0.37540001 7:-0.2366 8:-0.123 9:-0.46380001 10:-0.366 11:-0.41 12:-0.50160003 13:-0.41 14:-0.49520001 15:-0.25240001 16:-0.287 17:-0.031599998 18:-0.063000001 19:0.1514 20:0.49219999 21:0.55839998 22:0.89899999 23:1 24:0.64039999 25:0.82340002 26:0.82020003 27:0.88959998 28:0.91799998 29:0.59619999 30:0.6182 31:0.59619999 32:0.56160003 33:-0.82859999 34:0.58939999 35:0.75480002 36:0.26440001 37:0.43880001 38:0.25839999 39:-0.1936 40:-0.1964 41:-0.41800001 42:-0.2378 43:-0.55980003 44:-0.294 45:-0.39739999 46:-0.1138 47:-0.048799999 48:-0.3678 49:-0.102 50:-0.066399999 51:0.4682 52:0.43279999 53:0.75480002 54:0.95279998 55:0.89660001 56:0.92320001 57:0.74599999 58:0.91720003 59:1 60:0.95859998 61:0.89960003 62:0.7726 63:0.6602 64:0.67199999 65:-0.46059999 66:0.61540002 67:0.67799997 68:0.234 69:0.34419999 70:-0.237 71:-0.21600001 72:-0.4366 73:-0.088 74:-0.3026 75:-0.45159999 76:-0.4664 77:-0.32640001 78:-0.34419999 79:-0.42480001 80:-0.33840001 81:-0.22499999 82:-0.0372 83:0.1148 84:0.4068 85:0.6006 86:0.92540002 87:1 88:0.88679999 89:0.67220002 90:0.68400002 91:0.76160002 92:0.81519997 93:0.84500003 94:0.81519997 95:0.6006 96:0.5916 97:-0.2 98:0.6512 99:0.5966 100:0.57260001 101:0.42559999 102:-0.1692 103:-0.27860001 104:-0.16240001 105:-0.39140001 106:-0.66839999 107:-0.77780002 108:-0.55220002 109:-0.55900002 110:-0.60000002 111:-0.50419998 112:-0.55559999 113:-0.4154 114:-0.052999999 115:0.0086000003 116:0.2274 117:0.44279999 118:0.83579999 119:1 120:0.90759999 121:0.63080001 122:0.62400001 123:0.69239998 124:0.84960002 125:0.92479998 126:0.78460002 127:0.79140002 128:0.69239998 129:-0.1228 130:0.46939999 131:0.61379999 132:0.75459999 133:0.075800002 134:-0.18780001 135:-0.31400001 136:-0.41159999 137:-0.59920001 138:-0.7256 139:-0.75819999 140:-0.6318 141:-0.7762 142:-0.68959999 143:-0.5812 144:-0.48019999 145:-0.47299999 146:-0.37540001 147:-0.25639999 148:-0.021600001 149:0.26719999 150:0.53060001 151:0.87720001 152:0.82319999 153:0.66420001 154:0.66780001 155:0.7762 156:0.97479999 157:1 158:0.787 159:0.7184 160:0.61379999 161:-0.229 162:0.26899999 163:0.81919998 164:0.8434 165:-0.3414 166:-0.52200001 167:-0.4578 168:-0.40560001 169:-0.73500001 170:-0.78719997 171:-0.8434 172:-0.3976 173:-0.36140001 174:-0.5984 175:-0.49000001 176:-0.50199997 177:-0.43380001 178:-0.49000001 179:-0.49399999 180:0 181:0.016000001 182:0.076399997 183:0.89960003 184:1 185:0.50599998 186:0.34540001 187:0.59039998 188:0.91159999 189:0.82319999 190:0.1366 191:0.48199999 192:0.48199999 193:-0.221 194:0.73479998 195:0.7956 196:0.6408 197:-0.20999999 198:-0.38119999 199:-0.46959999 200:-0.70160002 201:-0.7238 202:-0.59119999 203:-0.70719999 204:-0.60219997 205:-0.25960001 206:-0.40880001 207:-0.46399999 208:-0.55800003 209:-0.46399999 210:-0.3978 211:-0.33700001 212:-0.23199999 213:-0.066200003 214:0.6796 215:0.98339999 216:1 217:0.88959998 218:0.85640001 219:0.8398 220:0.98900002 221:0.93919998 222:0.2044 223:0.3204 224:0.32600001 225:-0.52380002 226:0.57139999 227:0.9048 228:0.76200002 229:0.23800001 230:0.095200002 231:-0.1428 232:-0.047600001 233:-0.1904 234:-0.1904 235:-0.38100001 236:-0.8096 237:-0.42860001 238:-0.47620001 239:-0.52380002 240:-0.42860001 241:-0.33340001 242:-0.42860001 243:-0.38100001 244:-0.23800001 245:0.57139999 246:0.85720003 247:0.95240003 248:0.8096 249:0.76200002 250:1 251:0.9048 252:0.47620001 253:0.42860001 254:0.23800001 255:0.1428 256:0 257:-0.4118 258:0.76480001 259:0.96079999 260:0.76480001 261:0.5686 262:0.5686 263:0.058800001 264:0.17640001 265:0.097999997 266:-0.4118 267:-0.1372 268:-0.058800001 269:0.0196 270:-0.17640001 271:-0.2942 272:-0.33340001 273:0.17640001 274:0.2156 275:0.255 276:0.45100001 277:0.76480001 278:0.64700001 279:0.84320003 280:0.72539997 281:0.80400002 282:1 283:0.96079999 284:0.68620002 285:0.5686 286:0.4118 287:0.84320003 288:0.88239998 289:-0.51059997 290:0.42559999 291:0.51059997 292:0.021199999 293:0.19140001 294:-0.085199997 295:-0.19140001 296:-0.2978 297:-0.17020001 298:-0.19140001 299:-0.36179999 300:-0.2978 301:-0.7446 302:-0.44679999 303:-0.46799999 304:-0.19140001 305:-0.2766 306:0.1276 307:0.1276 308:0.2978 309:0.46799999 310:0.61699998 311:1 312:0.89359999 313:0.76599997 314:0.7234 315:0.7022 316:0.82980001 317:0.51059997 318:0.7234 319:0.53200001 320:0.44679999 321:-1 322:-0.97039998 323:-0.95560002 324:-0.78200001 325:-0.77280003 326:-0.67860001 327:-0.63059998 328:-0.77100003 329:-0.83200002 330:-0.87260002 331:-0.81900001 332:0.71920002 333:0.3942 334:0.21879999 335:0.078400001 336:-0.054400001 337:-0.1302 338:-0.2374 339:-0.34259999 340:-0.49399999 341:-0.57160002 342:-0.67320001 343:-0.736 344:-0.80239999 345:-0.8818 346:-0.92799997 347:-0.96859998 348:-0.96859998 349:-0.95200002 350:-1 351:-1 352:-1 353:-1 354:-1 355:-0.95599997 356:-0.94840002 357:0.67739999 358:1 359:0.92259997 360:-0.037599999 361:-0.39559999 362:-0.51719999 363:-0.52579999 364:-0.699 365:0.40439999 366:0.82679999 367:0.52160001 368:0.26980001 369:0.047400001 370:-0.066600002 371:-0.142 372:-0.32260001 373:-0.56559998 374:-0.64520001 375:-0.73979998 376:-0.77100003 377:-0.83020002 378:-0.8538 379:-0.8678 380:-0.85159999 381:-0.87419999 382:-0.88059998 383:-1 384:-1 385:-1 386:-1 387:-1 388:-0.9734 389:-0.91339999 390:0.12 391:1 392:0.53659999 393:0.41319999 394:0.25999999 395:0.3432 396:0.35319999 397:0.13 398:-0.68199998 399:-0.486 400:-0.442 401:-0.48199999 402:-0.51099998 403:-0.63639998 404:-0.6038 405:-0.62199998 406:-0.71100003 407:-0.73280001 408:-0.81099999 409:-0.8168 410:-0.83679998 411:-0.57340002 412:-0.38999999 413:-0.21340001 414:-0.2868 415:-0.38999999 416:-1 417:-1 418:-1 419:-1 420:-1 421:-0.94279999 422:1 423:1 424:1 425:0.0286 426:-0.1142 427:-0.4858 428:-0.60000002 429:-0.0572 430:1 431:1 432:-0.34279999 433:-0.4858 434:-0.6286 435:-0.85720003 436:-0.94279999 437:-0.91420001 438:-0.68580002 439:-0.80000001 440:-0.8858 441:-0.40000001 442:-0.8858 443:-0.94279999 444:-0.8858 445:-0.77139997 446:-0.71420002 447:-0.7428 448:-0.4858 449:-1 450:-1 451:-1 452:-1 453:0.3712 454:0.38839999 455:0.40239999 456:0.4156 457:0.43000001 458:0.4474 459:0.42640001 460:0.36700001 461:0.271 462:0.0682 463:0.82999998 464:0.84500003 465:0.85399997 466:0.86000001 467:0.87159997 468:0.88340002 469:0.90219998 470:0.90200001 471:0.91360003 472:0.86199999 473:-0.78659999 474:0.27059999 475:-0.75599998 476:-0.21080001 477:0.50319999 478:0.53219998 479:0.57740003 480:-0.63340002 481:-0.81260002 482:-0.61440003 483:-0.52340001 484:-0.3414 485:-0.27720001 486:-0.3734 487:-0.1432 488:-0.094999999 489:0.036200002 490:0.2958 491:0.52340001 492:0.5528 493:0.51539999 494:0.52880001 495:0.31999999 496:0.37079999 497:0.59579998 498:0.49939999 499:0.82059997 500:0.6868 501:0.917 502:1 503:0.76980001 504:0.73220003 505:0.6706 506:0.76179999 507:0.70020002 508:0.59299999 509:0.47260001 510:0.352 511:0.3788 512:0.063000001 513:-0.3716 514:-0.3504 515:-0.2054 516:-0.2084 517:-0.081600003 518:-0.081600003 519:-0.051399998 520:0.139 521:0.278 522:0.51059997 523:0.82779998 524:0.82179999 525:0.92140001 526:1 527:0.74019998 528:0.47119999 529:0.62239999 530:0.6164 531:0.80360001 532:0.73720002 533:0.59820002 534:0.8096 535:0.77939999 536:0.62840003 537:0.8096 538:0.9034 539:0.70099998 540:0.60119998 541:0.56800002 542:0.53179997 543:0.65560001 544:0.287 545:-0.47299999 546:-0.1654 547:-0.2094 548:-0.21520001 549:-0.221 550:-0.1772 551:-0.1714 552:-0.068800002 553:-0.101 554:0.1478 555:0.5988 556:0.83600003 557:0.92979997 558:1 559:0.66039997 560:0.4524 561:0.49919999 562:0.52859998 563:0.713 564:0.4964 565:0.56080002 566:0.47580001 567:0.74239999 568:0.81559998 569:0.713 570:0.63679999 571:0.41440001 572:0.26199999 573:0.2036 574:0.3294 575:0.2036 576:-0.083400004 577:1 578:-1 579:1 580:-1 581:-1 582:-1 583:-0.40000001 584:0.60000002 585:1 586:-0.77200001 587:-0.64920002 588:-0.61400002 589:-0.4386 590:-0.50880003 591:-0.40360001 592:-0.31580001 593:-0.193 594:-0.228 595:0.4386 596:0.92979997 597:1 598:0.59640002 599:0.40360001 600:0.087800004 601:-0.2106 602:0.1228 603:-0.070200004 604:-0.29820001 605:-0.1228 606:-0.035 607:0.1052 608:0.421 609:-0.035 610:-0.36840001 611:-0.087800004 612:-0.28080001 613:-0.4736 614:-0.2456 615:-0.14040001 616:-0.5438 617:-0.68419999 #
-0.86230126080099367413822619710118 1:-0.24779999 2:0.3732 3:0.37020001 4:0.2186 5:0.1312 6:-0.1662 7:-0.25940001 8:-0.24779999 9:-0.382 10:-0.2244 11:-0.36160001 12:-0.30019999 13:-0.3382 14:-0.169 15:-0.1866 16:-0.0788 17:-0.035 18:0.1078 19:0.34979999 20:0.44600001 21:0.81919998 22:0.91540003 23:0.69980001 24:0.54220003 25:0.48980001 26:0.53060001 27:0.58600003 28:0.69679999 29:0.90079999 30:1 31:0.88620001 32:0.85140002 33:-0.092600003 34:0.463 35:0.4366 36:0.34920001 37:0.26460001 38:-0.095200002 39:-0.21960001 40:-0.1428 41:-0.29620001 42:-0.22480001 43:-0.36500001 44:-0.19840001 45:-0.29899999 46:-0.17200001 47:-0.082000002 48:0.031800002 49:0.055599999 50:0.1534 51:0.42860001 52:0.50260001 53:0.87040001 54:0.93660003 55:0.69840002 56:0.72759998 57:0.6006 58:0.62440002 59:0.72219998 60:0.72219998 61:1 62:0.99479997 63:0.97619998 64:0.93660003 65:-0.1088 66:0.4456 67:0.3876 68:0.3468 69:0.2018 70:-0.167 71:-0.38460001 72:-0.25099999 73:-0.42820001 74:-0.35839999 75:-0.32359999 76:-0.29179999 77:-0.3556 78:-0.3556 79:-0.1292 80:-0.17560001 81:-0.0044 82:-0.050799999 83:0.2568 84:0.41940001 85:0.64880002 86:0.83160001 87:0.98259997 88:0.73580003 89:0.57620001 90:0.55580002 91:0.61400002 92:0.86940002 93:0.88679999 94:1 95:0.99419999 96:0.91299999 97:-0.082800001 98:0.48339999 99:0.3908 100:0.3344 101:0.1092 102:-0.1688 103:-0.37419999 104:-0.32120001 105:-0.50999999 106:-0.54299998 107:-0.4736 108:-0.55620003 109:-0.51660001 110:-0.4404 111:-0.27160001 112:-0.1622 113:-0.072800003 114:0.072800003 115:0.079400003 116:0.48679999 117:0.56959999 118:0.99659997 119:0.861 120:0.59600002 121:0.43380001 122:0.57620001 123:0.59600002 124:0.65240002 125:0.97359997 126:0.94379997 127:1 128:0.91060001 129:-0.038800001 130:0.56339997 131:0.4578 132:0.25 133:0.0035999999 134:-0.236 135:-0.7676 136:-0.7536 137:-0.52460003 138:-0.6056 139:-0.5036 140:-0.662 141:-0.4824 142:-0.4226 143:-0.2888 144:-0.2782 145:-0.2324 146:-0.1126 147:-0.155 148:0.236 149:0.433 150:0.6972 151:0.72180003 152:0.8732 153:0.54220003 154:0.6092 155:0.6408 156:0.63020003 157:0.94019997 158:0.85219997 159:1 160:0.7992 161:0.049199998 162:0.73100001 163:0.64399999 164:0.38260001 165:0.15899999 166:-0.2348 167:-0.60979998 168:-0.66280001 169:-0.51899999 170:-0.4772 171:-0.50760001 172:-0.5492 173:-0.4962 174:-0.59100002 175:-0.428 176:-0.51520002 177:-0.36359999 178:-0.14399999 179:-0.0038000001 180:0.33340001 181:0.375 182:1 183:0.97719997 184:0.80680001 185:0.71960002 186:0.70840001 187:0.58719999 188:0.78399998 189:0.88260001 190:0.92040002 191:0.68559998 192:0.77280003 193:-0.079599999 194:0.70840001 195:0.65539998 196:0.2084 197:0.090999998 198:-0.49239999 199:-0.31439999 200:-0.2122 201:-0.5758 202:-0.56819999 203:-0.58340001 204:-0.55680001 205:-0.57959998 206:-0.59100002 207:-0.28780001 208:-0.2766 209:-0.2008 210:-0.2084 211:-0.0076000001 212:-0.106 213:0.3258 214:0.68940002 215:1 216:0.89020002 217:0.56440002 218:0.75 219:0.81440002 220:0.73100001 221:0.67040002 222:0.45840001 223:0.4242 224:0.43560001 225:0 226:0.89999998 227:1 228:0.55000001 229:0.2 230:0.2 231:0.15000001 232:0.2 233:-0.25 234:-0.2 235:-0.30000001 236:-0.25 237:-0.30000001 238:-0.34999999 239:-0.2 240:-0.1 241:-0.1 242:-0.050000001 243:0 244:0.15000001 245:0.55000001 246:0.55000001 247:0.5 248:0.30000001 249:0.34999999 250:0.34999999 251:0.55000001 252:0.55000001 253:0.55000001 254:0.89999998 255:0.69999999 256:0.30000001 257:-0.3114 258:0.1476 259:0.1148 260:0.1148 261:0.082000002 262:-0.1476 263:-0.24600001 264:-0.27860001 265:-0.377 266:-0.27860001 267:-0.34419999 268:-0.27860001 269:-0.24600001 270:-0.2132 271:-0.1476 272:-0.082000002 273:0.049199998 274:0.049199998 275:0.34419999 276:0.44260001 277:0.80320001 278:0.86879998 279:0.70499998 280:0.40979999 281:0.44260001 282:0.4754 283:0.60659999 284:0.63940001 285:0.93440002 286:1 287:0.86879998 288:0.80320001 289:-0.1288 290:0.4258 291:0.38620001 292:0.3466 293:0.208 294:-0.208 295:-0.32679999 296:-0.2476 297:-0.38620001 298:-0.32679999 299:-0.3664 300:-0.2872 301:-0.4258 302:-0.32679999 303:-0.109 304:-0.049600001 305:-0.0099999998 306:0.0099999998 307:0.30700001 308:0.2872 309:0.74260002 310:0.74260002 311:0.86140001 312:0.78219998 313:0.64359999 314:0.54460001 315:0.66339999 316:0.82179999 317:1 318:0.76239997 319:0.98019999 320:0.88120002 321:-1 322:-1 323:-1 324:-1 325:-1 326:-1 327:-1 328:-0.98040003 329:-0.98400003 330:-0.98580003 331:-0.91039997 332:0.3788 333:0.71079999 334:0.98140001 335:0.93339998 336:0.71880001 337:0.43560001 338:0.18179999 339:0.069200002 340:-0.0222 341:-0.0098000001 342:-0.42320001 343:-0.79140002 344:-0.82880002 345:-0.88120002 346:-0.94059998 347:-0.90859997 348:-0.93159997 349:-0.93440002 350:-0.90939999 351:-0.84560001 352:-0.81279999 353:-1 354:-1 355:-1 356:-1 357:-1 358:-1 359:-1 360:-1 361:-0.98860002 362:-0.9896 363:-0.98860002 364:-0.90439999 365:0.67659998 366:0.43239999 367:0.42500001 368:0.2202 369:0.1234 370:-0.152 371:-0.40439999 372:-0.4594 373:-0.55599999 374:-0.64660001 375:-0.7802 376:-0.88859999 377:-0.8976 378:-0.92919999 379:-0.94819999 380:-0.95719999 381:-0.96380001 382:-0.9716 383:-0.96939999 384:-0.95459998 385:-0.94779998 386:-1 387:-1 388:-1 389:-1 390:-1 391:-1 392:-1 393:-1 394:-0.94679999 395:-0.92680001 396:-0.81339997 397:-0.73680001 398:-0.13500001 399:-0.07 400:-0.1446 401:-0.25999999 402:-0.25119999 403:-0.50239998 404:-0.57340002 405:-0.64899999 406:-0.71780002 407:-0.71780002 408:-0.56 409:-0.34 410:-0.29339999 411:-0.073399998 412:0.3066 413:-0.43340001 414:-0.46340001 415:-0.70679998 416:-0.73000002 417:-0.9368 418:-0.88679999 419:-1 420:-1 421:-1 422:-1 423:-1 424:-1 425:-1 426:-1 427:-0.94279999 428:-1 429:0.94279999 430:1 431:1 432:-0.6286 433:-0.94279999 434:-0.68580002 435:-0.71420002 436:-0.7428 437:-0.85720003 438:-0.82859999 439:-0.8858 440:-0.31420001 441:-0.40000001 442:-0.57139999 443:-0.82859999 444:-0.4858 445:-0.34279999 446:0.1142 447:-0.1714 448:-0.34279999 449:-0.80000001 450:-0.97140002 451:-0.65719998 452:-1 453:0.18780001 454:0.189 455:0.1904 456:0.1892 457:0.2024 458:0.2058 459:0.19400001 460:0.1822 461:0.15099999 462:-0.066 463:0.88859999 464:0.89639997 465:0.88 466:0.88239998 467:0.88599998 468:0.89160001 469:0.93440002 470:0.9346 471:0.94480002 472:0.97460002 473:-0.73339999 474:0.023600001 475:-0.89459997 476:-0.1716 477:1 478:0.7184 479:0.5036 480:1 481:-0.2142 482:-0.3062 483:-0.2448 484:1 485:0.74479997 486:0.081600003 487:0.51020002 488:0.37760001 489:0.2552 490:0.3062 491:0.23459999 492:0.3062 493:0.5 494:0.33680001 495:0.31639999 496:0.1224 497:0.1428 498:0.081600003 499:0.36739999 500:0.398 501:0.204 502:0.2448 503:0.31639999 504:0.42860001 505:-0.050999999 506:-0.0102 507:0.16320001 508:0.3062 509:0.091799997 510:0.0102 511:0.040800001 512:-0.32659999 513:-0.0052 514:0.25920001 515:0.31220001 516:1 517:0.73540002 518:0.82020003 519:0.8836 520:0.61900002 521:0.69319999 522:0.48140001 523:0.57679999 524:0.70380002 525:0.56620002 526:0.38620001 527:0.57679999 528:0.44980001 529:0.37560001 530:0.35440001 531:0.1534 532:0.24860001 533:0.59780002 534:0.71420002 535:0.17460001 536:0.50260001 537:0.33340001 538:0.34400001 539:0.40740001 540:0.41800001 541:0.068800002 542:-0.18520001 543:-0.0052 544:-0.47080001 545:-0.2192 546:-0.1952 547:-0.02 548:1 549:0.75300002 550:0.40239999 551:0.46619999 552:0.1236 553:0.35460001 554:0.498 555:0.67339998 556:0.65740001 557:0.63340002 558:0.6494 559:0.73699999 560:0.73699999 561:0.8168 562:0.85659999 563:0.8804 564:0.82480001 565:0.8804 566:0.6494 567:0.54579997 568:0.66540003 569:0.46619999 570:0.46619999 571:0.40239999 572:0.31479999 573:0.26699999 574:-0.0040000002 575:0.075599998 576:-0.30680001 577:-0.99739999 578:1 579:-1 580:-1 581:-1 582:-1 583:-0.60000002 584:-1 585:-1 586:-0.30500001 587:-0.20559999 588:0.092200004 589:0.17739999 590:0.2624 591:0.0070000002 592:0.40419999 593:0.43259999 594:0.461 595:0.7446 596:0.61699998 597:0.68800002 598:0.87239999 599:1 600:0.4752 601:0.67379999 602:0.75880003 603:0.82980001 604:0.81559998 605:0.75880003 606:0.9716 607:0.67379999 608:0.51779997 609:0.7022 610:0.56019998 611:0.30500001 612:0.17739999 613:0.31920001 614:-0.0638 615:0.0638 616:0.31920001 617:0.16320001 #
-0.5392122862962196450098417699337 1:-0.68199998 2:0.47440001 3:0.63200003 4:0.32980001 5:-0.13 6:-0.22480001 7:-0.2852 8:-0.2432 9:-0.5848 10:-0.45339999 11:-0.57679999 12:-0.4296 13:-0.456 14:-0.36660001 15:-0.3062 16:-0.39019999 17:-0.26679999 18:-0.3272 19:-0.109 20:-0.14839999 21:0.20100001 22:0.29820001 23:0.60839999 24:1 25:0.90280002 26:0.56120002 27:0.56639999 28:0.63459998 29:0.79500002 30:0.6584 31:0.55320001 32:0.55320001 33:-0.49419999 34:0.59539998 35:0.71200001 36:0.3048 37:0.1128 38:-0.042800002 39:-0.0506 40:-0.0766 41:-0.2762 42:-0.1674 43:-0.4734 44:-0.175 45:-0.30219999 46:-0.1232 47:-0.118 48:-0.1258 49:0.0142 50:-0.25819999 51:0.092 52:0.0063999998 53:0.4034 54:0.4578 55:0.8132 56:1 57:0.81059998 58:0.87019998 59:0.83660001 60:0.90920001 61:0.99479997 62:0.62639999 63:0.89880002 64:0.75880003 65:-0.50580001 66:0.51099998 67:0.62159997 68:0.1892 69:0.184 70:-0.0063999998 71:-0.055399999 72:-0.13259999 73:-0.23559999 74:-0.184 75:-0.39520001 76:-0.2252 77:-0.45179999 78:-0.093999997 79:-0.16599999 80:-0.078599997 81:-0.0348 82:-0.1248 83:0.0348 84:-0.0836 85:0.31779999 86:0.25099999 87:0.7324 88:0.78380001 89:0.8276 90:1 91:0.78899997 92:0.91759998 93:0.85579997 94:0.88419998 95:0.94599998 96:0.63700002 97:-0.29660001 98:0.4226 99:0.4594 100:0.228 101:0.2692 102:-0.102 103:-0.030999999 104:-0.2852 105:-0.2164 106:-0.35859999 107:-0.27599999 108:-0.3082 109:-0.19580001 110:-0.1868 111:-0.1066 112:-0.0836 113:-0.13860001 114:-0.094999999 115:-0.069799997 116:0.097400002 117:0.1408 118:0.41119999 119:0.58999997 120:0.88080001 121:1 122:0.9152 123:0.74800003 124:0.76859999 125:0.86260003 126:0.85799998 127:0.74580002 128:0.67460001 129:-0.2094 130:0.28099999 131:0.37200001 132:0.54000002 133:0.2314 134:-0.082599998 135:-0.31119999 136:-0.37200001 137:-0.405 138:-0.44620001 139:-0.449 140:-0.3856 141:-0.32780001 142:-0.32499999 143:-0.26719999 144:-0.292 145:-0.237 146:-0.2396 147:-0.146 148:0.011 149:0.15979999 150:0.39399999 151:0.6584 152:0.9228 153:1 154:0.92839998 155:0.74379998 156:0.7658 157:0.93379998 158:0.90079999 159:0.71340001 160:0.54259998 161:-0.28960001 162:0.1582 163:0.7744 164:0.73400003 165:-0.175 166:-0.45460001 167:-0.52520001 168:-0.47479999 169:-0.72399998 170:-0.71719998 171:-0.75080001 172:-0.76099998 173:-0.67000002 174:-0.58240002 175:-0.62279999 176:-0.6196 177:-0.6128 178:-0.66320002 179:-0.542 180:-0.39399999 181:-0.1886 182:0.084200002 183:0.55559999 184:0.94940001 185:1 186:0.60600001 187:0.47139999 188:0.52179998 189:0.65319997 190:0.458 191:0.3064 192:0.084200002 193:-0.2308 194:0.3576 195:0.88080001 196:0.73460001 197:-0.1384 198:-0.3116 199:-0.4576 200:-0.44240001 201:-0.66159999 202:-0.80000001 203:-0.8962 204:-0.64999998 205:-0.62300003 206:-0.80000001 207:-0.66540003 208:-0.78079998 209:-0.60759997 210:-0.57700002 211:-0.65759999 212:-0.61540002 213:-0.3576 214:0.127 215:0.6692 216:1 217:0.81919998 218:0.4384 219:0.61159998 220:0.773 221:0.63840002 222:0.3346 223:0.1192 224:-0.084600002 225:-0.491 226:0.52719998 227:0.78179997 228:0.60000002 229:-0.0546 230:-0.018200001 231:-0.23639999 232:-0.2 233:-0.34540001 234:-0.2728 235:-0.1636 236:-0.1636 237:-0.30899999 238:-0.34540001 239:-0.34540001 240:-0.0546 241:-0.0546 242:-0.2 243:0.0546 244:0.018200001 245:0.23639999 246:0.2728 247:0.81819999 248:1 249:0.89099997 250:0.45460001 251:0.52719998 252:0.52719998 253:0.81819999 254:0.74540001 255:0.34540001 256:0.41819999 257:-0.63999999 258:0.60000002 259:0.75999999 260:0.51999998 261:0.039999999 262:-0.16 263:-0.36000001 264:-0.16 265:-0.2 266:-0.40000001 267:-0.40000001 268:-0.40000001 269:-0.40000001 270:-0.23999999 271:-0.12 272:-0.12 273:-0.36000001 274:-0.039999999 275:0 276:0.079999998 277:0.23999999 278:0.51999998 279:0.56 280:1 281:1 282:0.83999997 283:0.72000003 284:0.88 285:0.80000001 286:0.63999999 287:0.83999997 288:0.80000001 289:-0.30000001 290:0.075000003 291:0.57499999 292:0.64999998 293:-0.1 294:-0.34999999 295:-0.375 296:-0.47499999 297:-0.52499998 298:-0.69999999 299:-0.625 300:-0.60000002 301:-0.55000001 302:-0.52499998 303:-0.34999999 304:-0.52499998 305:-0.52499998 306:-0.42500001 307:-0.22499999 308:-0.15000001 309:0 310:0.25 311:0.47499999 312:0.875 313:1 314:0.67500001 315:0.57499999 316:0.67500001 317:0.82499999 318:0.875 319:0.60000002 320:0.27500001 321:-1 322:-1 323:-1 324:-1 325:-1 326:-1 327:-1 328:-0.97420001 329:-0.96759999 330:-0.82059997 331:-0.5442 332:0.46599999 333:0.98100001 334:0.96380001 335:0.81120002 336:0.53079998 337:0.24079999 338:0.032000002 339:0.084399998 340:0.090999998 341:-0.1522 342:-0.52780002 343:-0.73400003 344:-0.93599999 345:-0.97140002 346:-0.97140002 347:-0.97420001 348:-1 349:-1 350:-1 351:-1 352:-1 353:-1 354:-1 355:-1 356:-1 357:-1 358:-1 359:-1 360:-1 361:-0.96960002 362:-0.96380001 363:-0.82819998 364:-0.5686 365:0.4892 366:0.8168 367:0.73860002 368:0.93220001 369:0.86320001 370:0.81260002 371:0.52539998 372:0.1376 373:-0.1026 374:-0.34900001 375:-0.6318 376:-0.80059999 377:-0.93900001 378:-0.9558 379:-0.95700002 380:-0.96100003 381:-1 382:-1 383:-1 384:-1 385:-1 386:-1 387:-1 388:-1 389:-1 390:-1 391:-1 392:-1 393:-1 394:-0.90679997 395:-0.94999999 396:-0.81999999 397:-0.76679999 398:-0.6512 399:-0.64600003 400:-0.68400002 401:-0.64399999 402:-0.398 403:-0.37599999 404:-0.26800001 405:-0.62400001 406:-0.79799998 407:-0.89399999 408:-0.84399998 409:-0.83340001 410:-0.58340001 411:-0.68000001 412:-0.75999999 413:-0.85339999 414:-1 415:-1 416:-1 417:-1 418:-1 419:-1 420:-1 421:-1 422:-1 423:-1 424:-1 425:-1 426:-1 427:-0.91420001 428:0.8858 429:1 430:1 431:1 432:-0.45719999 433:-1 434:-0.57139999 435:-0.7428 436:-0.94279999 437:-0.77139997 438:-0.45719999 439:-0.65719998 440:-0.7428 441:-0.1142 442:-0.4858 443:-0.71420002 444:-0.91420001 445:-0.97140002 446:-0.94279999 447:-1 448:-1 449:-1 450:-1 451:-1 452:-1 453:0.040399998 454:0.098999999 455:0.113 456:0.131 457:0.1454 458:0.17299999 459:0.182 460:0.2242 461:0.27379999 462:0.14920001 463:1 464:1 465:1 466:1 467:0.98540002 468:1 469:0.9874 470:1 471:1 472:1 473:-0.86659998 474:0.1648 475:-0.53740001 476:-0.3048 477:0.44260001 478:0.87480003 479:0.96560001 480:-0.36660001 481:0.046399999 482:0.37740001 483:0.27160001 484:0.56300002 485:0.4172 486:0.6688 487:0.98680001 488:1 489:0.96020001 490:0.72180003 491:0.73500001 492:0.86760002 493:0.86760002 494:0.85439998 495:0.62919998 496:0.76160002 497:0.74839997 498:0.37740001 499:0.45699999 500:0.28479999 501:0.76160002 502:0.43040001 503:0.2186 504:0.80140001 505:0.4438 506:0.43040001 507:0.68220001 508:0.245 509:0.60259998 510:0.43040001 511:-0.046399999 512:-0.1126 513:-0.038400002 514:0.3558 515:0.32699999 516:0.25960001 517:0.49039999 518:0.3558 519:0.56739998 520:0.66339999 521:0.65380001 522:0.57700002 523:0.80760002 524:1 525:0.79799998 526:0.43259999 527:0.58660001 528:0.57700002 529:0.40380001 530:0.5 531:0.5 532:0.68260002 533:0.2404 534:0.20200001 535:0.41339999 536:0.38460001 537:0.048 538:0.33660001 539:0.30759999 540:0.3558 541:0.43259999 542:0.70200002 543:0.36539999 544:-0.21160001 545:-0.2176 546:0.94819999 547:0.2384 548:-0.088 549:-0.2538 550:-0.30559999 551:-0.2642 552:-0.098399997 553:-0.1192 554:-0.114 555:0.52340001 556:0.96899998 557:1 558:0.741 559:0.95859998 560:0.67879999 561:0.56480002 562:0.69440001 563:0.90679997 564:0.66839999 565:0.34200001 566:0.1814 567:0.16060001 568:-0.057 569:-0.2384 570:-0.2642 571:-0.16580001 572:-0.2902 573:0.1398 574:0.4612 575:0.1036 576:-0.098399997 577:-0.98400003 578:1 579:-1 580:-1 581:-1 582:-0.2 583:-1 584:-1 585:-1 586:-0.35299999 587:0.37259999 588:0.058800001 589:0.058800001 590:-0.2942 591:0 592:0.1568 593:0.17640001 594:0.1568 595:-0.1568 596:0.097999997 597:1 598:0.82359999 599:0.90200001 600:0.94120002 601:0.31380001 602:0.2746 603:0.78439999 604:0.90200001 605:0.39219999 606:0.058800001 607:-0.1568 608:0.078400001 609:0.097999997 610:-0.52939999 611:-0.37259999 612:-0.1372 613:-0.0392 614:-0.078400001 615:0.058800001 616:-0.0392 617:-0.5686 #
1.7543272774877518571656764834188 1:-0.045000002 2:0.70420003 3:0.6516 4:0.70039999 5:0.57300001 6:-0.045000002 7:-0.16859999 8:-0.2098 9:-0.2022 10:-0.3184 11:-0.31079999 12:-0.2022 13:-0.146 14:-0.0188 15:-0.059999999 16:0.0188 17:0.18359999 18:0.72280002 19:0.90259999 20:0.73400003 21:0.86900002 22:0.64420003 23:1 24:0.98500001 25:0.9738 26:0.69660002 27:0.63679999 28:0.53179997 29:0.648 30:0.71160001 31:0.80900002 32:0.97759998 33:-0.49759999 34:0.0122 35:-0.0294 36:0.2378 37:0.1618 38:-0.1226 39:-0.2304 40:-0.26480001 41:-0.38980001 42:-0.27700001 43:-0.28439999 44:-0.19599999 45:-0.2746 46:-0.2254 47:-0.093199998 48:0.046599999 49:0.20100001 50:0.4878 51:0.69599998 52:0.75980002 53:0.70099998 54:0.6372 55:0.7622 56:0.80140001 57:0.755 58:0.63 59:0.60039997 60:0.53179997 61:0.74760002 62:0.88480002 63:0.89459997 64:1 65:-0.44119999 66:-0.074600004 67:0.094800003 68:0.2086 69:-0.11 70:-0.1934 71:-0.46399999 72:-0.4614 73:-0.36039999 74:-0.4842 75:-0.426 76:-0.4084 77:-0.39579999 78:-0.34 79:-0.1934 80:-0.1428 81:-0.054400001 82:0.20100001 83:0.46900001 84:0.70420003 85:0.6688 86:0.62080002 87:0.81040001 88:0.82800001 89:0.71939999 90:0.57020003 91:0.64600003 92:0.53219998 93:0.78259999 94:0.90399998 95:0.89880002 96:1 97:-0.40599999 98:-0.1354 99:0.31580001 100:0.29699999 101:-0.1788 102:-0.45879999 103:-0.62360001 104:-0.45879999 105:-0.50239998 106:-0.58639997 107:-0.6796 108:-0.62059999 109:-0.60180002 110:-0.52420002 111:-0.39340001 112:-0.4402 113:-0.27219999 114:-0.0264 115:0.3872 116:0.72619998 117:0.86320001 118:0.81959999 119:0.86000001 120:0.89420003 121:0.84759998 122:0.68580002 123:0.61739999 124:0.59560001 125:0.75419998 126:0.88800001 127:0.9066 128:1 129:-0.45199999 130:0.22920001 131:0.4984 132:0.2694 133:0.021600001 134:-0.52640003 135:-0.71820003 136:-0.486 137:-0.50160003 138:-0.6006 139:-0.6656 140:-0.68419999 141:-0.55419999 142:-0.47060001 143:-0.4086 144:-0.49540001 145:-0.30039999 146:0.1424 147:0.39320001 148:0.77700001 149:0.97219998 150:0.90719998 151:0.99379998 152:1 153:0.87 154:0.56339997 155:0.56040001 156:0.48300001 157:0.65319997 158:0.81739998 159:0.8854 160:0.94739997 161:-0.58960003 162:0.44 163:0.5826 164:0.085199997 165:-0.4086 166:-0.76700002 167:-0.75660002 168:-0.76700002 169:-0.85399997 170:-0.73220003 171:-0.61739999 172:-0.77039999 173:-0.74599999 174:-0.5478 175:-0.33559999 176:-0.33219999 177:-0.23819999 178:0.0504 179:0.454 180:0.77399999 181:1 182:0.94080001 183:0.95480001 184:0.86080003 185:0.60699999 186:0.454 187:0.49559999 188:0.39480001 189:0.61040002 190:0.82599998 191:0.82959998 192:0.86080003 193:-0.35120001 194:0.1804 195:0.2976 196:-0.053599998 197:-0.78039998 198:-0.80479997 199:-0.81959999 200:-0.71700001 201:-0.76099998 202:-0.73180002 203:-0.53659999 204:-0.58039999 205:-0.4878 206:-0.53179997 207:-0.2342 208:-0.278 209:-0.39019999 210:0.039000001 211:0.5122 212:0.75599998 213:0.87800002 214:0.81459999 215:0.99519998 216:1 217:0.47799999 218:0.3414 219:0.33660001 220:-0.087800004 221:0.3854 222:0.45860001 223:0.45359999 224:0.59020001 225:-0.31420001 226:0.31420001 227:0.1428 228:0.2 229:-0.0286 230:-0.3714 231:-0.60000002 232:-0.77139997 233:-0.4858 234:-0.60000002 235:-0.2 236:-0.31420001 237:-0.42860001 238:-0.31420001 239:-0.3714 240:0.1428 241:0.2572 242:0.71420002 243:0.8858 244:0.71420002 245:0.4858 246:0.4858 247:0.82859999 248:1 249:0.3714 250:0.1428 251:0.54280001 252:0.3714 253:0.1428 254:0.42860001 255:0.42860001 256:0.82859999 257:0.2 258:0.85000002 259:0.80000001 260:0.75 261:0.60000002 262:-0.2 263:-0.1 264:-0.1 265:-0.30000001 266:-0.55000001 267:-0.80000001 268:-0.44999999 269:-0.050000001 270:-0.1 271:-0.2 272:-0.44999999 273:-0.1 274:0.44999999 275:0.69999999 276:0.94999999 277:0.89999998 278:0.5 279:0.85000002 280:1 281:1 282:0.69999999 283:0.80000001 284:0.34999999 285:0.5 286:0.60000002 287:0.64999998 288:0.75 289:-0.287 290:0.026000001 291:0.25220001 292:0.3044 293:-0.095600002 294:-0.2 295:-0.426 296:-0.3044 297:-0.287 298:-0.37400001 299:-0.5826 300:-0.47819999 301:-0.2348 302:-0.287 303:-0.1304 304:-0.1304 305:-0.1304 306:0.18260001 307:0.4434 308:0.66960001 309:0.61739999 310:0.72180003 311:0.77399999 312:0.77399999 313:0.7044 314:0.65219998 315:0.65219998 316:0.61739999 317:0.7392 318:1 319:0.96520001 320:0.96520001 321:-1 322:-1 323:-1 324:-1 325:-0.96460003 326:-0.96280003 327:-0.94499999 328:-0.81940001 329:-0.82539999 330:-0.87440002 331:-0.75660002 332:0.54079998 333:0.68199998 334:0.24240001 335:0.213 336:0.16 337:0.1364 338:0.1462 339:0.26980001 340:0.1972 341:-0.24439999 342:-0.6918 343:-0.69980001 344:-0.85680002 345:-0.92140001 346:-0.92739999 347:-0.96079999 348:-0.94499999 349:-1 350:-1 351:-1 352:-1 353:-1 354:-1 355:-1 356:-1 357:-1 358:-0.97839999 359:-0.97920001 360:-0.8114 361:-0.479 362:-0.4808 363:-0.70719999 364:-0.76620001 365:-0.4946 366:0.42519999 367:0.9364 368:0.77179998 369:0.28220001 370:-0.094999999 371:-0.1956 372:-0.257 373:-0.35699999 374:-0.685 375:-0.8962 376:-0.90259999 377:-0.94400001 378:-0.95480001 379:-0.9526 380:-0.94319999 381:-0.9526 382:-1 383:-1 384:-1 385:-1 386:-1 387:-1 388:-1 389:-1 390:-1 391:-0.94679999 392:-0.98000002 393:-0.58340001 394:0.94 395:0.93660003 396:0.61000001 397:0.1732 398:-0.65560001 399:-0.035599999 400:0.26440001 401:0.2976 402:0.22 403:-0.048999999 404:-0.27779999 405:-0.55339998 406:-0.7978 407:-0.76239997 408:-0.84240001 409:-0.69999999 410:-0.70679998 411:-0.72680002 412:-0.76679999 413:-0.49340001 414:-0.74000001 415:-1 416:-1 417:-1 418:-1 419:-1 420:-1 421:-1 422:-1 423:-1 424:-0.51419997 425:1 426:1 427:1 428:0.0286 429:0.65719998 430:0.6286 431:1 432:1 433:-0.42860001 434:-0.71420002 435:-0.3714 436:-0.77139997 437:-0.8858 438:-0.94279999 439:-0.4858 440:0.40000001 441:0.1714 442:-0.85720003 443:-0.8858 444:-0.91420001 445:-0.91420001 446:-1 447:-0.3714 448:-1 449:-1 450:-1 451:-1 452:-1 453:-0.1202 454:-0.043200001 455:-0.0022 456:0.058600001 457:0.1194 458:0.191 459:0.27200001 460:0.32820001 461:0.24339999 462:-0.071000002 463:0.63 464:0.61619997 465:0.62819999 466:0.65359998 467:0.66720003 468:0.66540003 469:0.6972 470:0.75340003 471:0.8452 472:0.7906 473:-0.54659998 474:0.046999998 475:-0.77359998 476:-0.69419998 477:-0.53719997 478:-0.38679999 479:-0.1514 480:1 481:-0.89840001 482:-0.44159999 483:-0.40599999 484:-0.1522 485:-0.20299999 486:-0.1928 487:-0.16760001 488:-0.0152 489:-0.020400001 490:0.086199999 491:0.1066 492:0.3908 493:0.40599999 494:0.36539999 495:0.41620001 496:0.44679999 497:0.88319999 498:0.86299998 499:0.88319999 500:0.995 501:1 502:0.81720001 503:0.94919997 504:0.73100001 505:0.59899998 506:0.63959998 507:0.72079998 508:0.74119997 509:0.66500002 510:0.57359999 511:0.53299999 512:0.3046 513:-0.94239998 514:-0.48559999 515:-0.4664 516:-0.2692 517:-0.27399999 518:-0.3414 519:-0.1058 520:0.086599998 521:0.2212 522:0.2308 523:0.2836 524:0.2692 525:0.36059999 526:0.12980001 527:0.149 528:0.375 529:0.6972 530:0.63459998 531:0.55760002 532:0.75 533:1 534:0.80760002 535:0.86540002 536:0.59140003 537:0.61540002 538:0.69239998 539:0.73559999 540:0.66339999 541:0.54320002 542:0.68260002 543:0.226 544:0.067400001 545:-0.40959999 546:-0.1366 547:-0.2114 548:-0.0484 549:-0.0176 550:0.066 551:0.1454 552:0.1586 553:0.6652 554:0.71799999 555:0.6124 556:0.87220001 557:0.815 558:0.6476 559:0.6476 560:0.74000001 561:1 562:0.63440001 563:0.66960001 564:0.96920002 565:0.74879998 566:0.66079998 567:0.65640002 568:0.64319998 569:0.52859998 570:0.55059999 571:0.50660002 572:0.44060001 573:0.41859999 574:0.29519999 575:0.25560001 576:-0.1014 577:-0.3486 578:-1 579:-1 580:1 581:-1 582:-1 583:-1 584:-0.066600002 585:1 586:-0.31619999 587:-0.3504 588:0.1112 589:0.19660001 590:0.1452 591:0.2992 592:0.55559999 593:0.93159997 594:0.79479998 595:0.64099997 596:1 597:1 598:0.40180001 599:0.40180001 600:0.77780002 601:0.5898 602:0.28200001 603:0.2992 604:0.76059997 605:0.76059997 606:0.52139997 607:0.19660001 608:0.40180001 609:0.43579999 610:-0.042800002 611:-0.43579999 612:0.0086000003 613:0.16240001 614:-0.19660001 615:-0.16240001 616:0.059799999 617:-0.1112 #
0.25954993821549920962610258357017 1:-0.089599997 2:0.53939998 3:0.5284 4:0.4332 5:0.40400001 6:0.1408 7:0.082199998 8:-0.1188 9:-0.17 10:-0.34920001 11:-0.4224 12:-0.064000003 13:-0.067599997 14:-0.075000003 15:-0.148 16:-0.12980001 17:-0.020199999 18:0.082199998 19:0.052999999 20:0.25420001 21:0.2798 22:0.4808 23:0.5284 24:0.88300002 25:0.92320001 26:1 27:0.96340001 28:0.98900002 29:0.90859997 30:0.92320001 31:0.80980003 32:0.68199998 33:-0.368 34:0.064400002 35:0.0306 36:0.2638 37:0.132 38:-0.058200002 39:-0.28839999 40:-0.322 41:-0.32519999 42:-0.31600001 43:-0.44479999 44:-0.4786 45:-0.56440002 46:-0.44780001 47:-0.28220001 48:-0.28220001 49:-0.1564 50:-0.067400001 51:0.0306 52:0.13500001 53:0.27919999 54:0.39879999 55:0.63200003 56:0.80980003 57:1 58:0.97240001 59:0.98159999 60:0.94480002 61:0.91720003 62:0.87120003 63:0.79439998 64:0.71780002 65:-0.505 66:-0.18719999 67:0.32440001 68:0.38460001 69:-0.127 70:-0.28099999 71:-0.35780001 72:-0.51499999 73:-0.54180002 74:-0.62540001 75:-0.59859997 76:-0.60860002 77:-0.51840001 78:-0.38119999 79:-0.3678 80:-0.28420001 81:-0.1472 82:-0.14380001 83:-0.073600002 84:0.023399999 85:0.15719999 86:0.31439999 87:0.53839999 88:0.80599999 89:0.93980002 90:1 91:0.99000001 92:0.97320002 93:0.92640001 94:0.92299998 95:0.78920001 96:0.72240001 97:-0.50300002 98:0.1382 99:0.58719999 100:0.491 101:0.022 102:-0.2384 103:-0.38280001 104:-0.54299998 105:-0.77160001 106:-0.67140001 107:-0.6232 108:-0.479 109:-0.5952 110:-0.43880001 111:-0.38679999 112:-0.31459999 113:-0.3628 114:-0.33860001 115:-0.2304 116:-0.17039999 117:0.041999999 118:0.0942 119:0.3346 120:0.6954 121:0.87580001 122:1 123:0.9278 124:0.90380001 125:0.86379999 126:0.81959999 127:0.65539998 128:0.57920003 129:-0.51880002 130:0.41280001 131:0.55400002 132:0.4614 133:0.1346 134:-0.29359999 135:-0.34220001 136:-0.57620001 137:-0.62040001 138:-0.80140001 139:-0.7306 140:-0.68220001 141:-0.58060002 142:-0.53200001 143:-0.479 144:-0.50999999 145:-0.54519999 146:-0.51440001 147:-0.32460001 148:-0.2362 149:-0.055199999 150:0.046399999 151:0.28920001 152:0.55839998 153:0.85879999 154:1 155:0.81900001 156:0.92500001 157:0.84100002 158:0.91159999 159:0.7748 160:0.57179999 161:-0.46160001 162:0.44800001 163:0.801 164:0.75120002 165:0.1312 166:-0.19 167:-0.3574 168:-0.40279999 169:-0.40279999 170:-0.45699999 171:-0.43439999 172:-0.37099999 173:-0.48859999 174:-0.40720001 175:-0.40279999 176:-0.36199999 177:-0.3258 178:-0.28060001 179:-0.4118 180:-0.29859999 181:-0.1312 182:-0.1312 183:0.1222 184:0.61540002 185:0.80540001 186:1 187:0.90960002 188:0.93660003 189:0.85979998 190:0.89600003 191:0.79180002 192:0.62900001 193:-0.56599998 194:0.3168 195:0.57099998 196:0.4614 197:0.0024000001 198:-0.4014 199:-0.3168 200:-0.2818 201:-0.26679999 202:-0.4364 203:-0.58099997 204:-0.2518 205:-0.167 206:-0.44639999 207:-0.3118 208:-0.2868 209:-0.1472 210:-0.24680001 211:-0.38659999 212:-0.35159999 213:-0.207 214:-0.27680001 215:0.14219999 216:0.66079998 217:0.92019999 218:0.93019998 219:1 220:0.98500001 221:0.98000002 222:0.65579998 223:0.44139999 224:0.4364 225:0.0232 226:0.72100002 227:0.67439997 228:0.1162 229:0.1628 230:0.0232 231:-0.2094 232:-0.1628 233:-0.3488 234:-0.4418 235:-0.4418 236:-0.1628 237:-0.25580001 238:-0.2094 239:-0.3488 240:-0.2094 241:-0.069799997 242:-0.1628 243:-0.0232 244:-0.2094 245:0.069799997 246:0.39539999 247:0.3488 248:0.48840001 249:0.95340002 250:1 251:0.76740003 252:0.95340002 253:0.86040002 254:0.67439997 255:0.39539999 256:0.30239999 257:-0.1162 258:0.62800002 259:0.62800002 260:0.53479999 261:0.48840001 262:0.1162 263:0.069799997 264:-0.30239999 265:-0.39539999 266:-0.30239999 267:-0.30239999 268:-0.0232 269:0.0232 270:0.069799997 271:0.069799997 272:-0.25580001 273:-0.069799997 274:0.0232 275:-0.1628 276:0.1628 277:0.2094 278:0.1162 279:0.2094 280:0.67439997 281:0.72100002 282:0.90700001 283:1 284:0.81400001 285:1 286:0.81400001 287:0.95340002 288:0.76740003 289:-0.50459999 290:-0.101 291:0.4312 292:0.3944 293:-0.1192 294:-0.211 295:-0.1926 296:-0.46779999 297:-0.66979998 298:-0.66979998 299:-0.5596 300:-0.44960001 301:-0.46779999 302:-0.3944 303:-0.1376 304:-0.1744 305:-0.156 306:-0.1376 307:-0.064199999 308:0.0276 309:0.156 310:0.22939999 311:0.33939999 312:0.76139998 313:0.8348 314:1 315:0.96340001 316:0.96340001 317:0.88999999 318:0.79820001 319:0.79820001 320:0.72479999 321:-1 322:-0.9508 323:-0.9418 324:-0.94620001 325:-0.93580002 326:-0.81940001 327:-0.88499999 328:-0.90600002 329:-0.89560002 330:-0.8836 331:-0.7762 332:0.72680002 333:0.85680002 334:0.509 335:0.54320002 336:0.76120001 337:0.80440003 338:0.44780001 339:0.303 340:0.1716 341:-0.21799999 342:-0.59859997 343:-0.69400001 344:-0.84619999 345:-0.85979998 346:-0.89399999 347:-0.93440002 348:-0.93440002 349:-0.93739998 350:-1 351:-1 352:-1 353:-1 354:-1 355:-0.9824 356:-0.97680002 357:-0.9752 358:-0.98259997 359:-0.40920001 360:-0.1696 361:-0.36939999 362:-0.50959998 363:-0.66939998 364:-0.85519999 365:-0.50840002 366:0.44659999 367:0.90140003 368:0.727 369:0.24779999 370:-0.4156 371:-0.61260003 372:-0.52539998 373:-0.74299997 374:-0.82020003 375:-0.90799999 376:-0.9346 377:-0.94620001 378:-0.94760001 379:-0.9648 380:-0.97579998 381:-0.97799999 382:-0.98019999 383:-1 384:-1 385:-1 386:-1 387:-1 388:-0.83999997 389:-0.84680003 390:-0.85339999 391:-0.88679999 392:0.036600001 393:0.83319998 394:0.74000001 395:0.56660002 396:0.3732 397:0.3066 398:-0.77719998 399:-0.27160001 400:0.037 401:-0.0286 402:-0.36000001 403:-0.7058 404:-0.88300002 405:-0.75440001 406:-0.83759999 407:-0.83999997 408:-0.745 409:-0.5934 410:-0.33680001 411:-0.5334 412:-0.55000001 413:-0.68000001 414:-0.90679997 415:-0.92000002 416:-1 417:-1 418:-1 419:-1 420:-1 421:-0.97140002 422:-0.91420001 423:-0.97140002 424:1 425:1 426:1 427:-0.45719999 428:-0.0286 429:0.94279999 430:0.8858 431:1 432:1 433:-0.80000001 434:-0.77139997 435:0.54280001 436:0.51419997 437:-0.85720003 438:-0.65719998 439:-0.0286 440:-0.68580002 441:-0.60000002 442:-0.60000002 443:-0.80000001 444:-0.54280001 445:-0.4858 446:-0.71420002 447:-0.82859999 448:-0.71420002 449:-1 450:-1 451:-1 452:-1 453:0.182 454:0.182 455:0.2406 456:0.2694 457:0.2958 458:0.33059999 459:0.3434 460:0.3432 461:0.3326 462:0.20119999 463:1 464:1 465:1 466:1 467:1 468:1 469:1 470:1 471:1 472:1 473:-0.41339999 474:-0.17640001 475:-0.86680001 476:-0.7992 477:-0.55299997 478:-0.039999999 479:0.34619999 480:1 481:-0.81260002 482:-0.4472 483:-0.3626 484:-0.35640001 485:-0.28400001 486:-0.2054 487:-0.145 488:-0.1088 489:-0.012 490:0.24779999 491:0.35960001 492:0.37760001 493:0.31119999 494:0.34439999 495:0.43200001 496:0.36860001 497:0.46219999 498:0.64960003 499:0.79460001 500:0.85799998 501:1 502:1 503:0.94859999 504:0.88819999 505:0.84299999 506:0.68279999 507:0.565 508:0.67979997 509:0.64660001 510:0.51359999 511:0.45320001 512:0.2084 513:-0.85759997 514:-0.68180001 515:-0.47580001 516:-0.36059999 517:-0.2484 518:-0.14839999 519:-0.069600001 520:0.1152 521:0.2122 522:0.44240001 523:0.6182 524:0.66360003 525:0.57880002 526:0.6182 527:0.597 528:0.5758 529:0.38479999 530:0.56959999 531:0.92720002 532:0.903 533:0.86659998 534:0.94840002 535:1 536:0.78479999 537:0.8272 538:0.78780001 539:0.67879999 540:0.68180001 541:0.51819998 542:0.42719999 543:0.28479999 544:0.033399999 545:-0.4786 546:-0.32139999 547:-0.223 548:-0.1278 549:-0.2492 550:-0.1476 551:-0.1312 552:-0.059 553:0.1476 554:0.30500001 555:0.3804 556:0.75400001 557:0.8786 558:0.87220001 559:0.8786 560:0.741 561:0.64600003 562:0.65240002 563:0.87540001 564:0.85900003 565:0.78359997 566:1 567:0.91799998 568:0.70160002 569:0.73439997 570:0.68519998 571:0.63940001 572:0.40979999 573:0.37040001 574:0.27860001 575:0.091799997 576:-0.094999999 577:0.47260001 578:-1 579:-1 580:1 581:-1 582:-1 583:-0.80000001 584:0.1666 585:-1 586:-0.19679999 587:0.0394 588:-0.0077999998 589:0.1338 590:-0.070799999 591:-0.21259999 592:0.1024 593:0.1654 594:0.21259999 595:-0.1024 596:0.070799999 597:0.49599999 598:0.95279998 599:1 600:0.90560001 601:0.4488 602:0.19679999 603:0.30700001 604:0.4646 605:0.54339999 606:0.60619998 607:0.73220003 608:0.1812 609:0.29139999 610:-0.055199999 611:0.22840001 612:0.1812 613:0.32280001 614:0.4804 615:0.1182 616:0.21259999 617:-0.1182 #
0.44038121605207736219966818680405 1:-0.0504 2:0.94959998 3:1 4:0.3854 5:0.3486 6:-0.2018 7:-0.2386 8:-0.39899999 9:-0.42199999 10:-0.69260001 11:-0.64219999 12:-0.5596 13:-0.53659999 14:-0.5596 15:-0.51380002 16:-0.6376 17:-0.66979998 18:-0.73400003 19:-0.59640002 20:-0.091799997 21:0.087200001 22:0.7202 23:0.93580002 24:0.64679998 25:0.7432 26:0.59179997 27:0.71560001 28:0.46340001 29:0.4862 30:0.3348 31:0.211 32:0.0046000001 33:0.1006 34:0.7342 35:0.71719998 36:0.56720001 37:0.50599998 38:0.069799997 39:-0.012 40:-0.2368 41:-0.32879999 42:-0.44119999 43:-0.50599998 44:-0.3152 45:-0.44800001 46:-0.2402 47:-0.39359999 48:-0.32539999 49:-0.43099999 50:-0.53320003 51:-0.2674 52:-0.0086000003 53:0.20280001 54:0.45480001 55:0.78539997 56:1 57:0.81940001 58:0.69340003 59:0.58780003 60:0.64219999 61:0.45820001 62:0.069799997 63:0.066399999 64:0.1108 65:0.025800001 66:0.71079999 67:0.65939999 68:0.58819997 69:0.4614 70:-0.1446 71:-0.3188 72:-0.505 73:-0.71079999 74:-0.60799998 75:-0.7148 76:-0.5564 77:-0.52880001 78:-0.41 79:-0.68720001 80:-0.61580002 81:-0.8258 82:-0.86540002 83:-0.41780001 84:-0.40599999 85:0.2238 86:0.38620001 87:1 88:0.9684 89:0.74260002 90:0.63959998 91:0.56040001 92:0.42179999 93:0.0178 94:-0.1128 95:0.037599999 96:0.105 97:0.1034 98:0.81459999 99:0.74559999 100:0.73280001 101:0.5776 102:-0.081799999 103:-0.31459999 104:-0.51719999 105:-0.77579999 106:-0.69819999 107:-0.55180001 108:-0.5 109:-0.48699999 110:-0.46560001 111:-0.62059999 112:-0.6164 113:-0.76300001 114:-0.83179998 115:-0.7112 116:-0.2068 117:0.1682 118:0.61199999 119:0.89660001 120:0.75440001 121:1 122:0.69400001 123:0.7112 124:0.30180001 125:-0.18099999 126:0.017200001 127:0.077600002 128:0.3362 129:0.1054 130:0.81019998 131:0.76800001 132:0.75520003 133:0.61180001 134:-0.0041999999 135:-0.21520001 136:-0.616 137:-0.76380002 138:-0.66659999 139:-0.61180001 140:-0.45559999 141:-0.4262 142:-0.3418 143:-0.57800001 144:-0.52740002 145:-0.62019998 146:-0.60339999 147:-0.61180001 148:-0.45559999 149:0.1476 150:0.4346 151:0.95779997 152:0.84820002 153:1 154:0.85659999 155:0.7216 156:0.48100001 157:-0.067599997 158:-0.25740001 159:-0.0506 160:0.1012 161:0.0060000001 162:0.97219998 163:1 164:0.46540001 165:0.493 166:-0.2872 167:-0.2674 168:-0.53659999 169:-0.6476 170:-0.76239997 171:-0.699 172:-0.3504 173:-0.35440001 174:-0.35839999 175:-0.41780001 176:-0.40599999 177:-0.58819997 178:-0.7306 179:-0.57620001 180:-0.2436 181:0.0060000001 182:0.37020001 183:0.66339999 184:0.84960002 185:0.76639998 186:0.7148 187:0.56440002 188:0.4258 189:0.23559999 190:-0.049600001 191:0.045600001 192:0.0614 193:-1 194:0.73460001 195:1 196:0.7306 197:-0.069399998 198:0.0099999998 199:-0.4258 200:-0.34259999 201:-0.58420002 202:-0.493 203:-0.45339999 204:-0.4892 205:-0.54860002 206:-0.54460001 207:-0.52880001 208:-0.44960001 209:-0.50099999 210:-0.4892 211:-0.58420002 212:-0.3346 213:-0.204 214:-0.0178 215:0.093000002 216:0.208 217:0.1842 218:0.44960001 219:0.44960001 220:0.2712 221:-0.0218 222:-0.26339999 223:-0.2832 224:-0.1762 225:-0.13339999 226:0.93339998 227:1 228:0.40000001 229:0.066600002 230:-0.40000001 231:-0.33340001 232:-0.26660001 233:-0.4666 234:-0.60000002 235:-0.5334 236:-0.73339999 237:-0.86659998 238:-0.5334 239:-0.2 240:-0.33340001 241:-0.5334 242:-0.4666 243:-0.80000001 244:-0.13339999 245:0.40000001 246:0.5334 247:0.93339998 248:0.5334 249:0.73339999 250:0.73339999 251:0.93339998 252:0.5334 253:0.26660001 254:0.60000002 255:0.40000001 256:0.33340001 257:0 258:0.90899998 259:1 260:0.54540002 261:0.31819999 262:-0.090999998 263:-0.18179999 264:-0.31819999 265:-0.2728 266:-0.5 267:-0.59100002 268:-0.68180001 269:-0.45460001 270:-0.36359999 271:-0.31819999 272:-0.36359999 273:-0.72719997 274:-0.68180001 275:-0.2728 276:-0.45460001 277:-0.2272 278:0.5 279:0.59100002 280:0 281:0.045400001 282:0.31819999 283:0.5 284:0.36359999 285:0 286:0.090999998 287:0 288:-0.2728 289:0.051600002 290:0.67019999 291:0.58759999 292:0.54640001 293:0.4226 294:-0.092799999 295:-0.2164 296:-0.46399999 297:-0.58759999 298:-0.46399999 299:-0.52579999 300:-0.4226 301:-0.29899999 302:-0.23720001 303:-0.56699997 304:-0.60820001 305:-0.77319998 306:-0.75260001 307:-0.56699997 308:-0.3608 309:0.25780001 310:0.2784 311:0.97939998 312:1 313:0.6494 314:0.60820001 315:0.56699997 316:0.50520003 317:0.134 318:0.092799999 319:0.0104 320:-0.0104 321:-1 322:-1 323:-1 324:-0.97920001 325:-0.9842 326:-0.92079997 327:-0.79519999 328:-0.79040003 329:-0.87239999 330:-0.90100002 331:-0.90100002 332:0.57560003 333:0.37779999 334:0.26699999 335:0.2088 336:0.1514 337:0.1434 338:0.1098 339:0.065200001 340:0.0484 341:0.175 342:-0.19580001 343:-0.71520001 344:-0.9684 345:-0.96640003 346:-0.97619998 347:-0.98119998 348:-1 349:-1 350:-1 351:-1 352:-1 353:-1 354:-1 355:-1 356:-1 357:-0.96219999 358:-0.96759999 359:-0.52859998 360:0.69999999 361:0.95679998 362:0.43340001 363:-0.098399997 364:-0.63800001 365:0.58960003 366:0.59579998 367:0.57520002 368:0.49340001 369:0.31479999 370:0.31119999 371:0.31659999 372:0.26539999 373:0.1586 374:0.22939999 375:-0.1568 376:-0.67040002 377:-0.87879997 378:-0.86260003 379:-0.8994 380:-0.94260001 381:-1 382:-1 383:-1 384:-1 385:-1 386:-1 387:-1 388:-1 389:-1 390:-0.94 391:-1 392:-0.63 393:1 394:0.92000002 395:0.57660002 396:0.50319999 397:0.17659999 398:-0.8258 399:-0.84859997 400:-0.82260001 401:-0.86000001 402:-0.88999999 403:-0.8926 404:-0.8926 405:-0.88999999 406:-0.8876 407:-0.88 408:-0.87260002 409:-0.58679998 410:-0.1734 411:-0.1068 412:-0.31999999 413:-0.78680003 414:-1 415:-1 416:-1 417:-1 418:-1 419:-1 420:-1 421:-1 422:-1 423:-0.77139997 424:1 425:1 426:1 427:-0.0858 428:0.45719999 429:1 430:1 431:1 432:0.2572 433:-0.82859999 434:-0.40000001 435:-0.65719998 436:-1 437:-1 438:-0.8858 439:-0.6286 440:-0.6286 441:-0.42860001 442:-0.2572 443:-0.45719999 444:-0.7428 445:-0.1714 446:-0.1714 447:-1 448:-1 449:-1 450:-1 451:-1 452:-1 453:-0.2308 454:-0.20119999 455:-0.193 456:-0.13779999 457:-0.1008 458:-0.045200001 459:-0.0242 460:-0.037799999 461:-0.0902 462:-0.077 463:0.96539998 464:0.96139997 465:0.9052 466:0.93379998 467:0.97759998 468:1 469:1 470:1 471:1 472:0.98140001 473:-0.77340001 474:-0.1058 475:-0.66960001 476:-0.366 477:0.87239999 478:0.85360003 479:0.60399997 480:1 481:-0.75599998 482:-0.28040001 483:-0.2318 484:-0.093400002 485:-0.17479999 486:-0.22759999 487:-0.1504 488:-0.183 489:0.044799998 490:0.036600001 491:0.14219999 492:0.0082 493:0.191 494:0.4756 495:0.3292 496:0.3822 497:0.61379999 498:0.72759998 499:0.89020002 500:0.79259998 501:0.85360003 502:1 503:0.86580002 504:0.9878 505:0.91460001 506:0.86580002 507:0.75199997 508:0.71139997 509:0.56099999 510:0.33739999 511:0.244 512:-0.064999998 513:-0.67119998 514:-0.59079999 515:-0.44940001 516:-0.38440001 517:-0.3804 518:-0.34999999 519:-0.36140001 520:-0.1778 521:-0.0592 522:0.29640001 523:0.4914 524:0.27340001 525:0.49900001 526:0.95420003 527:0.99239999 528:0.43020001 529:0.69779998 530:1 531:0.98860002 532:0.70179999 533:0.8624 534:0.977 535:0.83560002 536:0.71700001 537:0.7094 538:0.74760002 539:0.74000001 540:0.75520003 541:0.64819998 542:0.57560003 543:0.3766 544:0.20460001 545:-0.37020001 546:-0.1602 547:-0.20280001 548:-0.032000002 549:-0.089000002 550:-0.2278 551:-0.121 552:-0.19580001 553:0.025 554:0.1992 555:0.59439999 556:0.87540001 557:0.4804 558:1 559:0.91100001 560:0.66900003 561:0.6868 562:0.6868 563:0.59079999 564:0.72240001 565:0.82560003 566:0.71880001 567:0.54799998 568:0.41280001 569:0.28119999 570:0.29179999 571:0.2456 572:0.28459999 573:0.1174 574:0.1814 575:-0.0142 576:-0.40560001 577:0.72420001 578:-1 579:-1 580:1 581:-1 582:-1 583:-1 584:0.13339999 585:-1 586:-0.54680002 587:-0.375 588:-0.125 589:0.062399998 590:0.046799999 591:-0.1094 592:0.21879999 593:0.2032 594:-0.046799999 595:0.4844 596:1 597:0.73439997 598:0.67180002 599:0.76560003 600:0.32820001 601:0.56239998 602:0.60939997 603:0.046799999 604:0.15620001 605:0.31259999 606:0.1876 607:0.64060003 608:-0.0156 609:0.062399998 610:0.078199998 611:-0.078199998 612:-0.59380001 613:-0.1094 614:-0.15620001 615:-0.2344 616:-0.375 617:-0.375 #
-2.2285419757546032215600462222937 1:-0.63419998 2:0.0080000004 3:0.037799999 4:0.2624 5:0.31420001 6:-0.1212 7:-0.037799999 8:-0.2128 9:-0.073600002 10:-0.2068 11:-0.0616 12:-0.1868 13:-0.079599999 14:-0.1392 15:0.0198 16:0.0099999998 17:0.093400002 18:0.13519999 19:0.25639999 20:0.4156 21:0.5388 22:0.79720002 23:0.85879999 24:0.85479999 25:0.80320001 26:0.72359997 27:0.77539998 28:0.86479998 29:1 30:0.92839998 31:0.87480003 32:0.77139997 33:-0.64719999 34:0.098200001 35:0.1706 36:0.1078 37:0.2298 38:0.042800002 39:0.0638 40:-0.025800001 41:0.0506 42:0.042800002 43:-0.082999997 44:-0.0048000002 45:-0.1954 46:-0.0372 47:-0.1096 48:0.142 49:0.090599999 50:0.17640001 51:0.2374 52:0.48140001 53:0.57859999 54:0.75220001 55:0.92180002 56:0.82260001 57:0.75779998 58:0.69880003 59:0.76359999 60:0.7902 61:0.91039997 62:1 63:0.83219999 64:0.77880001 65:-0.56900001 66:0.1362 67:0.2052 68:0.11 69:0.222 70:0.013 71:0.041000001 72:-0.059799999 73:0.016799999 74:-0.0093999999 75:-0.054200001 76:0.0038000001 77:-0.082000002 78:0.0298 79:-0.059799999 80:0.1698 81:0.1082 82:0.27239999 83:0.278 84:0.48320001 85:0.56720001 86:0.71820003 87:0.92540002 88:0.86760002 89:0.78920001 90:0.74059999 91:0.76120001 92:0.80040002 93:0.90679997 94:1 95:0.88800001 96:0.78539997 97:-0.37040001 98:0.2226 99:0.24959999 100:0.31659999 101:0.35319999 102:0.0038000001 103:0.065200001 104:-0.034600001 105:0.068999998 106:-0.15360001 107:0 108:-0.13240001 109:0.055599999 110:-0.026799999 111:0.16320001 112:0.072999999 113:0.18799999 114:0.14579999 115:0.405 116:0.42039999 117:0.64679998 118:0.7428 119:0.95959997 120:0.9788 121:0.73320001 122:0.6602 123:0.7216 124:0.78320003 125:0.93480003 126:1 127:0.90979999 128:0.79659998 129:-0.214 130:0.32620001 131:0.31560001 132:0.4682 133:0.42379999 134:0.086800002 135:0.021199999 136:0.1102 137:0.038199998 138:-0.0083999997 139:-0.086800002 140:0.017000001 141:-0.0594 142:0.0594 143:0.0128 144:0.1716 145:0.084799998 146:0.27540001 147:0.3644 148:0.58060002 149:0.72039998 150:0.98940003 151:1 152:0.82200003 153:0.66939998 154:0.71399999 155:0.73299998 156:0.87919998 157:0.9576 158:0.92580003 159:0.86659998 160:0.75840002 161:-0.1796 162:0.34419999 163:0.41139999 164:0.65579998 165:0.45640001 166:0.064800002 167:-0.035 168:0.0099999998 169:-0.13959999 170:-0.162 171:-0.17200001 172:-0.26679999 173:-0.1148 174:-0.1296 175:-0.02 176:0.0748 177:0.12720001 178:0.30919999 179:0.4862 180:0.75819999 181:0.94019997 182:1 183:0.88020003 184:0.60839999 185:0.68580002 186:0.75319999 187:0.8628 188:0.9052 189:0.92760003 190:0.778 191:0.7482 192:0.69319999 193:-0.15880001 194:0.31580001 195:0.31259999 196:0.4664 197:0.2406 198:-0.3486 199:-0.28960001 200:-0.3256 201:-0.4402 202:-0.56800002 203:-0.47960001 204:-0.52859998 205:-0.33219999 206:-0.2242 207:-0.086800002 208:0.1654 209:0.28960001 210:0.51880002 211:0.84619999 212:0.9738 213:1 214:0.82980001 215:0.79699999 216:0.84280002 217:0.98699999 218:0.98699999 219:0.95099998 220:0.70539999 221:0.52859998 222:0.52200001 223:0.5582 224:0.63660002 225:-0.59320003 226:-0.084799998 227:-0.017000001 228:0.322 229:0.35600001 230:-0.22040001 231:-0.1186 232:-0.15260001 233:-0.084799998 234:-0.1186 235:-0.017000001 236:-0.22040001 237:-0.1186 238:-0.25420001 239:-0.017000001 240:-0.15260001 241:0.1186 242:0.017000001 243:0.28819999 244:0.28819999 245:0.69499999 246:0.62720001 247:0.96619999 248:1 249:0.55940002 250:0.66100001 251:0.69499999 252:0.79659998 253:0.89840001 254:1 255:0.69499999 256:0.79659998 257:-0.5 258:0.0264 259:0.0526 260:0.34220001 261:0.34220001 262:0.0264 263:0 264:-0.0526 265:-0.0264 266:0 267:0.0264 268:-0.0526 269:0 270:-0.0264 271:0.079000004 272:0.0526 273:0.1842 274:0.2106 275:0.34220001 276:0.4474 277:0.60519999 278:0.81580001 279:0.94739997 280:0.84219998 281:0.76319999 282:0.68419999 283:0.81580001 284:0.81580001 285:1 286:0.921 287:0.84219998 288:0.81580001 289:-0.70380002 290:0.051800001 291:0.126 292:0.0222 293:0.1556 294:-0.051800001 295:-0.0074 296:-0.096199997 297:-0.037 298:-0.051800001 299:-0.126 300:-0.051800001 301:-0.2 302:0.0222 303:-0.0814 304:0.126 305:0.096199997 306:0.2 307:0.25920001 308:0.40740001 309:0.5704 310:0.55559999 311:0.95560002 312:0.926 313:0.68879998 314:0.68879998 315:0.67400002 316:0.77780002 317:0.67400002 318:1 319:0.94080001 320:0.73339999 321:-1 322:-1 323:-1 324:-1 325:-1 326:-1 327:-1 328:-1 329:-0.97479999 330:-0.97399998 331:-0.42919999 332:-0.0014 333:0.1376 334:0.25920001 335:0.57120001 336:0.69580001 337:0.63880002 338:0.5722 339:0.45719999 340:0.37720001 341:0.75480002 342:-0.14820001 343:-0.79339999 344:-0.90060002 345:-0.9526 346:-0.95560002 347:-0.97000003 348:-1 349:-1 350:-1 351:-1 352:-1 353:-1 354:-1 355:-1 356:-1 357:-1 358:-1 359:-1 360:-1 361:-1 362:-0.99419999 363:-0.98879999 364:-0.51819998 365:0.1868 366:0.22319999 367:0.4082 368:0.93919998 369:0.79960001 370:0.31380001 371:-0.1436 372:-0.42300001 373:-0.5794 374:-0.54500002 375:-0.81699997 376:-0.93540001 377:-0.958 378:-0.97259998 379:-0.98299998 380:-0.9896 381:-1 382:-1 383:-1 384:-1 385:-1 386:-1 387:-1 388:-1 389:-1 390:-1 391:-1 392:-1 393:-1 394:-1 395:-0.95999998 396:-0.92339998 397:-0.30340001 398:0.124 399:0.116 400:0.138 401:0.178 402:0.18799999 403:0.146 404:0.02 405:-0.041999999 406:-0.38600001 407:-0.6954 408:-0.7482 409:-0.51120001 410:-0.4612 411:-0.5244 412:-0.75120002 413:-0.81120002 414:-1 415:-1 416:-1 417:-1 418:-1 419:-1 420:-1 421:-1 422:-1 423:-1 424:-1 425:-1 426:-1 427:-1 428:-0.94279999 429:1 430:1 431:1 432:-0.65719998 433:-0.4858 434:-0.54280001 435:-0.85720003 436:-0.6286 437:-0.6286 438:-0.7428 439:-0.1428 440:0.51419997 441:1 442:-0.2 443:-0.1428 444:-0.1428 445:-0.28580001 446:-0.71420002 447:-1 448:-1 449:-1 450:-1 451:-1 452:-1 453:0.7288 454:0.73360002 455:0.74479997 456:0.7554 457:0.76560003 458:0.78200001 459:0.79960001 460:0.80779999 461:0.773 462:0.58340001 463:1 464:1 465:1 466:1 467:1 468:1 469:1 470:1 471:1 472:0.97259998 473:-0.85339999 474:0.2236 475:-0.41940001 476:-0.0088 477:0.3466 478:0.25999999 479:-0.042599998 480:1 481:-0.36000001 482:0.47999999 483:0.51999998 484:-0.2 485:-0.2 486:-0.2 487:-0.28 488:0 489:0.16 490:0.2 491:0.56 492:1 493:0.80000001 494:0.88 495:0.92000002 496:0.95999998 497:0.75999999 498:0.75999999 499:0.63999999 500:0.40000001 501:0.23999999 502:0.28 503:0.31999999 504:0.31999999 505:0.28 506:0.079999998 507:-0.079999998 508:-0.079999998 509:-0.23999999 510:-0.079999998 511:-0.039999999 512:-0.68000001 513:-0.34999999 514:0.18340001 515:0.2166 516:-0.18340001 517:-0.34999999 518:-0.15000001 519:-0.15000001 520:0.0166 521:0.2 522:0.31659999 523:0.69999999 524:0.91659999 525:0.83340001 526:0.81660002 527:1 528:0.93339998 529:0.85000002 530:0.85000002 531:0.69999999 532:0.56660002 533:0.43340001 534:0.58340001 535:0.68339998 536:0.66659999 537:0.68339998 538:0.5 539:0.050000001 540:0.2166 541:-0.066600002 542:0.1666 543:0.083400004 544:-0.13339999 545:-0.30579999 546:0.0744 547:0.28920001 548:-0.1736 549:-0.2066 550:-0.1074 551:-0.19 552:-0.0082 553:0.057799999 554:0.2066 555:0.63639998 556:0.93379998 557:0.81819999 558:0.85119998 559:1 560:0.95039999 561:0.8348 562:0.8678 563:0.8348 564:0.68599999 565:0.4876 566:0.60339999 567:0.73559999 568:0.7852 569:0.60339999 570:0.3554 571:0.38839999 572:0.14040001 573:0.090999998 574:0.38839999 575:0.25619999 576:0.0082 577:0.0018 578:-1 579:-1 580:1 581:-1 582:-1 583:-1 584:-0.83340001 585:-1 586:-0.64999998 587:-0.13339999 588:-0.083400004 589:0.34999999 590:0.30000001 591:0.050000001 592:0.5334 593:0.76660001 594:0.91659999 595:0.58340001 596:0.56660002 597:0.66659999 598:0.44999999 599:0.69999999 600:1 601:0.91659999 602:0.41659999 603:0.33340001 604:0.2334 605:0.2334 606:0.25 607:0.0166 608:0.18340001 609:0.2166 610:0.1 611:0.26660001 612:0.033399999 613:-0.050000001 614:0.033399999 615:-0.2166 616:-0.5 617:-0.68339998 #
-0.61669851823558996528618081356399 1:-0.52499998 2:0.5388 3:0.73500001 4:0.67640001 5:0.51120001 6:0.18080001 7:-0.167 8:-0.24259999 9:-0.17380001 10:-0.1462 11:-0.3908 12:-0.24959999 13:-0.26339999 14:-0.3184 15:-0.2358 16:-0.3012 17:-0.1084 18:-0.1532 19:0.084399998 20:0.1772 21:0.3046 22:0.35280001 23:0.78320003 24:0.84500003 25:0.9242 26:1 27:0.9932 28:0.87599999 29:0.83139998 30:0.76239997 31:0.77280003 32:0.73839998 33:-0.52359998 34:0.57539999 35:0.69199997 36:0.29660001 37:0.53640002 38:0.37760001 39:0.0114 40:-0.0146 41:-0.2286 42:-0.1086 43:-0.44580001 44:-0.14740001 45:-0.2674 46:-0.3646 47:-0.35820001 48:-0.3646 49:-0.1928 50:-0.3452 51:0.0568 52:0.0048000002 53:0.37439999 54:0.43279999 55:0.611 56:0.80879998 57:0.69520003 58:1 59:0.9806 60:0.73100001 61:0.83459997 62:0.64340001 63:0.7568 64:0.63700002 65:-0.56160003 66:0.65060002 67:0.79799998 68:0.41780001 69:0.6268 70:0.48280001 71:-0.044599999 72:-0.0206 73:-0.315 74:-0.1576 75:-0.48640001 76:-0.3082 77:-0.3664 78:-0.35960001 79:-0.29100001 80:-0.45899999 81:-0.2432 82:-0.36300001 83:0.1542 84:0.1576 85:0.2432 86:0.40419999 87:0.44859999 88:0.90420002 89:0.89380002 90:0.90420002 91:1 92:0.75 93:0.88020003 94:0.77060002 95:0.6164 96:0.64039999 97:-0.23 98:0.56440002 99:0.6196 100:0.49380001 101:0.58899999 102:0.1688 103:0.036800001 104:-0.1718 105:-0.0276 106:-0.1718 107:-0.1718 108:-0.24240001 109:-0.2976 110:-0.29440001 111:-0.31900001 112:-0.25459999 113:-0.178 114:-0.058200002 115:-0.043000001 116:0.043000001 117:0.20559999 118:0.37740001 119:0.6074 120:0.7148 121:0.9418 122:1 123:0.93260002 124:1 125:0.97240001 126:0.90499997 127:0.75160003 128:0.62580001 129:-0.039999999 130:0.59619999 131:0.50480002 132:0.85140002 133:0.71799999 134:0.1734 135:-0.0704 136:-0.1162 137:-0.2304 138:-0.2572 139:-0.49720001 140:-0.50480002 141:-0.48199999 142:-0.51999998 143:-0.4666 144:-0.35620001 145:-0.40580001 146:-0.54659998 147:-0.42860001 148:-0.19239999 149:0.051399998 150:0.1772 151:0.3448 152:0.63800001 153:0.82859999 154:0.958 155:0.958 156:1 157:0.99620003 158:0.91619998 159:0.85140002 160:0.85900003 161:0.020199999 162:0.417 163:0.9878 164:1 165:0.2956 166:-0.1822 167:-0.45739999 168:-0.67619997 169:-0.63559997 170:-0.7166 171:-0.91500002 172:-0.83399999 173:-0.85420001 174:-0.80980003 175:-0.838 176:-0.838 177:-0.7288 178:-0.76520002 179:-0.4454 180:-0.40900001 181:-0.2146 182:-0.089000002 183:0.1174 184:0.46160001 185:0.67199999 186:0.62760001 187:0.52219999 188:0.76920003 189:0.75300002 190:0.7166 191:0.5668 192:0.41299999 193:-0.0049999999 194:0.70859998 195:1 196:0.74379998 197:0.35679999 198:-0.1708 199:-0.74879998 200:-0.70359999 201:-0.72860003 202:-0.90960002 203:-0.82920003 204:-0.95480001 205:-0.84420002 206:-0.75379997 207:-0.81900001 208:-0.83920002 209:-0.78399998 210:-0.70359999 211:-0.56279999 212:-0.36680001 213:-0.25619999 214:-0.28639999 215:-0.0049999999 216:0.29640001 217:0.6232 218:0.75880003 219:0.62819999 220:0.71859998 221:0.71359998 222:0.69840002 223:0.67839998 224:0.44220001 225:-0.4666 226:0.1 227:0.69999999 228:0.76660001 229:0.40000001 230:-0.066600002 231:-0.033399999 232:-0.2334 233:-0.1666 234:-0.033399999 235:-0.13339999 236:-0.13339999 237:-0.033399999 238:0.1 239:0.1 240:0 241:0.1666 242:0.2 243:0.2334 244:0.36660001 245:0.43340001 246:0.5 247:0.66659999 248:0.83340001 249:0.80000001 250:0.76660001 251:1 252:1 253:0.89999998 254:0.93339998 255:0.93339998 256:0.93339998 257:-0.5686 258:0.4118 259:0.60780001 260:0.60780001 261:0.37259999 262:0.058800001 263:-0.60780001 264:-0.64700001 265:-0.255 266:-0.33340001 267:-0.52939999 268:-0.68620002 269:-0.4118 270:-0.45100001 271:-0.2156 272:-0.33340001 273:-0.255 274:-0.097999997 275:0.1372 276:0.33340001 277:0.37259999 278:0.5686 279:0.68620002 280:0.84320003 281:0.92159998 282:1 283:0.92159998 284:0.64700001 285:0.76480001 286:0.52939999 287:0.45100001 288:0.52939999 289:0.0244 290:0.56099999 291:0.75599998 292:0.95120001 293:0.65859997 294:0.1464 295:-0.1464 296:-0.21960001 297:-0.1952 298:-0.317 299:-0.80479997 300:-0.43900001 301:-0.41460001 302:-0.53659999 303:-0.58539999 304:-0.56099999 305:-0.73180002 306:-0.78039998 307:-0.75599998 308:-0.56099999 309:-0.1464 310:-0.073200002 311:0.26820001 312:0.53659999 313:0.63419998 314:0.85360003 315:0.87800002 316:1 317:0.95120001 318:0.9756 319:0.80479997 320:0.95120001 321:-1 322:-1 323:-1 324:-1 325:-1 326:-1 327:-1 328:-1 329:-0.9842 330:-0.97820002 331:-0.36500001 332:0.67119998 333:0.71399999 334:0.7888 335:0.97979999 336:0.8488 337:0.58520001 338:0.41960001 339:0.4946 340:0.44600001 341:-0.049800001 342:-0.33739999 343:-0.44819999 344:-0.50440001 345:-0.65939999 346:-0.82020003 347:-0.92439997 348:-0.93480003 349:-0.95499998 350:-1 351:-1 352:-1 353:-1 354:-1 355:-1 356:-1 357:-1 358:-1 359:-1 360:-1 361:-1 362:-0.97500002 363:-0.97060001 364:-0.37 365:0.89399999 366:0.69139999 367:0.8484 368:0.829 369:0.87959999 370:0.95819998 371:0.64840001 372:0.4596 373:0.23999999 374:-0.2482 375:-0.48800001 376:-0.54100001 377:-0.28439999 378:-0.72500002 379:-0.81940001 380:-0.89539999 381:-0.89120001 382:-0.90700001 383:-1 384:-1 385:-1 386:-1 387:-1 388:-1 389:-1 390:-1 391:-1 392:-1 393:-1 394:-1 395:-0.88139999 396:-0.89480001 397:-0.70480001 398:-0.5844 399:-0.74720001 400:-0.75139999 401:-0.89399999 402:-0.72140002 403:-0.69400001 404:-0.64840001 405:-0.75760001 406:-0.8976 407:-0.91500002 408:-0.97500002 409:-0.97680002 410:-0.71340001 411:-0.86680001 412:-0.58679998 413:-0.34 414:-0.30340001 415:-0.39680001 416:-1 417:-1 418:-1 419:-1 420:-1 421:-1 422:-1 423:-1 424:-1 425:-1 426:-1 427:-1 428:-0.91420001 429:1 430:1 431:1 432:-0.4858 433:-0.7428 434:-0.65719998 435:-0.60000002 436:-0.65719998 437:-0.6286 438:-0.2572 439:-0.42860001 440:-0.54280001 441:-0.85720003 442:-0.65719998 443:-0.0286 444:0.0286 445:-0.54280001 446:-0.3714 447:-0.6286 448:-0.28580001 449:-1 450:-1 451:-1 452:-1 453:0.28960001 454:0.3046 455:0.3238 456:0.3432 457:0.3608 458:0.38519999 459:0.41280001 460:0.43439999 461:0.44 462:0.1532 463:1 464:1 465:1 466:1 467:1 468:1 469:1 470:1 471:1 472:1 473:-0.88 474:-0.1058 475:-0.23100001 476:0.66240001 477:0.93159997 478:0.84200001 479:0.7044 480:1 481:-0.45100001 482:0.097999997 483:0.1372 484:0.0196 485:-0.2942 486:-0.255 487:-0.058800001 488:0.1372 489:0.17640001 490:0.255 491:0.45100001 492:0.60780001 493:0.84320003 494:0.96079999 495:1 496:1 497:0.96079999 498:0.96079999 499:0.72539997 500:0.255 501:0.0196 502:0.2156 503:0.5686 504:0.60780001 505:0.49020001 506:0.1372 507:-0.097999997 508:-0.097999997 509:0.1372 510:0.097999997 511:0.0196 512:-0.45100001 513:-0.3398 514:0.67000002 515:0.65039998 516:-0.2234 517:-0.398 518:-0.51459998 519:-0.12620001 520:-0.20379999 521:-0.301 522:-0.0098000001 523:0.2622 524:0.65039998 525:0.84460002 526:0.88340002 527:0.9224 528:0.80580002 529:0.80580002 530:1 531:0.63099998 532:0.3204 533:-0.068000004 534:0.3786 535:0.61159998 536:0.65039998 537:0.2816 538:0.068000004 539:-0.2622 540:-0.3398 541:0.2234 542:0.2428 543:0.12620001 544:-0.16500001 545:-0.44139999 546:1 547:0.89179999 548:0.0089999996 549:-0.1172 550:-0.1532 551:-0.27919999 552:-0.1892 553:-0.1892 554:0.1172 555:0.13519999 556:0.58560002 557:0.85579997 558:0.81980002 559:0.65759999 560:0.60360003 561:0.62159997 562:0.85579997 563:0.67559999 564:0.1892 565:-0.027000001 566:0.17120001 567:0.3154 568:0.29719999 569:0.0089999996 570:-0.2432 571:-0.1172 572:-0.045000002 573:-0.081 574:-0.045000002 575:-0.1172 576:-0.2252 577:0.72979999 578:-1 579:-1 580:1 581:-0.80000001 582:-1 583:0.60000002 584:-0.83340001 585:1 586:-0.80199999 587:-0.56440002 588:-0.0298 589:0.2476 590:-0.3466 591:-0.2476 592:-0.1486 593:-0.049600001 594:0.46540001 595:0.505 596:0.3664 597:0.4456 598:0.54460001 599:0.208 600:0.1486 601:0.049600001 602:0.74260002 603:0.1486 604:0.1486 605:0.58420002 606:1 607:0.96039999 608:0.4258 609:0.505 610:-0.2278 611:-0.3664 612:-0.4456 613:-0.1288 614:0.089199997 615:0.40599999 616:-0.1486 617:-0.58420002 #
2.2285419757546032215600462222937 1:-0.792 2:0.1176 3:0.20999999 4:-0.33719999 5:-0.43360001 6:-0.3294 7:-0.26019999 8:-0.48359999 9:-0.449 10:-0.74180001 11:-0.77640003 12:-0.81879997 13:-0.62620002 14:-0.74959999 15:-0.58759999 16:-0.7148 17:-0.60299999 18:-0.56840003 19:-0.51440001 20:-0.44119999 21:-0.040399998 22:-0.0020000001 23:0.34099999 24:0.54519999 25:0.66479999 26:0.74559999 27:0.61080003 28:0.83420002 29:0.69940001 30:1 31:0.9152 32:0.51840001 33:-0.73379999 34:0.1244 35:0.1488 36:-0.050799999 37:-0.0228 38:-0.0858 39:-0.040199999 40:-0.1418 41:-0.075400002 42:-0.67079997 43:-0.68480003 44:-0.52020001 45:-0.43599999 46:-0.6742 47:-0.72320002 48:-0.73019999 49:-0.54119998 50:-0.68120003 51:-0.52020001 52:-0.53420001 53:-0.1734 54:-0.0438 55:0.48519999 56:0.46059999 57:0.81440002 58:0.68480003 59:0.90539998 60:0.88440001 61:0.99299997 62:1 63:0.97539997 64:0.9684 65:-0.6322 66:0.1558 67:0.1182 68:0.39219999 69:0.29460001 70:0.095600002 71:-0.028200001 72:-0.028200001 73:-0.1858 74:-0.3734 75:-0.47839999 76:-0.37720001 77:-0.4822 78:-0.60219997 79:-0.64719999 80:-0.60600001 81:-0.5984 82:-0.53100002 83:-0.46340001 84:-0.2834 85:-0.24959999 86:-0.084399998 87:0.23819999 88:0.66600001 89:0.7974 90:0.71859998 91:0.53839999 92:0.76359999 93:0.94 94:1 95:0.88739997 96:0.51599997 97:-0.50959998 98:0.112 99:0.5406 100:0.75279999 101:0.29339999 102:-0.092600003 103:-0.0232 104:-0.17380001 105:-0.29719999 106:-0.4826 107:-0.72579998 108:-0.55599999 109:-0.5212 110:-0.59079999 111:-0.79159999 112:-0.58679998 113:-0.55980003 114:-0.28580001 115:-0.197 116:-0.077200003 117:0.0154 118:0.2124 119:0.5406 120:0.83399999 121:0.9806 122:1 123:0.74900001 124:0.67559999 125:0.81459999 126:0.94599998 127:0.74519998 128:0.57920003 129:-0.65740001 130:-0.1234 131:0.6796 132:0.67220002 133:-0.41060001 134:-0.071800001 135:-0.082800001 136:-0.2044 137:-0.42899999 138:-0.60219997 139:-0.73119998 140:-0.73839998 141:-0.64639997 142:-0.58380002 143:-0.57279998 144:-0.66119999 145:-0.6354 146:-0.60579997 147:-0.4034 148:-0.2008 149:-0.086599998 150:-0.1418 151:0.164 152:0.61320001 153:0.85259998 154:0.81580001 155:0.477 156:0.86379999 157:1 158:0.7974 159:0.84539998 160:0.82679999 161:-0.68599999 162:0.024800001 163:0.68599999 164:0.55779999 165:-0.45860001 166:-0.1488 167:-0.40900001 168:-0.75620002 169:-0.7148 170:-0.74379998 171:-0.6652 172:-0.70660001 173:-0.54540002 174:-0.62800002 175:-0.56199998 176:-0.59920001 177:-0.76859999 178:-0.61979997 179:-0.4752 180:-0.4752 181:-0.38420001 182:-0.3224 183:0.086800002 184:0.5 185:0.69419998 186:0.84299999 187:0.75620002 188:0.82639998 189:1 190:0.85119998 191:0.94220001 192:0.80580002 193:-0.39660001 194:-0.1192 195:-0.026799999 196:-0.2068 197:-0.66900003 198:-0.41119999 199:-0.53780001 200:-0.64960003 201:-0.92220002 202:-0.64480001 203:-0.66420001 204:-0.4014 205:-0.4064 206:-0.35280001 207:-0.070600003 208:-0.2554 209:-0.63499999 210:-0.46959999 211:-0.49880001 212:-0.48899999 213:-0.163 214:-0.12899999 215:0.14839999 216:0.47440001 217:0.86379999 218:0.73720002 219:0.75660002 220:1 221:0.96100003 222:0.90259999 223:0.99519998 224:0.69340003 225:0.132 226:0.54720002 227:0.66039997 228:0.43399999 229:0.056600001 230:0.094400004 231:-0.0188 232:-0.1698 233:-0.094400004 234:-0.132 235:0.1698 236:0.28299999 237:0.3962 238:0.2076 239:0.32080001 240:0.2076 241:0.0188 242:0.094400004 243:0.1698 244:0.24519999 245:0.35839999 246:0.35839999 247:0.54720002 248:0.66039997 249:0.77359998 250:0.66039997 251:0.84899998 252:0.92460001 253:0.84899998 254:1 255:0.96219999 256:0.8114 257:-0.60000002 258:0.30000001 259:0.34999999 260:-0.30000001 261:-0.25 262:-0.30000001 263:-0.050000001 264:-0.44999999 265:-0.34999999 266:-0.55000001 267:-0.64999998 268:-0.60000002 269:-0.5 270:-0.55000001 271:-0.64999998 272:-0.89999998 273:-0.40000001 274:-0.25 275:-0.2 276:0.1 277:-0.050000001 278:-0.050000001 279:0.75 280:0.85000002 281:0.55000001 282:0.60000002 283:0.75 284:1 285:0.94999999 286:0.69999999 287:0.64999998 288:0.60000002 289:-0.2642 290:0.2076 291:0.69819999 292:0.64160001 293:0 294:0.2264 295:0.15099999 296:-0.0188 297:-0.37740001 298:-0.3396 299:-0.2642 300:-0.24519999 301:-0.32080001 302:-0.3396 303:-0.43399999 304:-0.28299999 305:-0.2642 306:-0.30180001 307:0 308:0.0188 309:0.15099999 310:0 311:0.1132 312:0.45280001 313:0.86799997 314:0.88679999 315:0.64160001 316:1 317:0.98119998 318:0.50940001 319:1 320:0.96219999 321:-1 322:-1 323:-1 324:-0.92439997 325:-0.89719999 326:-0.70279998 327:-0.51359999 328:0.35139999 329:-0.17299999 330:0.74059999 331:-0.3946 332:0.43239999 333:0.1892 334:0.146 335:0.12980001 336:0.51359999 337:0.67019999 338:0.81620002 339:0.773 340:0.546 341:-0.12980001 342:-0.56220001 343:-0.57840002 344:-0.67559999 345:-0.86479998 346:-0.88099998 347:-1 348:-1 349:-1 350:-1 351:-1 352:-1 353:-1 354:-1 355:-1 356:-1 357:-0.92519999 358:-0.92320001 359:0.107 360:0.64480001 361:0.84640002 362:0.2462 363:0.1796 364:-0.46619999 365:0.25639999 366:0.6178 367:0.83380002 368:0.90039998 369:0.60339999 370:0.3644 371:0.45379999 372:0.42879999 373:0.1464 374:-0.3748 375:-0.68440002 376:-0.73199999 377:-0.7902 378:-0.85460001 379:-0.88160002 380:-1 381:-1 382:-1 383:-1 384:-1 385:-1 386:-1 387:-1 388:-1 389:-1 390:-0.95999998 391:-0.96679997 392:-0.2168 393:0.74000001 394:0.54000002 395:0.63 396:-0.31999999 397:0.13 398:-0.095600002 399:0.2022 400:0.2622 401:0.14659999 402:-0.1578 403:-0.189 404:-0.1646 405:-0.1956 406:-0.37400001 407:-0.34400001 408:-0.30000001 409:-0.71340001 410:-0.52679998 411:-0.68000001 412:-0.89340001 413:-1 414:-1 415:-1 416:-1 417:-1 418:-1 419:-1 420:-1 421:-1 422:-1 423:-0.82859999 424:1 425:1 426:1 427:-0.8858 428:-0.54280001 429:0.6286 430:0.6286 431:0.68580002 432:-0.6286 433:-0.71420002 434:-0.80000001 435:-0.94279999 436:-0.94279999 437:-0.82859999 438:-0.71420002 439:-0.51419997 440:-0.42860001 441:-0.65719998 442:-0.65719998 443:-0.77139997 444:-0.71420002 445:-0.82859999 446:-1 447:-1 448:-1 449:-1 450:-1 451:-1 452:-1 453:0.1672 454:0.2132 455:0.24959999 456:0.27939999 457:0.33759999 458:0.38100001 459:0.43200001 460:0.51480001 461:0.55379999 462:0.40020001 463:0.85579997 464:0.917 465:0.91839999 466:0.99339998 467:1 468:1 469:1 470:1 471:1 472:0.995 473:-0.80000001 474:0.082400002 475:-0.51599997 476:-0.49540001 477:0.37079999 478:0.5036 479:0.49939999 480:1 481:-0.51279998 482:-0.52960002 483:-0.48719999 484:-0.41940001 485:-0.26699999 486:-0.178 487:-0.0678 488:-0.084799998 489:-0.033799998 490:0.0678 491:0.44499999 492:0.6652 493:0.55940002 494:0.3644 495:0.44499999 496:0.45339999 497:0.3432 498:0.58899999 499:0.78380001 500:0.90679997 501:0.98299998 502:0.97039998 503:0.87279999 504:1 505:0.94499999 506:0.85159999 507:0.90259999 508:0.68220001 509:0.69919997 510:0.57200003 511:0.4492 512:0.23720001 513:-0.28099999 514:-0.48899999 515:-0.27379999 516:-0.28839999 517:-0.16779999 518:-0.1022 519:-0.2008 520:-0.16060001 521:-0.1424 522:0.1022 523:0.1716 524:0.80299997 525:0.66780001 526:0.219 527:0.56199998 528:0.58399999 529:0.33579999 530:0.354 531:0.64240003 532:0.7044 533:0.708 534:0.80659997 535:1 536:0.88319999 537:0.84680003 538:0.73360002 539:0.83219999 540:0.60939997 541:0.5948 542:0.72619998 543:0.4928 544:0.0548 545:0.055 546:-0.0726 547:-0.1428 548:-0.222 549:-0.033 550:-0.1032 551:0.0682 552:0.134 553:-0.0066 554:0.0154 555:0.2396 556:0.56040001 557:0.80220002 558:0.74059999 559:0.82859999 560:0.84619999 561:0.82419997 562:0.71859998 563:0.92519999 564:1 565:0.89459997 566:0.9648 567:0.9824 568:0.97799999 569:0.9472 570:0.87699997 571:0.7802 572:0.70099998 573:0.73180002 574:0.67919999 575:0.82859999 576:0.1912 577:1 578:-1 579:-1 580:1 581:-1 582:-1 583:-1 584:0.1666 585:-1 586:0.058800001 587:0.4118 588:0.0392 589:0.078400001 590:0.19599999 591:0.2156 592:0.1568 593:0.49020001 594:0.2156 595:-0.1568 596:0.058800001 597:0.78439999 598:0.76480001 599:1 600:0.88239998 601:0.80400002 602:0.49020001 603:0.80400002 604:0.8628 605:0.82359999 606:0.60780001 607:0.66659999 608:0.54900002 609:0.45100001 610:0.7058 611:0.33340001 612:0.49020001 613:0.45100001 614:0.54900002 615:0.52939999 616:0.0392 617:-0.097999997 #
-2.2285419757546032215600462222937 1:-0.32260001 2:0.39219999 3:0.93040001 4:0.80980003 5:-0.0766 6:-0.025599999 7:-0.2112 8:-0.2714 9:-0.43380001 10:-0.48019999 11:-0.43380001 12:-0.3874 13:-0.2994 14:-0.16940001 15:-0.109 16:0.0208 17:0.1786 18:0.34099999 19:0.70300001 20:0.90259999 21:1 22:0.95359999 23:0.94440001 24:0.99540001 25:0.95359999 26:0.93959999 27:0.85159999 28:0.73540002 29:0.64740002 30:0.84219998 31:0.91640002 32:0.82359999 33:-0.2296 34:0.24439999 35:1 36:0.97539997 37:-0.2396 38:-0.35299999 39:-0.37779999 40:-0.48140001 41:-0.55559999 42:-0.56040001 43:-0.56040001 44:-0.45680001 45:-0.43200001 46:-0.368 47:-0.1506 48:-0.1062 49:-0.0074 50:0.25440001 51:0.3136 52:0.72839999 53:0.81720001 54:0.89139998 55:0.98519999 56:0.81720001 57:0.7482 58:0.96539998 59:0.84200001 60:0.5456 61:0.40740001 62:0.48640001 63:0.65920001 64:0.54079998 65:-0.2022 66:0.18619999 67:1 68:0.93080002 69:-0.21799999 70:-0.30320001 71:-0.39359999 72:-0.57440001 73:-0.62760001 74:-0.70740002 75:-0.59579998 76:-0.5266 77:-0.4788 78:-0.38299999 79:-0.17560001 80:-0.17020001 81:-0.0638 82:0.17560001 83:0.5478 84:0.63819999 85:0.81919998 86:0.7766 87:0.86699998 88:0.87760001 89:0.83520001 90:0.84579998 91:0.78200001 92:0.60640001 93:0.4788 94:0.62239999 95:0.68080002 96:0.64359999 97:-0.2474 98:0.43020001 99:0.9892 100:0.83880001 101:-0.26879999 102:-0.26879999 103:-0.57520002 104:-0.64520001 105:-0.68279999 106:-0.71499997 107:-0.66659999 108:-0.57520002 109:-0.60759997 110:-0.3978 111:-0.36019999 112:-0.156 113:-0.069799997 114:0.215 115:0.3978 116:0.7044 117:0.93540001 118:0.89780003 119:0.86019999 120:0.84939998 121:0.93540001 122:1 123:0.79040003 124:0.66119999 125:0.63980001 126:0.62360001 127:0.78500003 128:0.82800001 129:-0.40560001 130:0.47600001 131:0.7482 132:0.40560001 133:-0.31979999 134:-0.31979999 135:-0.51639998 136:-0.8186 137:-0.70779997 138:-0.79339999 139:-0.6372 140:-0.53140002 141:-0.51639998 142:-0.47600001 143:-0.199 144:-0.098200001 145:-0.022600001 146:0.22920001 147:0.4508 148:0.79339999 149:1 150:0.90939999 151:0.76319999 152:0.8186 153:0.98479998 154:0.89420003 155:0.83380002 156:0.66759998 157:0.66240001 158:0.65240002 159:0.7784 160:0.88919997 161:-0.62300003 162:0.39860001 163:0.50840002 164:0.1122 165:-0.4368 166:-0.45100001 167:-0.57999998 168:-0.71359998 169:-0.7184 170:-0.81379998 171:-0.704 172:-0.57520002 173:-0.55599999 174:-0.46540001 175:-0.2124 176:-0.1646 177:0.0071999999 178:0.198 179:0.51779997 180:0.76139998 181:1 182:0.8854 183:0.8186 184:0.87580001 185:0.9666 186:0.99040002 187:0.84719998 188:0.7518 189:0.68980002 190:0.74699998 191:0.8854 192:0.88059998 193:-0.1778 194:0.45359999 195:0.66579998 196:0.33680001 197:-0.36880001 198:-0.53320003 199:-0.63919997 200:-0.71359998 201:-0.68699998 202:-0.74000001 203:-0.72420001 204:-0.46419999 205:-0.5438 206:-0.51200002 207:-0.29980001 208:-0.33160001 209:-0.31560001 210:0.023800001 211:0.2202 212:0.72420001 213:1 214:0.88859999 215:0.77719998 216:0.77179998 217:0.74540001 218:0.72939998 219:0.6286 220:0.58099997 221:0.49599999 222:0.45879999 223:0.63919997 224:0.74000001 225:-0.1698 226:0.32080001 227:0.73580003 228:0.62260002 229:-0.056600001 230:0.0188 231:-0.094400004 232:-0.28299999 233:-0.35839999 234:-0.28299999 235:-0.2076 236:-0.2076 237:-0.094400004 238:-0.056600001 239:0.056600001 240:0.094400004 241:0.28299999 242:0.3962 243:0.73580003 244:0.84899998 245:1 246:0.84899998 247:0.77359998 248:0.96219999 249:0.88679999 250:0.77359998 251:0.8114 252:0.69819999 253:0.73580003 254:0.66039997 255:0.88679999 256:0.8114 257:-0.47620001 258:0.42860001 259:0.76200002 260:0.66659999 261:0 262:-0.047600001 263:-0.1428 264:-0.1904 265:-0.33340001 266:-0.38100001 267:-0.33340001 268:-0.23800001 269:-0.1904 270:-0.047600001 271:0.047600001 272:0.1428 273:0.28580001 274:0.47620001 275:0.76200002 276:1 277:0.95240003 278:0.95240003 279:0.9048 280:1 281:0.95240003 282:0.85720003 283:0.71420002 284:0.76200002 285:0.76200002 286:0.85720003 287:0.9048 288:0.85720003 289:-0.359 290:0.48719999 291:0.71799999 292:0.33340001 293:-0.25639999 294:-0.359 295:-0.43579999 296:-0.82059997 297:-0.53839999 298:-0.76920003 299:-0.4102 300:-0.359 301:-0.25639999 302:-0.46160001 303:0 304:0 305:0.12819999 306:0.25639999 307:0.48719999 308:0.84619999 309:1 310:0.92299998 311:0.76920003 312:0.94880003 313:0.94880003 314:0.97439998 315:0.82059997 316:0.61540002 317:0.76920003 318:0.64099997 319:0.82059997 320:0.92299998 321:-1 322:-1 323:-1 324:-0.96420002 325:-0.96539998 326:-0.98439997 327:-0.97939998 328:-0.87019998 329:-0.75440001 330:-0.1336 331:0.1286 332:0.68599999 333:0.97939998 334:0.85540003 335:0.5654 336:0.44119999 337:0.38319999 338:0.21879999 339:0.035 340:-0.26499999 341:-0.54799998 342:-0.57139999 343:-0.74699998 344:-0.84600002 345:-0.95099998 346:-0.97939998 347:-1 348:-1 349:-1 350:-1 351:-1 352:-1 353:-1 354:-1 355:-1 356:-1 357:-0.94840002 358:-0.96399999 359:-0.98280001 360:-0.9752 361:-0.847 362:-0.79879999 363:1 364:1 365:0.64160001 366:0.29640001 367:0.23800001 368:0.088799998 369:0.070600003 370:0.0244 371:-0.032000002 372:0.030999999 373:0.048599999 374:-0.61559999 375:-0.72420001 376:-0.8344 377:-0.86760002 378:-0.89819998 379:-0.91399997 380:-1 381:-1 382:-1 383:-1 384:-1 385:-1 386:-1 387:-1 388:-1 389:-1 390:-0.8168 391:-0.79680002 392:-0.83999997 393:-0.77340001 394:-0.71679997 395:-0.80339998 396:-0.56339997 397:-0.45339999 398:-0.87720001 399:-0.89160001 400:-0.97719997 401:-0.9544 402:-0.86000001 403:-0.86580002 404:-0.82300001 405:-0.81440002 406:-0.71160001 407:-0.83160001 408:-0.76859999 409:-0.69999999 410:-0.39680001 411:0.11 412:0.0031999999 413:-1 414:-1 415:-1 416:-1 417:-1 418:-1 419:-1 420:-1 421:-1 422:-1 423:-0.42860001 424:-0.3714 425:-0.54280001 426:-0.1142 427:1 428:1 429:1 430:0.1714 431:-0.7428 432:-0.7428 433:-1 434:-1 435:-1 436:-1 437:-1 438:-1 439:1 440:1 441:-0.7428 442:-0.7428 443:-0.2286 444:-0.45719999 445:-0.40000001 446:-1 447:-1 448:-1 449:-1 450:-1 451:-1 452:-1 453:0.26539999 454:0.2692 455:0.25080001 456:0.2122 457:0.19679999 458:0.1322 459:0.07 460:-0.0020000001 461:-0.069799997 462:-0.23639999 463:0.85339999 464:0.88099998 465:0.90920001 466:0.93379998 467:0.93940002 468:0.93839997 469:0.95899999 470:0.95920002 471:0.9522 472:0.92479998 473:-0.44 474:-0.21179999 475:1 476:0.87599999 477:0.62040001 478:0.48519999 479:0.26199999 480:1 481:0.0128 482:0.4808 483:0.1744 484:-0.183 485:-0.31060001 486:-0.26800001 487:-0.132 488:-0.0298 489:0.26800001 490:0.77880001 491:0.92339998 492:0.81279999 493:0.78719997 494:0.7446 495:0.76179999 496:1 497:0.949 498:0.89780003 499:0.88080001 500:0.65100002 501:0.3276 502:-0.0128 503:-0.021199999 504:0.149 505:0.25099999 506:0.25960001 507:0.1574 508:-0.0298 509:-0.080799997 510:-0.0041999999 511:0.0298 512:-0.234 513:0.021 514:0.53839999 515:0.2448 516:0.056000002 517:-0.035 518:0.021 519:0.1328 520:0.2728 521:0.4966 522:0.87419999 523:0.96499997 524:0.87419999 525:0.91600001 526:0.76920003 527:0.76920003 528:1 529:0.99299997 530:0.88120002 531:0.85320002 532:0.72719997 533:0.43360001 534:0.18880001 535:0.19580001 536:0.2728 537:0.31459999 538:0.32859999 539:0.2238 540:0.1398 541:0.028000001 542:0.097999997 543:0.07 544:-0.16779999 545:0.053599998 546:0.6214 547:0.205 548:0.1294 549:-0.0726 550:-0.053599998 551:0.091399997 552:0.2176 553:0.40700001 554:0.81699997 555:0.93699998 556:0.9874 557:1 558:0.82340002 559:0.79820001 560:0.93059999 561:0.9242 562:0.90539998 563:0.72240001 564:0.64660001 565:0.4258 566:0.26179999 567:0.059999999 568:0.2114 569:0.23019999 570:0.26179999 571:0.091399997 572:0.022 573:-0.0348 574:0.0093999999 575:0.022 576:-0.23019999 577:1 578:-1 579:-1 580:1 581:-0.40000001 582:-1 583:-0.80000001 584:-0.56660002 585:-1 586:-0.5036 587:-0.28459999 588:0.124 589:0.1094 590:-0.1532 591:-0.2262 592:-0.16779999 593:0.1532 594:0.2554 595:0.48899999 596:0.59119999 597:0.89780003 598:0.92699999 599:0.88319999 600:1 601:0.76639998 602:0.89780003 603:0.86860001 604:0.88319999 605:0.86860001 606:0.56199998 607:0.47440001 608:0.28459999 609:0.56199998 610:0.43059999 611:0.4598 612:0.48899999 613:0.47440001 614:0.43059999 615:0.28459999 616:-0.094800003 617:-0.5036 #
-2.2285419757546032215600462222937 1:-0.5794 2:0.1406 3:0.1892 4:0.48559999 5:0.53100002 6:0.1376 7:0.22239999 8:-0.056000002 9:0.074199997 10:-0.171 11:-0.025800001 12:-0.1468 13:0.0348 14:-0.056000002 15:0.1074 16:0.052999999 17:0.2254 18:0.2436 19:0.36759999 20:0.45539999 21:0.8276 22:0.9788 23:0.86080003 24:0.92140001 25:0.764 26:0.73079997 27:0.72759998 28:0.9576 29:1 30:0.64300001 31:0.63080001 32:0.44620001 33:-0.5104 34:0.171 35:0.2194 36:0.2994 37:0.36719999 38:0.047200002 39:0.1006 40:-0.086000003 41:0.1078 42:-0.0134 43:-0.0060000001 44:-0.0594 45:0.1078 46:0.1128 47:0.086000003 48:0.1442 49:0.20479999 50:0.32120001 51:0.27759999 52:0.48359999 53:0.62419999 54:1 55:0.94660002 56:0.71399999 57:0.73100001 58:0.74299997 59:0.81339997 60:0.77700001 61:0.89099997 62:0.70179999 63:0.65820003 64:0.55400002 65:-0.41299999 66:0.2412 67:0.2762 68:0.38299999 69:0.43779999 70:0.086999997 71:0.1692 72:-0.02 73:0.102 74:-0.1268 75:0.0049999999 76:-0.1344 77:0.1318 78:0.0374 79:0.1542 80:0.107 81:0.31600001 82:0.30840001 83:0.3682 84:0.4154 85:0.79360002 86:0.88059998 87:0.85320002 88:0.98500001 89:0.76859999 90:0.87819999 91:0.74379998 92:1 93:0.93279999 94:0.73640001 95:0.699 96:0.65179998 97:-0.34540001 98:0.2142 99:0.2166 100:0.34060001 101:0.34060001 102:0.0682 103:0.072999999 104:-0.0218 105:0 106:-0.14120001 107:-0.107 108:-0.0682 109:-0.017000001 110:0.0024000001 111:0.075400002 112:0.1314 113:0.2142 114:0.185 115:0.27739999 116:0.53280002 117:0.66420001 118:0.815 119:1 120:0.85399997 121:0.70560002 122:0.58160001 123:0.71280003 124:0.76639998 125:0.91479999 126:0.81999999 127:0.55479997 128:0.51340002 129:-0.18440001 130:0.33000001 131:0.31740001 132:0.41280001 133:0.3626 134:0.091600001 135:0.023800001 136:0.0414 137:-0.031399999 138:-0.059 139:-0.1468 140:-0.089000002 141:-0.182 142:0.079000004 143:-0.0164 144:0.177 145:0.1066 146:0.2924 147:0.2974 148:0.53079998 149:0.6814 150:0.94480002 151:0.91960001 152:0.89960003 153:0.75660002 154:0.8118 155:0.84200001 156:1 157:0.93720001 158:0.76660001 159:0.73140001 160:0.75660002 161:-0.21520001 162:0.3008 163:0.2306 164:0.377 165:0.2122 166:-0.1176 167:-0.31900001 168:-0.26100001 169:-0.23360001 170:-0.2274 171:-0.37400001 172:-0.42899999 173:-0.23360001 174:-0.27320001 175:-0.1908 176:-0.062600002 177:0.016799999 178:0.1114 179:0.26100001 180:0.43200001 181:0.72219998 182:0.93279999 183:1 184:0.9084 185:0.6886 186:0.8168 187:0.93279999 188:0.9084 189:0.94499999 190:0.85339999 191:0.77700001 192:0.78619999 193:-0.15880001 194:0.3238 195:0.3856 196:0.49700001 197:-0.059799999 198:-0.3238 199:-0.40200001 200:-0.52579999 201:-0.62059999 202:-0.68660003 203:-0.82260001 204:-0.6124 205:-0.57520002 206:-0.47220001 207:-0.54220003 208:-0.60820001 209:-0.38139999 210:-0.19580001 211:0.2536 212:0.38139999 213:0.7238 214:0.82679999 215:0.87620002 216:0.7938 217:0.736 218:0.88459998 219:1 220:0.95459998 221:0.76899999 222:0.5546 223:0.53399998 224:0.64120001 225:-0.50880003 226:0.0526 227:0.0176 228:0.50880003 229:0.50880003 230:0.228 231:0.228 232:0.0526 233:0.0526 234:-0.087800004 235:-0.1228 236:-0.087800004 237:-0.0526 238:-0.0176 239:0.0526 240:0.0526 241:0.087800004 242:0.228 243:0.228 244:0.4736 245:0.61400002 246:0.85960001 247:1 248:0.85960001 249:0.64920002 250:0.40360001 251:0.40360001 252:0.71920002 253:0.92979997 254:0.78939998 255:0.68419999 256:0.5438 257:-0.64920002 258:0.087800004 259:0.1228 260:0.40360001 261:0.4736 262:0.1228 263:0.193 264:-0.1228 265:0.0526 266:-0.26320001 267:0.0176 268:-0.1228 269:-0.0526 270:-0.193 271:0.1228 272:0.0526 273:0.26320001 274:0.29820001 275:0.33340001 276:0.40360001 277:0.89480001 278:1 279:0.85960001 280:0.92979997 281:0.71920002 282:0.71920002 283:0.64920002 284:1 285:0.89480001 286:0.64920002 287:0.5438 288:0.4386 289:-0.37979999 290:0.2404 291:0.2714 292:0.3644 293:0.42640001 294:0.1162 295:0.1472 296:-0.0077999998 297:0.1008 298:-0.0232 299:0.0232 300:-0.085199997 301:0.1318 302:0.069799997 303:0.1628 304:0.1318 305:0.31779999 306:0.31779999 307:0.33340001 308:0.39539999 309:0.75199997 310:0.87599999 311:0.70539999 312:0.9224 313:0.79839998 314:0.87599999 315:0.79839998 316:1 317:0.98439997 318:0.69 319:0.67439997 320:0.6124 321:-1 322:-1 323:-1 324:-1 325:-1 326:-1 327:-1 328:-1 329:-0.98100001 330:-0.98100001 331:-0.30680001 332:0.36739999 333:0.68419999 334:0.76859999 335:0.88599998 336:0.98580003 337:0.93480003 338:0.89200002 339:0.78039998 340:0.57859999 341:0.53240001 342:0.117 343:-0.72820002 344:-0.92640001 345:-0.95840001 346:-0.9716 347:-0.97979999 348:-1 349:-1 350:-1 351:-1 352:-1 353:-1 354:-1 355:-1 356:-1 357:-1 358:-1 359:-1 360:-1 361:-1 362:-0.9896 363:-0.99059999 364:-0.66219997 365:-0.096199997 366:0.36199999 367:0.78539997 368:0.76459998 369:0.92640001 370:0.8858 371:0.68599999 372:0.36019999 373:0.038800001 374:-0.2246 375:-0.58939999 376:-0.88319999 377:-0.91540003 378:-0.96100003 379:-0.98519999 380:-0.99040002 381:-1 382:-1 383:-1 384:-1 385:-1 386:-1 387:-1 388:-1 389:-1 390:-1 391:-1 392:-1 393:-1 394:-1 395:-0.98000002 396:-0.95340002 397:-0.50999999 398:-0.050000001 399:-0.0126 400:0.092399999 401:0.067400001 402:0.067400001 403:0.14 404:0.1174 405:0.092399999 406:-0.0526 407:-0.2 408:-0.57120001 409:-0.49000001 410:-0.1468 411:-0.54000002 412:-0.72000003 413:-0.98000002 414:-1 415:-1 416:-1 417:-1 418:-1 419:-1 420:-1 421:-1 422:-1 423:-1 424:-1 425:-1 426:-1 427:-1 428:-1 429:1 430:1 431:1 432:-0.45719999 433:-0.71420002 434:-0.68580002 435:-0.77139997 436:-0.71420002 437:-0.71420002 438:-0.77139997 439:-0.57139999 440:0.82859999 441:1 442:0.65719998 443:0.97140002 444:0.97140002 445:0.51419997 446:-0.6286 447:-1 448:-1 449:-1 450:-1 451:-1 452:-1 453:0.85839999 454:0.8574 455:0.85159999 456:0.84780002 457:0.83939999 458:0.82959998 459:0.82080001 460:0.80180001 461:0.75480002 462:0.51120001 463:0.9526 464:0.93940002 465:0.91060001 466:0.926 467:0.93800002 468:0.92000002 469:0.90539998 470:0.9138 471:0.96439999 472:1 473:-0.82660002 474:-0.058800001 475:-0.56760001 476:-0.3536 477:-0.17560001 478:0.14659999 479:0.2234 480:1 481:-0.26820001 482:0.41460001 483:0.41460001 484:0.073200002 485:-0.1708 486:-0.21960001 487:-0.122 488:-0.122 489:0.26820001 490:0.317 491:0.80479997 492:1 493:1 494:0.75599998 495:0.90240002 496:0.90240002 497:0.65859997 498:0.75599998 499:0.80479997 500:0.5122 501:0.41460001 502:0.41460001 503:0.073200002 504:0.0244 505:-0.0244 506:0.41460001 507:0.5122 508:0.46340001 509:0.46340001 510:0.26820001 511:0.1708 512:-0.317 513:-0.0414 514:0.405 515:0.53719997 516:0.19 517:0.0082 518:-0.057799999 519:-0.024800001 520:0.0744 521:0.2396 522:0.3224 523:0.68599999 524:1 525:0.80159998 526:0.53719997 527:0.76859999 528:0.65280002 529:0.53719997 530:0.50419998 531:0.47099999 532:0.2728 533:0.42140001 534:0.3554 535:0.25619999 536:0.1736 537:0.124 538:0.37200001 539:0.55379999 540:0.60339999 541:0.61979997 542:0.43799999 543:0.28920001 544:-0.1074 545:-0.1532 546:0.4774 547:0.56760001 548:0.2252 549:0.045000002 550:-0.17120001 551:-0.081 552:0.045000002 553:0.1532 554:0.2432 555:0.74779999 556:1 557:0.7658 558:0.51359999 559:0.85579997 560:0.72979999 561:0.5316 562:0.62159997 563:0.62159997 564:0.4774 565:0.33340001 566:0.42340001 567:0.4774 568:0.2252 569:-0.13519999 570:-0.0089999996 571:0.2432 572:0.4594 573:0.4594 574:0.3874 575:0.1892 576:-0.2252 577:-0.2114 578:-1 579:-1 580:1 581:-0.80000001 582:-1 583:-0.80000001 584:-0.83340001 585:-1 586:-0.2 587:-0.13339999 588:-0.050000001 589:0.1 590:0.066600002 591:-0.36660001 592:-0.2834 593:-0.050000001 594:0.30000001 595:0.5 596:0.58340001 597:0.41659999 598:0.4666 599:0.36660001 600:0.44999999 601:0.55000001 602:0.61659998 603:0.58340001 604:0.66659999 605:0.7166 606:0.7166 607:0.83340001 608:0.89999998 609:0.94999999 610:0.9666 611:0.94999999 612:1 613:1 614:0.88340002 615:0.85000002 616:0.58340001 617:0.25 #
