SVM-light Version V6.02
2 # kernel type
3 # kernel parameter -d 
1e-08 # kernel parameter -g 
1 # kernel parameter -s 
1 # kernel parameter -r 
empty# kernel parameter -u 
784 # highest feature index 
400 # number of training documents 
91 # number of support vectors plus 1 
-0.21876888 # threshold b, each following line is a SV (starting with alpha*y)
4.1012563301904236823247629217803 1:0 2:0 3:0 4:0 5:0 6:0 7:0 8:0 9:0 10:0 11:0 12:0 13:0 14:0 15:0 16:0 17:0 18:0 19:0 20:0 21:0 22:0 23:0 24:0 25:0 26:0 27:0 28:0 29:0 30:0 31:0 32:0 33:0 34:0 35:0 36:0 37:0 38:0 39:0 40:0 41:0 42:0 43:0 44:0 45:0 46:0 47:0 48:0 49:0 50:0 51:0 52:0 53:0 54:0 55:0 56:0 57:0 58:0 59:0 60:0 61:0 62:0 63:0 64:0 65:0 66:0 67:0 68:0 69:0 70:0 71:0 72:0 73:0 74:0 75:0 76:0 77:0 78:0 79:0 80:0 81:0 82:0 83:0 84:0 85:0 86:0 87:0 88:0 89:0 90:0 91:0 92:0 93:0 94:0 95:0 96:0 97:0 98:0 99:0 100:0 101:0 102:0 103:0 104:0 105:0 106:0 107:0 108:0 109:0 110:0 111:0 112:0 113:0 114:0 115:0 116:0 117:0 118:0 119:0 120:0 121:0 122:0 123:0 124:0 125:0 126:0 127:53 128:202 129:244 130:255 131:191 132:11 133:0 134:0 135:0 136:0 137:0 138:0 139:0 140:0 141:0 142:0 143:0 144:0 145:0 146:0 147:0 148:0 149:0 150:0 151:0 152:0 153:0 154:42 155:238 156:243 157:180 158:181 159:243 160:187 161:11 162:0 163:0 164:0 165:0 166:0 167:0 168:0 169:0 170:0 171:0 172:0 173:0 174:0 175:0 176:0 177:0 178:0 179:0 180:0 181:11 182:234 183:243 184:42 185:0 186:0 187:156 188:255 189:36 190:0 191:0 192:0 193:0 194:0 195:0 196:0 197:0 198:0 199:0 200:0 201:0 202:0 203:0 204:0 205:0 206:0 207:0 208:0 209:135 210:233 211:36 212:0 213:0 214:0 215:32 216:254 217:36 218:42 219:0 220:0 221:0 222:0 223:0 224:0 225:0 226:0 227:0 228:0 229:0 230:0 231:0 232:0 233:0 234:0 235:0 236:0 237:217 238:94 239:0 240:0 241:0 242:0 243:0 244:254 245:129 246:63 247:0 248:0 249:0 250:0 251:0 252:0 253:0 254:0 255:0 256:0 257:0 258:0 259:0 260:0 261:0 262:0 263:0 264:73 265:248 266:32 267:0 268:0 269:0 270:0 271:21 272:212 273:211 274:0 275:0 276:0 277:0 278:0 279:0 280:0 281:0 282:0 283:0 284:0 285:0 286:0 287:0 288:0 289:0 290:0 291:0 292:110 293:254 294:0 295:0 296:0 297:0 298:27 299:213 300:228 301:21 302:0 303:0 304:0 305:0 306:0 307:0 308:0 309:0 310:0 311:0 312:0 313:0 314:0 315:0 316:0 317:0 318:0 319:0 320:68 321:253 322:63 323:0 324:0 325:21 326:213 327:232 328:42 329:0 330:0 331:0 332:0 333:0 334:0 335:0 336:0 337:0 338:0 339:0 340:0 341:0 342:0 343:0 344:0 345:0 346:0 347:0 348:0 349:187 350:135 351:0 352:79 353:223 354:249 355:73 356:0 357:0 358:0 359:0 360:0 361:0 362:0 363:0 364:0 365:0 366:0 367:0 368:0 369:0 370:0 371:0 372:0 373:0 374:0 375:0 376:0 377:145 378:249 379:176 380:254 381:232 382:94 383:0 384:0 385:0 386:0 387:0 388:0 389:0 390:0 391:0 392:0 393:0 394:0 395:0 396:0 397:0 398:0 399:0 400:0 401:0 402:0 403:0 404:0 405:105 406:255 407:254 408:239 409:83 410:0 411:0 412:0 413:0 414:0 415:0 416:0 417:0 418:0 419:0 420:0 421:0 422:0 423:0 424:0 425:0 426:0 427:0 428:0 429:0 430:0 431:0 432:42 433:228 434:254 435:253 436:52 437:0 438:0 439:0 440:0 441:0 442:0 443:0 444:0 445:0 446:0 447:0 448:0 449:0 450:0 451:0 452:0 453:0 454:0 455:0 456:0 457:0 458:0 459:94 460:234 461:254 462:223 463:254 464:0 465:0 466:0 467:0 468:0 469:0 470:0 471:0 472:0 473:0 474:0 475:0 476:0 477:0 478:0 479:0 480:0 481:0 482:0 483:0 484:0 485:0 486:73 487:248 488:254 489:149 490:37 491:253 492:0 493:0 494:0 495:0 496:0 497:0 498:0 499:0 500:0 501:0 502:0 503:0 504:0 505:0 506:0 507:0 508:0 509:0 510:0 511:0 512:0 513:11 514:254 515:254 516:105 517:0 518:47 519:254 520:0 521:0 522:0 523:0 524:0 525:0 526:0 527:0 528:0 529:0 530:0 531:0 532:0 533:0 534:0 535:0 536:0 537:0 538:0 539:0 540:0 541:176 542:253 543:149 544:0 545:0 546:150 547:232 548:0 549:0 550:0 551:0 552:0 553:0 554:0 555:0 556:0 557:0 558:0 559:0 560:0 561:0 562:0 563:0 564:0 565:0 566:0 567:0 568:27 569:244 570:207 571:0 572:0 573:11 574:213 575:99 576:0 577:0 578:0 579:0 580:0 581:0 582:0 583:0 584:0 585:0 586:0 587:0 588:0 589:0 590:0 591:0 592:0 593:0 594:0 595:0 596:37 597:253 598:124 599:0 600:63 601:197 602:212 603:16 604:0 605:0 606:0 607:0 608:0 609:0 610:0 611:0 612:0 613:0 614:0 615:0 616:0 617:0 618:0 619:0 620:0 621:0 622:0 623:0 624:21 625:238 626:254 627:254 628:255 629:233 630:42 631:0 632:0 633:0 634:0 635:0 636:0 637:0 638:0 639:0 640:0 641:0 642:0 643:0 644:0 645:0 646:0 647:0 648:0 649:0 650:0 651:0 652:0 653:114 654:253 655:232 656:150 657:47 658:0 659:0 660:0 661:0 662:0 663:0 664:0 665:0 666:0 667:0 668:0 669:0 670:0 671:0 672:0 673:0 674:0 675:0 676:0 677:0 678:0 679:0 680:0 681:0 682:0 683:0 684:0 685:0 686:0 687:0 688:0 689:0 690:0 691:0 692:0 693:0 694:0 695:0 696:0 697:0 698:0 699:0 700:0 701:0 702:0 703:0 704:0 705:0 706:0 707:0 708:0 709:0 710:0 711:0 712:0 713:0 714:0 715:0 716:0 717:0 718:0 719:0 720:0 721:0 722:0 723:0 724:0 725:0 726:0 727:0 728:0 729:0 730:0 731:0 732:0 733:0 734:0 735:0 736:0 737:0 738:0 739:0 740:0 741:0 742:0 743:0 744:0 745:0 746:0 747:0 748:0 749:0 750:0 751:0 752:0 753:0 754:0 755:0 756:0 757:0 758:0 759:0 760:0 761:0 762:0 763:0 764:0 765:0 766:0 767:0 768:0 769:0 770:0 771:0 772:0 773:0 774:0 775:0 776:0 777:0 778:0 779:0 780:0 781:0 782:0 783:0 784:0 #
-8.5280791352049938325308175990358 1:0 2:0 3:0 4:0 5:0 6:0 7:0 8:0 9:0 10:0 11:0 12:0 13:0 14:0 15:0 16:0 17:0 18:0 19:0 20:0 21:0 22:0 23:0 24:0 25:0 26:0 27:0 28:0 29:0 30:0 31:0 32:0 33:0 34:0 35:0 36:0 37:0 38:0 39:0 40:0 41:0 42:0 43:0 44:0 45:0 46:0 47:0 48:0 49:0 50:0 51:0 52:0 53:0 54:0 55:0 56:0 57:0 58:0 59:0 60:0 61:0 62:0 63:0 64:0 65:0 66:0 67:0 68:0 69:0 70:0 71:0 72:0 73:0 74:0 75:0 76:0 77:0 78:0 79:0 80:0 81:0 82:0 83:0 84:0 85:0 86:0 87:0 88:0 89:0 90:0 91:0 92:0 93:0 94:0 95:0 96:0 97:0 98:4 99:165 100:220 101:24 102:0 103:0 104:0 105:0 106:0 107:0 108:0 109:0 110:0 111:0 112:0 113:0 114:0 115:0 116:0 117:0 118:0 119:0 120:0 121:0 122:0 123:0 124:0 125:0 126:74 127:253 128:207 129:16 130:0 131:0 132:0 133:0 134:0 135:0 136:0 137:0 138:0 139:0 140:0 141:0 142:0 143:0 144:0 145:0 146:0 147:0 148:0 149:0 150:0 151:0 152:0 153:0 154:157 155:253 156:158 157:0 158:0 159:0 160:0 161:0 162:0 163:0 164:0 165:0 166:0 167:0 168:0 169:0 170:0 171:0 172:0 173:0 174:0 175:0 176:0 177:0 178:0 179:0 180:0 181:0 182:222 183:253 184:115 185:0 186:0 187:0 188:0 189:0 190:0 191:0 192:0 193:0 194:0 195:0 196:0 197:0 198:0 199:0 200:0 201:0 202:0 203:0 204:0 205:0 206:0 207:0 208:0 209:45 210:251 211:253 212:5 213:0 214:0 215:0 216:0 217:0 218:0 219:0 220:0 221:0 222:0 223:0 224:0 225:0 226:0 227:0 228:0 229:0 230:0 231:0 232:0 233:0 234:0 235:0 236:0 237:157 238:254 239:164 240:0 241:0 242:0 243:0 244:0 245:0 246:0 247:0 248:0 249:0 250:0 251:0 252:0 253:0 254:0 255:0 256:0 257:0 258:0 259:0 260:0 261:0 262:0 263:0 264:24 265:241 266:245 267:14 268:0 269:0 270:0 271:0 272:0 273:0 274:0 275:0 276:0 277:0 278:0 279:0 280:0 281:0 282:0 283:0 284:0 285:0 286:0 287:0 288:0 289:0 290:0 291:0 292:72 293:253 294:174 295:0 296:0 297:0 298:0 299:0 300:0 301:0 302:0 303:0 304:0 305:0 306:0 307:0 308:0 309:0 310:0 311:0 312:0 313:0 314:0 315:0 316:0 317:0 318:0 319:0 320:156 321:253 322:91 323:0 324:0 325:0 326:0 327:0 328:0 329:0 330:0 331:0 332:0 333:0 334:0 335:0 336:0 337:0 338:0 339:0 340:0 341:0 342:0 343:0 344:0 345:0 346:0 347:15 348:249 349:208 350:2 351:25 352:0 353:0 354:0 355:0 356:0 357:0 358:0 359:0 360:0 361:0 362:0 363:0 364:0 365:0 366:0 367:0 368:0 369:0 370:0 371:0 372:0 373:0 374:0 375:46 376:254 377:206 378:124 379:254 380:255 381:244 382:134 383:17 384:0 385:0 386:0 387:0 388:0 389:0 390:0 391:0 392:0 393:0 394:0 395:0 396:0 397:0 398:0 399:0 400:0 401:0 402:0 403:96 404:253 405:241 406:245 407:198 408:113 409:161 410:253 411:153 412:2 413:0 414:0 415:0 416:0 417:0 418:0 419:0 420:0 421:0 422:0 423:0 424:0 425:0 426:0 427:0 428:0 429:0 430:0 431:160 432:253 433:253 434:171 435:3 436:0 437:6 438:150 439:253 440:55 441:0 442:0 443:0 444:0 445:0 446:0 447:0 448:0 449:0 450:0 451:0 452:0 453:0 454:0 455:0 456:0 457:0 458:0 459:174 460:253 461:226 462:14 463:0 464:0 465:0 466:31 467:235 468:95 469:0 470:0 471:0 472:0 473:0 474:0 475:0 476:0 477:0 478:0 479:0 480:0 481:0 482:0 483:0 484:0 485:0 486:0 487:174 488:253 489:131 490:0 491:0 492:0 493:0 494:0 495:222 496:95 497:0 498:0 499:0 500:0 501:0 502:0 503:0 504:0 505:0 506:0 507:0 508:0 509:0 510:0 511:0 512:0 513:0 514:0 515:175 516:222 517:0 518:0 519:0 520:0 521:0 522:0 523:223 524:95 525:0 526:0 527:0 528:0 529:0 530:0 531:0 532:0 533:0 534:0 535:0 536:0 537:0 538:0 539:0 540:0 541:0 542:0 543:164 544:221 545:0 546:0 547:0 548:0 549:0 550:71 551:245 552:85 553:0 554:0 555:0 556:0 557:0 558:0 559:0 560:0 561:0 562:0 563:0 564:0 565:0 566:0 567:0 568:0 569:0 570:0 571:81 572:247 573:79 574:0 575:0 576:0 577:81 578:230 579:186 580:3 581:0 582:0 583:0 584:0 585:0 586:0 587:0 588:0 589:0 590:0 591:0 592:0 593:0 594:0 595:0 596:0 597:0 598:0 599:12 600:217 601:222 602:74 603:64 604:173 605:245 606:206 607:49 608:0 609:0 610:0 611:0 612:0 613:0 614:0 615:0 616:0 617:0 618:0 619:0 620:0 621:0 622:0 623:0 624:0 625:0 626:0 627:0 628:17 629:134 630:193 631:228 632:144 633:60 634:8 635:0 636:0 637:0 638:0 639:0 640:0 641:0 642:0 643:0 644:0 645:0 646:0 647:0 648:0 649:0 650:0 651:0 652:0 653:0 654:0 655:0 656:0 657:0 658:0 659:0 660:0 661:0 662:0 663:0 664:0 665:0 666:0 667:0 668:0 669:0 670:0 671:0 672:0 673:0 674:0 675:0 676:0 677:0 678:0 679:0 680:0 681:0 682:0 683:0 684:0 685:0 686:0 687:0 688:0 689:0 690:0 691:0 692:0 693:0 694:0 695:0 696:0 697:0 698:0 699:0 700:0 701:0 702:0 703:0 704:0 705:0 706:0 707:0 708:0 709:0 710:0 711:0 712:0 713:0 714:0 715:0 716:0 717:0 718:0 719:0 720:0 721:0 722:0 723:0 724:0 725:0 726:0 727:0 728:0 729:0 730:0 731:0 732:0 733:0 734:0 735:0 736:0 737:0 738:0 739:0 740:0 741:0 742:0 743:0 744:0 745:0 746:0 747:0 748:0 749:0 750:0 751:0 752:0 753:0 754:0 755:0 756:0 757:0 758:0 759:0 760:0 761:0 762:0 763:0 764:0 765:0 766:0 767:0 768:0 769:0 770:0 771:0 772:0 773:0 774:0 775:0 776:0 777:0 778:0 779:0 780:0 781:0 782:0 783:0 784:0 #
-8.5280791352049938325308175990358 1:0 2:0 3:0 4:0 5:0 6:0 7:0 8:0 9:0 10:0 11:0 12:0 13:0 14:0 15:0 16:0 17:0 18:0 19:0 20:0 21:0 22:0 23:0 24:0 25:0 26:0 27:0 28:0 29:0 30:0 31:0 32:0 33:0 34:0 35:0 36:0 37:0 38:0 39:0 40:0 41:0 42:0 43:0 44:0 45:0 46:0 47:0 48:0 49:0 50:0 51:0 52:0 53:0 54:0 55:0 56:0 57:0 58:0 59:0 60:0 61:0 62:0 63:0 64:0 65:0 66:0 67:0 68:0 69:0 70:0 71:0 72:0 73:0 74:0 75:0 76:0 77:0 78:0 79:0 80:0 81:0 82:0 83:0 84:0 85:0 86:0 87:0 88:0 89:0 90:0 91:0 92:0 93:0 94:0 95:0 96:0 97:0 98:0 99:0 100:0 101:34 102:169 103:250 104:40 105:0 106:0 107:0 108:0 109:0 110:0 111:0 112:0 113:0 114:0 115:0 116:0 117:0 118:0 119:0 120:0 121:0 122:0 123:0 124:0 125:0 126:0 127:0 128:58 129:242 130:221 131:143 132:17 133:0 134:0 135:0 136:0 137:0 138:0 139:0 140:0 141:0 142:0 143:0 144:0 145:0 146:0 147:0 148:0 149:0 150:0 151:0 152:0 153:0 154:0 155:75 156:247 157:143 158:10 159:0 160:0 161:0 162:0 163:0 164:0 165:0 166:0 167:0 168:0 169:0 170:0 171:0 172:0 173:0 174:0 175:0 176:0 177:0 178:0 179:0 180:0 181:0 182:37 183:245 184:184 185:2 186:0 187:0 188:0 189:0 190:0 191:0 192:0 193:0 194:0 195:0 196:0 197:0 198:0 199:0 200:0 201:0 202:0 203:0 204:0 205:0 206:0 207:0 208:0 209:8 210:192 211:200 212:14 213:0 214:0 215:0 216:0 217:0 218:0 219:0 220:0 221:0 222:0 223:0 224:0 225:0 226:0 227:0 228:0 229:0 230:0 231:0 232:0 233:0 234:0 235:0 236:0 237:139 238:247 239:28 240:0 241:0 242:0 243:0 244:0 245:0 246:0 247:0 248:0 249:0 250:0 251:0 252:0 253:0 254:0 255:0 256:0 257:0 258:0 259:0 260:0 261:0 262:0 263:0 264:7 265:231 266:183 267:0 268:0 269:0 270:0 271:0 272:0 273:0 274:0 275:0 276:0 277:0 278:0 279:0 280:0 281:0 282:0 283:0 284:0 285:0 286:0 287:0 288:0 289:0 290:0 291:0 292:125 293:243 294:50 295:0 296:0 297:0 298:0 299:0 300:0 301:0 302:0 303:0 304:0 305:0 306:0 307:0 308:0 309:0 310:0 311:0 312:0 313:0 314:0 315:0 316:0 317:0 318:0 319:0 320:195 321:184 322:0 323:0 324:0 325:0 326:0 327:0 328:0 329:0 330:0 331:0 332:0 333:0 334:0 335:0 336:0 337:0 338:0 339:0 340:0 341:0 342:0 343:0 344:0 345:0 346:0 347:61 348:251 349:41 350:0 351:0 352:0 353:64 354:43 355:0 356:0 357:0 358:0 359:0 360:0 361:0 362:0 363:0 364:0 365:0 366:0 367:0 368:0 369:0 370:0 371:0 372:0 373:0 374:0 375:152 376:210 377:7 378:0 379:96 380:237 381:254 382:247 383:107 384:0 385:0 386:0 387:0 388:0 389:0 390:0 391:0 392:0 393:0 394:0 395:0 396:0 397:0 398:0 399:0 400:0 401:0 402:0 403:250 404:84 405:0 406:6 407:223 408:84 409:13 410:87 411:246 412:72 413:0 414:0 415:0 416:0 417:0 418:0 419:0 420:0 421:0 422:0 423:0 424:0 425:0 426:0 427:0 428:0 429:0 430:43 431:254 432:80 433:0 434:56 435:151 436:0 437:0 438:0 439:147 440:193 441:0 442:0 443:0 444:0 445:0 446:0 447:0 448:0 449:0 450:0 451:0 452:0 453:0 454:0 455:0 456:0 457:0 458:67 459:254 460:41 461:0 462:13 463:19 464:0 465:0 466:0 467:42 468:253 469:0 470:0 471:0 472:0 473:0 474:0 475:0 476:0 477:0 478:0 479:0 480:0 481:0 482:0 483:0 484:0 485:0 486:67 487:254 488:13 489:0 490:0 491:0 492:0 493:0 494:0 495:14 496:253 497:0 498:0 499:0 500:0 501:0 502:0 503:0 504:0 505:0 506:0 507:0 508:0 509:0 510:0 511:0 512:0 513:0 514:68 515:255 516:13 517:0 518:0 519:0 520:0 521:0 522:0 523:77 524:240 525:0 526:0 527:0 528:0 529:0 530:0 531:0 532:0 533:0 534:0 535:0 536:0 537:0 538:0 539:0 540:0 541:0 542:67 543:254 544:13 545:0 546:0 547:0 548:0 549:0 550:5 551:181 552:147 553:0 554:0 555:0 556:0 557:0 558:0 559:0 560:0 561:0 562:0 563:0 564:0 565:0 566:0 567:0 568:0 569:0 570:25 571:229 572:105 573:0 574:0 575:0 576:0 577:5 578:156 579:213 580:20 581:0 582:0 583:0 584:0 585:0 586:0 587:0 588:0 589:0 590:0 591:0 592:0 593:0 594:0 595:0 596:0 597:0 598:0 599:107 600:246 601:105 602:14 603:49 604:95 605:217 606:209 607:27 608:0 609:0 610:0 611:0 612:0 613:0 614:0 615:0 616:0 617:0 618:0 619:0 620:0 621:0 622:0 623:0 624:0 625:0 626:0 627:0 628:107 629:246 630:253 631:253 632:240 633:130 634:6 635:0 636:0 637:0 638:0 639:0 640:0 641:0 642:0 643:0 644:0 645:0 646:0 647:0 648:0 649:0 650:0 651:0 652:0 653:0 654:0 655:0 656:0 657:0 658:0 659:0 660:0 661:0 662:0 663:0 664:0 665:0 666:0 667:0 668:0 669:0 670:0 671:0 672:0 673:0 674:0 675:0 676:0 677:0 678:0 679:0 680:0 681:0 682:0 683:0 684:0 685:0 686:0 687:0 688:0 689:0 690:0 691:0 692:0 693:0 694:0 695:0 696:0 697:0 698:0 699:0 700:0 701:0 702:0 703:0 704:0 705:0 706:0 707:0 708:0 709:0 710:0 711:0 712:0 713:0 714:0 715:0 716:0 717:0 718:0 719:0 720:0 721:0 722:0 723:0 724:0 725:0 726:0 727:0 728:0 729:0 730:0 731:0 732:0 733:0 734:0 735:0 736:0 737:0 738:0 739:0 740:0 741:0 742:0 743:0 744:0 745:0 746:0 747:0 748:0 749:0 750:0 751:0 752:0 753:0 754:0 755:0 756:0 757:0 758:0 759:0 760:0 761:0 762:0 763:0 764:0 765:0 766:0 767:0 768:0 769:0 770:0 771:0 772:0 773:0 774:0 775:0 776:0 777:0 778:0 779:0 780:0 781:0 782:0 783:0 784:0 #
-8.5280791352049938325308175990358 1:0 2:0 3:0 4:0 5:0 6:0 7:0 8:0 9:0 10:0 11:0 12:0 13:0 14:0 15:0 16:0 17:0 18:0 19:0 20:0 21:0 22:0 23:0 24:0 25:0 26:0 27:0 28:0 29:0 30:0 31:0 32:0 33:0 34:0 35:0 36:0 37:0 38:0 39:0 40:0 41:0 42:0 43:0 44:0 45:0 46:0 47:0 48:0 49:0 50:0 51:0 52:0 53:0 54:0 55:0 56:0 57:0 58:0 59:0 60:0 61:0 62:0 63:0 64:0 65:0 66:0 67:0 68:0 69:0 70:0 71:0 72:0 73:0 74:0 75:0 76:0 77:0 78:0 79:0 80:0 81:0 82:0 83:0 84:0 85:0 86:0 87:0 88:0 89:0 90:0 91:0 92:0 93:0 94:0 95:0 96:0 97:0 98:0 99:0 100:0 101:0 102:0 103:0 104:0 105:0 106:0 107:0 108:0 109:0 110:0 111:0 112:0 113:0 114:0 115:0 116:0 117:0 118:0 119:0 120:0 121:0 122:0 123:0 124:0 125:0 126:0 127:0 128:0 129:0 130:0 131:0 132:0 133:16 134:109 135:255 136:211 137:31 138:0 139:0 140:0 141:0 142:0 143:0 144:0 145:0 146:0 147:0 148:0 149:0 150:0 151:0 152:0 153:0 154:0 155:0 156:0 157:11 158:73 159:73 160:197 161:222 162:252 163:253 164:252 165:113 166:0 167:0 168:0 169:0 170:0 171:0 172:0 173:0 174:0 175:0 176:0 177:0 178:0 179:0 180:0 181:0 182:0 183:37 184:78 185:191 186:252 187:253 188:252 189:252 190:252 191:253 192:252 193:195 194:0 195:0 196:0 197:0 198:0 199:0 200:0 201:0 202:0 203:0 204:0 205:0 206:0 207:0 208:0 209:1 210:84 211:253 212:252 213:252 214:252 215:253 216:252 217:252 218:168 219:253 220:252 221:71 222:0 223:0 224:0 225:0 226:0 227:0 228:0 229:0 230:0 231:0 232:0 233:0 234:0 235:0 236:32 237:211 238:252 239:253 240:252 241:252 242:252 243:206 244:103 245:0 246:0 247:0 248:0 249:0 250:0 251:0 252:0 253:0 254:0 255:0 256:0 257:0 258:0 259:0 260:0 261:0 262:0 263:94 264:227 265:252 266:252 267:253 268:231 269:158 270:35 271:20 272:0 273:0 274:0 275:0 276:0 277:0 278:0 279:0 280:0 281:0 282:0 283:0 284:0 285:0 286:0 287:0 288:0 289:6 290:120 291:211 292:252 293:252 294:252 295:237 296:71 297:0 298:0 299:0 300:0 301:0 302:0 303:0 304:0 305:0 306:0 307:0 308:0 309:0 310:0 311:0 312:0 313:0 314:0 315:0 316:0 317:37 318:252 319:252 320:252 321:252 322:252 323:62 324:0 325:0 326:0 327:0 328:0 329:0 330:0 331:0 332:0 333:0 334:0 335:0 336:0 337:0 338:0 339:0 340:0 341:0 342:0 343:0 344:0 345:182 346:253 347:253 348:253 349:253 350:253 351:110 352:78 353:0 354:0 355:0 356:0 357:0 358:0 359:0 360:0 361:0 362:0 363:0 364:0 365:0 366:0 367:0 368:0 369:0 370:0 371:0 372:21 373:201 374:252 375:252 376:252 377:252 378:252 379:253 380:242 381:196 382:31 383:0 384:0 385:0 386:0 387:0 388:0 389:0 390:0 391:0 392:0 393:0 394:0 395:0 396:0 397:0 398:0 399:0 400:176 401:252 402:252 403:252 404:252 405:252 406:252 407:217 408:226 409:252 410:128 411:0 412:0 413:0 414:0 415:0 416:0 417:0 418:0 419:0 420:0 421:0 422:0 423:0 424:0 425:0 426:0 427:0 428:217 429:252 430:252 431:252 432:168 433:252 434:168 435:0 436:73 437:252 438:252 439:84 440:0 441:0 442:0 443:0 444:0 445:0 446:0 447:0 448:0 449:0 450:0 451:0 452:0 453:0 454:0 455:0 456:218 457:253 458:253 459:144 460:218 461:237 462:62 463:0 464:0 465:21 466:207 467:255 468:35 469:0 470:0 471:0 472:0 473:0 474:0 475:0 476:0 477:0 478:0 479:0 480:0 481:0 482:0 483:0 484:217 485:252 486:252 487:143 488:72 489:195 490:0 491:0 492:0 493:0 494:144 495:253 496:35 497:0 498:0 499:0 500:0 501:0 502:0 503:0 504:0 505:0 506:0 507:0 508:0 509:0 510:0 511:0 512:217 513:252 514:252 515:143 516:0 517:41 518:0 519:0 520:0 521:6 522:160 523:253 524:35 525:0 526:0 527:0 528:0 529:0 530:0 531:0 532:0 533:0 534:0 535:0 536:0 537:0 538:0 539:0 540:217 541:252 542:252 543:143 544:0 545:0 546:0 547:0 548:0 549:37 550:252 551:253 552:35 553:0 554:0 555:0 556:0 557:0 558:0 559:0 560:0 561:0 562:0 563:0 564:0 565:0 566:0 567:0 568:0 569:182 570:253 571:253 572:211 573:109 574:109 575:110 576:233 577:253 578:253 579:255 580:35 581:0 582:0 583:0 584:0 585:0 586:0 587:0 588:0 589:0 590:0 591:0 592:0 593:0 594:0 595:0 596:0 597:57 598:252 599:252 600:252 601:252 602:252 603:253 604:252 605:252 606:252 607:253 608:35 609:0 610:0 611:0 612:0 613:0 614:0 615:0 616:0 617:0 618:0 619:0 620:0 621:0 622:0 623:0 624:0 625:11 626:71 627:215 628:226 629:252 630:252 631:253 632:252 633:252 634:231 635:154 636:10 637:0 638:0 639:0 640:0 641:0 642:0 643:0 644:0 645:0 646:0 647:0 648:0 649:0 650:0 651:0 652:0 653:0 654:0 655:0 656:31 657:128 658:252 659:108 660:108 661:108 662:46 663:0 664:0 665:0 666:0 667:0 668:0 669:0 670:0 671:0 672:0 673:0 674:0 675:0 676:0 677:0 678:0 679:0 680:0 681:0 682:0 683:0 684:0 685:0 686:0 687:0 688:0 689:0 690:0 691:0 692:0 693:0 694:0 695:0 696:0 697:0 698:0 699:0 700:0 701:0 702:0 703:0 704:0 705:0 706:0 707:0 708:0 709:0 710:0 711:0 712:0 713:0 714:0 715:0 716:0 717:0 718:0 719:0 720:0 721:0 722:0 723:0 724:0 725:0 726:0 727:0 728:0 729:0 730:0 731:0 732:0 733:0 734:0 735:0 736:0 737:0 738:0 739:0 740:0 741:0 742:0 743:0 744:0 745:0 746:0 747:0 748:0 749:0 750:0 751:0 752:0 753:0 754:0 755:0 756:0 757:0 758:0 759:0 760:0 761:0 762:0 763:0 764:0 765:0 766:0 767:0 768:0 769:0 770:0 771:0 772:0 773:0 774:0 775:0 776:0 777:0 778:0 779:0 780:0 781:0 782:0 783:0 784:0 #
-8.5280791352049938325308175990358 1:0 2:0 3:0 4:0 5:0 6:0 7:0 8:0 9:0 10:0 11:0 12:0 13:0 14:0 15:0 16:0 17:0 18:0 19:0 20:0 21:0 22:0 23:0 24:0 25:0 26:0 27:0 28:0 29:0 30:0 31:0 32:0 33:0 34:0 35:0 36:0 37:0 38:0 39:0 40:0 41:0 42:0 43:0 44:0 45:0 46:0 47:0 48:0 49:0 50:0 51:0 52:0 53:0 54:0 55:0 56:0 57:0 58:0 59:0 60:0 61:0 62:0 63:0 64:0 65:0 66:0 67:0 68:0 69:0 70:0 71:0 72:0 73:0 74:0 75:0 76:0 77:0 78:0 79:0 80:0 81:0 82:0 83:0 84:0 85:0 86:0 87:0 88:0 89:0 90:0 91:0 92:0 93:0 94:0 95:0 96:0 97:0 98:0 99:0 100:0 101:0 102:9 103:76 104:255 105:144 106:0 107:0 108:0 109:0 110:0 111:0 112:0 113:0 114:0 115:0 116:0 117:0 118:0 119:0 120:0 121:0 122:0 123:0 124:0 125:0 126:0 127:0 128:0 129:0 130:114 131:252 132:253 133:92 134:0 135:0 136:0 137:0 138:0 139:0 140:0 141:0 142:0 143:0 144:0 145:0 146:0 147:0 148:0 149:0 150:0 151:0 152:0 153:0 154:0 155:0 156:0 157:83 158:240 159:252 160:215 161:67 162:0 163:0 164:0 165:0 166:0 167:0 168:0 169:0 170:0 171:0 172:0 173:0 174:0 175:0 176:0 177:0 178:0 179:0 180:0 181:0 182:0 183:0 184:17 185:209 186:252 187:210 188:21 189:0 190:0 191:0 192:0 193:0 194:0 195:0 196:0 197:0 198:0 199:0 200:0 201:0 202:0 203:0 204:0 205:0 206:0 207:0 208:0 209:0 210:0 211:11 212:193 213:252 214:168 215:12 216:0 217:0 218:0 219:0 220:0 221:0 222:0 223:0 224:0 225:0 226:0 227:0 228:0 229:0 230:0 231:0 232:0 233:0 234:0 235:0 236:0 237:0 238:0 239:97 240:253 241:253 242:98 243:0 244:0 245:0 246:0 247:0 248:0 249:0 250:0 251:0 252:0 253:0 254:0 255:0 256:0 257:0 258:0 259:0 260:0 261:0 262:0 263:0 264:0 265:0 266:22 267:253 268:252 269:187 270:17 271:0 272:0 273:0 274:0 275:0 276:0 277:0 278:0 279:0 280:0 281:0 282:0 283:0 284:0 285:0 286:0 287:0 288:0 289:0 290:0 291:0 292:0 293:0 294:146 295:253 296:240 297:50 298:0 299:0 300:0 301:0 302:0 303:0 304:0 305:0 306:0 307:0 308:0 309:0 310:0 311:0 312:0 313:0 314:0 315:0 316:0 317:0 318:0 319:0 320:0 321:119 322:248 323:253 324:164 325:0 326:0 327:0 328:0 329:0 330:0 331:0 332:0 333:0 334:0 335:0 336:0 337:0 338:0 339:0 340:0 341:0 342:0 343:0 344:0 345:0 346:0 347:0 348:32 349:228 350:252 351:232 352:8 353:0 354:0 355:0 356:0 357:0 358:0 359:0 360:0 361:0 362:0 363:0 364:0 365:0 366:0 367:0 368:0 369:0 370:0 371:0 372:0 373:0 374:0 375:5 376:138 377:253 378:243 379:53 380:0 381:0 382:0 383:0 384:0 385:0 386:0 387:0 388:0 389:0 390:0 391:0 392:0 393:0 394:0 395:0 396:0 397:0 398:0 399:0 400:0 401:0 402:0 403:68 404:252 405:252 406:137 407:0 408:0 409:0 410:0 411:0 412:0 413:0 414:0 415:0 416:0 417:0 418:0 419:0 420:0 421:0 422:0 423:0 424:0 425:0 426:0 427:0 428:0 429:0 430:49 431:228 432:252 433:252 434:168 435:185 436:184 437:184 438:184 439:184 440:32 441:0 442:0 443:0 444:0 445:0 446:0 447:0 448:0 449:0 450:0 451:0 452:0 453:0 454:0 455:0 456:0 457:0 458:138 459:252 460:252 461:252 462:252 463:253 464:252 465:252 466:252 467:252 468:210 469:0 470:0 471:0 472:0 473:0 474:0 475:0 476:0 477:0 478:0 479:0 480:0 481:0 482:0 483:0 484:0 485:0 486:243 487:252 488:221 489:43 490:22 491:23 492:43 493:54 494:107 495:252 496:251 497:84 498:0 499:0 500:0 501:0 502:0 503:0 504:0 505:0 506:0 507:0 508:0 509:0 510:0 511:0 512:0 513:127 514:255 515:249 516:63 517:0 518:0 519:0 520:0 521:0 522:93 523:253 524:252 525:84 526:0 527:0 528:0 529:0 530:0 531:0 532:0 533:0 534:0 535:0 536:0 537:0 538:0 539:0 540:0 541:230 542:253 543:206 544:0 545:0 546:0 547:0 548:0 549:0 550:114 551:252 552:209 553:0 554:0 555:0 556:0 557:0 558:0 559:0 560:0 561:0 562:0 563:0 564:0 565:0 566:0 567:0 568:68 569:246 570:253 571:123 572:0 573:0 574:0 575:0 576:0 577:83 578:240 579:252 580:32 581:0 582:0 583:0 584:0 585:0 586:0 587:0 588:0 589:0 590:0 591:0 592:0 593:0 594:0 595:0 596:93 597:252 598:245 599:58 600:0 601:0 602:0 603:0 604:60 605:209 606:252 607:116 608:0 609:0 610:0 611:0 612:0 613:0 614:0 615:0 616:0 617:0 618:0 619:0 620:0 621:0 622:0 623:0 624:197 625:252 626:230 627:0 628:0 629:0 630:53 631:127 632:244 633:252 634:116 635:2 636:0 637:0 638:0 639:0 640:0 641:0 642:0 643:0 644:0 645:0 646:0 647:0 648:0 649:0 650:0 651:0 652:0 653:0 654:0 655:0 656:0 657:0 658:0 659:0 660:0 661:0 662:0 663:0 664:0 665:0 666:0 667:0 668:0 669:0 670:0 671:0 672:0 673:0 674:0 675:0 676:0 677:0 678:0 679:0 680:0 681:0 682:0 683:0 684:0 685:0 686:0 687:0 688:0 689:0 690:0 691:0 692:0 693:0 694:0 695:0 696:0 697:0 698:0 699:0 700:0 701:0 702:0 703:0 704:0 705:0 706:0 707:0 708:0 709:0 710:0 711:0 712:0 713:0 714:0 715:0 716:0 717:0 718:0 719:0 720:0 721:0 722:0 723:0 724:0 725:0 726:0 727:0 728:0 729:0 730:0 731:0 732:0 733:0 734:0 735:0 736:0 737:0 738:0 739:0 740:0 741:0 742:0 743:0 744:0 745:0 746:0 747:0 748:0 749:0 750:0 751:0 752:0 753:0 754:0 755:0 756:0 757:0 758:0 759:0 760:0 761:0 762:0 763:0 764:0 765:0 766:0 767:0 768:0 769:0 770:0 771:0 772:0 773:0 774:0 775:0 776:0 777:0 778:0 779:0 780:0 781:0 782:0 783:0 784:0 #
8.5280791352049938325308175990358 1:0 2:0 3:0 4:0 5:0 6:0 7:0 8:0 9:0 10:0 11:0 12:0 13:0 14:0 15:0 16:0 17:0 18:0 19:0 20:0 21:0 22:0 23:0 24:0 25:0 26:0 27:0 28:0 29:0 30:0 31:0 32:0 33:0 34:0 35:0 36:0 37:0 38:0 39:0 40:0 41:0 42:0 43:0 44:0 45:0 46:0 47:0 48:0 49:0 50:0 51:0 52:0 53:0 54:0 55:0 56:0 57:0 58:0 59:0 60:0 61:0 62:0 63:0 64:0 65:0 66:0 67:0 68:0 69:0 70:0 71:0 72:0 73:0 74:0 75:0 76:0 77:0 78:0 79:0 80:0 81:0 82:0 83:0 84:0 85:0 86:0 87:0 88:0 89:0 90:0 91:0 92:0 93:0 94:0 95:0 96:0 97:0 98:0 99:0 100:0 101:0 102:0 103:0 104:0 105:0 106:0 107:0 108:0 109:0 110:0 111:0 112:0 113:0 114:0 115:0 116:0 117:0 118:0 119:0 120:0 121:0 122:0 123:0 124:0 125:0 126:0 127:10 128:50 129:172 130:120 131:206 132:239 133:171 134:0 135:0 136:0 137:0 138:0 139:0 140:0 141:0 142:0 143:0 144:0 145:0 146:0 147:0 148:0 149:0 150:0 151:0 152:0 153:0 154:0 155:146 156:249 157:254 158:189 159:93 160:115 161:223 162:200 163:14 164:0 165:0 166:0 167:0 168:0 169:0 170:0 171:0 172:0 173:0 174:0 175:0 176:0 177:0 178:0 179:0 180:0 181:0 182:69 183:232 184:218 185:74 186:4 187:0 188:0 189:180 190:160 191:16 192:0 193:0 194:0 195:0 196:0 197:0 198:0 199:0 200:0 201:0 202:0 203:0 204:0 205:0 206:0 207:0 208:0 209:0 210:204 211:196 212:32 213:0 214:0 215:0 216:0 217:78 218:50 219:0 220:0 221:0 222:0 223:0 224:0 225:0 226:0 227:0 228:0 229:0 230:0 231:0 232:0 233:0 234:0 235:0 236:0 237:4 238:222 239:143 240:0 241:0 242:0 243:33 244:22 245:0 246:0 247:0 248:0 249:0 250:0 251:0 252:0 253:0 254:0 255:0 256:0 257:0 258:0 259:0 260:0 261:0 262:0 263:0 264:0 265:23 266:224 267:209 268:8 269:0 270:50 271:84 272:37 273:0 274:0 275:0 276:0 277:0 278:0 279:0 280:0 281:0 282:0 283:0 284:0 285:0 286:0 287:0 288:0 289:0 290:0 291:0 292:0 293:13 294:231 295:244 296:33 297:44 298:210 299:79 300:0 301:0 302:0 303:0 304:0 305:0 306:0 307:0 308:0 309:0 310:0 311:0 312:0 313:0 314:0 315:0 316:0 317:0 318:0 319:0 320:0 321:0 322:84 323:254 324:237 325:196 326:212 327:89 328:0 329:0 330:0 331:0 332:0 333:0 334:0 335:0 336:0 337:0 338:0 339:0 340:0 341:0 342:0 343:0 344:0 345:0 346:0 347:0 348:0 349:0 350:5 351:254 352:254 353:254 354:52 355:0 356:0 357:0 358:0 359:0 360:0 361:0 362:0 363:0 364:0 365:0 366:0 367:0 368:0 369:0 370:0 371:0 372:0 373:0 374:0 375:0 376:0 377:7 378:168 379:254 380:254 381:225 382:0 383:0 384:0 385:0 386:0 387:0 388:0 389:0 390:0 391:0 392:0 393:0 394:0 395:0 396:0 397:0 398:0 399:0 400:0 401:0 402:0 403:0 404:0 405:150 406:254 407:254 408:254 409:250 410:80 411:0 412:0 413:0 414:0 415:0 416:0 417:0 418:0 419:0 420:0 421:0 422:0 423:0 424:0 425:0 426:0 427:0 428:0 429:0 430:0 431:22 432:174 433:254 434:254 435:201 436:87 437:253 438:97 439:0 440:0 441:0 442:0 443:0 444:0 445:0 446:0 447:0 448:0 449:0 450:0 451:0 452:0 453:0 454:0 455:0 456:0 457:0 458:23 459:145 460:254 461:254 462:153 463:12 464:38 465:253 466:78 467:0 468:0 469:0 470:0 471:0 472:0 473:0 474:0 475:0 476:0 477:0 478:0 479:0 480:0 481:0 482:0 483:0 484:0 485:0 486:191 487:254 488:254 489:147 490:10 491:0 492:3 493:196 494:164 495:0 496:0 497:0 498:0 499:0 500:0 501:0 502:0 503:0 504:0 505:0 506:0 507:0 508:0 509:0 510:0 511:0 512:6 513:91 514:252 515:254 516:154 517:13 518:0 519:0 520:0 521:69 522:126 523:0 524:0 525:0 526:0 527:0 528:0 529:0 530:0 531:0 532:0 533:0 534:0 535:0 536:0 537:0 538:0 539:0 540:11 541:227 542:254 543:195 544:8 545:0 546:0 547:0 548:9 549:146 550:51 551:0 552:0 553:0 554:0 555:0 556:0 557:0 558:0 559:0 560:0 561:0 562:0 563:0 564:0 565:0 566:0 567:0 568:11 569:227 570:254 571:94 572:0 573:0 574:0 575:89 576:141 577:172 578:0 579:0 580:0 581:0 582:0 583:0 584:0 585:0 586:0 587:0 588:0 589:0 590:0 591:0 592:0 593:0 594:0 595:0 596:48 597:254 598:249 599:45 600:8 601:4 602:134 603:248 604:158 605:58 606:0 607:0 608:0 609:0 610:0 611:0 612:0 613:0 614:0 615:0 616:0 617:0 618:0 619:0 620:0 621:0 622:0 623:0 624:22 625:235 626:254 627:254 628:254 629:189 630:178 631:140 632:10 633:0 634:0 635:0 636:0 637:0 638:0 639:0 640:0 641:0 642:0 643:0 644:0 645:0 646:0 647:0 648:0 649:0 650:0 651:0 652:0 653:74 654:250 655:254 656:254 657:254 658:165 659:9 660:0 661:0 662:0 663:0 664:0 665:0 666:0 667:0 668:0 669:0 670:0 671:0 672:0 673:0 674:0 675:0 676:0 677:0 678:0 679:0 680:0 681:0 682:0 683:0 684:0 685:0 686:0 687:0 688:0 689:0 690:0 691:0 692:0 693:0 694:0 695:0 696:0 697:0 698:0 699:0 700:0 701:0 702:0 703:0 704:0 705:0 706:0 707:0 708:0 709:0 710:0 711:0 712:0 713:0 714:0 715:0 716:0 717:0 718:0 719:0 720:0 721:0 722:0 723:0 724:0 725:0 726:0 727:0 728:0 729:0 730:0 731:0 732:0 733:0 734:0 735:0 736:0 737:0 738:0 739:0 740:0 741:0 742:0 743:0 744:0 745:0 746:0 747:0 748:0 749:0 750:0 751:0 752:0 753:0 754:0 755:0 756:0 757:0 758:0 759:0 760:0 761:0 762:0 763:0 764:0 765:0 766:0 767:0 768:0 769:0 770:0 771:0 772:0 773:0 774:0 775:0 776:0 777:0 778:0 779:0 780:0 781:0 782:0 783:0 784:0 #
7.0343775392008893732054275460541 1:0 2:0 3:0 4:0 5:0 6:0 7:0 8:0 9:0 10:0 11:0 12:0 13:0 14:0 15:0 16:0 17:0 18:0 19:0 20:0 21:0 22:0 23:0 24:0 25:0 26:0 27:0 28:0 29:0 30:0 31:0 32:0 33:0 34:0 35:0 36:0 37:0 38:0 39:0 40:0 41:0 42:0 43:0 44:0 45:0 46:0 47:0 48:0 49:0 50:0 51:0 52:0 53:0 54:0 55:0 56:0 57:0 58:0 59:0 60:0 61:0 62:0 63:0 64:0 65:0 66:0 67:0 68:0 69:0 70:0 71:0 72:0 73:0 74:0 75:0 76:0 77:0 78:0 79:0 80:0 81:0 82:0 83:0 84:0 85:0 86:0 87:0 88:0 89:0 90:0 91:0 92:0 93:0 94:0 95:0 96:0 97:0 98:0 99:0 100:0 101:0 102:0 103:0 104:0 105:0 106:0 107:0 108:0 109:0 110:0 111:0 112:0 113:0 114:0 115:0 116:0 117:0 118:0 119:0 120:0 121:0 122:0 123:0 124:0 125:0 126:0 127:0 128:0 129:0 130:0 131:0 132:0 133:0 134:0 135:0 136:0 137:0 138:0 139:0 140:0 141:0 142:0 143:0 144:0 145:0 146:0 147:0 148:0 149:17 150:56 151:128 152:170 153:254 154:156 155:114 156:21 157:0 158:0 159:0 160:0 161:0 162:0 163:0 164:0 165:0 166:0 167:0 168:0 169:0 170:0 171:0 172:0 173:0 174:0 175:0 176:9 177:191 178:252 179:243 180:247 181:243 182:243 183:252 184:202 185:21 186:0 187:0 188:0 189:0 190:0 191:0 192:0 193:0 194:0 195:0 196:0 197:0 198:0 199:0 200:0 201:0 202:0 203:0 204:85 205:253 206:120 207:0 208:36 209:0 210:0 211:76 212:253 213:75 214:0 215:0 216:0 217:0 218:0 219:0 220:0 221:0 222:0 223:0 224:0 225:0 226:0 227:0 228:0 229:0 230:0 231:0 232:72 233:247 234:185 235:41 236:0 237:0 238:0 239:21 240:249 241:36 242:6 243:109 244:35 245:0 246:0 247:0 248:0 249:0 250:0 251:0 252:0 253:0 254:0 255:0 256:0 257:0 258:0 259:0 260:0 261:145 262:224 263:227 264:120 265:18 266:0 267:204 268:164 269:5 270:125 271:246 272:53 273:0 274:0 275:0 276:0 277:0 278:0 279:0 280:0 281:0 282:0 283:0 284:0 285:0 286:0 287:0 288:0 289:8 290:27 291:196 292:228 293:198 294:32 295:210 296:136 297:176 298:253 299:177 300:0 301:0 302:0 303:0 304:0 305:0 306:0 307:0 308:0 309:0 310:0 311:0 312:0 313:0 314:0 315:0 316:0 317:0 318:0 319:0 320:11 321:177 322:253 323:253 324:253 325:248 326:125 327:47 328:0 329:0 330:0 331:0 332:0 333:0 334:0 335:0 336:0 337:0 338:0 339:0 340:0 341:0 342:0 343:0 344:0 345:0 346:0 347:0 348:0 349:6 350:210 351:253 352:253 353:190 354:38 355:0 356:0 357:0 358:0 359:0 360:0 361:0 362:0 363:0 364:0 365:0 366:0 367:0 368:0 369:0 370:0 371:0 372:0 373:0 374:0 375:0 376:0 377:36 378:251 379:253 380:253 381:182 382:32 383:0 384:0 385:0 386:0 387:0 388:0 389:0 390:0 391:0 392:0 393:0 394:0 395:0 396:0 397:0 398:0 399:0 400:0 401:0 402:0 403:0 404:24 405:228 406:253 407:170 408:67 409:211 410:182 411:0 412:0 413:0 414:0 415:0 416:0 417:0 418:0 419:0 420:0 421:0 422:0 423:0 424:0 425:0 426:0 427:0 428:0 429:0 430:0 431:0 432:40 433:253 434:130 435:10 436:0 437:74 438:238 439:67 440:0 441:0 442:0 443:0 444:0 445:0 446:0 447:0 448:0 449:0 450:0 451:0 452:0 453:0 454:0 455:0 456:0 457:0 458:0 459:0 460:103 461:253 462:4 463:0 464:0 465:0 466:169 467:234 468:18 469:0 470:0 471:0 472:0 473:0 474:0 475:0 476:0 477:0 478:0 479:0 480:0 481:0 482:0 483:0 484:0 485:0 486:0 487:0 488:224 489:253 490:4 491:0 492:0 493:0 494:82 495:246 496:194 497:9 498:0 499:0 500:0 501:0 502:0 503:0 504:0 505:0 506:0 507:0 508:0 509:0 510:0 511:0 512:0 513:0 514:0 515:57 516:249 517:253 518:4 519:0 520:0 521:0 522:0 523:59 524:253 525:20 526:0 527:0 528:0 529:0 530:0 531:0 532:0 533:0 534:0 535:0 536:0 537:0 538:0 539:0 540:0 541:0 542:0 543:86 544:253 545:253 546:4 547:0 548:0 549:0 550:0 551:26 552:253 553:59 554:0 555:0 556:0 557:0 558:0 559:0 560:0 561:0 562:0 563:0 564:0 565:0 566:0 567:0 568:0 569:0 570:0 571:59 572:249 573:253 574:4 575:0 576:0 577:0 578:0 579:26 580:253 581:90 582:0 583:0 584:0 585:0 586:0 587:0 588:0 589:0 590:0 591:0 592:0 593:0 594:0 595:0 596:0 597:0 598:0 599:0 600:133 601:253 602:118 603:7 604:0 605:0 606:0 607:39 608:253 609:66 610:0 611:0 612:0 613:0 614:0 615:0 616:0 617:0 618:0 619:0 620:0 621:0 622:0 623:0 624:0 625:0 626:0 627:0 628:40 629:253 630:253 631:122 632:34 633:0 634:61 635:210 636:253 637:20 638:0 639:0 640:0 641:0 642:0 643:0 644:0 645:0 646:0 647:0 648:0 649:0 650:0 651:0 652:0 653:0 654:0 655:0 656:2 657:47 658:207 659:245 660:248 661:244 662:251 663:249 664:146 665:1 666:0 667:0 668:0 669:0 670:0 671:0 672:0 673:0 674:0 675:0 676:0 677:0 678:0 679:0 680:0 681:0 682:0 683:0 684:0 685:0 686:0 687:46 688:177 689:253 690:187 691:100 692:0 693:0 694:0 695:0 696:0 697:0 698:0 699:0 700:0 701:0 702:0 703:0 704:0 705:0 706:0 707:0 708:0 709:0 710:0 711:0 712:0 713:0 714:0 715:0 716:0 717:0 718:0 719:0 720:0 721:0 722:0 723:0 724:0 725:0 726:0 727:0 728:0 729:0 730:0 731:0 732:0 733:0 734:0 735:0 736:0 737:0 738:0 739:0 740:0 741:0 742:0 743:0 744:0 745:0 746:0 747:0 748:0 749:0 750:0 751:0 752:0 753:0 754:0 755:0 756:0 757:0 758:0 759:0 760:0 761:0 762:0 763:0 764:0 765:0 766:0 767:0 768:0 769:0 770:0 771:0 772:0 773:0 774:0 775:0 776:0 777:0 778:0 779:0 780:0 781:0 782:0 783:0 784:0 #
8.5280791352049938325308175990358 1:0 2:0 3:0 4:0 5:0 6:0 7:0 8:0 9:0 10:0 11:0 12:0 13:0 14:0 15:0 16:0 17:0 18:0 19:0 20:0 21:0 22:0 23:0 24:0 25:0 26:0 27:0 28:0 29:0 30:0 31:0 32:0 33:0 34:0 35:0 36:0 37:0 38:0 39:0 40:0 41:0 42:0 43:0 44:0 45:0 46:0 47:0 48:0 49:0 50:0 51:0 52:0 53:0 54:0 55:0 56:0 57:0 58:0 59:0 60:0 61:0 62:0 63:0 64:0 65:0 66:0 67:0 68:0 69:0 70:0 71:0 72:0 73:0 74:0 75:0 76:0 77:0 78:0 79:0 80:0 81:0 82:0 83:0 84:0 85:0 86:0 87:0 88:0 89:0 90:0 91:0 92:0 93:0 94:0 95:0 96:0 97:0 98:0 99:0 100:0 101:0 102:0 103:0 104:0 105:0 106:0 107:0 108:0 109:0 110:0 111:0 112:0 113:0 114:0 115:0 116:0 117:0 118:0 119:0 120:0 121:0 122:0 123:0 124:0 125:0 126:0 127:0 128:0 129:0 130:0 131:0 132:0 133:0 134:0 135:0 136:0 137:0 138:0 139:0 140:0 141:0 142:0 143:0 144:0 145:0 146:0 147:0 148:0 149:0 150:0 151:0 152:0 153:0 154:0 155:0 156:0 157:0 158:0 159:0 160:0 161:0 162:0 163:0 164:0 165:0 166:0 167:0 168:0 169:0 170:0 171:0 172:0 173:0 174:0 175:0 176:0 177:0 178:0 179:0 180:0 181:0 182:0 183:0 184:0 185:0 186:0 187:0 188:0 189:0 190:0 191:0 192:0 193:0 194:0 195:0 196:0 197:0 198:0 199:0 200:0 201:0 202:0 203:0 204:0 205:0 206:0 207:0 208:0 209:0 210:0 211:0 212:0 213:0 214:0 215:0 216:0 217:0 218:0 219:0 220:0 221:0 222:0 223:0 224:0 225:0 226:0 227:0 228:0 229:0 230:0 231:0 232:0 233:0 234:0 235:0 236:0 237:0 238:0 239:0 240:0 241:0 242:43 243:151 244:230 245:247 246:202 247:101 248:8 249:8 250:0 251:0 252:0 253:0 254:0 255:0 256:0 257:0 258:0 259:0 260:0 261:0 262:0 263:0 264:0 265:0 266:0 267:20 268:116 269:218 270:251 271:254 272:237 273:241 274:254 275:254 276:247 277:207 278:0 279:0 280:0 281:0 282:0 283:0 284:0 285:0 286:0 287:0 288:0 289:0 290:0 291:0 292:0 293:5 294:96 295:233 296:254 297:218 298:128 299:68 300:134 301:242 302:254 303:254 304:178 305:20 306:0 307:0 308:0 309:0 310:0 311:0 312:0 313:0 314:0 315:0 316:0 317:0 318:0 319:0 320:0 321:94 322:254 323:211 324:104 325:5 326:104 327:223 328:254 329:253 330:166 331:149 332:35 333:0 334:0 335:0 336:0 337:0 338:0 339:0 340:0 341:0 342:0 343:0 344:0 345:0 346:0 347:0 348:7 349:226 350:223 351:14 352:69 353:196 354:254 355:253 356:166 357:43 358:0 359:0 360:0 361:0 362:0 363:0 364:0 365:0 366:0 367:0 368:0 369:0 370:0 371:0 372:0 373:0 374:0 375:0 376:0 377:237 378:235 379:142 380:247 381:254 382:213 383:54 384:0 385:0 386:0 387:0 388:0 389:0 390:0 391:0 392:0 393:0 394:0 395:0 396:0 397:0 398:0 399:0 400:0 401:0 402:0 403:0 404:7 405:241 406:254 407:255 408:242 409:113 410:12 411:0 412:0 413:0 414:0 415:0 416:0 417:0 418:0 419:0 420:0 421:0 422:0 423:0 424:0 425:0 426:0 427:0 428:0 429:0 430:0 431:31 432:157 433:253 434:254 435:196 436:39 437:0 438:0 439:0 440:0 441:0 442:0 443:0 444:0 445:0 446:0 447:0 448:0 449:0 450:0 451:0 452:0 453:0 454:0 455:0 456:0 457:4 458:107 459:239 460:254 461:254 462:254 463:106 464:0 465:0 466:0 467:0 468:0 469:0 470:0 471:0 472:0 473:0 474:0 475:0 476:0 477:0 478:0 479:0 480:0 481:0 482:0 483:0 484:53 485:205 486:254 487:248 488:143 489:208 490:247 491:34 492:0 493:0 494:0 495:0 496:0 497:0 498:0 499:0 500:0 501:0 502:0 503:0 504:0 505:0 506:0 507:0 508:0 509:0 510:0 511:75 512:246 513:254 514:217 515:59 516:12 517:235 518:199 519:0 520:0 521:0 522:0 523:0 524:0 525:0 526:0 527:0 528:0 529:0 530:0 531:0 532:0 533:0 534:0 535:0 536:0 537:0 538:93 539:254 540:254 541:167 542:42 543:114 544:204 545:241 546:51 547:0 548:0 549:0 550:0 551:0 552:0 553:0 554:0 555:0 556:0 557:0 558:0 559:0 560:0 561:0 562:0 563:0 564:0 565:0 566:226 567:254 568:254 569:254 570:254 571:254 572:251 573:75 574:0 575:0 576:0 577:0 578:0 579:0 580:0 581:0 582:0 583:0 584:0 585:0 586:0 587:0 588:0 589:0 590:0 591:0 592:0 593:0 594:175 595:195 596:176 597:144 598:95 599:93 600:31 601:0 602:0 603:0 604:0 605:0 606:0 607:0 608:0 609:0 610:0 611:0 612:0 613:0 614:0 615:0 616:0 617:0 618:0 619:0 620:0 621:0 622:0 623:0 624:0 625:0 626:0 627:0 628:0 629:0 630:0 631:0 632:0 633:0 634:0 635:0 636:0 637:0 638:0 639:0 640:0 641:0 642:0 643:0 644:0 645:0 646:0 647:0 648:0 649:0 650:0 651:0 652:0 653:0 654:0 655:0 656:0 657:0 658:0 659:0 660:0 661:0 662:0 663:0 664:0 665:0 666:0 667:0 668:0 669:0 670:0 671:0 672:0 673:0 674:0 675:0 676:0 677:0 678:0 679:0 680:0 681:0 682:0 683:0 684:0 685:0 686:0 687:0 688:0 689:0 690:0 691:0 692:0 693:0 694:0 695:0 696:0 697:0 698:0 699:0 700:0 701:0 702:0 703:0 704:0 705:0 706:0 707:0 708:0 709:0 710:0 711:0 712:0 713:0 714:0 715:0 716:0 717:0 718:0 719:0 720:0 721:0 722:0 723:0 724:0 725:0 726:0 727:0 728:0 729:0 730:0 731:0 732:0 733:0 734:0 735:0 736:0 737:0 738:0 739:0 740:0 741:0 742:0 743:0 744:0 745:0 746:0 747:0 748:0 749:0 750:0 751:0 752:0 753:0 754:0 755:0 756:0 757:0 758:0 759:0 760:0 761:0 762:0 763:0 764:0 765:0 766:0 767:0 768:0 769:0 770:0 771:0 772:0 773:0 774:0 775:0 776:0 777:0 778:0 779:0 780:0 781:0 782:0 783:0 784:0 #
6.7622746638993618262247764505446 1:0 2:0 3:0 4:0 5:0 6:0 7:0 8:0 9:0 10:0 11:0 12:0 13:0 14:0 15:0 16:0 17:0 18:0 19:0 20:0 21:0 22:0 23:0 24:0 25:0 26:0 27:0 28:0 29:0 30:0 31:0 32:0 33:0 34:0 35:0 36:0 37:0 38:0 39:0 40:0 41:0 42:0 43:0 44:0 45:0 46:0 47:0 48:0 49:0 50:0 51:0 52:0 53:0 54:0 55:0 56:0 57:0 58:0 59:0 60:0 61:0 62:0 63:0 64:0 65:0 66:0 67:0 68:0 69:0 70:0 71:0 72:0 73:0 74:0 75:0 76:0 77:0 78:0 79:0 80:0 81:0 82:0 83:0 84:0 85:0 86:0 87:0 88:0 89:0 90:0 91:0 92:0 93:0 94:0 95:0 96:0 97:0 98:0 99:0 100:0 101:0 102:0 103:0 104:0 105:0 106:0 107:0 108:0 109:0 110:0 111:0 112:0 113:0 114:0 115:0 116:0 117:0 118:0 119:0 120:0 121:0 122:0 123:0 124:0 125:0 126:0 127:0 128:0 129:0 130:0 131:0 132:0 133:0 134:0 135:0 136:0 137:0 138:0 139:0 140:0 141:0 142:0 143:0 144:0 145:0 146:0 147:0 148:0 149:0 150:0 151:0 152:0 153:8 154:67 155:220 156:255 157:254 158:226 159:96 160:0 161:0 162:0 163:0 164:0 165:0 166:0 167:0 168:0 169:0 170:0 171:0 172:0 173:0 174:0 175:0 176:0 177:0 178:0 179:0 180:58 181:216 182:254 183:254 184:248 185:231 186:254 187:192 188:0 189:0 190:0 191:0 192:0 193:0 194:0 195:0 196:0 197:0 198:0 199:0 200:0 201:0 202:0 203:0 204:0 205:0 206:1 207:108 208:252 209:254 210:254 211:254 212:245 213:221 214:219 215:67 216:0 217:0 218:0 219:0 220:0 221:0 222:0 223:0 224:0 225:0 226:0 227:0 228:0 229:0 230:0 231:0 232:0 233:0 234:14 235:231 236:254 237:245 238:109 239:254 240:254 241:223 242:60 243:0 244:0 245:0 246:0 247:0 248:0 249:0 250:0 251:0 252:0 253:0 254:0 255:0 256:0 257:0 258:0 259:0 260:0 261:0 262:0 263:127 264:254 265:241 266:72 267:254 268:247 269:53 270:0 271:0 272:0 273:0 274:0 275:0 276:0 277:0 278:0 279:0 280:0 281:0 282:0 283:0 284:0 285:0 286:0 287:0 288:0 289:0 290:0 291:16 292:128 293:254 294:254 295:250 296:60 297:0 298:0 299:0 300:0 301:0 302:0 303:0 304:0 305:0 306:0 307:0 308:0 309:0 310:0 311:0 312:0 313:0 314:0 315:0 316:0 317:0 318:0 319:0 320:57 321:254 322:254 323:211 324:10 325:0 326:0 327:0 328:0 329:0 330:0 331:0 332:0 333:0 334:0 335:0 336:0 337:0 338:0 339:0 340:0 341:0 342:0 343:0 344:0 345:0 346:0 347:0 348:113 349:254 350:254 351:254 352:139 353:0 354:0 355:0 356:0 357:0 358:0 359:0 360:0 361:0 362:0 363:0 364:0 365:0 366:0 367:0 368:0 369:0 370:0 371:0 372:0 373:0 374:0 375:84 376:239 377:184 378:37 379:244 380:248 381:59 382:0 383:0 384:0 385:0 386:0 387:0 388:0 389:0 390:0 391:0 392:0 393:0 394:0 395:0 396:0 397:0 398:0 399:0 400:0 401:0 402:0 403:179 404:232 405:48 406:0 407:66 408:243 409:220 410:0 411:0 412:0 413:0 414:0 415:0 416:0 417:0 418:0 419:0 420:0 421:0 422:0 423:0 424:0 425:0 426:0 427:0 428:0 429:0 430:44 431:254 432:173 433:0 434:0 435:0 436:202 437:254 438:85 439:0 440:0 441:0 442:0 443:0 444:0 445:0 446:0 447:0 448:0 449:0 450:0 451:0 452:0 453:0 454:0 455:0 456:0 457:0 458:114 459:254 460:54 461:0 462:0 463:0 464:84 465:254 466:207 467:10 468:0 469:0 470:0 471:0 472:0 473:0 474:0 475:0 476:0 477:0 478:0 479:0 480:0 481:0 482:0 483:0 484:0 485:0 486:151 487:250 488:9 489:0 490:0 491:0 492:9 493:210 494:254 495:92 496:0 497:0 498:0 499:0 500:0 501:0 502:0 503:0 504:0 505:0 506:0 507:0 508:0 509:0 510:0 511:0 512:0 513:0 514:207 515:169 516:0 517:0 518:0 519:0 520:0 521:198 522:254 523:113 524:0 525:0 526:0 527:0 528:0 529:0 530:0 531:0 532:0 533:0 534:0 535:0 536:0 537:0 538:0 539:0 540:0 541:0 542:190 543:184 544:2 545:0 546:0 547:0 548:0 549:198 550:254 551:113 552:0 553:0 554:0 555:0 556:0 557:0 558:0 559:0 560:0 561:0 562:0 563:0 564:0 565:0 566:0 567:0 568:0 569:0 570:114 571:254 572:58 573:0 574:0 575:0 576:0 577:198 578:254 579:113 580:0 581:0 582:0 583:0 584:0 585:0 586:0 587:0 588:0 589:0 590:0 591:0 592:0 593:0 594:0 595:0 596:0 597:0 598:114 599:254 600:197 601:0 602:0 603:0 604:0 605:198 606:254 607:81 608:0 609:0 610:0 611:0 612:0 613:0 614:0 615:0 616:0 617:0 618:0 619:0 620:0 621:0 622:0 623:0 624:0 625:0 626:11 627:209 628:252 629:154 630:36 631:0 632:114 633:252 634:159 635:1 636:0 637:0 638:0 639:0 640:0 641:0 642:0 643:0 644:0 645:0 646:0 647:0 648:0 649:0 650:0 651:0 652:0 653:0 654:0 655:90 656:242 657:254 658:240 659:218 660:250 661:228 662:44 663:0 664:0 665:0 666:0 667:0 668:0 669:0 670:0 671:0 672:0 673:0 674:0 675:0 676:0 677:0 678:0 679:0 680:0 681:0 682:0 683:0 684:60 685:170 686:254 687:254 688:169 689:36 690:0 691:0 692:0 693:0 694:0 695:0 696:0 697:0 698:0 699:0 700:0 701:0 702:0 703:0 704:0 705:0 706:0 707:0 708:0 709:0 710:0 711:0 712:0 713:0 714:0 715:0 716:0 717:0 718:0 719:0 720:0 721:0 722:0 723:0 724:0 725:0 726:0 727:0 728:0 729:0 730:0 731:0 732:0 733:0 734:0 735:0 736:0 737:0 738:0 739:0 740:0 741:0 742:0 743:0 744:0 745:0 746:0 747:0 748:0 749:0 750:0 751:0 752:0 753:0 754:0 755:0 756:0 757:0 758:0 759:0 760:0 761:0 762:0 763:0 764:0 765:0 766:0 767:0 768:0 769:0 770:0 771:0 772:0 773:0 774:0 775:0 776:0 777:0 778:0 779:0 780:0 781:0 782:0 783:0 784:0 #
8.5280791352049938325308175990358 1:0 2:0 3:0 4:0 5:0 6:0 7:0 8:0 9:0 10:0 11:0 12:0 13:0 14:0 15:0 16:0 17:0 18:0 19:0 20:0 21:0 22:0 23:0 24:0 25:0 26:0 27:0 28:0 29:0 30:0 31:0 32:0 33:0 34:0 35:0 36:0 37:0 38:0 39:0 40:0 41:0 42:0 43:0 44:0 45:0 46:0 47:0 48:0 49:0 50:0 51:0 52:0 53:0 54:0 55:0 56:0 57:0 58:0 59:0 60:0 61:0 62:0 63:0 64:0 65:0 66:0 67:0 68:0 69:0 70:0 71:0 72:0 73:0 74:0 75:0 76:0 77:0 78:0 79:0 80:0 81:0 82:0 83:0 84:0 85:0 86:0 87:0 88:0 89:0 90:0 91:0 92:0 93:0 94:0 95:0 96:0 97:0 98:0 99:0 100:0 101:0 102:0 103:0 104:0 105:0 106:0 107:0 108:0 109:0 110:0 111:0 112:0 113:0 114:0 115:0 116:0 117:0 118:0 119:0 120:0 121:0 122:0 123:0 124:3 125:24 126:108 127:180 128:253 129:76 130:19 131:0 132:0 133:0 134:0 135:0 136:0 137:0 138:0 139:0 140:0 141:0 142:0 143:0 144:0 145:0 146:0 147:0 148:0 149:0 150:0 151:0 152:45 153:252 154:252 155:235 156:206 157:207 158:117 159:0 160:0 161:43 162:22 163:0 164:0 165:0 166:0 167:0 168:0 169:0 170:0 171:0 172:0 173:0 174:0 175:0 176:0 177:0 178:0 179:0 180:170 181:252 182:170 183:44 184:0 185:0 186:0 187:0 188:68 189:246 190:199 191:0 192:0 193:0 194:0 195:0 196:0 197:0 198:0 199:0 200:0 201:0 202:0 203:0 204:0 205:0 206:0 207:0 208:159 209:252 210:111 211:0 212:0 213:0 214:0 215:26 216:203 217:252 218:188 219:0 220:0 221:0 222:0 223:0 224:0 225:0 226:0 227:0 228:0 229:0 230:0 231:0 232:0 233:0 234:0 235:0 236:34 237:252 238:246 239:146 240:0 241:0 242:74 243:205 244:252 245:252 246:63 247:0 248:0 249:0 250:0 251:0 252:0 253:0 254:0 255:0 256:0 257:0 258:0 259:0 260:0 261:0 262:0 263:0 264:0 265:95 266:247 267:253 268:201 269:34 270:212 271:253 272:234 273:21 274:0 275:0 276:0 277:0 278:0 279:0 280:0 281:0 282:0 283:0 284:0 285:0 286:0 287:0 288:0 289:0 290:0 291:0 292:0 293:0 294:67 295:202 296:252 297:253 298:244 299:123 300:17 301:0 302:0 303:0 304:0 305:0 306:0 307:0 308:0 309:0 310:0 311:0 312:0 313:0 314:0 315:0 316:0 317:0 318:0 319:0 320:0 321:0 322:0 323:93 324:252 325:253 326:206 327:0 328:0 329:0 330:0 331:0 332:0 333:0 334:0 335:0 336:0 337:0 338:0 339:0 340:0 341:0 342:0 343:0 344:0 345:0 346:0 347:0 348:0 349:0 350:100 351:224 352:252 353:253 354:206 355:0 356:0 357:0 358:0 359:0 360:0 361:0 362:0 363:0 364:0 365:0 366:0 367:0 368:0 369:0 370:0 371:0 372:0 373:0 374:0 375:0 376:0 377:22 378:215 379:252 380:95 381:253 382:248 383:63 384:0 385:0 386:0 387:0 388:0 389:0 390:0 391:0 392:0 393:0 394:0 395:0 396:0 397:0 398:0 399:0 400:0 401:0 402:0 403:0 404:13 405:212 406:247 407:94 408:0 409:255 410:253 411:131 412:0 413:0 414:0 415:0 416:0 417:0 418:0 419:0 420:0 421:0 422:0 423:0 424:0 425:0 426:0 427:0 428:0 429:0 430:0 431:0 432:118 433:252 434:110 435:0 436:0 437:253 438:252 439:183 440:0 441:0 442:0 443:0 444:0 445:0 446:0 447:0 448:0 449:0 450:0 451:0 452:0 453:0 454:0 455:0 456:0 457:0 458:0 459:85 460:253 461:240 462:50 463:0 464:0 465:253 466:252 467:183 468:0 469:0 470:0 471:0 472:0 473:0 474:0 475:0 476:0 477:0 478:0 479:0 480:0 481:0 482:0 483:0 484:0 485:0 486:0 487:157 488:245 489:79 490:0 491:0 492:0 493:253 494:252 495:89 496:0 497:0 498:0 499:0 500:0 501:0 502:0 503:0 504:0 505:0 506:0 507:0 508:0 509:0 510:0 511:0 512:0 513:0 514:85 515:250 516:230 517:0 518:0 519:0 520:106 521:253 522:210 523:6 524:0 525:0 526:0 527:0 528:0 529:0 530:0 531:0 532:0 533:0 534:0 535:0 536:0 537:0 538:0 539:0 540:0 541:0 542:51 543:243 544:244 545:50 546:0 547:9 548:233 549:255 550:144 551:0 552:0 553:0 554:0 555:0 556:0 557:0 558:0 559:0 560:0 561:0 562:0 563:0 564:0 565:0 566:0 567:0 568:0 569:0 570:93 571:252 572:243 573:50 574:66 575:194 576:252 577:218 578:33 579:0 580:0 581:0 582:0 583:0 584:0 585:0 586:0 587:0 588:0 589:0 590:0 591:0 592:0 593:0 594:0 595:0 596:0 597:0 598:25 599:236 600:253 601:209 602:234 603:252 604:252 605:84 606:0 607:0 608:0 609:0 610:0 611:0 612:0 613:0 614:0 615:0 616:0 617:0 618:0 619:0 620:0 621:0 622:0 623:0 624:0 625:0 626:0 627:188 628:253 629:252 630:252 631:218 632:56 633:0 634:0 635:0 636:0 637:0 638:0 639:0 640:0 641:0 642:0 643:0 644:0 645:0 646:0 647:0 648:0 649:0 650:0 651:0 652:0 653:0 654:0 655:63 656:253 657:178 658:106 659:14 660:0 661:0 662:0 663:0 664:0 665:0 666:0 667:0 668:0 669:0 670:0 671:0 672:0 673:0 674:0 675:0 676:0 677:0 678:0 679:0 680:0 681:0 682:0 683:0 684:0 685:0 686:0 687:0 688:0 689:0 690:0 691:0 692:0 693:0 694:0 695:0 696:0 697:0 698:0 699:0 700:0 701:0 702:0 703:0 704:0 705:0 706:0 707:0 708:0 709:0 710:0 711:0 712:0 713:0 714:0 715:0 716:0 717:0 718:0 719:0 720:0 721:0 722:0 723:0 724:0 725:0 726:0 727:0 728:0 729:0 730:0 731:0 732:0 733:0 734:0 735:0 736:0 737:0 738:0 739:0 740:0 741:0 742:0 743:0 744:0 745:0 746:0 747:0 748:0 749:0 750:0 751:0 752:0 753:0 754:0 755:0 756:0 757:0 758:0 759:0 760:0 761:0 762:0 763:0 764:0 765:0 766:0 767:0 768:0 769:0 770:0 771:0 772:0 773:0 774:0 775:0 776:0 777:0 778:0 779:0 780:0 781:0 782:0 783:0 784:0 #
-1.4599439570669332510988169815391 1:0 2:0 3:0 4:0 5:0 6:0 7:0 8:0 9:0 10:0 11:0 12:0 13:0 14:0 15:0 16:0 17:0 18:0 19:0 20:0 21:0 22:0 23:0 24:0 25:0 26:0 27:0 28:0 29:0 30:0 31:0 32:0 33:0 34:0 35:0 36:0 37:0 38:0 39:0 40:0 41:0 42:0 43:0 44:0 45:0 46:0 47:0 48:0 49:0 50:0 51:0 52:0 53:0 54:0 55:0 56:0 57:0 58:0 59:0 60:0 61:0 62:0 63:0 64:0 65:0 66:0 67:0 68:0 69:0 70:11 71:209 72:124 73:0 74:0 75:0 76:0 77:0 78:0 79:0 80:0 81:0 82:0 83:0 84:0 85:0 86:0 87:0 88:0 89:0 90:0 91:0 92:0 93:0 94:0 95:0 96:0 97:0 98:148 99:232 100:20 101:0 102:0 103:0 104:0 105:0 106:0 107:0 108:0 109:0 110:0 111:0 112:0 113:0 114:0 115:0 116:0 117:0 118:0 119:0 120:0 121:0 122:0 123:0 124:0 125:45 126:229 127:108 128:0 129:0 130:0 131:0 132:0 133:0 134:0 135:0 136:0 137:0 138:0 139:0 140:0 141:0 142:0 143:0 144:0 145:0 146:0 147:0 148:0 149:0 150:0 151:0 152:0 153:184 154:200 155:3 156:0 157:0 158:0 159:0 160:0 161:0 162:0 163:0 164:0 165:0 166:0 167:0 168:0 169:0 170:0 171:0 172:0 173:0 174:0 175:0 176:0 177:0 178:0 179:0 180:29 181:243 182:126 183:0 184:0 185:0 186:0 187:0 188:0 189:0 190:0 191:0 192:0 193:0 194:0 195:0 196:0 197:0 198:0 199:0 200:0 201:0 202:0 203:0 204:0 205:0 206:0 207:0 208:126 209:230 210:41 211:0 212:0 213:0 214:0 215:0 216:0 217:0 218:0 219:0 220:0 221:0 222:0 223:0 224:0 225:0 226:0 227:0 228:0 229:0 230:0 231:0 232:0 233:0 234:0 235:10 236:242 237:107 238:0 239:0 240:0 241:0 242:0 243:0 244:0 245:0 246:0 247:0 248:0 249:0 250:0 251:0 252:0 253:0 254:0 255:0 256:0 257:0 258:0 259:0 260:0 261:0 262:0 263:128 264:193 265:0 266:0 267:0 268:0 269:0 270:0 271:0 272:0 273:0 274:0 275:0 276:0 277:0 278:0 279:0 280:0 281:0 282:0 283:0 284:0 285:0 286:0 287:0 288:0 289:0 290:5 291:215 292:130 293:0 294:0 295:0 296:0 297:0 298:0 299:0 300:0 301:0 302:0 303:0 304:0 305:0 306:0 307:0 308:0 309:0 310:0 311:0 312:0 313:0 314:0 315:0 316:0 317:0 318:114 319:246 320:9 321:0 322:0 323:0 324:0 325:18 326:83 327:106 328:45 329:0 330:0 331:0 332:0 333:0 334:0 335:0 336:0 337:0 338:0 339:0 340:0 341:0 342:0 343:0 344:0 345:0 346:179 347:189 348:0 349:0 350:0 351:39 352:163 353:235 354:235 355:176 356:245 357:120 358:0 359:0 360:0 361:0 362:0 363:0 364:0 365:0 366:0 367:0 368:0 369:0 370:0 371:0 372:0 373:21 374:241 375:88 376:0 377:4 378:146 379:252 380:203 381:63 382:0 383:0 384:105 385:240 386:36 387:0 388:0 389:0 390:0 391:0 392:0 393:0 394:0 395:0 396:0 397:0 398:0 399:0 400:0 401:43 402:254 403:52 404:5 405:159 406:238 407:99 408:2 409:0 410:0 411:0 412:3 413:239 414:112 415:0 416:0 417:0 418:0 419:0 420:0 421:0 422:0 423:0 424:0 425:0 426:0 427:0 428:0 429:43 430:254 431:52 432:101 433:225 434:54 435:0 436:0 437:0 438:0 439:0 440:0 441:238 442:112 443:0 444:0 445:0 446:0 447:0 448:0 449:0 450:0 451:0 452:0 453:0 454:0 455:0 456:0 457:43 458:254 459:52 460:231 461:132 462:0 463:0 464:0 465:0 466:0 467:0 468:0 469:238 470:97 471:0 472:0 473:0 474:0 475:0 476:0 477:0 478:0 479:0 480:0 481:0 482:0 483:0 484:0 485:100 486:254 487:52 488:115 489:125 490:0 491:0 492:0 493:0 494:0 495:0 496:123 497:235 498:15 499:0 500:0 501:0 502:0 503:0 504:0 505:0 506:0 507:0 508:0 509:0 510:0 511:0 512:0 513:30 514:246 515:112 516:0 517:0 518:0 519:0 520:0 521:0 522:0 523:86 524:244 525:147 526:0 527:0 528:0 529:0 530:0 531:0 532:0 533:0 534:0 535:0 536:0 537:0 538:0 539:0 540:0 541:0 542:144 543:238 544:72 545:6 546:0 547:0 548:3 549:65 550:146 551:245 552:184 553:9 554:0 555:0 556:0 557:0 558:0 559:0 560:0 561:0 562:0 563:0 564:0 565:0 566:0 567:0 568:0 569:0 570:12 571:214 572:254 573:214 574:164 575:174 576:235 577:249 578:221 579:99 580:5 581:0 582:0 583:0 584:0 585:0 586:0 587:0 588:0 589:0 590:0 591:0 592:0 593:0 594:0 595:0 596:0 597:0 598:0 599:24 600:114 601:180 602:254 603:206 604:140 605:35 606:0 607:0 608:0 609:0 610:0 611:0 612:0 613:0 614:0 615:0 616:0 617:0 618:0 619:0 620:0 621:0 622:0 623:0 624:0 625:0 626:0 627:0 628:0 629:0 630:0 631:0 632:0 633:0 634:0 635:0 636:0 637:0 638:0 639:0 640:0 641:0 642:0 643:0 644:0 645:0 646:0 647:0 648:0 649:0 650:0 651:0 652:0 653:0 654:0 655:0 656:0 657:0 658:0 659:0 660:0 661:0 662:0 663:0 664:0 665:0 666:0 667:0 668:0 669:0 670:0 671:0 672:0 673:0 674:0 675:0 676:0 677:0 678:0 679:0 680:0 681:0 682:0 683:0 684:0 685:0 686:0 687:0 688:0 689:0 690:0 691:0 692:0 693:0 694:0 695:0 696:0 697:0 698:0 699:0 700:0 701:0 702:0 703:0 704:0 705:0 706:0 707:0 708:0 709:0 710:0 711:0 712:0 713:0 714:0 715:0 716:0 717:0 718:0 719:0 720:0 721:0 722:0 723:0 724:0 725:0 726:0 727:0 728:0 729:0 730:0 731:0 732:0 733:0 734:0 735:0 736:0 737:0 738:0 739:0 740:0 741:0 742:0 743:0 744:0 745:0 746:0 747:0 748:0 749:0 750:0 751:0 752:0 753:0 754:0 755:0 756:0 757:0 758:0 759:0 760:0 761:0 762:0 763:0 764:0 765:0 766:0 767:0 768:0 769:0 770:0 771:0 772:0 773:0 774:0 775:0 776:0 777:0 778:0 779:0 780:0 781:0 782:0 783:0 784:0 #
-0.91127122937967897087219171226025 1:0 2:0 3:0 4:0 5:0 6:0 7:0 8:0 9:0 10:0 11:0 12:0 13:0 14:0 15:0 16:0 17:0 18:0 19:0 20:0 21:0 22:0 23:0 24:0 25:0 26:0 27:0 28:0 29:0 30:0 31:0 32:0 33:0 34:0 35:0 36:0 37:0 38:0 39:0 40:0 41:0 42:0 43:0 44:0 45:0 46:0 47:0 48:0 49:0 50:0 51:0 52:0 53:0 54:0 55:0 56:0 57:0 58:0 59:0 60:0 61:0 62:0 63:0 64:0 65:0 66:0 67:0 68:0 69:0 70:157 71:235 72:20 73:0 74:0 75:0 76:0 77:0 78:0 79:0 80:0 81:0 82:0 83:0 84:0 85:0 86:0 87:0 88:0 89:0 90:0 91:0 92:0 93:0 94:0 95:0 96:6 97:214 98:254 99:254 100:196 101:27 102:0 103:0 104:0 105:0 106:0 107:0 108:0 109:0 110:0 111:0 112:0 113:0 114:0 115:0 116:0 117:0 118:0 119:0 120:0 121:0 122:0 123:0 124:9 125:254 126:254 127:254 128:254 129:76 130:0 131:0 132:0 133:0 134:0 135:0 136:0 137:0 138:0 139:0 140:0 141:0 142:0 143:0 144:0 145:0 146:0 147:0 148:0 149:0 150:0 151:0 152:22 153:254 154:254 155:254 156:254 157:44 158:0 159:0 160:0 161:0 162:0 163:0 164:0 165:0 166:0 167:0 168:0 169:0 170:0 171:0 172:0 173:0 174:0 175:0 176:0 177:0 178:0 179:0 180:138 181:254 182:254 183:254 184:140 185:10 186:0 187:0 188:0 189:0 190:0 191:0 192:0 193:0 194:0 195:0 196:0 197:0 198:0 199:0 200:0 201:0 202:0 203:0 204:0 205:0 206:0 207:17 208:237 209:254 210:254 211:173 212:8 213:0 214:0 215:0 216:0 217:0 218:0 219:0 220:0 221:0 222:0 223:0 224:0 225:0 226:0 227:0 228:0 229:0 230:0 231:0 232:0 233:0 234:0 235:85 236:254 237:254 238:230 239:12 240:0 241:0 242:0 243:0 244:0 245:0 246:0 247:0 248:0 249:0 250:0 251:0 252:0 253:0 254:0 255:0 256:0 257:0 258:0 259:0 260:0 261:0 262:0 263:169 264:254 265:254 266:157 267:0 268:0 269:0 270:0 271:0 272:0 273:0 274:0 275:0 276:0 277:0 278:0 279:0 280:0 281:0 282:0 283:0 284:0 285:0 286:0 287:0 288:0 289:0 290:34 291:251 292:254 293:254 294:10 295:0 296:0 297:0 298:0 299:0 300:0 301:0 302:0 303:0 304:0 305:0 306:0 307:0 308:0 309:0 310:0 311:0 312:0 313:0 314:0 315:0 316:0 317:0 318:36 319:254 320:254 321:254 322:4 323:0 324:0 325:0 326:0 327:0 328:0 329:0 330:0 331:0 332:0 333:0 334:0 335:0 336:0 337:0 338:0 339:0 340:0 341:0 342:0 343:0 344:0 345:0 346:36 347:254 348:254 349:254 350:24 351:116 352:137 353:211 354:211 355:113 356:11 357:0 358:0 359:0 360:0 361:0 362:0 363:0 364:0 365:0 366:0 367:0 368:0 369:0 370:0 371:0 372:0 373:0 374:74 375:254 376:254 377:254 378:234 379:254 380:254 381:254 382:254 383:254 384:216 385:45 386:0 387:0 388:0 389:0 390:0 391:0 392:0 393:0 394:0 395:0 396:0 397:0 398:0 399:0 400:0 401:0 402:126 403:254 404:254 405:254 406:254 407:254 408:254 409:254 410:254 411:254 412:254 413:187 414:8 415:0 416:0 417:0 418:0 419:0 420:0 421:0 422:0 423:0 424:0 425:0 426:0 427:0 428:0 429:0 430:98 431:254 432:254 433:254 434:254 435:254 436:254 437:216 438:179 439:254 440:254 441:254 442:82 443:0 444:0 445:0 446:0 447:0 448:0 449:0 450:0 451:0 452:0 453:0 454:0 455:0 456:0 457:0 458:36 459:254 460:254 461:254 462:254 463:254 464:254 465:111 466:1 467:108 468:254 469:254 470:135 471:0 472:0 473:0 474:0 475:0 476:0 477:0 478:0 479:0 480:0 481:0 482:0 483:0 484:0 485:0 486:16 487:225 488:254 489:254 490:254 491:223 492:185 493:20 494:0 495:2 496:207 497:254 498:231 499:20 500:0 501:0 502:0 503:0 504:0 505:0 506:0 507:0 508:0 509:0 510:0 511:0 512:0 513:0 514:0 515:141 516:254 517:254 518:254 519:234 520:140 521:56 522:41 523:74 524:213 525:254 526:254 527:36 528:0 529:0 530:0 531:0 532:0 533:0 534:0 535:0 536:0 537:0 538:0 539:0 540:0 541:0 542:0 543:13 544:183 545:254 546:254 547:254 548:254 549:254 550:254 551:254 552:254 553:254 554:249 555:32 556:0 557:0 558:0 559:0 560:0 561:0 562:0 563:0 564:0 565:0 566:0 567:0 568:0 569:0 570:0 571:0 572:28 573:181 574:254 575:254 576:254 577:254 578:254 579:254 580:254 581:254 582:164 583:0 584:0 585:0 586:0 587:0 588:0 589:0 590:0 591:0 592:0 593:0 594:0 595:0 596:0 597:0 598:0 599:0 600:0 601:0 602:75 603:128 604:165 605:239 606:254 607:254 608:254 609:175 610:33 611:0 612:0 613:0 614:0 615:0 616:0 617:0 618:0 619:0 620:0 621:0 622:0 623:0 624:0 625:0 626:0 627:0 628:0 629:0 630:0 631:0 632:0 633:0 634:0 635:0 636:0 637:0 638:0 639:0 640:0 641:0 642:0 643:0 644:0 645:0 646:0 647:0 648:0 649:0 650:0 651:0 652:0 653:0 654:0 655:0 656:0 657:0 658:0 659:0 660:0 661:0 662:0 663:0 664:0 665:0 666:0 667:0 668:0 669:0 670:0 671:0 672:0 673:0 674:0 675:0 676:0 677:0 678:0 679:0 680:0 681:0 682:0 683:0 684:0 685:0 686:0 687:0 688:0 689:0 690:0 691:0 692:0 693:0 694:0 695:0 696:0 697:0 698:0 699:0 700:0 701:0 702:0 703:0 704:0 705:0 706:0 707:0 708:0 709:0 710:0 711:0 712:0 713:0 714:0 715:0 716:0 717:0 718:0 719:0 720:0 721:0 722:0 723:0 724:0 725:0 726:0 727:0 728:0 729:0 730:0 731:0 732:0 733:0 734:0 735:0 736:0 737:0 738:0 739:0 740:0 741:0 742:0 743:0 744:0 745:0 746:0 747:0 748:0 749:0 750:0 751:0 752:0 753:0 754:0 755:0 756:0 757:0 758:0 759:0 760:0 761:0 762:0 763:0 764:0 765:0 766:0 767:0 768:0 769:0 770:0 771:0 772:0 773:0 774:0 775:0 776:0 777:0 778:0 779:0 780:0 781:0 782:0 783:0 784:0 #
-8.5280791352049938325308175990358 1:0 2:0 3:0 4:0 5:0 6:0 7:0 8:0 9:0 10:0 11:0 12:0 13:0 14:0 15:0 16:0 17:0 18:0 19:0 20:0 21:0 22:0 23:0 24:0 25:0 26:0 27:0 28:0 29:0 30:0 31:0 32:0 33:0 34:0 35:0 36:0 37:0 38:0 39:0 40:0 41:0 42:0 43:0 44:0 45:0 46:0 47:0 48:0 49:0 50:0 51:0 52:0 53:0 54:0 55:0 56:0 57:0 58:0 59:0 60:0 61:0 62:0 63:0 64:0 65:0 66:0 67:0 68:0 69:0 70:0 71:0 72:0 73:0 74:0 75:0 76:0 77:0 78:0 79:0 80:0 81:0 82:0 83:0 84:0 85:0 86:0 87:0 88:0 89:0 90:0 91:0 92:0 93:0 94:0 95:0 96:0 97:0 98:0 99:177 100:126 101:0 102:0 103:0 104:0 105:0 106:0 107:0 108:0 109:0 110:0 111:0 112:0 113:0 114:0 115:0 116:0 117:0 118:0 119:0 120:0 121:0 122:0 123:0 124:0 125:0 126:0 127:203 128:202 129:0 130:0 131:0 132:0 133:0 134:0 135:0 136:0 137:0 138:0 139:0 140:0 141:0 142:0 143:0 144:0 145:0 146:0 147:0 148:0 149:0 150:0 151:0 152:0 153:0 154:0 155:203 156:202 157:0 158:0 159:0 160:0 161:0 162:0 163:0 164:0 165:0 166:0 167:0 168:0 169:0 170:0 171:0 172:0 173:0 174:0 175:0 176:0 177:0 178:0 179:0 180:0 181:0 182:15 183:229 184:202 185:0 186:0 187:0 188:0 189:0 190:0 191:0 192:0 193:0 194:0 195:0 196:0 197:0 198:0 199:0 200:0 201:0 202:0 203:0 204:0 205:0 206:0 207:0 208:0 209:0 210:48 211:254 212:137 213:0 214:0 215:0 216:0 217:0 218:0 219:0 220:0 221:0 222:0 223:0 224:0 225:0 226:0 227:0 228:0 229:0 230:0 231:0 232:0 233:0 234:0 235:0 236:0 237:0 238:158 239:255 240:40 241:0 242:0 243:0 244:0 245:0 246:0 247:0 248:0 249:0 250:0 251:0 252:0 253:0 254:0 255:0 256:0 257:0 258:0 259:0 260:0 261:0 262:0 263:0 264:0 265:6 266:212 267:240 268:27 269:0 270:0 271:0 272:0 273:0 274:0 275:0 276:0 277:0 278:0 279:0 280:0 281:0 282:0 283:0 284:0 285:0 286:0 287:0 288:0 289:0 290:0 291:0 292:0 293:74 294:254 295:128 296:0 297:0 298:0 299:0 300:0 301:0 302:0 303:0 304:0 305:0 306:0 307:0 308:0 309:0 310:0 311:0 312:0 313:0 314:0 315:0 316:0 317:0 318:0 319:0 320:0 321:158 322:254 323:52 324:0 325:0 326:0 327:0 328:0 329:0 330:0 331:0 332:0 333:0 334:0 335:0 336:0 337:0 338:0 339:0 340:0 341:0 342:0 343:0 344:0 345:0 346:0 347:0 348:2 349:215 350:245 351:68 352:41 353:31 354:0 355:0 356:0 357:0 358:0 359:0 360:0 361:0 362:0 363:0 364:0 365:0 366:0 367:0 368:0 369:0 370:0 371:0 372:0 373:0 374:0 375:0 376:21 377:254 378:254 379:254 380:254 381:244 382:30 383:0 384:0 385:0 386:0 387:0 388:0 389:0 390:0 391:0 392:0 393:0 394:0 395:0 396:0 397:0 398:0 399:0 400:0 401:0 402:0 403:0 404:131 405:254 406:254 407:203 408:122 409:129 410:233 411:24 412:0 413:0 414:0 415:0 416:0 417:0 418:0 419:0 420:0 421:0 422:0 423:0 424:0 425:0 426:0 427:0 428:0 429:0 430:0 431:0 432:216 433:250 434:57 435:4 436:0 437:0 438:164 439:160 440:0 441:0 442:0 443:0 444:0 445:0 446:0 447:0 448:0 449:0 450:0 451:0 452:0 453:0 454:0 455:0 456:0 457:0 458:0 459:0 460:247 461:238 462:0 463:0 464:0 465:0 466:75 467:245 468:0 469:0 470:0 471:0 472:0 473:0 474:0 475:0 476:0 477:0 478:0 479:0 480:0 481:0 482:0 483:0 484:0 485:0 486:0 487:0 488:189 489:238 490:0 491:0 492:0 493:0 494:0 495:243 496:0 497:0 498:0 499:0 500:0 501:0 502:0 503:0 504:0 505:0 506:0 507:0 508:0 509:0 510:0 511:0 512:0 513:0 514:0 515:0 516:166 517:212 518:0 519:0 520:0 521:0 522:0 523:243 524:0 525:0 526:0 527:0 528:0 529:0 530:0 531:0 532:0 533:0 534:0 535:0 536:0 537:0 538:0 539:0 540:0 541:0 542:0 543:0 544:127 545:238 546:0 547:0 548:0 549:0 550:39 551:245 552:0 553:0 554:0 555:0 556:0 557:0 558:0 559:0 560:0 561:0 562:0 563:0 564:0 565:0 566:0 567:0 568:0 569:0 570:0 571:0 572:15 573:235 574:74 575:0 576:0 577:0 578:139 579:246 580:0 581:0 582:0 583:0 584:0 585:0 586:0 587:0 588:0 589:0 590:0 591:0 592:0 593:0 594:0 595:0 596:0 597:0 598:0 599:0 600:0 601:109 602:244 603:118 604:0 605:83 606:248 607:177 608:0 609:0 610:0 611:0 612:0 613:0 614:0 615:0 616:0 617:0 618:0 619:0 620:0 621:0 622:0 623:0 624:0 625:0 626:0 627:0 628:0 629:1 630:141 631:253 632:243 633:253 634:230 635:6 636:0 637:0 638:0 639:0 640:0 641:0 642:0 643:0 644:0 645:0 646:0 647:0 648:0 649:0 650:0 651:0 652:0 653:0 654:0 655:0 656:0 657:0 658:0 659:0 660:0 661:0 662:0 663:0 664:0 665:0 666:0 667:0 668:0 669:0 670:0 671:0 672:0 673:0 674:0 675:0 676:0 677:0 678:0 679:0 680:0 681:0 682:0 683:0 684:0 685:0 686:0 687:0 688:0 689:0 690:0 691:0 692:0 693:0 694:0 695:0 696:0 697:0 698:0 699:0 700:0 701:0 702:0 703:0 704:0 705:0 706:0 707:0 708:0 709:0 710:0 711:0 712:0 713:0 714:0 715:0 716:0 717:0 718:0 719:0 720:0 721:0 722:0 723:0 724:0 725:0 726:0 727:0 728:0 729:0 730:0 731:0 732:0 733:0 734:0 735:0 736:0 737:0 738:0 739:0 740:0 741:0 742:0 743:0 744:0 745:0 746:0 747:0 748:0 749:0 750:0 751:0 752:0 753:0 754:0 755:0 756:0 757:0 758:0 759:0 760:0 761:0 762:0 763:0 764:0 765:0 766:0 767:0 768:0 769:0 770:0 771:0 772:0 773:0 774:0 775:0 776:0 777:0 778:0 779:0 780:0 781:0 782:0 783:0 784:0 #
8.5280791352049938325308175990358 1:0 2:0 3:0 4:0 5:0 6:0 7:0 8:0 9:0 10:0 11:0 12:0 13:0 14:0 15:0 16:0 17:0 18:0 19:0 20:0 21:0 22:0 23:0 24:0 25:0 26:0 27:0 28:0 29:0 30:0 31:0 32:0 33:0 34:0 35:0 36:0 37:0 38:0 39:0 40:0 41:0 42:0 43:0 44:0 45:0 46:0 47:0 48:0 49:0 50:0 51:0 52:0 53:0 54:0 55:0 56:0 57:0 58:0 59:0 60:0 61:0 62:0 63:0 64:0 65:0 66:0 67:0 68:0 69:0 70:0 71:0 72:0 73:0 74:0 75:0 76:0 77:0 78:0 79:0 80:0 81:0 82:0 83:0 84:0 85:0 86:0 87:0 88:0 89:0 90:0 91:0 92:0 93:0 94:0 95:79 96:172 97:152 98:63 99:28 100:0 101:0 102:0 103:0 104:0 105:0 106:0 107:0 108:0 109:0 110:0 111:0 112:0 113:0 114:0 115:0 116:0 117:0 118:0 119:0 120:0 121:73 122:222 123:245 124:225 125:226 126:158 127:218 128:89 129:0 130:0 131:0 132:0 133:0 134:0 135:0 136:0 137:0 138:0 139:0 140:0 141:0 142:0 143:0 144:0 145:0 146:0 147:0 148:34 149:231 150:118 151:67 152:28 153:0 154:0 155:38 156:38 157:0 158:0 159:0 160:0 161:0 162:0 163:0 164:0 165:0 166:0 167:0 168:0 169:0 170:0 171:0 172:0 173:0 174:0 175:0 176:128 177:197 178:0 179:0 180:0 181:0 182:0 183:0 184:0 185:0 186:0 187:0 188:0 189:0 190:0 191:0 192:0 193:0 194:0 195:0 196:0 197:0 198:0 199:0 200:0 201:0 202:0 203:0 204:84 205:196 206:0 207:0 208:0 209:0 210:0 211:0 212:0 213:0 214:0 215:0 216:0 217:0 218:0 219:0 220:0 221:0 222:0 223:0 224:0 225:0 226:0 227:0 228:0 229:0 230:0 231:0 232:0 233:234 234:28 235:0 236:0 237:0 238:0 239:0 240:0 241:0 242:0 243:0 244:0 245:0 246:0 247:0 248:0 249:0 250:0 251:0 252:0 253:0 254:0 255:0 256:0 257:0 258:0 259:0 260:0 261:126 262:210 263:117 264:22 265:0 266:0 267:0 268:0 269:0 270:0 271:0 272:0 273:0 274:0 275:0 276:0 277:0 278:0 279:0 280:0 281:0 282:0 283:0 284:0 285:0 286:0 287:0 288:0 289:0 290:39 291:242 292:230 293:36 294:0 295:0 296:0 297:0 298:0 299:0 300:0 301:0 302:0 303:0 304:0 305:0 306:0 307:0 308:0 309:0 310:0 311:0 312:0 313:0 314:0 315:0 316:0 317:0 318:0 319:27 320:217 321:154 322:112 323:5 324:0 325:0 326:0 327:0 328:0 329:0 330:0 331:0 332:0 333:0 334:0 335:0 336:0 337:0 338:0 339:0 340:0 341:0 342:0 343:0 344:0 345:0 346:0 347:0 348:29 349:154 350:203 351:132 352:36 353:210 354:145 355:0 356:0 357:0 358:0 359:0 360:0 361:0 362:0 363:0 364:0 365:0 366:0 367:0 368:0 369:0 370:0 371:0 372:0 373:0 374:0 375:0 376:0 377:0 378:65 379:249 380:237 381:192 382:22 383:0 384:0 385:0 386:0 387:0 388:0 389:0 390:0 391:0 392:0 393:0 394:0 395:0 396:0 397:0 398:0 399:0 400:0 401:0 402:0 403:0 404:0 405:0 406:25 407:245 408:254 409:170 410:151 411:16 412:0 413:0 414:0 415:0 416:0 417:0 418:0 419:0 420:0 421:0 422:0 423:0 424:0 425:0 426:0 427:0 428:0 429:0 430:0 431:0 432:0 433:0 434:135 435:246 436:97 437:138 438:144 439:89 440:0 441:0 442:0 443:0 444:0 445:0 446:0 447:0 448:0 449:0 450:0 451:0 452:0 453:0 454:0 455:0 456:0 457:0 458:0 459:0 460:0 461:0 462:178 463:129 464:0 465:0 466:9 467:19 468:202 469:26 470:0 471:0 472:0 473:0 474:0 475:0 476:0 477:0 478:0 479:0 480:0 481:0 482:0 483:0 484:0 485:0 486:0 487:0 488:0 489:0 490:178 491:111 492:0 493:0 494:0 495:4 496:86 497:200 498:0 499:0 500:0 501:0 502:0 503:0 504:0 505:0 506:0 507:0 508:0 509:0 510:0 511:0 512:0 513:0 514:0 515:0 516:0 517:0 518:178 519:111 520:0 521:0 522:0 523:0 524:0 525:213 526:82 527:0 528:0 529:0 530:0 531:0 532:0 533:0 534:0 535:0 536:0 537:0 538:0 539:0 540:0 541:0 542:0 543:0 544:0 545:0 546:177 547:112 548:0 549:0 550:0 551:0 552:0 553:99 554:253 555:71 556:0 557:0 558:0 559:0 560:0 561:0 562:0 563:0 564:0 565:0 566:0 567:0 568:0 569:0 570:0 571:0 572:0 573:0 574:66 575:203 576:93 577:0 578:0 579:0 580:45 581:203 582:226 583:33 584:0 585:0 586:0 587:0 588:0 589:0 590:0 591:0 592:0 593:0 594:0 595:0 596:0 597:0 598:0 599:0 600:0 601:0 602:0 603:132 604:242 605:197 606:130 607:170 608:245 609:255 610:177 611:0 612:0 613:0 614:0 615:0 616:0 617:0 618:0 619:0 620:0 621:0 622:0 623:0 624:0 625:0 626:0 627:0 628:0 629:0 630:0 631:12 632:140 633:187 634:218 635:251 636:158 637:143 638:14 639:0 640:0 641:0 642:0 643:0 644:0 645:0 646:0 647:0 648:0 649:0 650:0 651:0 652:0 653:0 654:0 655:0 656:0 657:0 658:0 659:0 660:0 661:0 662:0 663:0 664:0 665:0 666:0 667:0 668:0 669:0 670:0 671:0 672:0 673:0 674:0 675:0 676:0 677:0 678:0 679:0 680:0 681:0 682:0 683:0 684:0 685:0 686:0 687:0 688:0 689:0 690:0 691:0 692:0 693:0 694:0 695:0 696:0 697:0 698:0 699:0 700:0 701:0 702:0 703:0 704:0 705:0 706:0 707:0 708:0 709:0 710:0 711:0 712:0 713:0 714:0 715:0 716:0 717:0 718:0 719:0 720:0 721:0 722:0 723:0 724:0 725:0 726:0 727:0 728:0 729:0 730:0 731:0 732:0 733:0 734:0 735:0 736:0 737:0 738:0 739:0 740:0 741:0 742:0 743:0 744:0 745:0 746:0 747:0 748:0 749:0 750:0 751:0 752:0 753:0 754:0 755:0 756:0 757:0 758:0 759:0 760:0 761:0 762:0 763:0 764:0 765:0 766:0 767:0 768:0 769:0 770:0 771:0 772:0 773:0 774:0 775:0 776:0 777:0 778:0 779:0 780:0 781:0 782:0 783:0 784:0 #
8.5280791352049938325308175990358 1:0 2:0 3:0 4:0 5:0 6:0 7:0 8:0 9:0 10:0 11:0 12:0 13:0 14:0 15:0 16:0 17:0 18:0 19:0 20:0 21:0 22:0 23:0 24:0 25:0 26:0 27:0 28:0 29:0 30:0 31:0 32:0 33:0 34:0 35:0 36:0 37:0 38:0 39:0 40:0 41:0 42:0 43:0 44:0 45:0 46:0 47:0 48:0 49:0 50:0 51:0 52:0 53:0 54:0 55:0 56:0 57:0 58:0 59:0 60:0 61:0 62:0 63:0 64:0 65:0 66:0 67:0 68:0 69:0 70:0 71:0 72:0 73:0 74:0 75:0 76:0 77:0 78:0 79:0 80:0 81:0 82:0 83:0 84:0 85:0 86:0 87:0 88:0 89:0 90:0 91:0 92:0 93:0 94:0 95:0 96:0 97:0 98:0 99:0 100:0 101:0 102:0 103:0 104:0 105:0 106:0 107:0 108:0 109:0 110:0 111:0 112:0 113:0 114:0 115:0 116:0 117:0 118:0 119:0 120:0 121:0 122:0 123:0 124:0 125:0 126:0 127:0 128:14 129:150 130:254 131:215 132:0 133:0 134:0 135:0 136:0 137:0 138:0 139:0 140:0 141:0 142:0 143:0 144:0 145:0 146:0 147:0 148:0 149:0 150:0 151:0 152:0 153:0 154:0 155:92 156:150 157:253 158:253 159:213 160:0 161:0 162:0 163:0 164:0 165:0 166:0 167:0 168:0 169:0 170:0 171:0 172:0 173:0 174:0 175:0 176:0 177:0 178:0 179:0 180:0 181:55 182:176 183:235 184:254 185:253 186:253 187:213 188:0 189:0 190:0 191:0 192:0 193:0 194:0 195:0 196:0 197:0 198:0 199:0 200:0 201:0 202:0 203:0 204:0 205:0 206:0 207:25 208:55 209:240 210:253 211:253 212:254 213:253 214:253 215:250 216:235 217:114 218:6 219:0 220:0 221:0 222:0 223:0 224:0 225:0 226:0 227:0 228:0 229:0 230:0 231:0 232:0 233:0 234:39 235:194 236:253 237:253 238:253 239:253 240:254 241:253 242:253 243:253 244:253 245:253 246:38 247:0 248:0 249:0 250:0 251:0 252:0 253:0 254:0 255:0 256:0 257:0 258:0 259:0 260:0 261:0 262:99 263:253 264:253 265:253 266:253 267:253 268:254 269:180 270:97 271:97 272:97 273:97 274:15 275:0 276:0 277:0 278:0 279:0 280:0 281:0 282:0 283:0 284:0 285:0 286:0 287:0 288:0 289:0 290:99 291:253 292:253 293:253 294:253 295:237 296:38 297:20 298:0 299:0 300:0 301:0 302:0 303:0 304:0 305:0 306:0 307:0 308:0 309:0 310:0 311:0 312:0 313:0 314:0 315:0 316:0 317:0 318:99 319:253 320:253 321:253 322:253 323:57 324:0 325:0 326:0 327:0 328:0 329:0 330:0 331:0 332:0 333:0 334:0 335:0 336:0 337:0 338:0 339:0 340:0 341:0 342:0 343:0 344:0 345:22 346:182 347:253 348:253 349:253 350:253 351:57 352:0 353:0 354:0 355:0 356:0 357:0 358:0 359:0 360:0 361:0 362:0 363:0 364:0 365:0 366:0 367:0 368:0 369:0 370:0 371:0 372:0 373:40 374:253 375:253 376:253 377:253 378:253 379:57 380:0 381:0 382:0 383:0 384:0 385:0 386:0 387:0 388:0 389:0 390:0 391:0 392:0 393:0 394:0 395:0 396:0 397:0 398:0 399:0 400:0 401:40 402:254 403:254 404:254 405:254 406:254 407:254 408:46 409:0 410:0 411:0 412:0 413:0 414:0 415:0 416:0 417:0 418:0 419:0 420:0 421:0 422:0 423:0 424:0 425:0 426:0 427:0 428:0 429:40 430:253 431:253 432:243 433:135 434:199 435:253 436:223 437:118 438:36 439:0 440:0 441:0 442:0 443:0 444:0 445:0 446:0 447:0 448:0 449:0 450:0 451:0 452:0 453:0 454:0 455:0 456:0 457:40 458:253 459:253 460:233 461:0 462:42 463:213 464:254 465:253 466:199 467:13 468:0 469:0 470:0 471:0 472:0 473:0 474:0 475:0 476:0 477:0 478:0 479:0 480:0 481:0 482:0 483:0 484:0 485:34 486:229 487:253 488:236 489:40 490:18 491:196 492:254 493:253 494:253 495:206 496:25 497:0 498:0 499:0 500:0 501:0 502:0 503:0 504:0 505:0 506:0 507:0 508:0 509:0 510:0 511:0 512:0 513:0 514:99 515:253 516:253 517:253 518:168 519:142 520:254 521:253 522:253 523:253 524:192 525:38 526:0 527:0 528:0 529:0 530:0 531:0 532:0 533:0 534:0 535:0 536:0 537:0 538:0 539:0 540:0 541:0 542:99 543:253 544:253 545:253 546:253 547:178 548:255 549:253 550:253 551:253 552:253 553:97 554:0 555:0 556:0 557:0 558:0 559:0 560:0 561:0 562:0 563:0 564:0 565:0 566:0 567:0 568:0 569:0 570:15 571:158 572:250 573:253 574:253 575:253 576:254 577:253 578:253 579:253 580:253 581:217 582:29 583:0 584:0 585:0 586:0 587:0 588:0 589:0 590:0 591:0 592:0 593:0 594:0 595:0 596:0 597:0 598:0 599:0 600:154 601:253 602:253 603:253 604:254 605:253 606:253 607:253 608:222 609:67 610:0 611:0 612:0 613:0 614:0 615:0 616:0 617:0 618:0 619:0 620:0 621:0 622:0 623:0 624:0 625:0 626:0 627:0 628:9 629:116 630:190 631:253 632:254 633:253 634:253 635:126 636:71 637:0 638:0 639:0 640:0 641:0 642:0 643:0 644:0 645:0 646:0 647:0 648:0 649:0 650:0 651:0 652:0 653:0 654:0 655:0 656:0 657:0 658:31 659:57 660:103 661:161 662:57 663:4 664:0 665:0 666:0 667:0 668:0 669:0 670:0 671:0 672:0 673:0 674:0 675:0 676:0 677:0 678:0 679:0 680:0 681:0 682:0 683:0 684:0 685:0 686:0 687:0 688:0 689:0 690:0 691:0 692:0 693:0 694:0 695:0 696:0 697:0 698:0 699:0 700:0 701:0 702:0 703:0 704:0 705:0 706:0 707:0 708:0 709:0 710:0 711:0 712:0 713:0 714:0 715:0 716:0 717:0 718:0 719:0 720:0 721:0 722:0 723:0 724:0 725:0 726:0 727:0 728:0 729:0 730:0 731:0 732:0 733:0 734:0 735:0 736:0 737:0 738:0 739:0 740:0 741:0 742:0 743:0 744:0 745:0 746:0 747:0 748:0 749:0 750:0 751:0 752:0 753:0 754:0 755:0 756:0 757:0 758:0 759:0 760:0 761:0 762:0 763:0 764:0 765:0 766:0 767:0 768:0 769:0 770:0 771:0 772:0 773:0 774:0 775:0 776:0 777:0 778:0 779:0 780:0 781:0 782:0 783:0 784:0 #
8.5280791352049938325308175990358 1:0 2:0 3:0 4:0 5:0 6:0 7:0 8:0 9:0 10:0 11:0 12:0 13:0 14:0 15:0 16:0 17:0 18:0 19:0 20:0 21:0 22:0 23:0 24:0 25:0 26:0 27:0 28:0 29:0 30:0 31:0 32:0 33:0 34:0 35:0 36:0 37:0 38:0 39:0 40:0 41:0 42:0 43:0 44:0 45:0 46:0 47:0 48:0 49:0 50:0 51:0 52:0 53:0 54:0 55:0 56:0 57:0 58:0 59:0 60:0 61:0 62:0 63:0 64:0 65:0 66:0 67:0 68:0 69:0 70:0 71:0 72:0 73:0 74:0 75:0 76:0 77:0 78:0 79:0 80:0 81:0 82:0 83:0 84:0 85:0 86:0 87:0 88:0 89:0 90:0 91:0 92:0 93:0 94:0 95:0 96:0 97:0 98:0 99:0 100:0 101:0 102:0 103:0 104:0 105:0 106:0 107:0 108:0 109:0 110:0 111:0 112:0 113:0 114:0 115:0 116:0 117:0 118:0 119:0 120:0 121:0 122:0 123:0 124:0 125:0 126:0 127:0 128:0 129:0 130:0 131:0 132:0 133:0 134:0 135:0 136:0 137:0 138:0 139:0 140:0 141:0 142:0 143:0 144:0 145:0 146:0 147:0 148:0 149:0 150:0 151:0 152:0 153:0 154:0 155:0 156:55 157:117 158:117 159:117 160:117 161:108 162:0 163:0 164:0 165:0 166:0 167:0 168:0 169:0 170:0 171:0 172:0 173:0 174:0 175:0 176:0 177:0 178:0 179:0 180:0 181:96 182:175 183:176 184:210 185:251 186:251 187:251 188:251 189:231 190:0 191:0 192:0 193:0 194:0 195:0 196:0 197:0 198:0 199:0 200:0 201:0 202:0 203:0 204:7 205:39 206:39 207:204 208:233 209:243 210:251 211:253 212:251 213:251 214:251 215:251 216:226 217:45 218:0 219:0 220:0 221:0 222:0 223:0 224:0 225:0 226:0 227:0 228:0 229:0 230:0 231:68 232:122 233:251 234:251 235:251 236:251 237:251 238:251 239:253 240:251 241:251 242:251 243:213 244:59 245:0 246:0 247:0 248:0 249:0 250:0 251:0 252:0 253:0 254:0 255:0 256:0 257:37 258:155 259:222 260:251 261:251 262:251 263:251 264:251 265:251 266:251 267:253 268:251 269:251 270:226 271:59 272:0 273:0 274:0 275:0 276:0 277:0 278:0 279:0 280:0 281:0 282:0 283:0 284:0 285:224 286:251 287:251 288:251 289:243 290:231 291:66 292:44 293:162 294:251 295:253 296:242 297:231 298:45 299:0 300:0 301:0 302:0 303:0 304:0 305:0 306:0 307:0 308:0 309:0 310:0 311:0 312:0 313:253 314:251 315:251 316:239 317:107 318:0 319:7 320:131 321:251 322:251 323:253 324:134 325:0 326:0 327:0 328:0 329:0 330:0 331:0 332:0 333:0 334:0 335:0 336:0 337:0 338:0 339:0 340:0 341:253 342:251 343:251 344:233 345:136 346:136 347:145 348:251 349:251 350:251 351:221 352:62 353:0 354:0 355:0 356:0 357:0 358:0 359:0 360:0 361:0 362:0 363:0 364:0 365:0 366:0 367:0 368:0 369:57 370:57 371:192 372:251 373:251 374:251 375:251 376:251 377:251 378:251 379:194 380:0 381:0 382:0 383:0 384:0 385:0 386:0 387:0 388:0 389:0 390:0 391:0 392:0 393:0 394:0 395:0 396:0 397:0 398:0 399:135 400:194 401:217 402:253 403:253 404:253 405:253 406:253 407:255 408:253 409:253 410:63 411:0 412:0 413:0 414:0 415:0 416:0 417:0 418:0 419:0 420:0 421:0 422:0 423:0 424:0 425:0 426:0 427:0 428:0 429:53 430:206 431:251 432:251 433:251 434:251 435:253 436:251 437:251 438:230 439:117 440:45 441:0 442:0 443:0 444:0 445:0 446:0 447:0 448:0 449:0 450:0 451:0 452:0 453:0 454:0 455:0 456:0 457:0 458:155 459:251 460:251 461:251 462:251 463:212 464:157 465:251 466:251 467:251 468:204 469:161 470:0 471:0 472:0 473:0 474:0 475:0 476:0 477:0 478:0 479:0 480:0 481:0 482:0 483:0 484:0 485:0 486:11 487:216 488:251 489:251 490:251 491:203 492:29 493:18 494:204 495:251 496:251 497:249 498:233 499:128 500:9 501:0 502:0 503:0 504:0 505:0 506:0 507:0 508:0 509:0 510:0 511:0 512:0 513:0 514:0 515:138 516:251 517:251 518:251 519:253 520:179 521:98 522:122 523:251 524:251 525:251 526:251 527:251 528:131 529:0 530:0 531:0 532:0 533:0 534:0 535:0 536:0 537:0 538:0 539:0 540:0 541:0 542:0 543:20 544:251 545:251 546:251 547:253 548:251 549:251 550:251 551:251 552:251 553:251 554:251 555:251 556:251 557:0 558:0 559:0 560:0 561:0 562:0 563:0 564:0 565:0 566:0 567:0 568:0 569:0 570:0 571:3 572:98 573:242 574:251 575:253 576:251 577:251 578:251 579:251 580:251 581:251 582:251 583:251 584:251 585:0 586:0 587:0 588:0 589:0 590:0 591:0 592:0 593:0 594:0 595:0 596:0 597:0 598:0 599:0 600:0 601:95 602:173 603:192 604:251 605:251 606:251 607:251 608:251 609:251 610:251 611:251 612:190 613:0 614:0 615:0 616:0 617:0 618:0 619:0 620:0 621:0 622:0 623:0 624:0 625:0 626:0 627:0 628:0 629:0 630:0 631:27 632:115 633:115 634:115 635:115 636:115 637:115 638:115 639:115 640:26 641:0 642:0 643:0 644:0 645:0 646:0 647:0 648:0 649:0 650:0 651:0 652:0 653:0 654:0 655:0 656:0 657:0 658:0 659:0 660:0 661:0 662:0 663:0 664:0 665:0 666:0 667:0 668:0 669:0 670:0 671:0 672:0 673:0 674:0 675:0 676:0 677:0 678:0 679:0 680:0 681:0 682:0 683:0 684:0 685:0 686:0 687:0 688:0 689:0 690:0 691:0 692:0 693:0 694:0 695:0 696:0 697:0 698:0 699:0 700:0 701:0 702:0 703:0 704:0 705:0 706:0 707:0 708:0 709:0 710:0 711:0 712:0 713:0 714:0 715:0 716:0 717:0 718:0 719:0 720:0 721:0 722:0 723:0 724:0 725:0 726:0 727:0 728:0 729:0 730:0 731:0 732:0 733:0 734:0 735:0 736:0 737:0 738:0 739:0 740:0 741:0 742:0 743:0 744:0 745:0 746:0 747:0 748:0 749:0 750:0 751:0 752:0 753:0 754:0 755:0 756:0 757:0 758:0 759:0 760:0 761:0 762:0 763:0 764:0 765:0 766:0 767:0 768:0 769:0 770:0 771:0 772:0 773:0 774:0 775:0 776:0 777:0 778:0 779:0 780:0 781:0 782:0 783:0 784:0 #
-8.5280791352049938325308175990358 1:0 2:0 3:0 4:0 5:0 6:0 7:0 8:0 9:0 10:0 11:0 12:0 13:0 14:0 15:0 16:0 17:0 18:0 19:0 20:0 21:0 22:0 23:0 24:0 25:0 26:0 27:0 28:0 29:0 30:0 31:0 32:0 33:0 34:0 35:0 36:0 37:0 38:0 39:0 40:0 41:0 42:0 43:0 44:0 45:0 46:0 47:0 48:0 49:0 50:0 51:0 52:0 53:0 54:0 55:0 56:0 57:0 58:0 59:0 60:0 61:0 62:0 63:0 64:0 65:0 66:0 67:0 68:0 69:0 70:0 71:0 72:0 73:0 74:0 75:0 76:0 77:0 78:0 79:0 80:0 81:0 82:0 83:0 84:0 85:0 86:0 87:0 88:0 89:0 90:0 91:0 92:0 93:0 94:0 95:0 96:0 97:0 98:27 99:222 100:182 101:11 102:0 103:0 104:0 105:0 106:0 107:0 108:0 109:0 110:0 111:0 112:0 113:0 114:0 115:0 116:0 117:0 118:0 119:0 120:0 121:0 122:0 123:0 124:0 125:0 126:72 127:254 128:221 129:16 130:0 131:0 132:0 133:0 134:0 135:0 136:0 137:0 138:0 139:0 140:0 141:0 142:0 143:0 144:0 145:0 146:0 147:0 148:0 149:0 150:0 151:0 152:0 153:0 154:0 155:254 156:166 157:0 158:0 159:0 160:0 161:0 162:0 163:0 164:0 165:0 166:0 167:0 168:0 169:0 170:0 171:0 172:0 173:0 174:0 175:0 176:0 177:0 178:0 179:0 180:0 181:0 182:72 183:254 184:159 185:0 186:0 187:0 188:0 189:0 190:0 191:0 192:0 193:0 194:0 195:0 196:0 197:0 198:0 199:0 200:0 201:0 202:0 203:0 204:0 205:0 206:0 207:0 208:0 209:0 210:91 211:254 212:108 213:0 214:0 215:0 216:0 217:0 218:0 219:0 220:0 221:0 222:0 223:0 224:0 225:0 226:0 227:0 228:0 229:0 230:0 231:0 232:0 233:0 234:0 235:0 236:0 237:0 238:92 239:255 240:109 241:0 242:0 243:0 244:0 245:0 246:0 247:0 248:0 249:0 250:0 251:0 252:0 253:0 254:0 255:0 256:0 257:0 258:0 259:0 260:0 261:0 262:0 263:0 264:0 265:0 266:91 267:254 268:108 269:0 270:0 271:0 272:0 273:0 274:0 275:0 276:0 277:0 278:0 279:0 280:0 281:0 282:0 283:0 284:0 285:0 286:0 287:0 288:0 289:0 290:0 291:0 292:0 293:0 294:104 295:254 296:63 297:0 298:0 299:0 300:0 301:0 302:0 303:0 304:0 305:0 306:0 307:0 308:0 309:0 310:0 311:0 312:0 313:0 314:0 315:0 316:0 317:0 318:0 319:0 320:0 321:2 322:186 323:222 324:10 325:0 326:0 327:0 328:0 329:0 330:0 331:0 332:0 333:0 334:0 335:0 336:0 337:0 338:0 339:0 340:0 341:0 342:0 343:0 344:0 345:0 346:0 347:0 348:0 349:19 350:253 351:181 352:20 353:104 354:181 355:117 356:0 357:0 358:0 359:0 360:0 361:0 362:0 363:0 364:0 365:0 366:0 367:0 368:0 369:0 370:0 371:0 372:0 373:0 374:0 375:0 376:0 377:19 378:254 379:255 380:254 381:254 382:202 383:254 384:170 385:5 386:0 387:0 388:0 389:0 390:0 391:0 392:0 393:0 394:0 395:0 396:0 397:0 398:0 399:0 400:0 401:0 402:0 403:0 404:0 405:71 406:253 407:254 408:182 409:63 410:16 411:227 412:254 413:18 414:0 415:0 416:0 417:0 418:0 419:0 420:0 421:0 422:0 423:0 424:0 425:0 426:0 427:0 428:0 429:0 430:0 431:0 432:0 433:122 434:253 435:191 436:3 437:0 438:77 439:253 440:204 441:9 442:0 443:0 444:0 445:0 446:0 447:0 448:0 449:0 450:0 451:0 452:0 453:0 454:0 455:0 456:0 457:0 458:0 459:0 460:107 461:241 462:253 463:181 464:0 465:23 466:222 467:246 468:20 469:0 470:0 471:0 472:0 473:0 474:0 475:0 476:0 477:0 478:0 479:0 480:0 481:0 482:0 483:0 484:0 485:0 486:0 487:105 488:243 489:214 490:227 491:233 492:117 493:217 494:246 495:72 496:0 497:0 498:0 499:0 500:0 501:0 502:0 503:0 504:0 505:0 506:0 507:0 508:0 509:0 510:0 511:0 512:0 513:0 514:21 515:241 516:172 517:20 518:92 519:255 520:254 521:243 522:135 523:0 524:0 525:0 526:0 527:0 528:0 529:0 530:0 531:0 532:0 533:0 534:0 535:0 536:0 537:0 538:0 539:0 540:0 541:0 542:176 543:241 544:100 545:0 546:7 547:76 548:89 549:15 550:0 551:0 552:0 553:0 554:0 555:0 556:0 557:0 558:0 559:0 560:0 561:0 562:0 563:0 564:0 565:0 566:0 567:0 568:3 569:166 570:254 571:108 572:0 573:0 574:0 575:0 576:0 577:0 578:0 579:0 580:0 581:0 582:0 583:0 584:0 585:0 586:0 587:0 588:0 589:0 590:0 591:0 592:0 593:0 594:0 595:0 596:25 597:253 598:216 599:10 600:0 601:0 602:0 603:0 604:0 605:0 606:0 607:0 608:0 609:0 610:0 611:0 612:0 613:0 614:0 615:0 616:0 617:0 618:0 619:0 620:0 621:0 622:0 623:0 624:77 625:253 626:91 627:0 628:0 629:0 630:0 631:0 632:0 633:0 634:0 635:0 636:0 637:0 638:0 639:0 640:0 641:0 642:0 643:0 644:0 645:0 646:0 647:0 648:0 649:0 650:0 651:0 652:0 653:0 654:0 655:0 656:0 657:0 658:0 659:0 660:0 661:0 662:0 663:0 664:0 665:0 666:0 667:0 668:0 669:0 670:0 671:0 672:0 673:0 674:0 675:0 676:0 677:0 678:0 679:0 680:0 681:0 682:0 683:0 684:0 685:0 686:0 687:0 688:0 689:0 690:0 691:0 692:0 693:0 694:0 695:0 696:0 697:0 698:0 699:0 700:0 701:0 702:0 703:0 704:0 705:0 706:0 707:0 708:0 709:0 710:0 711:0 712:0 713:0 714:0 715:0 716:0 717:0 718:0 719:0 720:0 721:0 722:0 723:0 724:0 725:0 726:0 727:0 728:0 729:0 730:0 731:0 732:0 733:0 734:0 735:0 736:0 737:0 738:0 739:0 740:0 741:0 742:0 743:0 744:0 745:0 746:0 747:0 748:0 749:0 750:0 751:0 752:0 753:0 754:0 755:0 756:0 757:0 758:0 759:0 760:0 761:0 762:0 763:0 764:0 765:0 766:0 767:0 768:0 769:0 770:0 771:0 772:0 773:0 774:0 775:0 776:0 777:0 778:0 779:0 780:0 781:0 782:0 783:0 784:0 #
-8.5280791352049938325308175990358 1:0 2:0 3:0 4:0 5:0 6:0 7:0 8:0 9:0 10:0 11:0 12:0 13:0 14:0 15:0 16:0 17:0 18:0 19:0 20:0 21:0 22:0 23:0 24:0 25:0 26:0 27:0 28:0 29:0 30:0 31:0 32:0 33:0 34:0 35:0 36:0 37:0 38:0 39:0 40:0 41:0 42:0 43:0 44:0 45:0 46:0 47:0 48:0 49:0 50:0 51:0 52:0 53:0 54:0 55:0 56:0 57:0 58:0 59:0 60:0 61:0 62:0 63:0 64:0 65:0 66:0 67:0 68:0 69:0 70:0 71:0 72:0 73:0 74:0 75:0 76:0 77:0 78:0 79:0 80:0 81:0 82:0 83:0 84:0 85:0 86:0 87:0 88:0 89:0 90:0 91:0 92:51 93:2 94:0 95:0 96:0 97:0 98:0 99:0 100:0 101:0 102:0 103:0 104:0 105:0 106:0 107:0 108:0 109:0 110:0 111:0 112:0 113:0 114:0 115:0 116:0 117:0 118:0 119:62 120:179 121:1 122:0 123:0 124:0 125:0 126:0 127:0 128:0 129:0 130:0 131:0 132:0 133:0 134:0 135:0 136:0 137:0 138:0 139:0 140:0 141:0 142:0 143:0 144:0 145:0 146:0 147:174 148:132 149:0 150:0 151:0 152:0 153:0 154:0 155:0 156:0 157:0 158:0 159:0 160:0 161:0 162:0 163:0 164:0 165:0 166:0 167:0 168:0 169:0 170:0 171:0 172:0 173:0 174:4 175:208 176:49 177:0 178:0 179:0 180:0 181:0 182:0 183:0 184:0 185:0 186:0 187:0 188:0 189:0 190:0 191:0 192:0 193:0 194:0 195:0 196:0 197:0 198:0 199:0 200:0 201:0 202:89 203:242 204:23 205:0 206:0 207:0 208:0 209:0 210:0 211:0 212:0 213:0 214:0 215:0 216:0 217:0 218:0 219:0 220:0 221:0 222:0 223:0 224:0 225:0 226:0 227:0 228:0 229:0 230:149 231:207 232:0 233:0 234:0 235:0 236:0 237:0 238:0 239:0 240:0 241:0 242:0 243:0 244:0 245:0 246:5 247:85 248:44 249:0 250:0 251:0 252:0 253:0 254:0 255:0 256:0 257:0 258:177 259:174 260:0 261:0 262:0 263:0 264:0 265:0 266:0 267:0 268:0 269:0 270:0 271:0 272:5 273:116 274:207 275:240 276:223 277:115 278:0 279:0 280:0 281:0 282:0 283:0 284:0 285:0 286:177 287:91 288:0 289:0 290:0 291:0 292:0 293:0 294:0 295:0 296:0 297:0 298:0 299:25 300:172 301:205 302:97 303:27 304:24 305:235 306:0 307:0 308:0 309:0 310:0 311:0 312:0 313:0 314:224 315:54 316:0 317:0 318:0 319:0 320:0 321:0 322:0 323:0 324:0 325:0 326:0 327:209 328:206 329:22 330:0 331:0 332:0 333:231 334:0 335:0 336:0 337:0 338:0 339:0 340:0 341:0 342:255 343:54 344:0 345:0 346:0 347:0 348:0 349:0 350:0 351:0 352:0 353:0 354:86 355:203 356:19 357:0 358:0 359:0 360:85 361:223 362:0 363:0 364:0 365:0 366:0 367:0 368:0 369:0 370:254 371:54 372:0 373:0 374:0 375:0 376:0 377:0 378:0 379:0 380:0 381:23 382:238 383:47 384:0 385:0 386:0 387:0 388:145 389:116 390:0 391:0 392:0 393:0 394:0 395:0 396:0 397:0 398:254 399:54 400:0 401:0 402:0 403:0 404:0 405:0 406:0 407:0 408:0 409:135 410:171 411:1 412:0 413:0 414:0 415:72 416:248 417:55 418:0 419:0 420:0 421:0 422:0 423:0 424:0 425:0 426:202 427:86 428:0 429:0 430:0 431:0 432:0 433:0 434:0 435:0 436:0 437:200 438:79 439:0 440:0 441:0 442:31 443:184 444:144 445:1 446:0 447:0 448:0 449:0 450:0 451:0 452:0 453:0 454:142 455:228 456:14 457:0 458:0 459:0 460:0 461:0 462:0 463:0 464:18 465:240 466:31 467:0 468:0 469:29 470:183 471:149 472:11 473:0 474:0 475:0 476:0 477:0 478:0 479:0 480:0 481:0 482:22 483:224 484:175 485:60 486:0 487:0 488:0 489:0 490:0 491:0 492:24 493:253 494:31 495:0 496:40 497:151 498:93 499:0 500:0 501:0 502:0 503:0 504:0 505:0 506:0 507:0 508:0 509:0 510:0 511:50 512:159 513:245 514:191 515:43 516:6 517:7 518:7 519:6 520:10 521:204 522:196 523:187 524:167 525:46 526:0 527:0 528:0 529:0 530:0 531:0 532:0 533:0 534:0 535:0 536:0 537:0 538:0 539:0 540:0 541:26 542:116 543:230 544:231 545:236 546:241 547:232 548:242 549:185 550:125 551:44 552:0 553:0 554:0 555:0 556:0 557:0 558:0 559:0 560:0 561:0 562:0 563:0 564:0 565:0 566:0 567:0 568:0 569:0 570:0 571:12 572:45 573:34 574:46 575:46 576:28 577:0 578:0 579:0 580:0 581:0 582:0 583:0 584:0 585:0 586:0 587:0 588:0 589:0 590:0 591:0 592:0 593:0 594:0 595:0 596:0 597:0 598:0 599:0 600:0 601:0 602:0 603:0 604:0 605:0 606:0 607:0 608:0 609:0 610:0 611:0 612:0 613:0 614:0 615:0 616:0 617:0 618:0 619:0 620:0 621:0 622:0 623:0 624:0 625:0 626:0 627:0 628:0 629:0 630:0 631:0 632:0 633:0 634:0 635:0 636:0 637:0 638:0 639:0 640:0 641:0 642:0 643:0 644:0 645:0 646:0 647:0 648:0 649:0 650:0 651:0 652:0 653:0 654:0 655:0 656:0 657:0 658:0 659:0 660:0 661:0 662:0 663:0 664:0 665:0 666:0 667:0 668:0 669:0 670:0 671:0 672:0 673:0 674:0 675:0 676:0 677:0 678:0 679:0 680:0 681:0 682:0 683:0 684:0 685:0 686:0 687:0 688:0 689:0 690:0 691:0 692:0 693:0 694:0 695:0 696:0 697:0 698:0 699:0 700:0 701:0 702:0 703:0 704:0 705:0 706:0 707:0 708:0 709:0 710:0 711:0 712:0 713:0 714:0 715:0 716:0 717:0 718:0 719:0 720:0 721:0 722:0 723:0 724:0 725:0 726:0 727:0 728:0 729:0 730:0 731:0 732:0 733:0 734:0 735:0 736:0 737:0 738:0 739:0 740:0 741:0 742:0 743:0 744:0 745:0 746:0 747:0 748:0 749:0 750:0 751:0 752:0 753:0 754:0 755:0 756:0 757:0 758:0 759:0 760:0 761:0 762:0 763:0 764:0 765:0 766:0 767:0 768:0 769:0 770:0 771:0 772:0 773:0 774:0 775:0 776:0 777:0 778:0 779:0 780:0 781:0 782:0 783:0 784:0 #
-8.5280791352049938325308175990358 1:0 2:0 3:0 4:0 5:0 6:0 7:0 8:0 9:0 10:0 11:0 12:0 13:0 14:0 15:0 16:0 17:0 18:0 19:0 20:0 21:0 22:0 23:0 24:0 25:0 26:0 27:0 28:0 29:0 30:0 31:0 32:0 33:0 34:0 35:0 36:0 37:0 38:0 39:0 40:0 41:0 42:0 43:0 44:0 45:0 46:0 47:0 48:0 49:0 50:0 51:0 52:0 53:0 54:0 55:0 56:0 57:0 58:0 59:0 60:0 61:0 62:0 63:0 64:0 65:0 66:0 67:0 68:0 69:0 70:0 71:0 72:0 73:0 74:0 75:0 76:0 77:0 78:0 79:0 80:0 81:0 82:0 83:0 84:0 85:0 86:0 87:0 88:0 89:0 90:0 91:0 92:0 93:0 94:0 95:0 96:0 97:0 98:0 99:0 100:0 101:0 102:0 103:64 104:191 105:255 106:191 107:0 108:0 109:0 110:0 111:0 112:0 113:0 114:0 115:0 116:0 117:0 118:0 119:0 120:0 121:0 122:0 123:0 124:0 125:0 126:0 127:0 128:0 129:0 130:0 131:255 132:255 133:255 134:191 135:0 136:0 137:0 138:0 139:0 140:0 141:0 142:0 143:0 144:0 145:0 146:0 147:0 148:0 149:0 150:0 151:0 152:0 153:0 154:0 155:0 156:0 157:64 158:255 159:255 160:191 161:64 162:0 163:0 164:0 165:0 166:0 167:0 168:0 169:0 170:0 171:0 172:0 173:0 174:0 175:0 176:0 177:0 178:0 179:0 180:0 181:0 182:0 183:0 184:0 185:191 186:255 187:191 188:0 189:0 190:0 191:0 192:0 193:0 194:0 195:0 196:0 197:0 198:0 199:0 200:0 201:0 202:0 203:0 204:0 205:0 206:0 207:0 208:0 209:0 210:0 211:0 212:191 213:255 214:255 215:0 216:0 217:0 218:0 219:0 220:0 221:0 222:0 223:0 224:0 225:0 226:0 227:0 228:0 229:0 230:0 231:0 232:0 233:0 234:0 235:0 236:0 237:0 238:0 239:191 240:255 241:255 242:191 243:0 244:0 245:0 246:0 247:0 248:0 249:0 250:0 251:0 252:0 253:0 254:0 255:0 256:0 257:0 258:0 259:0 260:0 261:0 262:0 263:0 264:0 265:0 266:128 267:255 268:255 269:255 270:64 271:0 272:0 273:0 274:0 275:0 276:0 277:0 278:0 279:0 280:0 281:0 282:0 283:0 284:0 285:0 286:0 287:0 288:0 289:0 290:0 291:0 292:0 293:0 294:191 295:255 296:255 297:128 298:0 299:0 300:0 301:0 302:0 303:0 304:0 305:0 306:0 307:0 308:0 309:0 310:0 311:0 312:0 313:0 314:0 315:0 316:0 317:0 318:0 319:0 320:0 321:191 322:255 323:255 324:191 325:0 326:0 327:0 328:0 329:0 330:0 331:0 332:0 333:0 334:0 335:0 336:0 337:0 338:0 339:0 340:0 341:0 342:0 343:0 344:0 345:0 346:0 347:0 348:0 349:255 350:255 351:255 352:255 353:128 354:0 355:0 356:0 357:0 358:0 359:0 360:0 361:0 362:0 363:0 364:0 365:0 366:0 367:0 368:0 369:0 370:0 371:0 372:0 373:0 374:0 375:0 376:128 377:255 378:255 379:255 380:255 381:255 382:255 383:0 384:0 385:0 386:0 387:0 388:0 389:0 390:0 391:0 392:0 393:0 394:0 395:0 396:0 397:0 398:0 399:0 400:0 401:0 402:0 403:0 404:255 405:255 406:255 407:255 408:255 409:255 410:255 411:128 412:0 413:0 414:0 415:0 416:0 417:0 418:0 419:0 420:0 421:0 422:0 423:0 424:0 425:0 426:0 427:0 428:0 429:0 430:0 431:128 432:255 433:255 434:191 435:128 436:0 437:255 438:255 439:191 440:0 441:0 442:0 443:0 444:0 445:0 446:0 447:0 448:0 449:0 450:0 451:0 452:0 453:0 454:0 455:0 456:0 457:0 458:0 459:128 460:255 461:255 462:128 463:0 464:0 465:255 466:255 467:128 468:0 469:0 470:0 471:0 472:0 473:0 474:0 475:0 476:0 477:0 478:0 479:0 480:0 481:0 482:0 483:0 484:0 485:0 486:0 487:255 488:255 489:255 490:128 491:0 492:191 493:255 494:255 495:0 496:0 497:0 498:0 499:0 500:0 501:0 502:0 503:0 504:0 505:0 506:0 507:0 508:0 509:0 510:0 511:0 512:0 513:0 514:0 515:255 516:255 517:255 518:128 519:255 520:255 521:255 522:255 523:0 524:0 525:0 526:0 527:0 528:0 529:0 530:0 531:0 532:0 533:0 534:0 535:0 536:0 537:0 538:0 539:0 540:0 541:0 542:0 543:255 544:255 545:255 546:128 547:255 548:255 549:255 550:64 551:0 552:0 553:0 554:0 555:0 556:0 557:0 558:0 559:0 560:0 561:0 562:0 563:0 564:0 565:0 566:0 567:0 568:0 569:0 570:0 571:255 572:255 573:255 574:255 575:255 576:255 577:191 578:0 579:0 580:0 581:0 582:0 583:0 584:0 585:0 586:0 587:0 588:0 589:0 590:0 591:0 592:0 593:0 594:0 595:0 596:0 597:0 598:0 599:128 600:255 601:255 602:255 603:255 604:191 605:0 606:0 607:0 608:0 609:0 610:0 611:0 612:0 613:0 614:0 615:0 616:0 617:0 618:0 619:0 620:0 621:0 622:0 623:0 624:0 625:0 626:0 627:0 628:255 629:255 630:128 631:0 632:0 633:0 634:0 635:0 636:0 637:0 638:0 639:0 640:0 641:0 642:0 643:0 644:0 645:0 646:0 647:0 648:0 649:0 650:0 651:0 652:0 653:0 654:0 655:0 656:0 657:0 658:0 659:0 660:0 661:0 662:0 663:0 664:0 665:0 666:0 667:0 668:0 669:0 670:0 671:0 672:0 673:0 674:0 675:0 676:0 677:0 678:0 679:0 680:0 681:0 682:0 683:0 684:0 685:0 686:0 687:0 688:0 689:0 690:0 691:0 692:0 693:0 694:0 695:0 696:0 697:0 698:0 699:0 700:0 701:0 702:0 703:0 704:0 705:0 706:0 707:0 708:0 709:0 710:0 711:0 712:0 713:0 714:0 715:0 716:0 717:0 718:0 719:0 720:0 721:0 722:0 723:0 724:0 725:0 726:0 727:0 728:0 729:0 730:0 731:0 732:0 733:0 734:0 735:0 736:0 737:0 738:0 739:0 740:0 741:0 742:0 743:0 744:0 745:0 746:0 747:0 748:0 749:0 750:0 751:0 752:0 753:0 754:0 755:0 756:0 757:0 758:0 759:0 760:0 761:0 762:0 763:0 764:0 765:0 766:0 767:0 768:0 769:0 770:0 771:0 772:0 773:0 774:0 775:0 776:0 777:0 778:0 779:0 780:0 781:0 782:0 783:0 784:0 #
8.5280791352049938325308175990358 1:0 2:0 3:0 4:0 5:0 6:0 7:0 8:0 9:0 10:0 11:0 12:0 13:0 14:0 15:0 16:0 17:0 18:0 19:0 20:0 21:0 22:0 23:0 24:0 25:0 26:0 27:0 28:0 29:0 30:0 31:0 32:0 33:0 34:0 35:0 36:0 37:0 38:0 39:0 40:0 41:0 42:0 43:0 44:0 45:0 46:0 47:0 48:0 49:0 50:0 51:0 52:0 53:0 54:0 55:0 56:0 57:0 58:0 59:0 60:0 61:0 62:0 63:0 64:0 65:0 66:0 67:0 68:0 69:0 70:0 71:0 72:0 73:0 74:0 75:0 76:0 77:0 78:0 79:0 80:0 81:0 82:0 83:0 84:0 85:0 86:0 87:0 88:0 89:0 90:0 91:0 92:0 93:0 94:0 95:0 96:0 97:0 98:0 99:0 100:0 101:0 102:0 103:0 104:0 105:0 106:0 107:0 108:0 109:0 110:0 111:0 112:0 113:0 114:0 115:0 116:0 117:0 118:0 119:0 120:0 121:0 122:0 123:0 124:0 125:0 126:0 127:0 128:0 129:0 130:0 131:0 132:0 133:0 134:0 135:0 136:0 137:0 138:0 139:0 140:0 141:0 142:0 143:0 144:0 145:0 146:0 147:0 148:0 149:0 150:0 151:0 152:0 153:0 154:0 155:0 156:0 157:0 158:0 159:0 160:0 161:0 162:0 163:0 164:0 165:0 166:0 167:0 168:0 169:0 170:0 171:0 172:0 173:0 174:0 175:0 176:0 177:0 178:0 179:0 180:0 181:0 182:0 183:0 184:0 185:0 186:0 187:0 188:0 189:0 190:0 191:0 192:0 193:0 194:0 195:0 196:0 197:0 198:0 199:0 200:0 201:0 202:0 203:0 204:0 205:0 206:0 207:0 208:0 209:0 210:0 211:0 212:0 213:0 214:0 215:0 216:0 217:0 218:0 219:0 220:0 221:0 222:0 223:0 224:0 225:0 226:0 227:0 228:0 229:0 230:0 231:0 232:0 233:0 234:0 235:0 236:0 237:0 238:0 239:0 240:0 241:0 242:0 243:0 244:0 245:16 246:40 247:95 248:51 249:40 250:40 251:0 252:0 253:0 254:0 255:0 256:0 257:0 258:0 259:0 260:0 261:0 262:0 263:0 264:0 265:0 266:0 267:0 268:0 269:0 270:16 271:107 272:185 273:206 274:222 275:166 276:156 277:156 278:139 279:0 280:0 281:0 282:0 283:0 284:0 285:0 286:0 287:0 288:0 289:0 290:0 291:0 292:0 293:0 294:0 295:0 296:7 297:125 298:224 299:137 300:33 301:0 302:0 303:0 304:0 305:0 306:0 307:0 308:0 309:0 310:0 311:0 312:0 313:0 314:0 315:0 316:0 317:0 318:0 319:0 320:0 321:0 322:0 323:3 324:179 325:139 326:21 327:0 328:0 329:8 330:20 331:42 332:66 333:0 334:0 335:0 336:0 337:0 338:0 339:0 340:0 341:0 342:0 343:0 344:0 345:0 346:0 347:0 348:0 349:0 350:0 351:7 352:221 353:14 354:61 355:141 356:175 357:129 358:111 359:56 360:9 361:0 362:0 363:0 364:0 365:0 366:0 367:0 368:0 369:0 370:0 371:0 372:0 373:0 374:0 375:0 376:0 377:1 378:10 379:128 380:255 381:218 382:106 383:52 384:4 385:0 386:0 387:0 388:0 389:0 390:0 391:0 392:0 393:0 394:0 395:0 396:0 397:0 398:0 399:0 400:0 401:0 402:0 403:0 404:41 405:164 406:234 407:152 408:159 409:117 410:0 411:0 412:0 413:0 414:0 415:0 416:0 417:0 418:0 419:0 420:0 421:0 422:0 423:0 424:0 425:0 426:0 427:0 428:0 429:0 430:67 431:208 432:212 433:110 434:12 435:0 436:49 437:197 438:0 439:0 440:0 441:0 442:0 443:0 444:0 445:0 446:0 447:0 448:0 449:0 450:0 451:0 452:0 453:0 454:0 455:0 456:0 457:125 458:202 459:53 460:3 461:0 462:0 463:0 464:110 465:183 466:0 467:0 468:0 469:0 470:0 471:0 472:0 473:0 474:0 475:0 476:0 477:0 478:0 479:0 480:0 481:0 482:0 483:11 484:136 485:182 486:10 487:0 488:0 489:0 490:0 491:62 492:225 493:24 494:0 495:0 496:0 497:0 498:0 499:0 500:0 501:0 502:0 503:0 504:0 505:0 506:0 507:0 508:0 509:0 510:0 511:113 512:192 513:10 514:0 515:0 516:0 517:4 518:97 519:193 520:45 521:0 522:0 523:0 524:0 525:0 526:0 527:0 528:0 529:0 530:0 531:0 532:0 533:0 534:0 535:0 536:0 537:0 538:0 539:240 540:62 541:0 542:0 543:13 544:80 545:218 546:164 547:26 548:0 549:0 550:0 551:0 552:0 553:0 554:0 555:0 556:0 557:0 558:0 559:0 560:0 561:0 562:0 563:0 564:0 565:0 566:0 567:136 568:194 569:140 570:140 571:218 572:188 573:67 574:0 575:0 576:0 577:0 578:0 579:0 580:0 581:0 582:0 583:0 584:0 585:0 586:0 587:0 588:0 589:0 590:0 591:0 592:0 593:0 594:0 595:0 596:28 597:102 598:61 599:24 600:0 601:0 602:0 603:0 604:0 605:0 606:0 607:0 608:0 609:0 610:0 611:0 612:0 613:0 614:0 615:0 616:0 617:0 618:0 619:0 620:0 621:0 622:0 623:0 624:0 625:0 626:0 627:0 628:0 629:0 630:0 631:0 632:0 633:0 634:0 635:0 636:0 637:0 638:0 639:0 640:0 641:0 642:0 643:0 644:0 645:0 646:0 647:0 648:0 649:0 650:0 651:0 652:0 653:0 654:0 655:0 656:0 657:0 658:0 659:0 660:0 661:0 662:0 663:0 664:0 665:0 666:0 667:0 668:0 669:0 670:0 671:0 672:0 673:0 674:0 675:0 676:0 677:0 678:0 679:0 680:0 681:0 682:0 683:0 684:0 685:0 686:0 687:0 688:0 689:0 690:0 691:0 692:0 693:0 694:0 695:0 696:0 697:0 698:0 699:0 700:0 701:0 702:0 703:0 704:0 705:0 706:0 707:0 708:0 709:0 710:0 711:0 712:0 713:0 714:0 715:0 716:0 717:0 718:0 719:0 720:0 721:0 722:0 723:0 724:0 725:0 726:0 727:0 728:0 729:0 730:0 731:0 732:0 733:0 734:0 735:0 736:0 737:0 738:0 739:0 740:0 741:0 742:0 743:0 744:0 745:0 746:0 747:0 748:0 749:0 750:0 751:0 752:0 753:0 754:0 755:0 756:0 757:0 758:0 759:0 760:0 761:0 762:0 763:0 764:0 765:0 766:0 767:0 768:0 769:0 770:0 771:0 772:0 773:0 774:0 775:0 776:0 777:0 778:0 779:0 780:0 781:0 782:0 783:0 784:0 #
